Pappagallo 0.072375 -0.057136 -0.025622 0.029786 0.010509 0.078284 0.00050929 0.026051 0.035386 0.030553 0.029649 -0.014784 -0.012599 -0.069264 -0.0046815 -0.035324 -0.011455 0.0027276 -0.039312 0.05867 0.050854 0.041485 0.029089 0.02555 0.011314 0.0097458 0.038081 -0.024559 -0.040992 0.04698 -0.060344 0.080336 0.029448 0.049501 -0.068395 -0.012102 -0.026818 0.072492 -0.0069173 0.00030732 -0.020018 0.052196 -0.026459 -0.012992 0.043241 -0.0042757 0.050261 -0.025489 -0.033932 0.043328 -0.025516 -0.0081477 -0.013442 0.019262 0.080954 -0.026869 -0.02147 -0.03546 0.054141 0.071167 0.014762 -0.081311 -0.053477 0.035854 -0.078926 0.013282 0.0093329 -0.029629 0.036929 -0.027158 0.04123 0.11677 0.016337 -0.017687 -0.046083 -0.03362 0.018721 0.010525 -0.024374 0.0040928 -0.037456 0.025756 -0.058851 -0.069513 -0.01351 0.015766 0.017727 -0.026229 0.020414 0.0022564 -0.047611 -0.032145 -0.012684 0.024514 -0.0057103 0.044333 -0.018942 -0.031079 -0.051877 0.0096304 -0.0171 -0.0089366 0.039348 0.039548 -0.089688 -0.0093446 -0.044116 -0.019612 -0.058822 -0.024045 -0.0026557 -0.014839 -0.1242 -0.01513 -0.02954 0.050926 -0.057633 0.03421 -0.044204 0.055605 -0.040281 0.005665 -0.02776 0.020446 0.00078238 -0.026441 0.031262 0.035967 0.041605 -0.08253 0.075994 -0.0050404 -0.022545 -0.022616 -0.076707 0.03262 -0.0076181 0.0086098 -0.089831 0.036016 -0.032929 -0.054424 -0.010717 -0.040163 -0.0051868 -0.005387 -0.096814 -0.035208 0.0327 0.049086 -0.031157 0.06922 0.013035 0.021389 -0.016506 0.084572 -0.02744 0.045843 -0.0034123 -0.030078 0.032103 -0.037371 0.011484 -0.026939 -0.08469 0.018633 0.093424 -0.020672 0.031503 -0.012023 0.0053128 -0.04361 -0.017637 -0.059746 0.060206 0.024098 0.064548 -0.022586 0.038688 -0.082656 -0.065292 0.068832 -0.044831 -0.049911 0.031429 -0.0097449 0.003806 -0.018999 -0.040645 0.019229 0.01885 0.073935 -0.033271 0.015095 -0.026953 0.01693 -0.028777 0.1376 -0.0014169 -0.014358 -0.021831 -0.018384 0.047768 0.064716 0.0014699 -0.07233 0.05495 -0.0099487 0.033347 0.05417 -0.0048382 0.010297 -0.011857 -0.013429 0.0068692 -0.085816 -0.010049 -0.039845 -0.048119 -0.048576 0.054899 0.00074496 -0.031781 -0.0082964 -0.019472 0.010368 0.047572 -0.049149 -0.04016 0.020632 -0.067059 -0.0099409 0.025356 0.028947 -0.01233 0.010613 0.0041704 -0.1072 -0.01957 -0.014372 -0.0084297 0.014461 -0.0064337 -0.017631 0.036638 0.058446 0.040151 0.056243 -0.021017 0.044477 0.034351 0.025107 0.048074 -0.046359 0.025233 0.038714 -0.038533 -0.043707 -0.032984 0.042603 -0.030773 -0.043195 -0.014679 -0.077758 0.022359 -0.0079746 -0.028557 -0.020681 0.021072 0.038074 -0.044046 0.089106 0.0064123 -0.0080229 0.022114 0.011525 0.021514 -0.029573 -0.031835 -0.0045494 -0.02454 0.00559 -0.0096611 0.073068 -0.02107 -0.015919 -0.072158 0.060007 -0.010554 0.029152 -0.015244 0.060451 0.087257 0.03041 0.0066497 0.025585 -0.018737 0.051684 0.0072138 -0.053544 
Piccione 0.048172 0.022322 0.022616 0.029884 0.017087 -0.053606 0.045448 0.0016751 0.012085 0.01972 0.066426 0.00025679 0.039827 -0.023781 0.045454 -0.0056876 0.0022983 -0.043894 0.039249 0.057591 0.0065508 -0.048155 -0.047092 -0.020982 0.074502 0.012961 0.072435 -0.014889 0.017736 0.098571 0.00062895 0.0024881 -0.043236 0.021715 -0.070132 0.032147 0.034261 0.062021 0.040702 -0.052577 0.016329 -0.009059 -0.072251 0.014148 0.12845 -0.020471 -0.0072642 0.016644 0.024388 0.09949 0.033093 0.081178 0.028083 0.0014814 0.071287 0.0030495 -0.0037236 0.0044666 0.055677 0.056729 0.010261 -0.080946 0.06173 0.074457 -0.058787 0.023453 -0.027977 0.0050696 -0.023193 -0.02968 0.042864 0.055779 0.1057 -0.035109 0.00077223 0.0057368 -0.044559 0.03338 -0.016472 0.047798 -0.034471 0.020954 -0.023359 0.038014 -0.022152 -0.0015769 0.0219 -0.0089887 -0.043656 0.03134 0.069187 -0.05897 -0.12342 0.0062011 -0.0037986 -0.028518 0.019015 0.028798 -0.078567 0.07504 -0.023924 -0.074423 0.011511 0.0872 -0.052467 0.014265 -0.028878 -0.039253 -0.046536 0.0295 0.048874 0.017437 -0.049631 0.051341 -0.0026071 0.040909 0.059178 0.029506 0.072555 0.017603 -0.055746 0.074282 -0.013738 0.029556 0.055213 -0.034021 -0.0066496 0.011448 0.099718 -0.030808 0.071442 -0.038108 0.10879 -0.015676 -0.074668 0.023068 -0.082426 -0.0087668 -0.058373 0.03142 -0.066258 0.023855 0.032953 -0.033318 -0.054152 -0.02578 -0.14178 -0.080487 -0.0404 0.033618 -0.035758 0.083576 0.053286 0.0027702 0.035753 -0.047446 -0.024918 -0.030601 -0.00031222 -0.037285 -0.0052117 -0.023562 0.051813 -0.056027 -0.020273 0.014286 -0.036803 -0.019725 -0.0069267 -0.080465 0.093177 -0.019092 -3.8107e-05 -0.092582 0.036975 0.081877 -0.0093243 0.01024 -0.012427 -0.042862 0.011091 0.080064 -0.036773 -0.066435 0.086779 -0.028939 -0.0082032 -0.0033393 0.031476 0.011133 0.027624 -0.011567 -0.096189 0.0091033 -0.10239 -0.079563 -0.024236 -0.030088 0.049228 0.065913 -0.0014297 -0.053765 0.065343 0.02604 -0.0098405 -0.052595 0.078131 -0.0033311 0.029546 -0.018514 0.0022725 0.0054468 0.066625 -0.029002 -0.01629 -0.029561 -0.0063075 -0.066594 -0.063678 0.044698 -0.014309 -0.060086 -0.045005 -0.0047959 -0.11996 0.018649 0.074621 -0.03349 -0.010076 -0.013143 0.0065826 0.031262 -0.019812 0.022034 -0.066002 0.013548 0.053855 0.0045328 -0.077266 -0.04082 -0.0014059 -0.014404 0.017547 -0.0043121 0.073174 0.069746 -0.011065 -0.023204 -0.0077487 -0.0068098 0.042922 -0.032823 0.014539 -0.017817 -0.016731 0.023208 0.041816 -0.011289 -0.11792 -0.015677 -0.075689 -0.03881 0.014449 -0.0027007 -0.024099 0.023351 -0.0026497 -0.034315 0.017076 0.018748 0.048512 0.068157 0.017847 -0.0052881 -0.035285 0.042141 0.037764 0.00039712 -0.044981 0.016061 -0.080624 0.00063447 -0.016849 0.016681 -0.00057583 0.0011802 0.007758 0.10126 0.0049189 -0.057306 -0.023236 -0.061391 0.015423 -0.01504 -0.045664 -0.029396 -0.052297 0.055127 0.061452 0.055267 
Corvo -0.041854 -0.0088334 -0.066454 0.056254 0.035216 0.073431 -0.041678 0.051213 0.17825 0.075992 -0.21426 0.096638 0.072675 -0.0009574 -0.063906 -0.010258 0.34882 -0.18279 -0.11179 -0.0062436 0.1268 -0.0026052 -0.10209 -0.18655 0.076416 0.0052787 0.20433 -0.05241 -0.014421 0.21422 0.018139 0.032095 0.13988 0.027692 0.10166 -0.02558 -0.040359 0.081343 0.07043 0.19627 0.23019 -0.032592 -0.094532 0.10409 0.11804 0.029451 0.18512 -0.086203 0.04484 0.13341 -0.099193 -0.074144 0.15939 0.032501 0.15597 0.10447 0.22063 0.040216 0.1046 0.027877 0.10092 0.22361 -0.073418 0.13879 -0.050977 -0.10456 -0.14448 0.039877 -0.16507 0.039849 0.064719 -0.098426 -0.13751 -0.10129 -0.071502 0.088857 -0.015774 0.12278 -0.026174 0.038713 0.11721 0.023121 -0.033461 -0.14107 -0.05532 -0.010812 0.17279 -0.01025 -0.17642 -0.079112 -0.059004 0.054611 -0.055829 0.084859 0.087597 0.0077806 -0.0089863 -0.024227 0.018474 0.19201 -0.019048 0.07503 -0.12921 0.041105 0.019782 0.080271 -0.11245 0.14359 0.19694 0.066964 0.079706 0.039374 -0.27072 0.088439 -0.17071 0.019744 0.066387 0.23324 -0.053892 -0.065145 0.0083692 -0.095778 0.0043919 -0.038324 -0.0020463 0.096384 0.13431 -0.078369 -0.028168 -0.039683 0.15247 -0.042193 0.048653 -0.025138 -0.0036402 -0.014365 -0.078139 0.056049 -0.063606 0.039503 -0.018492 0.16146 0.15699 0.028825 -0.016993 0.022088 -0.13634 -0.058531 -0.1639 0.16091 -0.062294 -0.026384 0.028798 0.077674 0.013729 0.0043282 -0.018534 -0.040027 0.0023534 0.19124 0.091185 0.040503 0.088268 0.047621 -0.012052 -0.056528 -0.00066709 0.033423 0.095115 0.0097618 0.068615 0.013843 0.25134 0.22226 0.0022884 0.12821 -0.091847 -0.17597 -0.14677 -0.18413 -0.096722 0.074718 -0.043923 -0.12606 0.029634 -0.15287 0.035859 0.048815 -0.14365 0.25269 -0.0010562 0.048098 0.030064 -0.10151 0.062386 -0.058882 0.058499 -0.015822 0.0093418 0.058479 -0.015035 0.018957 0.1847 0.096475 0.10187 -0.052143 0.0063764 -0.0022822 0.0011012 0.079591 -0.035114 -0.1627 0.055122 -0.10147 -0.012225 -0.042948 0.12595 -0.013796 -0.094749 0.052499 0.13423 0.03125 0.046623 0.00078404 0.037603 -0.02057 0.088662 -0.027714 -0.03323 0.049662 -0.23987 0.21211 0.020958 0.054795 -0.14286 0.038259 -0.023417 0.027768 0.06039 0.020294 -0.0074597 0.055427 0.052209 -0.062697 0.12722 0.08076 -0.061496 -0.010555 -0.14807 0.038356 0.023005 -0.0041073 0.037283 0.0087157 0.12517 0.0097345 -0.086591 0.040821 0.001349 0.070777 0.036449 -0.041888 -0.091891 -0.15692 -0.041338 -0.017246 0.069888 0.10203 -0.025296 0.073231 -0.06251 0.073126 -0.10047 -0.032246 -0.0061724 0.11074 0.027687 -0.052219 0.018224 0.043874 -0.098882 0.018778 -0.095617 0.086303 0.10173 -0.074458 0.095622 0.19389 -0.037877 0.17561 0.01643 0.088302 0.12228 -0.044767 -0.16701 0.26352 -0.045072 0.15845 -0.091869 -0.12729 
Passero 0.011149 0.099039 0.092092 0.03963 -0.18945 0.13568 -0.078158 0.24577 0.014331 0.065639 -0.065261 0.12533 -0.04799 -0.041424 0.020379 0.092688 -0.025303 0.13454 -0.037727 0.01164 0.1398 0.03054 0.0018026 -0.068282 0.052569 -0.013107 0.11955 -0.10774 0.0027048 0.22152 -0.014024 0.086876 0.033529 -0.056637 -0.1166 -0.01547 0.060854 -0.020351 0.14029 -0.18386 0.18943 -0.030987 0.024628 0.0074658 0.158 -0.070605 0.017724 0.069213 0.042694 -0.011212 0.0035977 0.13452 -0.098596 -0.0012351 -0.002043 0.032727 0.1477 0.047579 0.063482 -0.053044 -0.052804 -0.07653 0.030873 0.13488 -0.041391 0.0039713 0.089769 0.017303 0.15022 -0.07191 0.043014 0.16403 0.010222 0.087698 -0.01485 0.06369 0.045777 0.17313 -0.013 0.07124 -0.052065 -0.11247 -0.054666 -0.11036 -0.091054 -0.0063863 0.11858 0.024836 -0.040418 -0.043568 -0.014836 0.10921 -0.078443 -0.038576 -0.041091 0.0064656 0.01046 0.055478 -0.069392 -0.0078645 -0.0088252 -0.11836 0.095604 0.052541 -0.0040361 -0.062061 -0.075936 0.13139 0.11241 -0.034927 -0.060558 0.094526 -0.13492 0.00078201 -0.097084 0.018751 0.066701 0.18212 0.12055 0.019005 -0.013955 0.049167 0.13473 -0.094315 0.0043816 -0.095756 0.055785 0.0046608 0.18457 0.014564 0.069523 0.037548 0.092743 -0.052255 -0.17067 0.12636 -0.1049 -0.019776 -0.061892 0.10366 -0.040297 0.10986 -0.11288 0.011509 -0.0029427 0.10174 -0.22631 -0.09026 -0.12691 0.016165 -0.099856 0.025556 -0.06001 0.031643 0.074138 0.090218 -0.099401 -0.024583 0.089338 0.096298 -0.076791 0.04453 -0.013135 -0.056883 0.026471 -0.02127 0.0081094 -0.0171 -0.16463 -0.1042 0.056724 0.13472 -0.12085 0.14635 0.018342 0.13281 0.056496 -0.16839 -0.16313 -0.021883 -0.0064032 -0.027579 -0.010106 -0.066465 0.00038172 0.012839 -0.010975 -0.067361 -0.066 -0.073597 -0.12221 -0.044242 -0.068416 -0.04012 0.091416 0.13591 -0.012364 -0.011117 0.01676 0.074808 0.093782 0.048402 0.25053 -0.061682 0.16757 -0.15224 0.11293 0.079443 0.015293 -0.030124 -0.0025215 0.039628 0.02799 0.045307 -0.12125 0.00052205 0.023485 -0.072955 -0.034182 -0.0044472 0.030469 -0.041876 -0.045324 -0.10023 0.009511 0.16441 0.010639 0.26548 0.088781 -0.04949 0.050711 -0.099589 -0.029654 -0.039148 -0.0011266 0.03719 -0.055273 0.082838 -0.049757 -0.12153 0.098352 -0.041751 0.018101 -0.059759 0.086097 0.011889 0.011578 0.096096 -0.060772 0.030098 0.11036 -0.049679 -0.089818 -0.11452 0.030538 0.035462 0.030249 -0.093459 0.04362 0.12751 -0.046961 -0.076222 0.062759 -0.020083 0.079882 0.004836 -0.062803 0.021589 -0.13431 -0.028437 -0.017786 0.15525 0.060398 -0.014088 0.087583 -0.013738 -0.036904 -0.0098829 -0.063383 0.0061088 -0.084029 -0.066823 0.0098325 0.016548 -0.036694 0.036658 -0.043144 0.071653 -0.098016 0.13234 0.0015304 -0.098191 -0.0022796 0.052311 0.078518 -0.11344 0.041356 0.062274 0.15724 -0.036959 
Pavone 0.0049333 -0.01536 0.061742 -0.059725 -0.0065959 0.08725 -0.0014336 -0.029739 0.0099076 -0.067076 -0.08929 0.068381 0.069307 -0.00092571 -0.083456 -0.027671 0.025515 -0.053471 -0.065711 -0.0035923 -0.028745 -0.023901 -0.043449 -0.081082 0.035312 -0.086836 0.02218 0.023992 0.074449 0.19144 -0.048464 0.1288 -0.012194 0.01035 -0.12024 -0.048138 0.031397 0.049692 0.010174 0.052524 0.030332 0.14155 -0.095801 0.031595 0.13846 -0.023698 0.012395 -0.012426 -0.0012126 0.073237 0.045869 0.21229 0.080977 -0.043782 0.044994 -0.10545 0.025363 0.014667 0.12772 -0.011954 -0.095754 -0.10121 0.02892 0.097665 -0.04479 0.091197 -0.075041 0.037189 0.083836 -0.013887 0.07624 0.05654 0.13768 -0.055199 -0.022232 -0.022573 0.098591 0.093474 -0.095882 0.015947 -0.026994 -0.020246 0.014593 0.044052 0.02458 0.0063325 0.041897 0.0006242 -0.010674 0.0049325 -0.019863 -0.14975 -0.07925 -0.1412 0.031884 0.052705 0.043433 0.026658 -0.13762 -0.0032086 -0.074276 -0.15009 0.13879 0.086291 0.055362 0.17285 0.03128 -0.032115 0.10921 0.0089387 -0.0047277 -0.058191 -0.17775 0.064634 -0.0031892 0.042137 -0.052004 0.15882 0.037618 -0.063118 -0.14024 0.049175 -0.05458 0.057782 0.041028 0.0026711 -0.0027611 -0.027022 -0.095917 -0.088301 0.1578 0.014339 0.032239 -0.012182 -0.01613 0.0011386 -0.10286 0.0076465 -0.022102 0.14125 -0.012876 -0.087267 0.024859 -0.055534 -0.10259 0.12542 -0.23968 -0.073794 -0.099089 -0.02424 -0.089815 0.00033139 0.043711 0.032982 0.025428 0.1051 -0.052255 0.094113 0.022663 -0.024627 0.032645 0.047735 0.046084 0.065991 -0.14697 0.078363 -0.12499 -0.085059 -0.018346 -0.075095 0.038539 -0.15388 0.081771 -0.017205 -0.010424 0.065943 -0.0016814 -0.080461 -0.067355 -0.12578 0.040703 0.10333 -0.0018027 -0.11472 -0.04731 -0.15489 0.023993 0.020019 0.031959 0.089098 0.083378 -0.083913 -0.013643 0.035105 -0.24196 -0.0093849 -0.060433 0.092866 0.0031022 0.056046 -0.036921 -0.072107 0.16064 0.15288 -0.0026642 0.045671 0.089166 0.15762 -0.062986 0.045596 -0.023499 0.04452 0.091646 0.077768 0.037022 0.064177 0.063144 -0.014881 -0.043261 0.00036216 -0.013022 -0.13212 -0.060558 -0.037346 0.017767 0.018146 0.010226 0.06113 -0.034132 0.040804 0.10462 0.0033322 -0.027309 0.033366 -0.026859 0.048021 0.13017 0.058656 0.0017603 -0.071585 0.010016 -0.03685 0.022208 0.0059668 0.091852 0.13645 -0.0032156 7.4095e-05 -0.028796 0.030469 0.0953 0.034525 -0.058157 0.040998 -0.15154 0.084552 -0.01225 0.1014 -0.032816 -0.057513 -0.033267 -0.025194 -0.064402 -0.16053 -0.0032308 0.032478 0.051262 0.054557 -0.044096 -0.053208 0.044856 0.10786 -0.0039649 -0.070946 0.06131 0.10038 0.04341 0.01699 -0.044363 0.0052642 -0.059821 0.099474 -0.067765 -0.0051545 0.049271 0.064932 -0.1216 0.11234 -0.0023808 -0.0032024 0.0076345 0.026464 0.044361 -0.06505 -0.0052602 0.098199 7.2112e-05 0.058245 0.06447 0.2172 
cigno 0.0024209 0.014891 0.067564 -0.081105 -0.057482 -0.0011831 0.0036229 0.0075901 -0.012428 0.003066 0.008688 -0.039074 0.048839 -0.037493 -0.066727 -0.090632 -0.006086 0.020297 0.012169 0.059159 0.092913 -0.040899 -0.083176 0.039102 0.14264 0.013658 -0.049765 0.0065252 0.036059 0.0088445 -0.0162 0.069767 0.089731 0.024107 -0.042481 0.020445 -0.041653 0.14449 -0.078174 0.078074 -0.018577 -0.039092 -0.0054801 -0.032418 0.10011 -0.0074194 0.024589 0.034069 0.033525 0.048129 0.092081 0.011016 0.11339 -0.026856 0.008675 0.066375 0.10011 0.016931 -0.02001 0.042551 0.0061027 -0.0061465 -0.0034277 0.065145 -0.033044 0.063973 0.021787 -0.035587 -0.042253 0.0043952 0.027194 0.031428 0.074451 -0.096001 -0.00026881 -0.063701 0.066678 0.057342 -0.0175 -0.010598 -0.010318 0.0065196 0.006539 0.010635 0.042 -0.022028 -0.040828 -0.0086282 0.02588 0.028643 -0.032909 0.034773 -0.11944 0.062088 0.058243 0.02935 0.11112 0.052751 0.044621 -0.023224 0.044525 -0.029391 -0.017099 0.10476 -0.024723 0.0053879 0.011704 -0.027219 -0.022519 0.04955 -0.09432 0.0099181 -0.072571 -0.029645 -0.030755 0.0086306 -0.07396 -0.018273 0.01002 0.069786 -0.068256 0.07522 0.072596 0.018616 0.048513 0.066556 -0.047723 0.032381 -0.12832 -0.007204 0.03698 0.037679 0.010584 -0.001451 -0.050305 -0.04041 -0.029056 0.040907 -0.0080291 0.11187 0.032178 -0.062476 0.0144 0.039397 -0.049328 0.0086609 -0.13174 0.042716 0.084281 0.015102 -0.079448 -0.022979 0.095415 -0.0198 -0.069719 -0.027797 0.19355 -0.1046 0.022574 0.01613 -0.054966 -0.042735 0.059966 0.084283 0.039067 0.051274 0.085265 -0.09217 0.076455 -0.040314 0.030019 -0.067593 0.017811 0.023869 0.011234 0.051628 -0.0018793 0.0019638 -0.0059732 -0.12909 0.052868 0.036788 0.0069758 -0.10865 -0.07749 -0.098054 0.01564 0.012511 -0.021993 0.011044 -2.9097e-05 -0.016101 -0.044489 0.036437 -0.0553 -0.070068 -0.010548 0.019939 -0.011474 0.080527 -0.062135 0.017719 0.020814 0.016523 -0.035305 -0.049377 0.11544 0.042294 0.060745 0.027245 -0.023368 -0.1361 -0.046966 0.091802 -0.0067316 -0.0068179 0.030541 0.098407 0.037652 -0.055063 -0.078191 -0.054958 0.035119 0.11017 0.0062375 -0.011117 0.027703 0.041227 0.079698 0.047856 0.0035535 0.039139 -0.092605 0.035567 0.13683 0.12574 0.054308 -0.0029135 -0.074351 -0.093986 -0.035987 -0.074099 -0.036866 -0.064682 -0.00083738 -0.013741 -0.11424 0.082832 0.098542 0.044438 0.14009 -0.09928 -0.004943 0.061204 -0.064083 -0.043 -0.018756 -0.044422 0.046264 -0.057374 -0.02144 -0.11952 -0.15784 0.027383 -0.078536 0.072712 0.0020461 -0.036612 0.0038954 0.098553 -0.12377 -0.012963 -0.014043 -0.055842 0.0013635 -0.067319 -0.01556 0.020826 0.0057965 0.048916 -0.015278 0.060334 -0.16299 0.026207 -0.027463 0.10083 -0.0014672 -0.09783 0.029121 -0.030723 0.026256 -0.0070008 -0.11282 0.057523 0.093196 -0.0011308 0.029701 0.097159 0.049956 0.011335 
Gufo 0.057313 -0.38119 -0.25826 -0.035703 0.13744 0.20081 -0.1807 0.038875 0.024116 0.22494 0.10043 -0.0010276 0.26856 -0.3468 0.19131 -0.10658 -0.090455 0.20901 -0.28527 0.014538 0.038329 0.035854 0.096311 0.03042 0.27223 0.087137 -0.027629 0.058908 -0.17834 0.50297 -0.22471 -0.13574 0.0083479 0.15225 0.0081715 0.077658 -0.15854 0.031595 0.1022 -0.033116 0.29685 0.20371 -0.13099 -0.11144 -0.077018 0.022336 0.056764 0.06299 0.038067 -0.065942 -0.056965 0.094011 0.16889 0.19956 0.13394 -0.083951 0.10541 0.19108 0.27149 0.16361 0.080934 -0.020804 -0.2206 0.22293 0.015441 0.075282 0.18394 -0.0054972 0.069025 0.0049306 -0.045802 0.35011 0.17581 0.12274 0.13753 -0.23004 0.029144 -0.28567 -0.085336 -0.088427 0.042323 0.27688 0.030824 -0.22439 0.21131 -0.041824 0.047667 -0.093372 -0.10446 -0.18326 -0.25828 -0.16207 -0.14955 -0.12166 0.17639 -0.062708 0.20121 0.025552 0.21098 0.011063 -0.21903 -0.27256 0.039983 0.16793 0.034594 0.28564 -0.18345 0.12057 0.072362 0.078165 0.17013 -0.21846 -0.33482 -0.081276 -0.1407 0.17801 -0.18285 -0.0019363 -0.097602 -0.092665 -0.11657 0.022988 -0.080396 -0.0022434 -0.33289 0.078629 -0.015061 -0.18254 -0.20872 0.099554 0.14996 0.015615 0.16877 -0.13378 -0.040885 0.12402 0.010593 0.072689 0.02352 0.133 0.17432 0.30773 0.20559 -0.023174 -0.040572 0.077 -0.1674 0.13805 -0.20728 -0.065973 0.057273 -0.10237 -0.10023 -0.055974 -0.15054 -0.15852 -0.13776 -0.21012 -0.18496 -0.11046 0.086718 -0.065616 0.054476 -0.14182 -0.22857 0.10128 -0.13761 0.079884 0.053121 -0.32663 -0.29554 -0.048296 -0.14358 -0.22259 0.3638 -0.16965 0.40998 -0.44622 0.23184 -0.056277 -0.054467 0.16553 -0.070992 -0.28517 -0.011641 -0.46079 0.25077 -0.13464 -0.061202 0.18422 -0.12806 -0.23954 -0.25096 -0.068896 -0.12603 -0.16514 0.15765 -0.066663 0.44573 -0.049346 0.13841 -0.32618 0.19053 0.090535 -0.0081782 0.20535 -0.031239 -0.010664 -0.31142 -0.13734 -0.11855 0.168 0.10663 -0.16631 -0.044929 -0.091192 0.029352 0.0069717 0.041519 -0.050293 0.17468 -0.068261 -0.034267 0.20801 -0.14062 0.019536 0.074548 0.17156 0.12535 0.10411 0.24067 0.086083 0.14025 0.058664 -0.00028291 -0.0034242 -0.042665 0.13387 -0.27995 -0.11293 -0.04923 0.20116 0.25258 0.1288 0.41903 0.30085 0.11587 0.074547 -0.11394 0.29181 -0.17894 0.24478 0.044155 -0.1796 0.26343 -0.18779 -0.051115 -0.3551 -0.014968 0.23902 -0.10195 -0.016382 -0.17228 -0.016408 0.1409 -0.15263 0.027643 0.19604 -0.039401 -0.035473 0.15407 -0.1778 0.024659 -0.15051 0.10762 -0.075287 0.053767 -0.024828 0.13433 -0.10459 -0.24443 0.16602 0.046191 0.12098 0.16415 -0.033752 -0.1232 -0.093832 0.048365 0.18164 0.23883 -0.23948 -0.0604 -0.082848 0.18174 -0.16754 -0.18919 0.17204 0.041631 -0.1797 
Usignolo -0.0099857 0.014199 -0.0097364 -0.016082 0.028518 -0.038608 0.015835 -0.007023 -0.073655 -0.019912 0.0066665 0.022596 0.0016469 -0.033071 0.0090376 -0.059461 -0.038351 0.042125 0.029981 -0.0245 0.062089 -0.040105 0.012303 -0.057329 0.07948 0.031029 0.026169 0.0097518 -0.021327 0.0030762 -0.014456 0.01982 -0.0090176 0.0066528 -0.013471 0.015193 -0.022437 0.046223 -0.10399 0.093157 0.032856 -0.030242 0.024652 -0.034203 0.080545 0.054455 0.011477 0.018302 -0.010327 0.015785 0.049163 0.012947 0.057391 0.00062228 -0.032537 0.026676 0.071008 -0.014222 -0.0033115 0.035502 -0.011617 -0.0067072 0.016818 0.05566 -0.062745 0.013573 0.019059 0.01408 -0.031134 0.020687 0.0051084 0.021817 0.0063361 -0.014115 -0.025447 -0.048532 -0.018189 0.032643 -0.064438 0.044721 -0.042723 0.016434 0.013008 0.017299 -0.017571 -0.040272 -0.016998 -0.0011893 0.015299 0.012336 0.026241 0.038583 -0.12562 -0.010756 0.028184 -0.0028397 0.0065156 -0.0020327 -0.03623 -0.024869 0.041096 0.00975 -0.010785 0.006835 0.022738 -0.073256 -0.010813 0.03519 -0.0096929 0.0025653 -0.039168 -0.0050615 -0.06805 -0.079659 0.013272 0.012 -0.021895 0.035499 0.02088 0.00815 -0.0011226 0.033658 0.019262 -0.0059524 -0.003506 0.054282 -0.0081843 0.041048 -0.0020338 -0.0095217 0.032537 -0.0072435 -0.05342 -0.0070218 -0.025698 0.027877 0.032205 -0.050419 0.019473 -0.021261 0.031507 -0.0056402 0.038342 0.01751 -0.058615 -0.005 -0.045633 -0.029315 0.05741 -0.026151 -0.034576 -0.028391 0.035945 -0.002596 -0.012169 -0.0023528 0.074933 -0.046843 -0.028036 -0.0222 0.0021096 -0.032501 -0.052458 0.029813 0.040223 0.0238 -0.040304 -0.019092 0.078058 0.087679 0.024352 -0.010079 -0.010014 0.019094 0.050889 -0.013363 -0.0088175 -0.0022079 -0.098872 -0.033194 -0.026651 0.044295 -0.038285 -0.033271 -0.033671 -0.0078233 -0.00055963 -0.043568 -0.022904 0.0095366 0.02178 -0.0057348 -0.017163 0.03106 -0.0018743 -0.02208 -0.0030474 0.050584 0.034458 0.023207 -0.073735 0.014325 -0.070027 -0.013148 -0.003045 -0.052189 0.099917 -0.0065011 -0.036105 0.013963 -0.046893 0.031217 0.047681 -0.003711 -0.031014 -0.0078317 -0.0074932 -0.012136 -0.024497 -0.0067412 0.044784 0.026119 -0.002679 0.027606 -0.10027 -0.017103 -0.0089395 -0.00017437 0.024195 0.036439 0.021967 0.067358 -0.028011 0.02581 0.031463 0.036121 0.0010729 -0.036483 0.0012647 -0.0038935 0.055039 -0.010861 -0.035083 -0.016161 -0.016031 0.094707 -0.010747 0.018434 -0.012486 -0.013954 0.086608 -0.0074361 -0.005031 0.0066466 -0.055247 -0.065471 0.065041 -0.0073607 -0.04563 0.018324 0.006824 -0.11999 -0.087232 0.0078245 -0.063619 0.027869 -0.060799 0.024646 0.078041 0.092537 0.024024 -0.0003553 -0.14349 0.0095692 -0.029387 -0.020183 -0.024628 0.012005 -0.0017442 0.040371 -0.018448 0.0084526 -0.096987 0.057773 0.051235 -0.021106 -0.017798 0.0071881 0.0022481 -0.024908 -0.015119 0.020936 -0.012963 -0.018015 0.014705 -0.082353 0.017325 -0.004037 0.047421 -0.010282 
Anatra 0.065083 -0.041059 0.044923 0.014554 0.14801 0.087936 -0.053611 -0.094975 0.043183 0.12948 0.0028748 0.0097088 0.063277 0.023165 -0.046345 0.071793 -0.050158 -0.0048514 0.04014 0.051438 0.088829 -0.07546 -0.031429 -0.060398 0.061305 0.032112 0.073044 -0.051102 0.055827 0.18198 -0.085567 -0.031518 0.0095665 0.057633 -0.016245 0.10901 -0.017443 0.02771 -0.023872 -1.7188e-05 0.091753 0.095008 -0.044895 0.052822 0.097638 -0.0045662 0.022822 -0.057014 0.091272 0.080034 0.025453 0.05872 0.011892 0.051355 0.01925 -0.03504 -0.013947 0.014291 0.15605 0.021742 -0.085576 0.057269 0.042858 0.06864 -0.084048 -0.050151 -0.014525 -0.020027 -0.043548 -0.011871 0.012649 0.080245 0.021183 0.064733 -0.053926 -0.033575 -0.003506 0.14514 -0.047633 0.09383 0.047491 -0.056762 0.083079 0.0099728 -0.017034 -0.062764 -0.01896 0.057201 -0.060043 -0.060248 -0.062305 -0.030409 -0.026059 0.015872 0.062999 0.055034 0.0061243 0.011094 -0.093547 0.062488 0.0065569 -0.028412 -0.095581 0.10546 0.0086667 0.053773 -0.052261 0.16529 -0.089274 -0.073252 -0.037234 -0.099419 -0.18951 -0.015966 0.11639 0.072781 0.12696 0.051825 -0.067697 -0.077102 -0.02354 0.10353 0.0095101 0.08836 -0.079654 -0.0038594 0.06246 -0.041336 0.055146 -0.099301 0.015424 -0.12716 0.052865 -0.047807 -0.073287 0.022997 -0.06807 0.011686 -0.18833 -0.050353 0.075027 0.069464 -0.0085097 0.062898 -0.037711 0.0017206 -0.060714 0.027323 -0.084243 0.042932 -0.048395 0.0097818 0.06303 0.093919 0.00014249 0.020596 -0.09856 0.040869 0.018771 -0.00050994 0.018085 0.007574 0.080102 -0.087912 0.033999 -0.034195 0.011546 -0.0008674 0.00028335 -0.1027 -0.072073 0.041107 -0.19592 -0.038086 0.11186 0.034069 -0.024506 -0.11327 0.075148 -0.13392 0.016293 0.12089 0.013786 -0.095114 0.19338 -0.098478 0.088891 0.023226 0.026779 -0.033467 -0.091926 -0.004527 -0.055135 -0.026249 -0.052916 -0.062595 -0.014632 0.04505 0.055456 0.055359 -0.089545 0.041332 0.064924 0.03584 0.031723 0.036145 0.04075 -0.037663 0.037777 0.031281 -0.064108 0.013997 0.02654 0.0069169 -0.089151 -0.083533 -0.082796 -0.0074725 -0.030029 -0.063025 -0.0011549 -0.015886 -0.11995 -0.11228 -0.14278 -0.036124 0.022078 0.23592 -0.039784 0.094681 -0.045227 -0.025363 -0.025999 0.0050769 -0.0061667 0.056225 -0.031915 -0.12001 -0.10088 -0.1057 -0.056475 -0.044173 0.054511 -0.042458 0.14451 0.081909 -0.12074 -0.010783 -0.093501 -0.052767 -0.037652 -0.030766 -0.062869 0.11344 0.077205 0.034729 0.070834 -0.10376 -0.02374 -0.014024 0.051237 -0.073935 -0.048738 -0.087005 -0.0031148 0.022231 -0.078087 0.029114 -0.072748 0.021901 -0.052489 -0.13091 -0.038189 -0.034283 -0.0084293 0.10372 -0.052344 -0.03999 -0.032718 -0.067724 0.077996 0.04737 0.017332 0.059901 0.019011 0.082023 -0.032686 0.121 -0.011286 0.10189 0.014481 -0.078912 0.071273 -0.04504 -0.012199 -0.056885 -0.012284 0.090964 -0.064691 -0.063695 
Gallina -0.012471 -0.03776 -0.049522 0.0033985 0.025583 0.063206 -0.004655 -0.057738 0.07791 -0.021701 -0.0071807 -0.022281 0.080041 0.042618 -0.0029316 -0.011078 -0.066427 -0.044991 0.0057782 0.028621 0.070354 -0.051417 0.0060968 -0.12679 0.053474 -0.059402 0.082063 -0.0059213 -0.024927 0.094078 -0.066654 0.059119 0.045702 0.0047621 -0.025772 0.029933 0.017461 0.034006 0.013536 -0.019264 0.10601 0.032453 -0.084138 0.030418 0.1034 0.016202 0.055008 -0.041751 -0.037934 -0.0339 -0.017625 -0.084342 0.041164 -0.076614 0.086999 -0.040651 0.039693 0.047762 0.14319 -0.0076321 -0.023143 -0.055188 -0.020571 0.10054 -0.054606 0.089446 0.0028907 -0.059827 0.0088956 0.055745 0.087777 0.064794 0.024107 -0.067652 0.020614 0.093903 0.10901 0.023848 -0.052564 0.037563 0.013435 -0.044497 0.010987 0.034247 -0.025581 -0.016122 0.05952 -0.012907 -0.0055389 -0.056477 -0.036643 -0.0062403 -0.059499 0.098752 -0.024809 -0.018613 -0.011582 0.00032969 -0.043167 0.040026 0.019659 -0.074197 0.01845 0.074469 -0.033848 0.046231 -0.023831 -0.026318 0.029755 -0.064799 -0.021257 -0.025929 -0.03343 0.049129 0.0011832 -0.0098353 -0.00011238 0.027616 0.11201 -0.020857 -0.068571 0.10361 -0.016699 0.0054137 0.032172 -0.081559 0.008878 -0.040003 0.091646 -0.016576 0.028097 -0.044157 -0.026676 -0.030035 -0.01184 0.072255 -0.082813 0.056835 0.01819 0.079942 -0.018817 -0.074123 0.10365 0.044077 -0.022957 -0.042462 -0.16158 -0.038137 -0.11122 0.13308 -0.065203 0.036374 0.012814 -0.034495 0.085049 -0.035206 -0.077534 -0.066989 -0.0037849 -0.024666 -0.056537 -0.086756 0.084085 0.041718 0.004453 0.0094078 0.074052 0.0022619 0.064766 -0.038171 0.06578 0.003683 -0.10755 -0.081414 0.084325 0.091883 -0.046949 -0.008883 0.05667 -0.078596 -0.023989 0.092451 -0.016053 -0.12 0.071189 -0.08268 0.070393 0.018647 -0.0096045 -0.052205 -0.039259 0.041039 -0.047609 0.031109 -0.1275 -0.034586 0.025589 0.11804 -0.01113 0.081199 -0.0020692 -0.027601 0.074289 0.031467 0.0354 0.01327 0.06812 -0.020909 -0.025678 -0.007773 -0.048756 0.018103 0.014799 0.094209 0.051851 -0.021074 0.028747 0.028467 0.056192 -0.043023 0.10469 -0.026569 -0.035882 -0.0081719 -0.058331 -0.0041365 0.078871 -0.013637 0.0229 -0.0001249 -0.062094 -0.044163 0.019657 0.049157 -0.036389 0.017082 0.0037497 -0.026602 -0.090768 -0.040641 0.024431 -0.0040994 -0.090735 -0.00058644 0.070382 0.063623 0.0085451 0.058743 -0.059587 0.040704 0.0014925 0.036477 -0.039899 -0.054239 0.037143 0.038406 0.016717 0.011808 0.058864 -0.018835 -0.00248 -0.012012 -0.06331 -0.078942 -0.026315 0.089758 -0.042175 -0.041444 -0.066555 0.014931 0.051938 0.027267 -0.065608 0.016948 -0.096334 -0.012005 -0.027924 -0.00019456 0.03027 0.03036 0.04708 0.067788 -0.011987 0.0033753 -0.014754 0.14121 -0.068931 0.14193 0.00010776 -0.0080485 -0.007009 -0.022976 0.053212 0.0060879 0.050673 -0.053177 -0.0041513 0.0466 0.049239 0.045452 
Aquila 0.02394 -0.041071 -0.0727 -0.054305 0.042422 -0.0034246 -0.039317 -0.011576 -0.046831 -0.013317 -0.028842 0.17264 0.17071 -0.059783 -0.082062 -0.022805 0.11467 -0.061972 -0.029379 0.010731 0.058776 0.087276 -0.074769 -0.028761 0.0668 0.020415 0.087523 -0.038556 -0.03063 0.09551 0.026655 -0.048002 0.086631 0.064678 -0.11971 0.08205 -0.022637 0.016751 0.079436 0.029144 0.12682 0.024142 -0.05263 0.037418 0.031204 -0.00062403 -0.017789 -0.052606 -0.004847 -0.032192 -0.087048 0.083046 0.007314 0.027974 0.056149 0.00012127 -0.015922 -0.030531 0.097692 0.0113 0.043229 0.043275 0.063853 0.098676 -0.010023 0.12822 -0.024492 -0.068366 0.10047 -0.074553 0.062905 0.14079 0.023398 -0.053394 -0.12243 -0.048683 0.099577 0.050835 0.002771 0.0073693 0.007649 0.051656 0.081615 0.02367 -0.010562 -7.4196e-05 -0.066212 -0.055535 -0.0072156 -0.042963 0.013668 0.008684 -0.088367 -0.0069048 0.067245 0.026962 -0.02296 -0.045684 0.11943 0.07624 0.082898 0.011594 -0.077355 0.04077 -0.059489 -0.034102 0.025465 0.027084 0.046436 0.029907 -0.088696 0.048219 -0.054415 -0.017193 0.0027439 0.028223 0.009061 0.0056555 -0.05772 -0.1084 -0.051051 0.10087 0.083197 -0.030774 -0.015937 -0.10954 0.042044 0.069803 0.071556 -0.048424 0.061142 -0.15876 -0.0019736 -0.015675 -0.057474 -0.052152 -0.019448 0.0069997 -0.036527 0.079949 -0.052906 0.13995 -0.010073 -0.072855 0.032302 0.026211 -0.093391 -0.049672 0.040886 0.093883 0.01087 0.025505 -0.04524 0.082879 -0.082502 -0.06062 -0.083886 0.10908 -0.014098 -0.021 -0.06902 -0.042891 0.025941 0.053162 -0.014017 -0.090054 0.059862 0.094561 -0.019557 -0.10493 0.067888 -0.099423 0.083411 0.035996 -0.0094158 0.060915 -0.018082 -0.045519 -0.029004 -0.055478 -0.0089257 0.052811 -0.021898 -0.10054 0.03507 -0.037593 0.0029068 -0.07582 0.0038188 0.0082308 -0.0016374 -0.10432 -0.092987 0.03554 -0.022849 -0.067717 -0.092725 0.13301 0.1006 0.045749 0.010786 -0.001941 -0.017221 -0.0092643 0.028431 -0.034779 0.059412 0.0012461 0.18002 0.038506 -0.050376 0.083239 -0.0023989 0.069814 -0.010114 -0.10489 0.049908 0.10761 -0.063552 0.027066 0.15088 -0.049518 -0.096761 -0.055036 0.010656 0.055273 0.045666 0.07809 -0.035701 0.0059534 -0.016361 -0.015238 -0.030727 -0.14247 -0.025135 0.029879 -0.091128 0.089794 -0.067565 0.045056 0.091616 -0.0057767 -0.09213 -0.0083843 0.12263 0.11275 -0.0097721 -0.006377 0.077775 0.037422 0.056668 -0.028734 0.0060727 0.0485 0.1866 0.020276 0.038164 -0.15233 0.021415 -0.0054319 -0.11868 -0.041951 -0.067471 0.026919 0.0071761 0.073599 0.0096931 0.14561 -0.033095 0.027171 -0.065197 -0.044977 0.0059912 -0.035467 -0.10431 0.069894 0.002592 -0.040405 0.074541 0.022652 0.060695 0.05143 -0.048304 0.15565 0.049108 0.12271 -0.029133 0.0030253 0.014069 0.08545 0.0084823 -0.11552 0.0035187 0.014677 0.094259 -0.018507 -0.040756 0.12716 0.04002 0.052193 
Falco -0.020375 0.047482 -0.037222 -0.020952 0.060829 0.02588 -0.074515 -0.060825 -0.065414 -0.065703 -0.051125 0.050031 -0.025768 -0.10658 0.044343 -0.019561 0.11812 -0.02431 -0.13591 0.01376 0.037743 0.030863 -0.14879 0.061281 0.027327 0.099274 -0.070384 0.029272 -0.0083604 0.12252 0.063703 -0.0003231 0.054756 0.023086 -0.13142 0.041034 0.036664 0.017346 -0.05289 0.053109 0.13575 0.067058 -0.059392 -0.033653 0.14088 -0.053761 0.076831 -0.047424 0.043437 0.065386 -0.042213 0.04234 -0.023228 0.11444 0.071139 -0.12421 0.031789 -0.03534 0.10918 -0.0056582 0.11522 0.020089 0.038886 0.08057 -0.021065 0.088035 -0.11375 0.031001 -0.13573 0.068045 0.16439 0.011405 -0.042229 -0.19059 -0.025509 0.023518 0.15238 0.078992 -0.034997 0.039537 0.040196 0.044364 0.032312 -0.0060361 0.003318 0.010119 0.051651 -0.015666 0.11585 0.0070181 0.023309 -0.027339 -0.11306 -0.064866 -0.0020799 -0.0065463 0.0027981 -0.080506 -0.041679 0.11448 -0.034047 -0.028693 0.1029 0.058034 -0.029416 0.14658 -0.08933 0.1363 0.12866 -0.086177 0.095135 0.021632 -0.13311 0.047026 0.01064 0.037757 0.03967 0.072302 0.092869 -0.11573 0.00784 -0.006012 0.074681 0.068862 -0.034789 0.03402 0.019791 0.027131 0.21603 -0.090507 0.052084 -0.099162 -0.0064906 -0.019904 -0.019608 -0.030894 -0.090103 0.085933 0.024999 -0.1217 0.031684 0.0124 0.11954 -0.060703 -0.033554 0.033689 -0.159 0.039146 -0.066668 0.069031 -0.081057 -0.0010321 -0.024865 0.065851 0.022425 -0.10903 -0.099175 -0.023294 0.011203 -0.054558 0.089591 -0.022697 0.0291 0.001203 -0.012562 -0.087428 0.010588 -0.1345 0.066445 -0.13079 -0.038441 -0.031398 -0.2011 -0.034016 -0.0081649 0.10339 -0.14911 -0.04486 -0.064954 0.061478 -0.038161 0.079082 -0.049984 -0.15122 0.087031 0.069793 0.047421 0.13559 0.013762 0.092574 0.084948 -0.023465 -0.12846 0.10746 -0.11723 -0.10773 0.075619 0.054253 0.085123 0.056811 0.0085313 -0.018751 0.055723 0.060448 -0.0099573 -0.032616 0.091571 -0.051602 0.066883 0.046383 0.022835 -0.13281 0.024851 0.092323 -0.055945 0.020216 0.13296 0.032567 -0.048581 -0.0062485 0.11992 -0.036319 -0.061116 0.030261 -0.050341 -0.046953 -0.048972 0.046001 -0.034069 0.021822 -0.03858 0.033633 -0.012953 -0.063951 -0.0079032 0.11338 -0.081964 0.009789 -0.040966 -0.10253 -0.027202 -0.03642 0.0020365 0.0022022 0.1345 0.11711 -0.10365 -0.0046844 0.0062372 0.059491 0.0014551 -0.044831 -0.095673 0.1384 0.062195 0.13691 -0.11583 -0.14817 0.070133 0.022098 -0.05387 -0.049739 -0.13435 -0.012049 -0.058005 0.062393 0.028984 -0.017464 0.019784 0.00078022 0.055407 -0.0088074 -0.039346 -0.052095 0.071696 0.048204 0.01107 -0.037967 -0.0098957 0.021077 0.076509 0.17525 -0.057401 0.022144 0.0014521 0.13883 -0.092084 0.11198 -0.12129 0.03179 -0.0069672 -0.15823 0.11072 -0.0028294 0.0024407 0.024085 -0.076153 0.12638 0.044355 0.017793 
Quaglia 0.035529 0.0095016 -0.035058 -0.044442 -0.0093897 0.018947 -0.0122 0.11717 0.07028 -0.017875 0.011042 0.0097702 0.052704 -0.05221 -0.021516 -0.011017 0.0096377 -0.073077 0.04321 -0.0025308 0.023837 0.0036266 -0.059459 -0.051635 0.048232 -0.068736 0.055905 -0.1081 0.05584 0.093352 0.015532 -0.0027666 0.080995 -0.011971 0.061424 -0.019927 0.0041685 0.037735 0.011332 0.053421 0.063215 -0.0058791 -0.063162 0.1134 0.099146 -0.025038 0.0086943 -0.081637 0.030917 0.11066 -0.043456 0.072715 0.031325 -0.0095515 0.071783 -0.017421 0.022047 0.038926 0.15366 0.067777 -0.060278 -0.086645 -0.073262 0.10615 -0.061895 -0.036398 -0.035643 0.079418 0.011608 0.0055595 0.054265 0.057932 -0.029283 -0.042754 0.0043456 0.054887 -0.027974 0.024747 -0.043851 0.085744 -0.012279 -0.079811 -0.041211 -0.024068 -0.011874 -0.015923 -0.03832 0.023007 -0.0045234 -0.049129 -0.074766 -0.049544 -0.078807 0.054921 0.0035858 0.040954 0.071212 0.0038348 -0.026654 0.042941 -0.0043156 0.019084 0.011046 0.12454 -0.0072413 0.013951 -0.021312 -0.026227 0.0047722 0.062587 0.04039 0.066353 -0.10958 0.038018 0.0066179 -0.040875 0.054872 0.028631 -0.027434 0.023648 -0.061224 0.088126 -0.050836 0.017355 0.036158 -0.059455 -0.0052087 -0.0041496 -0.10729 -0.040354 -0.043086 -0.0094905 0.064287 -0.034816 -0.040116 0.097494 -0.13389 -0.031514 -0.070441 0.020014 0.062834 -0.031836 -0.02012 -0.048081 -0.058168 -0.054756 -0.2092 -0.051949 -0.019424 0.16464 -0.065986 0.029863 0.00075326 0.0047074 -0.017552 -0.027525 -0.095974 -0.0091261 0.075536 -0.01684 -0.069366 -0.025843 -0.0077003 0.016318 0.062761 0.045167 0.010063 -0.052838 -0.05205 -0.116 0.050287 -0.042958 0.055141 -0.079426 0.042418 0.081293 -0.082524 0.032016 0.020404 -0.11053 -0.062398 0.050992 -0.024409 -0.12346 -0.027611 -0.048823 0.03165 0.045345 -0.047653 0.040216 0.04192 -0.0067197 -0.07884 0.0075898 -0.088118 -0.13313 0.040904 0.035328 -0.071042 0.0652 0.0037827 -0.036919 0.10975 0.060087 0.015164 -0.014765 0.094449 -0.0031676 -0.0072871 0.041163 -0.036681 -0.00041322 0.075992 0.038052 -0.15609 -0.01536 0.091588 -0.093345 -0.070898 -0.028721 0.068979 -0.031138 0.023711 0.014888 -0.1465 0.0055088 0.010162 0.057089 -0.00093907 0.035728 -0.030202 0.066888 -0.073377 0.031697 -0.04932 0.051592 -0.0097613 -0.030277 -0.16554 0.018091 -0.037147 -0.01805 -0.016763 -0.016741 0.076174 0.017958 0.036582 -0.017322 -0.037802 -0.018671 0.04053 0.00074332 -0.013322 -0.078205 -0.079591 -0.036371 0.064995 -0.044084 -0.052703 -0.013713 0.0018472 -0.036482 -0.025637 0.03553 -0.051147 0.015543 -0.062655 0.056001 -0.067884 0.070555 -0.0036496 0.045202 -0.046475 -0.0055568 0.057084 0.039679 0.025441 -0.023309 -0.0067093 0.054472 0.012328 0.084395 -0.006436 0.083589 -0.038595 0.033539 -0.025397 0.093264 0.022416 0.054679 0.0047527 0.010311 0.058665 0.019587 -0.0074818 -0.047552 0.041517 0.051798 0.065136 0.061981 
Fenicottero -0.029632 0.011905 0.0042244 -0.02316 -0.019451 -0.063127 0.030714 -0.012184 -0.047531 -0.0062116 0.017974 -1.0482e-05 0.018403 -0.0048609 -0.02669 -0.093381 0.015665 0.015305 0.022765 0.035307 -0.035012 0.03224 -0.0055195 -0.013923 0.065647 0.0457 -0.052359 0.015527 0.013888 -0.027782 0.013243 -0.019101 -0.018648 0.032612 0.0060151 0.05389 0.033156 0.035272 -0.040251 0.045003 -0.010962 -0.0050964 0.000231 0.011943 0.074478 0.094942 0.0031689 -0.0010329 -0.04523 0.0025334 0.035031 -0.017063 -0.0026542 -0.01887 0.036177 -0.015206 0.046509 0.021352 -0.023984 -0.0086825 0.011126 0.01048 -0.0045546 0.025094 -0.011785 0.020632 -0.027392 -0.0014193 -0.0049661 0.021086 0.049096 0.037052 -0.0042144 -0.0095698 -0.045462 -0.011531 0.0065194 0.0042617 -0.10994 0.073322 -0.00013319 0.016854 0.0032263 0.015027 -0.058398 0.013425 0.0012943 0.009114 0.043161 -0.087313 0.0083779 -0.018483 -0.048637 -0.017279 0.041793 0.040037 0.027154 0.010735 -0.018407 -0.0031955 -0.0068365 -0.032659 -0.0068109 0.055979 0.0044162 -0.0071475 -0.028505 -0.0065838 -0.015641 -0.036017 -0.017525 0.015991 -0.048265 -0.022154 -0.0090074 -0.010732 -0.010286 0.011086 0.0017992 0.019162 -0.024067 -0.016473 -0.022989 0.00073576 0.0056843 0.019996 0.020846 0.0081762 0.0032826 -0.0001606 0.015976 -0.0011084 0.020798 -0.0049904 -0.0044725 -0.011991 0.0063578 -0.0071007 -0.031835 0.01659 0.0032293 -0.047203 -0.018746 -0.00073598 0.008842 -0.0064967 -0.032235 0.048514 0.037095 0.0019259 -0.022752 0.010154 -0.024874 0.0036562 -0.029245 -0.027532 0.094327 0.028189 -0.010715 0.041865 -0.026454 -0.028874 -0.027534 0.060165 0.02146 -0.036737 -0.0086177 0.016687 0.04035 -0.0087746 0.03102 0.0099795 -0.02623 -0.02147 0.0011553 -0.021305 -0.0088175 -0.0021843 0.0090985 -0.027191 0.041465 0.053228 0.027021 -0.084775 0.017091 -0.0064558 0.0082253 -0.0033711 -0.0084769 0.010773 0.0028885 0.014862 -0.027922 0.030699 0.027325 0.03207 0.0049155 0.03193 -0.016363 0.052651 -0.016353 0.04037 -0.0077017 -0.0087329 0.0012674 -0.049595 0.088536 -0.013523 0.0032206 0.0369 -0.059043 -0.010738 -0.04262 0.022609 0.0075433 -0.022645 -0.0077827 0.02981 -0.015527 0.01017 0.025036 0.015223 -0.0037879 0.082829 -0.0064781 -0.015686 0.02476 0.077182 0.00059258 0.031379 0.017837 -0.040299 -0.035605 -0.0036439 0.010433 0.047323 -0.017259 -0.017113 0.024353 -0.016135 0.0056635 -0.064967 -0.04476 -0.043116 -0.00068498 0.0051804 0.021691 -0.015919 -0.0016388 -0.047934 0.063783 -0.013822 0.0041575 0.047701 -0.028556 0.010075 -0.017362 0.037437 0.0062464 0.021697 -0.00028123 -0.13117 -0.045267 -0.0053225 -0.02548 -0.034655 -0.029131 -0.0085962 0.010065 0.076248 -0.03363 0.047933 -0.091996 0.0006568 0.029425 0.048034 -0.027467 -0.01419 -0.030648 0.013312 -0.020959 0.014778 -0.068469 0.025716 -0.010528 0.0008818 0.033882 -0.046555 -0.013362 0.0066607 0.0052973 -0.019218 -0.027675 -0.011037 -0.021392 -0.032028 0.03256 0.011017 0.018062 -0.0074203 
Pernice -0.053542 -0.034585 0.010434 -0.0052614 0.057468 0.017934 0.018413 0.1083 0.026013 -0.041127 0.033866 0.017868 -0.10851 -0.07195 0.010232 0.0291 -0.040005 0.10392 -0.050534 -0.0032289 -0.015234 -0.067657 -0.055756 -0.03317 0.060941 -0.04954 0.060081 -0.11587 -0.012215 0.18176 0.00020323 0.052603 0.093125 0.081122 -0.0063217 0.099685 -0.0031024 -0.039182 0.0057877 -0.014567 0.077232 0.049942 -0.070809 0.053602 0.072165 -0.033638 0.0025687 -0.086632 -0.021592 0.073644 0.028136 -0.0067826 0.0099553 -0.003489 0.065748 -0.17025 -0.12556 -0.038838 0.12929 -0.0096439 0.055535 0.03547 -0.090508 0.052015 -0.10121 0.050331 -0.13063 -0.042849 -0.014716 -0.053576 0.016971 0.081794 -0.0338 -0.11738 0.030569 0.022433 -0.017371 0.063317 -0.064421 0.088995 0.011681 -0.024465 -0.062723 0.054362 -0.052798 0.00052571 0.11327 0.12946 -0.047603 0.048926 0.016375 -0.061645 -0.084469 0.013252 -0.01257 0.037396 0.071229 -0.048229 0.031952 -0.045017 -0.011724 -0.008643 0.0022221 0.11798 0.073858 0.082322 -0.023658 0.098977 0.10852 -0.057036 -0.010084 -0.03372 -0.083476 0.064862 -0.020904 -0.038355 0.01197 -0.010455 -0.0054092 0.0089642 -0.025731 0.063112 0.038658 0.053262 0.078015 0.02589 0.085598 0.0032426 -0.067999 -0.08352 0.010099 0.023592 0.076776 -0.072822 0.039788 -0.062646 -0.076281 -0.020461 -0.031388 0.038132 0.076959 -0.027725 -0.023589 0.0012972 0.043538 0.055272 -0.19485 -0.051757 0.052207 0.088459 -0.077733 0.023961 -0.032321 0.019705 0.056037 0.13986 -0.15075 -0.05295 0.050726 -0.14646 -0.084649 -0.0036788 -0.015342 0.12797 -0.06736 0.064297 0.10005 -0.0026582 -0.0020894 -0.056715 -0.017951 0.023188 -0.037922 -0.016733 0.13767 0.0037856 -0.037119 0.00048353 0.0459 -0.075416 0.047886 0.094305 -0.072218 -0.073278 -0.1497 -0.031016 -0.030199 0.025699 -0.042249 0.003032 0.042163 -0.11839 -0.045014 0.16695 -0.095829 -0.050698 0.036566 0.10401 0.03954 0.10768 0.0068677 0.0014479 0.12784 0.14651 0.065609 -0.038779 0.088435 0.016801 -0.10401 0.046592 -0.13239 -0.095747 0.12461 -0.004873 0.043232 0.01086 0.061176 -0.026034 -0.12532 -0.059118 0.10227 0.031822 0.061289 -0.086401 -0.11772 -0.050096 0.03386 -0.095132 -0.027217 -0.053031 0.019455 0.072802 -0.003154 0.037939 -0.00684 0.036004 -0.02723 0.027457 -0.03458 -0.0021367 0.055022 -0.0025792 0.056849 0.0093884 0.0993 0.052284 -0.032249 0.06716 0.0032964 0.024438 -0.027769 0.039113 0.0015524 0.023894 -0.10546 -0.030298 0.005026 -0.081288 -0.090721 0.11436 -0.034387 0.0070691 -0.037809 0.094091 0.014517 -0.045847 0.10201 0.12503 -0.054813 0.041129 0.016472 0.013466 -0.032753 -0.014792 0.021739 0.046667 0.066337 0.0066122 0.0073666 0.030944 0.06078 0.10329 -0.049365 -0.011856 -0.016887 -0.026623 0.052573 0.10039 -0.069885 0.13195 -0.032436 -0.070264 -0.028728 0.026728 -0.057246 -0.059736 0.031623 0.060493 -0.048756 0.045648 
Struzzo -0.03341 0.015507 0.0097661 0.0081418 -0.069184 -0.066097 0.013374 0.06891 0.019063 -0.019926 0.036719 0.0025727 0.030347 -0.0054117 -0.025996 -0.090135 0.10048 0.04032 -0.020332 0.072429 -0.015162 -0.019324 -0.0035203 -0.032116 0.098699 0.070543 0.010346 0.05953 0.04102 -0.061878 0.021537 0.062026 -0.012472 -0.04371 0.02198 -0.023673 -0.003411 0.10229 -0.013116 0.0097238 0.064504 -0.055788 0.044589 0.088524 0.088733 0.099092 -0.097603 -0.0060832 -0.043175 0.036766 0.045216 -0.072109 -0.025529 -0.025916 0.10323 0.045935 0.019103 0.028228 0.028492 -0.049718 0.0065216 -0.039852 -0.016356 0.086617 -0.063988 0.057271 0.016546 0.017133 -0.030753 0.035251 0.02006 0.018776 -0.017729 -0.087937 -0.1099 -0.054173 -0.032402 0.081275 -0.070993 0.047874 -0.009712 -0.018242 -0.016158 0.041486 0.015053 0.072133 -0.023817 -0.086427 0.010398 0.050433 -0.018676 0.00043328 -0.094712 0.012511 0.052031 0.084805 0.01406 -0.023279 -0.038095 0.036798 -0.0030968 -0.012583 -0.026476 0.094775 -0.035185 0.035055 0.032617 0.017294 -0.029076 -0.038019 -0.010551 -0.052722 -0.10416 -0.0020992 -0.020924 0.044587 -0.016164 -0.013466 -0.042698 -0.016525 -0.0038866 0.030472 0.00060907 0.059348 0.032786 0.023523 0.085854 -0.021001 0.067793 -0.066348 -0.021006 -0.011657 0.013963 0.030748 0.037521 -0.046691 0.064101 0.032082 -0.013212 0.011547 0.040633 -0.088338 0.039936 0.054818 -0.044716 0.039882 -0.098754 0.050786 0.021905 0.071316 -0.022987 0.0010765 -0.088673 -0.016058 0.017855 -0.0046078 0.12876 0.015995 -0.05596 0.036917 -0.035516 0.05418 -0.010965 0.043943 0.055551 0.03645 0.019756 -0.060513 0.098649 0.012496 -0.023298 -0.011433 0.0096566 -0.043549 -0.034354 -0.0074968 -0.0075742 -0.051711 -0.021747 -0.077933 0.065186 0.13267 -0.024254 -0.12998 -0.038923 -0.059972 0.018963 0.029865 0.080045 0.00059772 0.010068 -0.0014584 -0.014705 0.084683 -0.013544 0.025597 0.022097 0.090763 0.018211 0.063224 -0.073473 0.0097641 0.033578 0.03784 -0.028066 -0.046318 0.12876 -0.010823 -0.049412 -0.0077452 -0.0057664 -0.027984 0.099958 0.046464 -0.0051702 -0.02232 -0.037013 -0.018924 -0.022278 0.055074 0.068966 0.0064938 0.021482 0.10186 0.0091765 -0.020237 0.0045939 -0.0020506 0.080875 0.047962 0.074933 -0.033001 -0.021255 0.00075958 0.019067 0.013981 -0.036203 -0.027953 -0.013858 0.002108 0.052756 -0.1041 -0.0071968 -0.1026 -0.03543 -0.0012048 0.034643 -0.020605 -0.0050638 -0.011171 0.079415 -0.017354 -0.041421 0.021352 -0.014907 0.020418 -0.0066545 -0.02259 -0.038112 -0.062082 0.042931 -0.18462 -0.085052 -0.015555 0.0085261 0.012689 0.038434 -0.0081999 -0.0050153 0.11708 -3.1599e-05 0.10618 -0.12864 -0.067247 0.017022 0.0036798 -0.09609 -0.033755 -0.053849 -0.007788 0.015256 -0.0056477 -0.058742 -0.044173 -0.048218 0.018242 0.030187 -0.054364 0.0033938 -0.043203 0.007064 -0.053221 -0.090088 -0.023866 0.047024 0.0049353 0.058581 0.034325 0.050961 -0.008413 
Avvoltoio -0.016446 0.042909 -0.015193 0.037526 -0.0048013 -0.087699 -0.011484 -0.0021417 -0.03905 0.0087879 0.048822 0.021388 0.05455 -0.04163 -0.031634 -0.12621 0.06644 0.021379 0.0084444 0.031161 -0.0048254 0.042503 0.069958 -0.022042 0.069426 0.028466 -0.0059233 -0.050875 0.030046 0.04079 -0.039288 0.080372 0.014813 -0.0037429 0.0026134 -0.0065272 -0.072544 0.027391 0.022567 0.081818 -0.020529 -0.077853 0.04238 0.004402 -0.0038406 0.016369 -0.027464 0.04515 0.018792 -0.034102 0.028408 -0.021014 0.051399 0.028682 -0.01719 -0.0096756 0.03272 -0.048616 -0.08595 -0.025125 0.047333 0.032354 0.061811 0.033803 -0.051887 -0.047249 0.0039931 0.00058676 -0.065162 0.027255 0.06333 0.039929 0.027783 -0.039489 0.002946 0.0087649 -0.019045 -0.024652 -0.019728 0.10739 -0.0028818 -0.043412 -0.05598 -0.028521 -0.0056138 0.033853 -0.0040789 0.0402 0.018996 0.0024787 -0.014924 0.013212 -0.05968 0.035983 0.14064 0.039861 -0.0072589 -0.01107 -0.043796 -0.025733 0.002157 -0.02046 -0.024703 0.035292 -0.037552 0.0097724 0.039815 0.033343 -0.042871 -0.059501 -0.0094465 0.028018 -0.022204 -0.043393 -0.033681 0.037818 -0.019417 0.018318 -0.0053578 -0.012899 -0.034865 0.0098339 0.012413 0.002849 -0.029744 0.016663 -0.022289 -0.0084238 0.048967 -0.032537 0.056919 0.0033051 -0.022283 -0.062632 0.085305 0.040387 -0.021997 -0.039584 -0.04723 0.079033 0.066707 -0.061288 -0.010169 -0.0053738 -0.032972 0.011348 -0.00094351 0.016668 -0.007027 0.032078 0.031733 0.031548 0.04526 0.043581 -0.0096204 -0.015545 -0.04268 0.037948 -0.045762 0.025054 -0.035331 -0.079383 0.016126 0.029333 0.045342 -0.00014178 -0.041902 -0.0042326 0.041744 0.027038 0.088649 -0.0046153 0.054308 0.064078 -0.0085817 0.0057246 0.011115 -0.017611 -0.022532 -0.074237 0.017709 0.089016 0.012572 -0.11211 -0.043455 -0.061409 -0.003644 -0.048762 0.032954 0.042371 -0.0014735 -0.055463 -0.013587 0.024604 -0.062578 -0.019667 0.056498 0.01432 0.011077 0.080197 -0.087056 0.046121 -0.015306 -0.029005 -0.03939 -8.0291e-05 0.014059 -0.0070024 -0.0089989 0.025949 -0.065962 0.013579 0.032769 0.040356 -0.066883 0.0038393 -0.060097 0.0027705 0.03253 -0.062356 0.0062611 0.020795 -0.017265 0.041518 0.011066 0.018096 -0.018708 0.0669 0.020309 0.011132 0.031652 0.027838 0.0098673 0.0019942 0.010156 0.0034562 0.0046932 0.02028 0.05362 0.0099063 0.036307 -0.05844 0.030869 -0.066663 0.047575 0.04711 0.0038567 0.025686 0.018278 -0.040564 0.084788 -0.05587 -0.0192 0.044002 -0.023005 0.067168 -0.048017 0.0427 -0.035282 0.0063238 0.061955 -0.080628 -0.13182 -0.055036 0.0046343 0.01069 0.0043745 -0.034152 0.025835 0.13683 -0.021504 0.032618 -0.059869 0.023172 0.022632 -0.079053 -0.088881 -0.039979 0.014281 -0.024122 0.001138 -0.093163 -0.038846 -0.0072178 -0.0019353 -0.034732 -0.010111 -0.054598 -0.053501 0.02478 0.12687 -0.027223 -0.017672 0.0053469 0.038571 -0.012931 0.0090905 0.055661 0.046791 -0.041041 
Gazza -0.10585 0.016187 -0.10046 0.023451 -0.066467 0.15023 -0.046675 -0.025001 -0.020094 -0.18665 -0.07041 0.07276 0.011683 -0.047071 -0.033129 -0.084194 0.014088 -0.0012344 -0.07358 0.0011061 -0.05094 0.25527 0.079348 -0.072636 0.064716 0.0015231 0.042062 0.058352 0.035986 0.20982 0.0097382 0.11291 -0.004425 0.035809 0.061223 -0.074066 0.079235 0.007814 -0.0090351 -0.074651 -0.043585 -0.1129 -0.23769 0.030663 0.04273 0.028346 -0.083114 -0.066592 -0.092271 0.021022 -0.06624 0.31524 -0.082461 -0.0079307 0.097915 -0.11526 -0.12874 -0.042666 0.14132 0.2155 0.010617 0.058993 -0.19861 0.11215 -0.0019968 0.15438 -0.15466 0.037207 -0.027185 -0.10441 0.10536 0.028909 0.051084 0.1244 0.03236 -0.061912 0.032985 0.12522 0.01528 0.0815 0.038659 0.089836 0.087196 -0.09235 0.06075 -0.0058399 0.018158 -0.019544 0.14845 -0.11346 -0.052534 0.016929 -0.081726 -0.13631 0.079141 0.034494 -0.071802 -0.084108 0.086057 -0.090751 -0.10719 -0.028127 0.11943 0.025826 -0.033231 0.15608 -0.10814 0.0098225 -0.023084 0.087477 -0.17049 -0.02103 -0.18861 -0.019494 -0.09692 -0.064422 -0.15254 -0.027632 0.11039 0.035644 -0.041484 -0.17727 -0.083729 0.039098 0.052862 -0.1623 -0.13912 -0.1274 0.129 -0.0049537 -0.046997 -0.084317 0.019108 -0.0067941 -0.061902 -0.0066871 -0.07171 0.017196 0.04792 -0.20106 0.11869 -0.11612 -0.073761 0.14631 -0.11329 -0.068329 -0.13941 -0.025187 0.09827 0.19746 0.029058 -0.009226 0.028128 -0.0016802 -0.041846 -0.033719 -0.05612 0.022663 0.051882 0.0029199 -0.090693 0.040789 -0.010518 -0.15679 0.11301 -0.15961 0.068713 0.018005 0.060393 0.072598 -0.12483 0.020609 -0.17336 0.045185 -0.1332 -0.20381 0.035942 0.073344 0.12769 0.056376 0.046883 0.10928 0.0027982 -0.0067709 -0.12231 -0.13688 -0.020161 0.093677 -0.074484 0.0044946 0.077256 -0.041716 -0.090036 -0.082999 -0.040096 -0.0053766 -0.19519 0.057352 0.023626 0.14269 -0.038921 0.099466 -0.026906 0.15816 0.070639 0.0052505 0.054161 -0.064688 -0.17402 -0.048283 0.046898 0.088742 -0.081399 0.16829 -0.046186 0.035588 -0.059745 -0.034049 0.068487 -0.0033895 -0.098266 0.18513 0.1039 0.00024219 -0.016137 0.038455 -0.0035899 -0.014929 -0.14437 0.18599 0.066079 0.11439 -0.054443 -0.030031 -0.10197 0.068502 -0.23248 0.051389 -0.14348 -0.11441 -0.064231 -0.02118 -0.031399 -0.024892 0.12273 0.028333 0.040324 0.0065493 0.074787 -0.0082659 0.04488 -0.039961 -0.044816 0.41746 0.14757 0.032386 0.019144 -0.0080551 -0.011778 0.16775 -0.041546 -0.06466 -0.075599 0.057175 0.02454 -0.04729 -0.0029481 -0.01067 0.036881 -0.032909 0.096235 0.038359 -0.014784 -0.13165 -0.13477 0.010464 -0.067179 -0.00090494 -0.029786 0.029807 0.051845 0.11265 -0.12894 0.050315 -0.048209 0.03517 -0.00038156 0.053746 -0.14627 0.074936 -0.022392 0.0041319 -0.07392 -0.04965 0.09491 -0.029686 0.067461 0.13622 -0.10686 0.056753 
Myna 0.064236 0.05327 0.061917 0.027118 0.20726 -0.11749 -0.14272 0.044434 -0.18501 0.23361 -0.18381 0.085626 0.14669 0.036945 -0.11651 0.014201 0.097593 -0.088896 -0.079339 -0.024638 -0.12291 0.048692 0.031377 -0.027303 -0.083456 -0.043952 0.10468 0.11056 0.095073 0.30772 -0.13841 -0.06904 0.016465 0.053999 0.092146 0.065674 0.026584 -0.078884 -0.022457 0.2181 0.14537 0.15771 -0.13001 -0.090523 -0.074381 0.0025719 -0.079139 -0.097428 0.10439 0.18696 0.095372 -0.042213 0.044677 0.17655 -0.032551 -0.029211 0.20389 0.0072094 0.18667 0.14946 0.013756 0.16332 0.010792 0.26923 -0.15724 0.15239 -0.021899 0.18932 -0.062044 -0.00039348 0.046181 0.059688 -0.30619 0.1762 -0.11081 -0.0056919 0.1068 -0.042211 -0.022733 0.10354 0.090376 0.11939 -0.14426 0.097758 -0.0066072 0.036232 0.030575 0.00051588 -0.11468 -0.017019 -0.037883 -0.24595 -0.048585 -0.032917 0.12045 0.055688 -0.051252 0.16376 0.23089 -0.31973 -0.049267 0.2592 -0.14101 -0.013909 0.10094 -0.07782 -0.19607 0.069684 0.089271 -0.24609 0.037201 0.062936 -0.12282 -0.030533 -0.1777 0.055849 0.056446 0.1482 0.026256 -0.10553 -0.16925 0.023547 0.13725 -0.05006 -0.03919 0.038497 0.044432 -0.060209 0.031982 -0.10253 -0.22144 0.058268 -0.084104 -0.035869 -0.04267 -0.048671 -0.0082483 0.20533 0.078249 0.12561 -0.043599 0.19157 0.13218 0.027402 0.039397 -0.18722 -0.16398 0.054647 -0.14663 0.065045 0.016402 -0.16552 -0.13234 0.15709 -0.19622 0.049106 -0.1354 0.040199 -0.13677 -0.35809 -0.17973 0.010559 0.016299 0.010932 0.088392 -0.060885 0.075894 -0.0096473 -0.037066 -0.040428 -0.096624 0.080595 -0.16584 -0.04149 -0.094705 -0.18459 0.13325 -0.015248 0.22643 0.075186 0.11459 0.15651 -0.24298 -0.053692 0.094346 0.10152 0.093183 0.093658 -0.073227 0.02531 -0.27725 0.0035619 -0.03309 -0.021663 -0.34983 0.092835 0.13909 0.0081638 0.044804 0.21716 0.09573 -0.079196 0.049985 0.19738 -0.03556 -0.11708 0.05845 0.064953 -0.0015708 -0.015994 -0.12551 -0.087135 -0.048483 0.0085696 0.024708 -0.12469 -0.16009 -0.11798 0.065578 -0.013724 0.082652 0.016159 -0.12159 -0.027201 0.085057 0.11242 -0.17591 -0.059838 -0.031423 0.17024 -0.10564 0.11129 0.085251 0.010611 0.07702 0.016853 -0.0083151 0.034183 -0.043448 -0.18052 0.16453 0.04495 -0.087964 -0.049607 0.18685 -0.09713 0.085205 0.12028 -0.14427 0.069588 -0.095856 -0.089668 -0.22549 -0.29749 0.083736 0.087241 -0.12833 0.14317 -0.078503 0.033714 -0.039951 -0.10925 -0.13126 -0.19817 -0.076172 0.19251 -0.071878 0.032543 0.10595 -0.077925 0.093203 0.14077 0.058639 0.0081735 -0.0046787 -0.091712 -0.056356 -0.033735 -0.15132 -0.037378 -0.072536 -0.060037 -0.040765 0.025527 0.09258 -0.070072 0.21415 0.24 -0.12042 -0.16817 -0.03929 0.020444 0.13532 0.070685 -0.041659 -0.22646 0.0096531 0.13844 -0.024551 0.12459 
Cicogna -0.051446 0.028437 -0.0025484 -0.062437 0.093488 -0.015419 -0.034048 -0.017329 0.0075563 0.046551 -0.034381 0.036662 0.078799 -0.05732 -0.03473 -0.039758 -0.0029921 0.036667 -0.069187 0.025507 0.16831 0.057206 0.02447 -0.063518 0.072241 0.055779 0.1576 -0.08001 0.055223 0.21054 -0.010532 0.073415 0.05174 0.033673 -0.14069 0.06177 0.019517 0.035468 0.036076 0.024967 0.15741 0.054929 -0.083228 -0.058242 0.097695 0.014952 0.10961 -0.054164 0.076025 0.011461 0.033921 0.039547 0.091799 0.02061 -0.0042723 -0.0041581 -0.0044399 0.049269 0.10004 0.038333 0.031412 -0.084133 -0.040515 0.060571 -0.055434 -0.01163 0.021454 0.094563 -0.033141 -0.042859 0.011636 0.079935 0.043948 -0.029883 -0.022312 -0.020936 0.06464 0.06802 -0.094184 0.042141 -0.059076 -0.025213 0.022745 -0.063126 0.086143 0.017027 0.063041 0.059262 -0.0022426 0.024295 -0.090046 -0.077877 -0.055475 -0.081508 0.030491 0.044468 0.026284 -0.0053542 -0.12275 0.081958 -0.067974 -0.012296 -0.08343 -0.010005 -0.002131 0.076831 0.01886 0.10766 -0.00033474 0.0098695 -0.0047626 -0.016164 -0.088621 0.018169 -0.024173 0.053268 0.077937 -0.02185 0.01484 -0.040733 -0.081978 0.073942 0.10396 -0.012586 -0.019229 -0.11729 0.018341 -0.079801 0.049244 -0.091915 -0.01242 -0.022018 0.085793 -0.022385 -0.051737 0.063663 -0.031592 -0.051715 -0.064128 0.01595 0.014645 0.011496 -0.018983 -0.064783 -0.17022 -0.017552 -0.17326 0.053419 -0.049604 -0.010124 -0.090703 0.096143 0.0073415 0.064864 -0.019026 -0.0037956 -0.080799 0.0021194 -0.0034095 0.014418 0.051031 0.00027567 0.057467 -0.012366 0.030405 0.017813 -0.015906 -0.035395 -0.055674 -0.070156 0.019979 -0.034727 0.01583 -0.034994 0.013701 0.027702 0.033025 -0.035835 -0.011247 -0.056275 0.015133 0.078767 0.019615 -0.093621 0.047734 0.026559 0.060538 -0.13275 -0.092165 -0.076105 0.13462 -0.058457 -0.029014 0.045209 -0.27219 -0.11172 -0.0066938 0.062037 0.09811 0.03226 0.010889 -0.084925 0.047574 0.075974 0.040428 -0.079981 0.077934 0.026962 0.033339 -0.020823 0.012608 0.050641 -0.0006294 -0.010266 -0.026752 -0.047601 0.02619 0.0022196 -0.039997 -0.024338 0.05497 -0.055425 0.018785 -0.014478 -0.062482 0.015285 0.067665 -0.014064 0.01376 -0.015542 0.030511 0.030045 -0.0040889 -0.016101 0.036333 0.097555 -0.0055949 -0.039169 -0.046554 0.056403 0.0084392 -0.07716 -0.06153 -0.022621 0.055045 0.065332 -0.039046 -0.024826 -0.012349 -0.05084 -0.011916 0.043846 -0.031388 3.8572e-07 0.056106 -0.015084 0.092182 -0.13604 -0.012907 -0.04736 0.056923 0.019418 -0.047326 -0.092449 -0.015724 0.033073 -0.077788 -0.0090743 -0.026732 0.042191 -0.062393 0.024016 -0.063287 -0.019544 0.032804 0.025769 -0.077855 -0.0025596 -0.005911 0.0098693 -0.014658 0.051182 -0.033313 0.074338 -0.066725 0.10965 0.011716 0.15928 -0.031097 -0.0069178 0.013547 -0.039548 0.13283 0.062853 0.068417 -0.028155 -0.036323 0.094291 -0.047721 -0.0078977 
Papagei 0.017506 0.052081 -0.011779 0.11524 -0.030299 -0.10146 -0.013947 -0.012896 0.046162 -0.0064047 0.023953 -0.022209 -0.013579 -0.00096115 -0.01916 -0.087215 0.01526 -0.030804 0.028115 0.059395 -0.041043 0.0089883 -0.0037008 0.00044942 0.083724 0.049744 0.03954 -0.0090263 0.007207 -0.077557 0.0030681 -0.049173 -0.014052 0.0061416 -0.027898 -0.015541 -0.0042666 0.081648 -0.051682 0.012356 0.028515 0.012772 -0.010044 0.011749 0.015922 0.045346 0.063057 -0.030991 -0.016967 0.011289 0.057435 -0.047985 0.0056362 -0.045704 -0.016251 -0.033095 -0.069835 0.0063961 -0.013207 0.037024 0.010679 0.037879 -0.025695 0.040336 -0.029722 0.02383 0.0099524 0.026448 -0.0229 0.05226 0.078194 -0.026127 0.036802 0.011615 0.0090415 -0.013549 0.065934 -0.0021773 0.0057459 0.068109 0.0011006 -0.02371 0.01126 0.0075013 0.026027 0.032158 -0.056531 -0.0023081 0.015024 0.083509 -0.022151 -0.039884 -0.075013 -0.058435 -0.00028687 0.063829 -0.028675 -0.035591 0.024527 0.018906 -0.030986 -0.041358 -0.083962 -0.018827 -0.075049 0.022824 -0.016314 0.078206 -0.054653 -0.016127 -0.0086631 -0.017456 -0.0005089 0.016919 -0.015833 0.088868 -0.013416 0.04655 0.035512 -0.016967 -0.027148 -0.011899 -0.0031857 -0.01448 0.011523 0.0061323 -0.042062 0.049813 0.014272 -0.070187 0.0042057 0.02045 -0.072428 0.0075611 -0.024683 -0.028133 0.0049726 -0.0091524 -0.035585 0.057133 0.074107 0.0024242 -0.044911 0.033641 -0.10571 0.0035829 -0.11841 0.045879 -0.00049456 -0.015453 0.0083581 0.055211 0.090693 -0.0025998 -0.0054321 0.023457 -0.057038 -0.038667 -0.033907 -0.016298 -0.0031366 -0.037932 -0.12074 -0.00060207 0.041868 -0.027223 0.0013926 -0.0051642 0.064845 0.034017 -0.025407 -0.043654 0.025386 0.016304 -0.045229 -0.026378 -0.053605 0.0046155 0.020992 -0.013999 0.0029442 0.078508 -0.0028024 -0.046653 -0.014167 0.046248 -0.0050728 -0.037215 -0.0045346 0.0084099 -0.04773 -0.10593 -0.029099 0.050629 0.0046697 -0.070446 0.030152 0.049808 0.041465 0.13414 -0.1294 -0.07116 -0.041737 0.03744 -0.037442 0.020883 0.04743 -0.037881 0.016876 -0.018343 -0.0096173 -0.038577 0.021322 -0.018537 0.03606 -0.014677 -0.042411 -0.00038039 0.002384 -0.018788 0.011746 0.0041114 -0.043709 0.059981 0.0071434 -0.025963 0.0052742 0.026552 -0.00085534 -0.0057913 -0.031052 -0.030461 -0.010584 0.0034732 0.087063 -0.098382 -0.0029173 0.026504 -0.033077 -0.021083 -0.026995 -0.059851 -0.029575 -0.10841 -0.01326 0.035815 0.018925 0.0018249 0.0020886 -0.01677 0.021983 -0.023985 -0.017155 0.011062 -0.009221 -0.016356 -0.047693 0.02374 -0.010647 -0.013398 0.0074786 -0.068625 -0.12847 -0.020633 -0.092567 -0.045865 -0.010299 -0.019012 0.040556 -0.025111 -0.061942 0.025884 -0.14904 -0.038982 -0.001229 -0.0080127 -0.054708 -0.026549 0.025866 0.01083 -0.038072 -0.027846 0.039002 0.013843 0.021355 -0.041321 -0.0019055 0.0063041 -0.042485 0.03448 0.079711 -0.047365 0.060364 0.0073482 0.035066 -0.022911 0.036866 0.028759 -0.0019368 0.045888 
Taube 0.014983 0.13671 -0.16594 0.020737 0.051862 -0.048726 -0.085941 -0.0576 0.015809 0.12617 -0.043855 -0.039169 0.082415 -0.13523 0.016974 0.024589 -0.071554 0.06595 0.0054639 -0.09102 0.067099 -0.16252 -0.10651 -0.080809 0.087387 -0.040814 -0.056591 -0.089247 0.21783 0.19 0.037808 -0.079267 -0.20033 0.083725 -0.20802 0.029052 0.012537 0.016342 -0.073432 0.081102 0.024085 -0.11891 -0.18463 -0.11233 0.11336 0.0021546 -0.075316 0.020173 -0.0094435 -0.11622 0.097533 -0.00098556 0.029739 0.15013 -0.071652 -0.069637 0.12193 -0.063933 0.18559 -0.17724 0.025511 0.054757 0.10038 0.042885 -0.058022 0.12195 -0.13842 0.080615 -0.042888 -0.11868 0.017722 0.044744 -0.12645 -0.027917 -0.030886 -0.024617 0.015132 -0.038134 -0.067302 0.053706 0.014425 -0.00022669 -0.010632 0.044729 -0.070789 0.059615 0.089194 0.028784 0.039845 0.023251 0.049526 -0.048028 -0.082166 -0.041737 -0.041693 0.073309 0.042223 0.0084038 0.0017578 -0.0030286 0.084248 -0.06589 0.084979 0.12811 0.082019 -0.032459 0.11961 0.17315 -0.085023 -0.020202 0.029518 -0.10004 -0.096998 0.03484 -0.18157 -0.012804 0.11493 0.011439 0.043991 0.038628 -0.011348 -0.085392 0.10822 0.043766 0.011157 -0.12324 0.043824 0.13724 -0.010491 -0.13043 0.13818 -0.12638 0.062 -0.0010127 -0.088259 0.066722 -0.10509 -0.065127 0.028163 -0.0085498 0.072403 -0.0025123 0.048517 -0.033382 -0.0095275 0.038841 -0.20395 -0.027789 0.060599 -0.10181 -0.045579 -0.10938 -0.056849 0.019723 -0.075579 -0.11364 -0.086026 0.030596 -0.0012897 -0.047027 -0.039259 -0.078224 -0.033786 0.11403 0.06531 -0.14392 0.14991 -0.10033 0.06841 -0.025231 -0.12388 -0.068991 0.2105 -0.030443 -0.033431 0.025865 -0.019547 0.090186 0.25194 -0.079259 0.058381 0.047857 -0.082597 -0.12917 -0.0092807 -0.10944 -0.10001 -0.048098 0.039731 -0.24349 0.13978 0.21634 -0.032927 -0.022384 -0.18417 -0.053193 -0.15149 0.012204 0.18937 0.024207 -0.022482 -0.013903 -0.012978 -0.0588 -0.00046841 -0.042174 0.10938 -0.16868 0.091033 -0.032261 0.028443 -0.053889 0.11 0.040202 -0.048376 0.0072951 -0.13275 -0.10313 -0.045435 -0.071915 0.13175 0.08132 0.028576 -0.019826 0.099212 -0.11456 0.013404 -0.079161 0.011666 -0.14537 0.049932 -0.045531 0.0020128 0.12436 0.075275 0.093537 -0.072743 0.021568 0.071911 0.10337 0.07341 -0.083747 -0.078806 0.00017762 0.12753 -0.076338 0.074823 -0.056379 -0.080414 0.045921 -0.054498 -0.078505 0.11837 -0.032458 0.033567 0.021658 -0.0393 -0.024892 -0.018109 -0.047273 -0.011805 -0.041454 -0.12754 -0.016016 -0.059206 -0.0059256 -0.055229 -0.066444 -0.037232 0.069035 0.059859 -0.08276 -0.0037278 -0.094722 0.0090491 0.032841 0.034864 -0.016481 0.011376 -0.054966 0.046474 0.15258 -0.034331 -0.094331 0.022961 -0.0067029 0.009023 0.24882 0.12175 -0.056268 0.014926 -0.18735 0.21855 -0.054996 0.15666 -0.05542 -0.16925 0.090223 0.080543 0.018886 
Krhe 0.016447 -0.056127 -0.069304 0.010624 -0.030673 0.078003 0.046265 0.0094618 -0.016251 -0.021033 0.073046 -0.022527 0.097695 -0.0087629 -0.048324 -0.0070665 0.018315 -0.024971 -0.01995 -0.0073988 0.041877 -0.14668 0.030882 -0.064797 -0.0040159 0.05857 -0.083588 0.014075 -0.0012282 0.35485 -0.00051478 0.077597 -0.025336 0.025663 -0.18867 -0.021722 -0.015052 -0.022591 -0.089427 -0.031585 0.0042158 0.010574 -0.043221 -0.013033 0.055183 -0.072695 -0.017754 0.0038613 0.048287 -0.044992 0.064535 -0.01072 -0.00062256 0.0054395 -0.058185 -0.054939 -0.11544 -0.076033 0.067001 0.11407 0.10654 0.20714 0.18099 0.11528 -0.020062 0.051362 -0.12249 -0.0045776 -0.036093 -0.020376 0.033193 0.04912 -0.037946 -0.076445 0.0037687 -0.0035131 0.11898 -0.068938 0.038417 -0.025645 0.097848 -0.020909 0.17234 -0.1422 -0.068607 -0.053091 0.0088446 0.012044 -0.021661 0.033746 0.063068 -0.15597 -0.15754 0.18094 -0.060654 0.057712 -0.06463 0.0028872 0.063121 -0.12002 -0.090481 0.01224 0.087899 0.016206 0.15268 0.10098 -0.067039 0.035375 -0.074222 -0.0068374 0.0997 0.1701 -0.075638 -0.041572 0.026647 0.034125 0.045676 0.01638 -0.039976 0.018559 -0.0079882 -0.06353 -0.051487 0.01368 -0.029688 -0.097748 0.042803 -0.024527 -0.042084 -0.059185 0.073222 0.058541 0.15414 0.019079 -0.024426 -0.0054881 -0.052973 -0.05185 0.0075895 0.017563 0.040894 0.12165 -0.065195 0.18878 -0.08992 -0.14291 -0.20283 -0.11953 0.06969 0.042869 -0.094132 0.044109 -0.039334 -0.050762 -0.099165 -0.0076671 -0.028862 0.034988 0.039679 -0.027738 0.045123 0.053797 0.017299 0.035125 0.058681 -0.0084196 -0.084233 -0.041888 -0.072184 0.12094 -0.035296 0.068012 -0.033773 0.091205 0.15289 -0.073914 -0.041619 0.0011825 0.10997 0.073166 -0.0076494 0.10142 0.0053545 -0.031269 0.056291 0.053719 0.013749 0.063135 0.077471 -0.029131 0.010028 -0.11273 0.064559 0.16605 -0.068207 -0.077591 0.019177 0.057533 0.03802 -0.022487 -0.016994 -0.028902 -0.071052 0.097867 0.013016 -0.038648 0.007385 -0.073992 0.04398 -0.1026 -0.055453 -0.093659 -0.0032033 0.034044 -0.025124 0.050883 -0.044193 -0.058409 -0.028467 -0.070698 -0.049039 0.045787 -0.11543 -0.002771 -0.080001 -0.16291 -0.010981 0.074297 -0.043453 0.052375 -0.067154 -0.01813 0.002685 0.088936 0.053146 0.094905 -0.059843 0.068719 -0.059054 -0.090966 0.0071321 0.032729 -0.13 0.0058863 0.21786 0.015759 -0.012014 0.10696 -0.088906 0.097198 -0.19184 0.040216 -0.1384 -0.0449 0.15671 0.070348 -0.048286 -0.1184 -0.066271 0.032841 0.050675 -0.031141 -0.1371 0.026642 0.007116 0.010315 0.083197 0.0039636 -0.048037 0.072933 -0.08467 -0.1063 -0.010717 -0.040461 -0.055377 0.16924 -0.058286 -0.053916 0.023238 -0.020059 -0.081153 0.026418 -0.014009 -0.078249 0.073546 0.084546 0.10626 0.2028 0.052495 0.025109 -0.0083231 -0.16488 0.14673 -0.034002 0.048345 -0.1241 0.062053 0.038654 0.0037532 0.035572 
Spatz -0.0014001 0.011026 -0.01577 0.065205 0.015792 0.12616 0.023004 0.073206 0.038592 0.093662 0.021783 -0.10055 0.02578 -0.15522 -0.10538 0.0080193 -0.015264 0.073333 -0.18917 0.04016 0.080381 -0.14963 0.0060762 -0.095319 0.07594 -0.1084 0.029163 0.035807 -0.0010999 0.16398 -0.12912 -0.076027 0.060293 0.02551 -0.18064 0.079651 0.0077683 -0.00090944 0.051845 0.021941 -0.025154 -0.012779 -0.04913 0.060215 0.099978 -0.094274 0.049717 -0.10989 0.062931 -0.052942 -0.13245 0.16502 0.028505 0.073552 0.039665 -0.10246 -0.061624 -0.12736 0.20894 0.053577 0.033358 -0.043764 0.11893 0.10313 0.039475 0.022892 -0.001115 -0.12567 -0.090648 -0.0072822 0.061557 0.10328 -0.071828 -0.0092792 -0.00071287 -0.0076501 0.098413 0.019661 -0.04102 0.043438 0.03769 -0.094973 0.15788 0.0040835 -0.065697 0.06911 0.017656 0.029243 -0.065535 0.020703 0.0051056 -0.017094 -0.13738 -0.1001 0.01846 0.038287 0.04763 0.1104 0.1532 0.12908 -0.024002 -0.17838 -0.044141 0.1476 -0.035421 0.022642 -0.081513 0.1479 -0.027836 -0.01246 -0.033357 0.10688 -0.21333 0.0076156 -0.1318 0.085548 0.047274 -0.017576 -0.088305 0.034018 -0.076356 -0.10648 0.05369 0.034536 0.063684 -0.054477 -0.026297 0.11052 0.12261 -0.17278 0.032284 -0.018162 -0.04109 -0.04686 -0.1095 0.077415 -0.057207 0.046411 0.026427 -0.049747 0.012315 0.20203 -0.037643 0.14128 -0.030063 0.065145 -0.25912 0.0037571 0.07199 -0.03234 -0.056974 0.059983 -0.094656 0.016696 -0.079766 -0.060419 -0.095704 0.035269 0.029716 -0.00061854 -0.045589 -0.037222 -0.020838 -0.0048814 -0.094265 -0.024745 0.06556 -0.046361 0.0043342 0.01179 -0.03842 -0.17551 0.076082 -0.016657 0.01043 0.0099266 -0.11997 0.0032245 0.0026888 0.005493 0.098571 0.12409 0.067023 -0.16366 0.068322 -0.037313 -0.067456 0.03029 -0.082436 -0.065068 -0.057231 -0.22768 -0.11663 0.080125 -0.053264 0.06301 -0.047655 0.063732 0.059435 0.030176 0.037803 0.0080598 0.056011 -0.053017 -0.069057 -0.033882 0.069281 -0.15878 0.12188 0.014689 0.0019067 -0.12163 -0.030097 -0.025878 -0.08083 -0.0074428 0.011468 -0.022654 -0.096542 -0.012462 0.073906 0.19397 0.014895 0.0056757 0.0060946 -0.13427 0.023025 -0.0068466 -0.014759 0.12813 -0.06979 -0.048771 -0.022755 0.058852 -0.14117 0.036239 -0.058216 0.15437 -0.035592 0.017015 -0.071655 -0.02787 -0.035179 0.014218 0.10711 -0.0343 -0.03028 0.12283 0.0071696 0.10285 -0.04721 0.023964 -0.010399 0.039412 -0.023572 0.091244 -0.036665 -0.066294 -0.041521 -0.071744 0.0039349 -0.093997 -0.083886 -0.080185 -0.090172 -0.04022 -0.015025 -0.052037 0.0012045 0.03569 -0.030196 0.14243 -0.042693 -0.027372 -0.021071 0.12576 0.015151 0.0031975 -0.058833 0.0021377 -0.097543 0.04162 -0.073061 -0.015626 0.068522 -0.010791 0.052784 0.1504 -0.0075522 -0.070681 -0.028226 -0.11029 0.024032 0.062291 0.0096475 -0.079466 -0.045646 0.098702 0.057171 0.02392 
Pfau 0.059296 -0.069484 0.036 -0.033088 -0.16482 0.08197 0.014287 0.17126 0.081239 -0.10759 -0.19523 0.17171 -0.079694 -0.089549 -0.031502 0.026355 0.23091 -0.042868 0.13407 0.033153 0.063382 -0.26516 0.031704 0.10126 0.021554 -0.13808 0.026431 0.1807 0.083982 0.24922 -0.11392 0.048634 -0.20012 0.021275 -0.16588 0.032251 0.020114 0.03854 -0.2126 0.21889 0.26725 -0.02487 0.068645 0.047594 0.21043 -0.038002 -0.032378 0.11643 -0.14982 -0.28801 0.21681 0.10462 0.001831 -0.14306 0.1746 -0.072517 0.012611 -0.078477 0.3056 0.050084 0.0090846 -0.33927 0.21314 0.20141 0.091508 0.21392 -0.087714 0.14126 0.17948 0.023813 -0.044456 0.13922 0.081616 0.044428 -0.26587 -0.12885 0.056534 -0.30473 -0.11065 0.1006 0.13734 -0.064148 0.025637 0.18299 -0.11811 0.37496 0.047595 -0.046803 0.068289 0.074448 -0.048401 0.080124 -0.17256 -0.13315 0.071608 0.013594 0.21593 0.060129 -0.057748 -0.024766 0.028625 -0.17613 0.029091 0.17031 -0.044444 0.053522 -0.16496 0.020405 -0.025429 -0.081157 -0.16393 -0.094944 0.057208 0.12472 -0.13976 -0.26154 0.017328 0.15744 0.15526 -0.041717 -0.24107 -0.019107 0.15789 0.17711 0.12292 -0.15736 0.030055 0.12036 -0.054054 -0.2285 0.1505 -0.066185 0.17007 0.055395 -0.10672 0.0013508 -0.16082 -0.24587 -0.059155 -0.0825 0.096579 0.14662 -0.065371 -0.2074 -0.058282 -0.017792 -0.31161 0.038959 0.029045 0.056671 -0.078982 -0.12459 -0.054014 0.022609 -0.0024696 0.046929 -0.098827 -0.10164 -0.00093898 -0.031184 0.18747 -0.0079391 0.059602 0.11629 0.026943 -0.077122 0.023108 0.05125 0.13377 -0.10914 0.0040413 0.083273 0.1109 -0.018135 0.026047 -0.01092 0.078469 0.13752 -0.10539 -0.069768 0.0082682 0.20993 0.13811 -0.23272 0.10776 -0.019499 -0.16701 0.11298 0.048097 -0.01551 0.14876 0.15255 0.23894 -0.040535 -0.038622 -0.15816 -0.058919 0.018094 0.049045 0.15554 0.17772 -0.12249 -0.060581 0.15964 -0.15324 -0.25864 0.10814 -0.039463 -0.14405 0.048703 -0.076756 -0.050613 0.043186 0.12375 -0.030098 0.12187 -0.052001 -0.23323 -0.096273 -0.2526 -0.037722 -0.064145 0.072144 -0.15312 0.020011 -0.023045 0.17978 -0.092297 -0.036449 0.14828 -0.023992 -0.23092 -0.10455 0.11892 -0.0049504 0.060798 -0.051327 0.24173 0.019601 0.12685 -0.11795 -0.17358 -0.10631 0.070842 0.21847 0.071635 -0.011974 -0.0026166 -0.036968 0.038529 0.066511 -0.010026 -0.066094 -0.13167 0.055961 -0.12431 0.14267 0.096346 0.015516 -0.053136 0.11269 -0.085176 -0.15179 0.036065 -0.019254 0.12188 0.091979 -0.03182 -0.093503 -0.023127 -0.08552 -0.061321 0.086717 -0.062925 0.089529 0.16426 0.0046055 0.064588 -0.14096 0.0066069 0.06294 0.048294 -0.0063786 -0.012199 0.061145 -0.18029 0.04128 0.32709 -0.13608 -0.05137 0.064983 -0.059369 -0.0077453 -0.20669 0.24424 -0.13565 -0.025052 0.12111 0.10728 0.46809 
Schwan -0.0342 0.053101 0.017845 0.028672 0.032086 0.16088 0.001351 -0.077182 -0.035612 -0.13612 0.017358 -0.026531 -0.11592 0.086668 -0.0054815 0.0562 -0.028241 -0.044087 -0.027265 0.015512 0.12842 -0.19907 -0.0043389 -0.029251 0.00035949 -0.0042732 0.12743 -0.24678 -0.042239 0.15887 -0.023977 0.017406 -0.061526 -0.0079556 -0.14372 -0.016938 -0.026094 -0.0084395 0.0024814 -0.051494 -0.099118 0.043556 -0.055173 0.10222 0.078296 -0.012886 0.03878 -0.089832 0.035325 0.043554 -0.060176 -0.027277 0.028711 0.030377 -0.10906 0.017338 0.064613 -0.04959 0.077945 -0.040783 -0.058485 -0.1069 0.028754 0.080054 0.03679 0.075073 -0.001569 -0.046125 0.0032929 0.0397 0.023157 0.10203 0.012827 -0.080007 -0.039392 -0.016632 -0.029959 0.037927 -0.041118 0.06887 -0.11062 -0.042555 0.086683 0.0026798 -0.052895 0.0071622 0.022071 0.00029406 -0.048886 0.042458 0.027878 -0.085453 -0.090783 0.07106 0.041013 0.043388 0.034703 -0.037183 0.016028 0.046038 0.0049504 -0.0094126 0.037048 0.067231 0.017423 0.051036 0.0066584 0.033169 -0.088199 -0.12184 0.040693 0.016205 0.027695 0.042467 -0.067301 0.079033 0.089766 -0.14406 -0.013615 -0.0235 0.01883 -0.039797 -0.025097 0.1537 -0.0015339 -0.064828 0.10585 0.056751 0.0092186 -0.11604 0.059155 -0.015907 0.12128 0.00073127 -0.029923 0.078485 -0.033736 -0.059753 -0.046092 -0.039284 0.02694 -0.064366 -0.093888 -0.042717 -0.010517 0.055644 -0.15767 -0.054302 0.16177 0.075682 -0.0061276 0.045542 -0.019625 -0.040402 0.014579 -0.096765 -0.070073 0.042994 0.063151 0.12933 -0.0069542 0.0022429 0.035457 -0.054919 -0.11086 0.1076 0.10941 -0.068048 0.17335 0.069685 -0.19915 -0.050243 -0.05464 -0.071236 0.02906 0.055364 -0.034302 -0.04412 0.12528 -0.040427 -0.03625 0.086161 0.064649 -0.077887 -0.047424 -0.047105 -0.046889 0.06122 0.062966 -0.064338 0.030669 -0.027113 -0.061705 -0.078094 0.0026841 0.033058 -0.010959 -0.039714 -0.017919 0.011855 -0.0040348 0.038551 0.10226 -0.040994 0.032366 -0.045475 0.12216 -0.0078848 -0.012321 -0.029383 0.0010085 -0.0084981 0.007863 0.14283 0.029408 0.021028 0.024661 -0.0208 -0.079065 -0.041389 0.12523 0.03016 -0.056479 -0.064708 0.025162 -0.03299 -0.028942 0.11809 0.0021073 -0.028572 0.0058765 -0.0049911 -0.06882 0.067863 0.039498 0.037788 -0.050066 0.003185 -0.029058 -0.03747 -0.054288 -0.051769 -0.060444 -0.0080051 0.054654 -0.0016632 -0.043582 -0.074293 0.032744 -0.033335 -0.0063005 -0.014307 -0.0177 -0.050754 -0.074536 0.025432 -0.027348 -0.031645 -0.03046 0.067648 0.1385 -0.097296 -0.052159 0.016775 -0.041236 -0.023059 -0.053056 -0.02988 0.021789 0.0093821 -0.069494 0.033227 -0.047241 -0.026461 -0.054379 0.0061302 -0.010604 -0.042637 -0.0029387 -0.034877 0.0060132 0.035154 -0.0065438 -0.028622 -0.025711 0.02846 -0.023915 0.045335 0.062546 0.032104 -0.0068042 -0.0023771 0.043742 -0.027347 -0.020388 0.026385 -0.0053264 0.10651 0.1486 -0.035957 
Eule -0.10217 0.059845 0.07635 0.0078718 0.08431 0.064412 0.050342 0.21731 -0.013964 0.042236 -0.010894 0.083659 0.11557 -0.079087 -0.1019 0.056428 0.076771 -0.10593 -0.11004 -0.055705 0.28769 -0.11993 0.13317 0.0074206 0.061539 -0.059102 -0.076867 0.057418 0.084753 0.25726 -0.15267 0.051161 0.051039 0.078362 -0.16177 0.064436 0.11597 0.030672 -0.14492 0.096892 0.0029686 0.016701 -0.13465 -0.18673 0.26147 -0.14829 0.047383 0.013002 -0.10366 -0.092299 0.13255 0.12251 -0.12874 0.052226 0.044756 -0.15876 0.043537 -0.10841 0.13928 -0.12437 0.036867 0.18454 0.19977 0.090014 -0.080902 -0.00018437 -0.13649 0.10783 -0.052505 0.15778 0.097809 -0.03543 -0.16203 0.078792 -0.076646 -0.016728 0.047565 -0.092629 -0.10915 0.057115 -0.071301 -0.19556 0.26175 -0.10156 -0.14096 -0.030019 0.082973 0.095997 0.017238 -0.047056 0.044905 -0.12758 -0.078517 0.10372 -0.01228 -0.0022719 -0.019657 0.1178 0.048793 -0.082632 0.06356 -0.010002 0.086937 0.18451 -0.012397 0.06287 -0.1252 0.10286 0.065746 0.073596 -0.018937 0.19319 -0.087854 0.016634 -0.073261 -0.072582 0.046865 -0.012416 0.0052881 0.1396 0.054366 -0.06389 -0.1179 -0.12813 -0.067738 -0.031763 0.055282 0.15993 0.0064901 -0.11647 -0.023287 -0.029073 0.032148 -0.15727 -0.089829 0.059293 -0.15293 0.055251 -0.15987 -0.17196 0.15424 0.27164 -0.085588 0.29031 -0.032184 -0.12364 -0.35769 -0.044535 0.12132 -0.04781 -0.091442 0.04684 -0.015619 -0.12074 0.055825 -0.040901 -0.18638 0.0064992 0.051093 -0.1116 0.14372 0.045577 0.065028 0.041195 0.006733 -0.060528 0.13418 -0.15022 -0.070456 -0.069296 -0.33178 -0.095457 0.14921 0.12887 0.16051 0.29551 0.067082 -0.083668 0.14575 -0.026404 0.11631 0.23691 -0.10841 -0.1696 -0.074616 -0.07419 0.034864 -0.084925 0.0050585 -0.07027 0.11934 -0.061079 -0.16787 -0.11621 -0.082076 -0.03215 0.029514 -0.015627 0.1225 0.075361 0.15772 -0.11299 -0.18577 0.081653 -0.052967 -0.15944 0.14214 -0.1045 0.075454 -0.057897 -0.10902 0.024016 0.015224 -0.00085036 0.12412 0.11647 -0.10738 -0.06897 -0.063885 0.043372 0.079628 0.070884 -0.049553 -0.087558 -0.052925 -0.16839 0.18935 -0.014123 -0.076384 -0.005651 -0.11548 0.0048926 0.023166 0.066888 0.071182 0.12447 -0.11214 0.10457 -0.13195 -0.1487 0.076973 -0.062539 -0.093335 0.021529 0.21729 0.019465 -0.0058778 0.16314 -0.17268 0.0043065 -0.30474 0.031789 -0.23081 -0.11634 -0.0028605 -0.13019 -0.041074 -0.075712 0.043991 -0.088528 -0.041808 -0.12415 -0.16154 0.014288 0.027371 -0.11921 0.10932 0.0040187 -0.074543 0.042691 -0.078335 -0.12107 0.03883 -0.046489 0.13486 0.05367 -0.013541 -0.062292 0.071149 -0.091487 -0.17692 -0.026913 -0.032687 0.098533 -0.042558 -0.041493 -0.07572 0.30288 0.11186 -0.0014646 -0.0819 -0.061893 0.071289 -0.10353 -0.023764 -0.2564 0.038899 0.17648 0.14118 -0.018228 
Nachtigall -0.011635 0.0061825 -0.071433 0.035449 0.017092 0.048265 -0.036051 0.090461 0.051589 -0.0035406 0.024475 -0.036856 0.03676 0.020988 -0.029687 -0.018391 -0.00069588 -0.045017 -0.037925 0.025745 0.01429 -0.15829 -0.040156 0.016589 0.032836 -0.012831 0.045293 -0.042373 -0.013174 0.075579 -0.025257 -0.0050573 0.0075535 0.00998 -0.054024 0.025007 0.031877 0.011724 -0.030096 -0.011712 0.054682 0.059348 0.056855 -0.045174 0.079589 -0.049989 0.1498 -0.014383 -0.011745 0.019579 0.019057 0.042614 0.029958 -0.0087522 -0.019519 -0.039294 0.011815 0.023255 0.06445 -0.029011 -0.069713 0.0347 0.069896 0.060573 0.053186 0.037996 -0.093037 0.043026 0.025176 0.031743 -0.028878 0.082108 -0.05337 -0.034634 -0.075838 -0.033584 0.11133 -0.099148 -0.0021642 0.0072131 -0.018172 -0.012253 0.002273 -0.010935 -0.06168 0.072985 0.0023539 -0.012267 -0.015904 0.039821 -0.036863 0.010373 -0.0057231 0.023283 0.021551 0.028955 -0.0031171 -0.01428 0.0090231 -0.026272 0.027797 -0.028192 -0.015728 0.070281 0.02225 -0.024384 -0.014652 0.05715 0.010699 0.001366 -0.03123 0.017961 -0.029699 0.015842 -0.14598 0.00090879 -0.031075 -0.030835 -0.019572 -0.01796 0.064426 -0.030531 0.016201 -0.001877 -0.070084 -0.057259 0.016248 0.002921 0.068027 -0.12323 0.037195 0.019126 0.0060185 0.026167 -0.028042 0.01176 -0.021752 -0.059341 -0.020683 0.011179 0.084582 0.051391 -0.028468 0.080332 -0.041974 -0.056452 -0.05806 -0.0032482 0.0044122 0.10995 -0.039697 0.085359 -0.016518 -0.032492 0.034379 0.0070667 -0.037383 0.028091 0.00083996 -0.042218 0.022135 -0.055572 -0.031376 0.058669 -0.043117 0.035712 -0.052676 -0.0018151 -0.028039 -0.015309 -0.060676 -0.0748 0.07327 0.0042034 0.035301 -0.00062045 -0.019773 -0.097092 0.056671 0.012581 -0.025748 0.020122 -0.024993 -0.061081 0.037827 -0.02343 0.019288 0.036041 0.027545 -0.023519 -0.054459 0.029153 -0.023005 -0.028643 -0.058969 0.069231 -0.06625 0.044557 -0.0022455 0.026405 -0.0047283 -0.007384 0.021844 0.020031 -0.038795 -0.036786 0.061163 -0.0084396 0.050349 0.081491 0.013493 -0.011556 0.00078601 0.043361 0.045025 -0.049151 -0.058284 -0.05826 -0.018866 -0.05014 0.069344 -0.02137 -0.023718 -0.0069782 -0.023511 -0.02245 -0.0066555 0.035845 0.073849 -0.0025376 -0.034949 0.023143 -0.048796 0.084872 0.023173 0.010235 -0.015872 0.061361 -0.082735 -0.040446 -0.010482 -0.026248 -0.015972 0.029542 0.058715 -0.054226 -0.0092973 0.066256 0.045359 0.013574 -0.043865 -0.030967 -0.023555 0.0028383 0.095835 0.011937 -0.066292 -0.052122 -0.05037 -0.017366 0.049557 -0.04444 -0.041135 -0.055606 -0.0062472 -0.052193 0.012625 0.029666 0.023816 0.010143 0.061094 -0.0057151 0.0030894 0.018363 -0.0038083 0.064353 -0.041753 -0.038374 -0.057831 -0.0083849 0.0048131 -0.0025427 -0.003061 -0.094712 -0.014417 0.072159 -0.0050682 0.074481 0.050462 -0.0019525 -0.060294 -0.10168 -0.041998 0.014138 -0.013228 0.019356 0.037658 0.083921 -0.0068993 0.066405 
Ente -0.1769 -0.019026 0.050727 0.025946 0.13544 0.12644 -0.11292 0.086866 -0.12951 0.16289 0.013983 0.17376 0.2468 -0.045957 0.0428 -0.019053 0.085185 0.029886 -0.050913 -0.011225 0.048989 0.15003 0.12347 -0.10826 0.15117 0.090254 -0.060908 -0.061368 0.18742 0.26463 -0.083069 0.15219 -0.16117 0.1652 -0.061065 0.13135 0.046615 0.1041 -0.17513 -0.0066344 0.0027654 0.0090947 -0.042487 0.0030108 0.047646 0.0027517 0.061626 -0.30225 0.031088 0.091656 0.032506 0.080223 -0.059796 -0.063209 -0.0072904 -0.097028 0.012124 -0.12364 0.23449 0.10364 0.013008 -0.020994 0.12388 0.14806 -0.12529 -0.010046 0.024701 0.32115 -0.033465 -0.10798 0.16178 0.013544 -0.18133 -0.030178 -0.10645 0.017748 -0.081621 0.20834 0.033342 -0.058831 0.13246 0.13253 0.044553 0.20101 -0.030602 -0.10047 0.097633 -0.021122 -0.06539 -0.058325 0.0017021 -0.2096 -0.16526 -0.1875 0.011234 -0.042723 -0.077506 0.1281 -0.013954 0.088641 -0.096726 -0.12668 0.0040658 0.19889 0.033738 0.25971 -0.03923 0.10247 -0.30987 -0.043615 0.014542 -0.053373 -0.28193 0.0022741 0.041665 0.15131 0.074508 0.075601 -0.18284 -0.0054473 0.029838 0.2844 0.080808 -0.076757 -0.069583 -0.016288 -0.21316 0.020939 0.038802 0.021563 -0.013393 0.16544 -0.048569 -0.018519 -0.06564 -0.022786 -0.081946 0.017534 -0.012743 0.063932 0.052803 0.042182 -0.14927 0.22968 -0.018884 -0.033946 -0.20849 0.0010082 -0.07683 -0.0035482 0.038509 0.091933 0.059623 0.073931 -0.10973 0.089805 -0.16735 -0.02567 0.10996 -0.14389 0.2151 -0.053303 -0.090594 0.053716 -0.12553 0.1024 0.11481 -0.21477 0.19514 -0.032393 -0.30831 -0.083348 0.0035046 -0.024094 -0.040068 0.053472 0.053267 -0.023163 -0.015377 -0.040494 0.10641 0.11288 0.11788 -0.12175 0.21226 -0.069178 0.057984 -0.113 -0.06589 -0.060307 -0.065589 -0.049315 0.039439 0.017509 -0.23004 -0.16327 -0.043607 -0.016566 0.047221 0.069715 -0.0012657 0.017177 0.23827 0.090853 0.1674 -0.18078 0.048643 -0.18752 0.023351 -0.21262 -0.11502 0.079701 0.031324 0.21567 0.057905 -0.13505 -0.15155 0.10565 -0.048799 -0.11644 -0.10805 -0.23578 -0.13563 -0.091644 -0.10376 0.084886 0.025006 -0.079928 -0.067004 0.12092 0.04301 0.11108 0.079723 0.16378 -0.052658 0.10057 -0.12933 -0.036634 -0.21187 -0.20521 0.0622 -0.044612 -0.073404 -0.083776 0.27234 -0.13283 -0.16804 -0.037001 0.021617 0.10278 -0.098738 0.009367 -0.065313 0.037952 0.054325 -0.016416 -0.073358 -0.13867 0.19168 0.10489 0.0090544 -0.15814 -0.15501 -0.033753 0.058292 0.042109 -0.18272 -0.24947 -0.33075 0.027162 0.081227 -0.032884 -0.043368 0.029371 -0.094337 0.15286 0.075044 -0.15071 0.14592 -0.043462 -0.041106 0.081003 0.0084535 -0.056024 0.0089841 0.055308 0.20744 0.14139 -0.0024927 0.20697 0.065651 0.071404 0.10393 -0.099123 -0.15038 -0.091025 -0.086319 0.14756 -0.0018557 -0.055495 
Henne -0.074459 -0.047958 -0.098202 0.068446 -0.33248 0.072025 -0.088679 0.024424 -0.052136 0.070237 -0.081129 0.038753 -0.00022881 0.058553 0.091043 0.027467 0.28221 0.0078727 -0.17092 0.054096 0.1166 -0.09078 -0.032269 0.0051719 0.053005 -0.054572 -0.16262 0.054074 0.0035703 0.40431 0.026787 0.010681 -0.024826 -0.021663 -0.0094946 0.087948 0.017588 0.078003 0.044687 -0.10104 -0.040039 0.035749 -0.038014 -0.14818 0.10372 0.0026414 0.25035 -0.10394 -0.19535 0.010021 0.036527 0.080722 0.028129 0.13435 -0.028856 0.019722 -0.054473 -0.0298 0.12205 0.028199 -0.024199 0.034218 0.097079 0.085589 -0.030009 0.10429 -0.055953 -0.12155 0.10072 0.099853 -0.014759 0.14342 0.085066 -0.061376 0.053003 0.11841 -0.030626 0.045141 -0.051437 0.046864 -0.033087 -0.22307 0.027441 0.030673 -0.069771 0.016233 0.063758 0.0018423 0.088429 0.046175 0.024285 -0.040542 -0.18352 -0.025872 0.042796 0.013187 0.060539 0.075662 0.081664 0.027555 -0.14975 -0.04198 0.022788 0.042105 -0.16201 -0.016362 0.045503 0.10592 -0.038792 -0.059954 0.091543 -0.065683 -0.13806 0.069713 -0.11394 -0.11504 -0.071747 -0.3052 0.10477 0.089334 0.038447 -0.04926 -0.010187 0.047135 0.053757 -0.071923 -0.1186 0.059384 -0.036356 -0.047895 0.044341 -0.1389 0.1406 -0.028667 -0.0727 0.15539 -0.067451 -0.12324 -0.034725 -0.077116 0.042538 0.12861 -0.12366 -0.10053 0.028768 0.060864 -0.21987 -0.049253 0.057827 0.09332 -0.084631 -0.034602 -0.058819 0.061729 0.076071 -0.025743 -0.14258 -0.0049325 0.022186 -0.098476 0.083563 -0.30736 0.019851 0.18269 0.10562 0.043122 -0.20038 0.11804 0.014845 -0.060125 -0.094451 0.09576 -0.055872 0.11849 0.037857 0.052613 -0.082299 0.020655 0.2683 -0.051877 -0.083222 0.066542 0.0052474 -0.15731 0.074012 -0.047905 -0.0059231 0.049509 0.033025 -0.061674 0.097829 0.011241 0.057203 -0.13555 -0.078444 -0.032427 -0.13113 -0.059639 -0.055248 0.034251 0.0016403 0.032435 -0.13872 0.087089 0.10507 -0.14913 0.035429 -0.23102 0.046211 0.029308 -0.061045 -0.088987 -0.030932 0.13719 -0.094877 0.015077 0.044004 -0.047964 0.086038 -0.039369 -0.0016739 0.013906 0.024303 0.022969 0.056868 -0.075368 0.052733 0.044415 -0.015453 0.046604 0.0039952 -0.033179 -0.037779 0.019146 0.099518 0.049021 0.027256 -0.0001631 -0.088094 0.070472 0.022384 -0.03299 -0.028966 -0.051565 0.054147 -0.12685 0.0064667 -0.059548 0.033716 0.035705 -0.08711 0.022838 -0.1479 0.053256 -0.17702 0.068718 0.11043 -0.018411 -0.010999 0.050928 0.087672 -0.077035 -0.059218 -0.055572 -0.049913 0.0406 0.035442 -0.073832 0.028387 0.032942 -0.26659 -0.14245 -0.0024793 0.0053042 -0.073345 0.073177 -0.0074366 -0.025718 9.5741e-05 -0.0074962 -0.026197 -0.0090277 -0.06532 -0.07423 -0.076412 -0.17724 -0.10769 0.066165 -0.059189 0.079156 -0.01775 0.039993 0.01601 -0.061579 -0.093999 0.047977 -0.084518 0.074293 -0.074527 -0.12477 
Adler -0.031436 0.11166 -0.046892 -0.010995 0.045011 0.006878 -0.063899 -0.033025 0.019775 0.0069804 0.046326 0.037069 -0.021888 -0.10449 0.044962 -0.02964 -0.051102 -0.0090616 -0.043022 -0.018336 -0.036859 -0.13522 0.045149 -0.028669 0.015511 0.037447 0.071506 -0.099051 0.10103 0.10966 0.046346 0.023155 -0.10127 0.049697 -0.090616 0.036691 0.049619 -0.0085687 0.032226 0.0057501 0.052558 0.038616 -0.05783 -0.093567 0.15912 -0.028461 -0.0084406 0.024361 0.0063588 -0.066673 -0.074508 0.15961 -0.071595 -0.11261 0.10513 0.079895 0.064759 -0.044484 0.18456 -0.0021313 0.017916 -0.074935 0.11083 0.14362 0.033267 0.10605 -0.10093 -0.027506 0.013986 0.064673 0.041342 0.048218 0.011637 -0.064897 0.002306 0.020233 0.016939 -0.13747 -0.065623 0.063699 0.019482 -0.11402 0.064073 0.12378 -0.067186 0.081273 0.036039 -0.00077301 -0.044573 0.033165 0.045964 -0.019175 -0.022453 -0.054792 0.014526 0.019826 0.055989 -0.011952 0.012525 0.054236 -0.026275 -0.08934 -0.0064017 0.089725 0.092003 -0.033985 0.012662 0.11121 0.04749 -0.064571 0.092015 0.0099318 -0.075503 0.05043 -0.056824 -0.064467 -0.073758 -0.018766 -0.010324 0.040578 0.013212 -0.010021 0.009426 0.062417 0.095335 0.055811 0.04572 -0.0050421 0.062942 -0.14041 -0.04761 -0.049197 0.064827 0.040402 -0.069828 0.0011656 -0.11712 -0.039665 -0.026294 -0.12571 -0.038603 0.19542 -0.021157 0.048638 -0.011531 0.028716 -0.25215 -0.025532 -0.016095 -0.13191 -0.057785 0.020069 -0.028437 -0.079466 -0.045658 -0.19832 -0.12762 0.03618 0.029517 -0.10059 -0.011517 -0.024959 0.030562 0.011432 0.0058554 -0.076005 0.021784 0.042975 0.0010454 -0.11381 -0.091901 0.013497 0.058617 -0.079774 -0.024341 -0.023848 -0.10417 0.028187 -0.030943 -0.11526 -0.02799 0.14786 -0.03071 -0.18719 -0.044645 -0.11055 -0.006481 0.14543 0.034896 -0.028165 0.074444 -0.045488 -0.018501 0.10293 0.017815 -0.026343 -0.026283 0.077623 0.092457 0.0018084 -0.039107 -0.029045 0.14061 -0.064764 0.029574 -0.073601 0.09557 -0.11106 -0.050871 0.060348 -0.073566 -0.055735 0.034764 0.053082 0.017817 -0.15315 -0.0024143 -0.083684 -0.061421 -0.011731 0.13652 0.043181 -0.024607 -0.017696 0.18167 -0.090956 0.052078 0.040423 0.043023 0.021958 -0.1087 0.040252 -0.0044689 -0.040174 0.012061 0.04503 0.0022814 0.027298 -0.028314 0.026629 -0.0098336 -0.040961 -0.10573 -0.0041672 0.10668 0.01494 0.068263 0.036594 -0.01042 0.0455 0.064068 -0.02428 -0.037089 -0.1248 -0.01382 0.029247 -0.09173 -0.013086 0.001301 0.0092136 0.016533 -0.06654 -0.14263 -0.0064493 -0.021198 0.0060275 -0.051536 0.024914 0.028451 0.063715 0.024806 0.042239 0.0014174 -0.021818 0.070458 0.044223 0.077975 0.0095429 -0.031093 0.012119 0.07884 -0.028045 -0.047423 -0.0040674 0.088351 0.035914 -0.01479 0.19753 0.037339 -0.059253 0.049805 -0.074536 0.068324 -0.16475 -0.048883 -0.016516 -0.13458 0.063671 -0.028034 -0.085003 
Falke 0.033407 -0.0067391 0.0047887 0.017419 -0.013369 0.15697 -0.12024 -0.052072 0.033603 0.15894 0.022744 -0.00026293 -0.088635 -0.04409 0.042884 -0.036007 -0.12161 0.19145 0.11751 -0.064459 0.069357 -0.0026591 -0.073359 -0.058432 0.048738 -0.02084 0.032336 -0.050412 0.0085588 0.21195 -0.0018545 -0.095886 0.050893 0.044453 -0.0066283 0.080444 0.024203 0.059053 -0.047963 0.013585 0.033259 0.053954 -0.1096 -0.075082 0.12824 -0.03993 0.087236 -0.11328 -0.03195 -0.0060103 -0.12167 0.15617 -0.026137 -0.087022 -0.041501 -0.16707 -0.14355 -0.028142 0.1287 0.012152 -0.0091365 -0.095382 -0.089845 0.10885 0.10345 -0.0099653 -0.00044834 0.12301 -0.063445 0.12417 0.052228 0.22261 0.0049625 0.0381 -0.077112 0.013771 0.050727 -0.039755 -0.040755 0.040936 -9.0558e-05 -0.10654 -0.0059631 -0.0511 -0.089731 0.24806 0.00033634 0.029735 -0.039381 0.051349 -0.10634 0.060379 -0.1356 -0.10007 0.020646 0.043899 -0.035156 -0.06914 0.045054 0.0238 -0.027494 -0.020745 0.077218 0.15652 0.088704 0.0018351 -0.071324 0.23361 -0.018957 0.15562 0.06054 0.064101 -0.13263 -0.027622 -0.020257 0.13333 0.04138 0.0094476 -0.15514 0.12724 -0.080036 -0.080416 -0.0080226 -0.0035256 0.10848 -0.010429 0.18518 0.052802 -0.013086 0.0035383 -0.036708 0.021763 0.18572 -0.07671 -0.072128 -0.042788 -0.099323 -0.01304 -0.17687 -0.014015 -0.014703 0.24864 -0.028776 0.14412 -0.032147 -0.12393 -0.1961 0.05142 0.011292 -0.012131 -0.044767 0.04201 -0.012634 0.072687 -0.099245 -0.07629 -0.1182 -0.06576 0.059777 -0.074249 -0.021523 0.033979 -0.019139 0.20283 -0.08743 -0.015229 -0.043488 -0.071814 -0.11526 -0.046847 -0.10374 0.13698 -0.036293 0.088326 0.064231 0.068436 0.075937 0.081056 0.26408 -0.051957 -0.045721 0.17415 0.047266 -0.063779 0.19342 -0.25124 0.035648 -0.017705 -0.096678 -0.010601 0.15669 -0.10004 -0.089137 0.051522 0.11761 0.082057 -0.0055717 0.054875 0.14414 0.086421 -0.04522 -0.02608 0.10833 0.030584 -0.038257 -0.17477 0.10519 -0.054493 -0.024493 0.12918 0.0031807 -0.05082 0.043039 0.0147 0.1559 -0.018157 -0.006079 0.016441 -0.031087 -0.055845 0.19908 0.035689 -0.10904 -0.057852 -0.051774 -0.14148 0.0053952 0.073613 -0.062895 0.055905 0.20825 0.062979 -0.094719 -0.089812 0.055708 0.036189 -0.12639 0.24079 -0.0056654 -0.19753 -0.03506 -0.11723 -0.073515 0.013626 0.1664 -0.029589 -0.093925 -0.063872 -0.067086 -0.007978 -0.013948 -0.0026002 -0.10763 0.00016778 0.0057281 -0.015999 -0.088638 -0.067336 -0.0082578 -0.22382 0.11503 -0.071503 -0.14743 0.15831 -0.11695 0.042562 -0.0034924 0.046586 -0.040705 -0.015744 -0.074018 0.040824 0.014667 0.069729 -0.0715 0.073155 0.041369 0.028121 0.046005 -0.023956 0.0076836 0.12661 -0.04318 0.087435 0.13257 0.14116 0.098374 0.13732 0.0064361 0.11206 0.026679 0.07149 0.17173 -0.031235 0.17836 -0.12251 -0.041314 0.096073 0.04082 0.091805 
Wachtel 0.053618 0.0055543 0.073832 -0.0083743 0.052218 -0.007381 0.0053167 0.050274 -0.032282 0.062183 0.08002 0.048232 -0.034577 -0.074103 -0.019689 -0.036934 0.0020848 0.016933 -0.066969 -0.025442 0.050673 -0.1489 -0.013716 -0.016114 0.0572 -0.090641 -0.0058048 -0.036559 -0.0084265 0.11517 0.0060334 -0.060455 -0.033651 -0.083214 -0.017328 -0.020964 0.0068463 0.029551 0.0096027 0.0035049 0.064156 -0.056119 -0.0098896 0.022104 0.13632 -0.0020888 -0.028844 0.042809 0.013265 0.062198 -0.039633 0.094696 0.022616 -0.0097852 0.096582 -0.061258 0.00053185 0.028501 0.11905 -0.039785 0.070926 -0.036442 -0.018694 0.077718 0.09046 0.080738 -0.047282 -0.014458 -0.11785 -0.032324 -0.053488 0.0048342 -0.0094198 0.0021384 -0.015124 0.01626 0.10605 -0.056671 -0.056914 0.055712 -0.057926 -0.012344 0.098456 0.027257 -0.035675 0.013118 -0.051296 -0.010104 -0.014004 0.03408 0.03213 0.042477 -0.080128 0.0068037 -0.00064339 0.032703 -0.0020182 -0.0084676 -0.0092451 -0.0071385 0.16851 -0.081559 0.052312 0.052616 0.012973 0.015274 -0.074754 0.061082 -0.037127 -0.090325 0.02818 -0.044832 -0.050396 0.051209 -0.12672 0.02051 -0.06001 -0.0045127 -0.026623 -0.007251 0.001604 -0.021785 0.020334 -0.0046442 0.025402 -0.064917 0.016577 -0.031111 0.056267 -0.10259 -0.038566 -0.1046 0.062474 0.030336 -0.082967 0.024095 -0.077002 -0.041342 0.044833 0.018883 0.033853 0.023485 0.016972 0.026537 -0.014212 -0.013843 -0.20322 -0.036508 -0.032049 0.016272 -0.062296 0.013096 -0.032685 -0.069393 0.10592 -0.011167 -0.039168 0.059097 0.0099811 -0.017586 0.040501 -0.040591 -0.039167 0.040851 0.057579 -0.088106 0.096413 -0.024612 -0.011185 0.093995 0.033316 -0.067294 0.004747 -0.0852 -0.0059013 -0.028317 -0.048599 -0.028296 -0.0030138 -0.092219 -0.00020345 0.076149 0.014795 -0.12295 -0.048414 0.014397 -0.037578 0.17089 0.027372 -0.070291 0.032045 0.049783 -0.031719 0.11452 -0.067515 -0.024992 0.00077902 -0.016009 0.018175 0.049669 0.026945 -0.043124 0.044595 -0.021273 -0.0026152 -0.042512 0.077822 -0.048124 0.0099896 0.023548 0.028718 -0.06121 -0.0012583 0.031522 -0.039824 0.04265 0.019071 -0.070988 -0.089321 0.012754 0.03208 0.068229 0.040451 0.056345 -0.012867 -0.014649 0.086886 -0.051703 -0.0002644 0.017542 -0.0083237 -0.13356 -0.058888 -0.033253 -0.0054071 0.057288 0.02589 0.028703 -0.0018566 0.083107 -0.035391 -0.021551 -0.011802 -0.0039466 0.069566 -0.01951 0.054758 0.053303 0.0091374 0.046337 0.016972 -0.030142 0.052399 -0.036371 -0.055848 0.071673 -0.013116 0.014507 -0.038045 -0.046687 0.047971 -0.02712 -0.074201 0.00042711 -0.032446 0.056429 -0.039408 -0.0065265 0.036752 0.015105 0.018227 -0.0047432 0.017449 -0.053746 0.055593 0.046646 0.015346 0.00013911 -0.045041 0.026957 0.0054461 0.026343 0.0060744 -0.082446 0.026713 0.055263 -0.018686 0.1529 0.12145 -0.046657 0.032804 0.021352 0.03828 -0.023152 -0.007689 -0.022948 -0.046651 0.050121 0.019844 0.01991 
Flamingo -0.032847 0.001088 -0.0061361 0.016907 0.011975 0.030968 -0.0074843 0.060474 -0.065097 0.042352 -0.070046 -0.035617 0.021447 0.04139 0.00043445 0.021549 -0.06518 -0.046228 0.0073363 0.01033 0.088932 0.033967 0.025561 0.019628 0.044185 0.00093367 -0.01759 0.089301 -0.008092 0.055894 -0.046057 -0.0060279 -0.03424 0.012578 0.062888 0.012761 -0.042879 0.029359 0.061033 0.047608 -0.045261 0.04652 0.0039323 -0.046738 -0.060534 0.030339 0.022413 -0.015985 -0.033654 0.038084 -0.019952 0.0084096 0.027121 0.027172 0.029914 0.0068385 -0.065066 -0.017881 0.052038 -0.038853 0.025126 -0.037012 0.012025 0.11665 0.0025122 0.053109 -0.033809 -0.069517 -0.044726 -0.039496 0.043387 -0.022558 -0.0087742 0.026325 0.018698 0.00051912 0.0014376 0.044116 -0.0067725 -0.039379 0.073282 0.0022186 0.0023061 -0.02288 -0.032114 0.036664 -0.0081536 -0.021399 0.019408 0.011281 -0.051126 0.010926 -0.057459 -0.010979 0.030474 -0.00058353 -0.057969 -0.030709 0.052595 -0.020645 -0.013848 -0.048709 -0.040437 0.04146 -0.10148 0.097929 -0.03956 0.046844 0.0098131 0.0087842 0.035243 0.00028408 -0.033327 -0.048381 -0.10179 0.040334 -0.010192 0.0039967 -0.043169 -0.032941 -0.031912 -0.045161 -0.0013245 -0.0026788 0.011802 0.045793 0.027007 -0.032005 0.10317 0.0032078 -0.069303 -0.047048 -0.027872 -0.031085 -0.093716 0.022963 0.019094 -0.013245 0.0053441 -0.021704 -0.011652 -0.0066359 -0.0085367 0.032156 -0.0065739 0.018816 -0.058199 -0.0079144 0.075977 -0.03472 -0.0075921 0.0044992 -0.0082753 0.035173 0.025729 -0.082416 -0.057417 -0.0012809 0.0037034 -0.089856 -0.0079982 -0.043006 -0.028579 -0.036993 -0.0015914 0.01118 0.012488 0.014002 0.0039204 0.016526 0.013109 -0.0083949 -0.017979 -0.035609 0.046325 -0.0051062 -0.020222 0.027943 0.043926 -0.091504 0.042904 0.043901 0.011442 -0.041939 0.073878 -0.0037602 0.04462 0.026696 -0.054867 -0.0095396 -0.013312 -0.026402 0.0082025 0.022684 -0.13274 -0.021482 -0.027717 -0.0023956 -0.026936 0.040918 0.0069701 -0.0056388 -0.017147 0.0049165 -0.014999 -0.11451 0.02786 -0.0053097 0.0087329 0.039764 -0.018789 -0.054332 -0.033542 0.044639 0.060322 -0.039115 -0.054381 0.034728 -0.024182 -0.016709 0.098352 -0.011839 -0.081996 -0.0073609 0.03925 -0.055645 -0.00052418 -0.0068663 0.014549 -0.022317 -0.074948 -0.013289 0.002299 -0.024118 -0.048436 -0.018472 0.049408 0.015755 -0.056457 -0.011343 0.018413 0.0015169 -0.077085 -0.029291 0.066948 0.029903 0.032189 -0.040849 -0.050588 0.0031009 0.027666 -0.011514 0.027082 0.009146 0.052267 0.02572 -0.062248 -0.01198 0.049586 0.010061 -0.044258 -0.074365 -0.045164 -0.019925 -0.051796 -0.00961 -0.013192 -0.040095 0.023662 0.036633 0.081614 0.049944 -0.09454 -0.0009067 0.0058961 0.00026273 -0.02408 -0.074746 0.0025936 -0.05336 -0.01789 0.0046122 0.0075661 0.090361 0.013575 -0.011248 -0.028255 -0.038665 -0.02452 -0.0016568 0.021539 -0.040757 0.13598 -0.0087958 -0.0047278 -0.06387 -0.030091 0.047151 -0.038215 -0.057251 
Rebhuhn 0.023333 -0.026039 -0.023179 0.089053 -0.0098118 0.028752 -0.027275 -0.029828 0.031986 -0.0099951 0.071437 0.031801 -0.012692 -0.014801 -0.057668 -0.0078245 0.080501 0.0025718 0.011202 -0.00054166 0.033469 -0.014039 -0.033078 0.034881 0.067573 0.019844 -0.034853 0.021081 0.069268 -0.099061 0.028911 0.018488 -0.010793 0.047556 0.029193 0.00078371 0.053627 0.046438 0.0081318 0.010054 0.029664 0.048023 -0.043735 0.00859 0.061741 0.10792 0.054747 -0.020047 0.059373 0.043523 0.076934 0.0078914 0.012106 0.03559 0.030359 -0.033877 0.0021187 0.0085258 -0.0041914 -0.024613 0.034948 0.049027 0.022966 -0.00060695 -0.020238 0.020158 0.038887 0.00050873 -0.014075 0.079042 0.051979 -0.023046 -0.037499 0.016858 0.004665 0.022454 0.043038 0.06925 -0.038415 0.028221 -0.028333 -0.020829 0.017709 0.034792 -0.067668 0.012473 -0.072978 -0.041758 -0.012012 -0.055232 0.016601 0.028303 -0.065912 -0.044748 0.019719 -0.00044894 0.052448 -0.021098 -0.0019534 0.011376 -0.02642 -0.01408 -0.057385 0.099227 -0.057174 -0.033274 0.012517 0.02639 0.027055 -0.013725 -0.049688 -0.023122 -0.013174 -0.050558 -0.00042675 -0.018435 0.00041642 -0.037685 0.010652 0.047133 -0.044085 -0.074258 -0.0080025 0.10287 0.051445 0.012135 -0.0029567 -0.016316 0.035047 -0.057554 -0.04523 -0.022577 -0.00056915 -0.015357 0.023177 0.039372 0.0034475 -0.044236 0.0028843 -0.042948 -0.03056 0.030645 0.002141 -0.0411 -0.01122 -0.014377 -0.093442 0.029905 0.010507 -0.01312 0.013597 0.0022936 -0.10114 0.023519 0.018581 0.018444 -0.023853 0.012706 0.018316 0.017287 -0.020305 0.0028756 0.031378 0.041172 0.0043162 -0.030712 -0.0040095 -0.054172 0.040756 0.014201 -0.065112 -0.010989 0.027891 -0.0049384 0.021203 0.014459 0.012855 -0.017919 0.029858 0.021036 0.0059962 0.07927 -0.022211 -0.10498 -0.078402 -0.035443 -0.016181 0.028883 0.040912 0.008396 0.019543 0.046017 -0.032035 0.029032 -0.041641 -0.025761 -0.02701 -0.015053 0.0090466 0.11387 -0.016462 -0.0402 -0.016162 -0.058194 -0.018892 -0.03602 0.12736 0.0038422 -0.028051 0.023578 -0.062204 -0.049402 0.060666 -0.037796 0.028083 0.023867 -0.020119 0.016533 0.0044177 -0.008319 0.028679 0.039161 0.021445 -0.0087805 -0.0091116 -0.049176 0.013863 -0.046963 0.010349 0.061693 -0.043285 0.0070584 -0.041848 0.036072 0.028241 -0.037506 -0.010932 -0.023241 -0.028046 -0.01106 0.034872 -0.11562 -0.026289 -0.021356 -0.021359 -0.0016536 -0.007102 0.0028138 0.011294 -0.011691 0.033648 -0.048557 0.0084664 0.0072851 0.007936 0.05517 0.029934 -0.049923 -0.045544 -0.018325 -0.018539 -0.088524 -0.16771 0.021833 -0.0090776 0.02658 -0.025822 -0.023491 -0.0025445 0.13527 -0.013605 0.043376 -0.083249 -0.063362 0.010536 0.02578 -0.056166 0.016216 -0.020292 -0.034683 -0.0068145 0.0074792 -0.054992 -0.077261 -0.06816 -0.049375 0.042071 -0.030495 -0.011377 0.0031433 0.040434 -0.011186 -0.088048 -0.0038669 0.036991 -0.027021 -0.053902 0.034139 0.032137 -0.010466 
