reje -0.0097867 -0.0090412 -0.034584 -0.051408 0.034115 0.066368 -0.083628 0.045546 -0.018784 0.036486 -0.0091984 -0.0063756 0.058667 -0.070649 -0.013885 0.026233 -0.039595 0.064136 -0.0064898 -0.12028 0.1183 -0.010963 0.058661 -0.058919 -0.032952 -0.035498 -0.012361 0.082088 -0.042449 0.24451 0.044655 -0.020069 -0.043141 0.098315 0.017457 -0.078394 0.053354 0.028865 0.026676 -0.034668 0.014977 -0.16372 0.027357 -0.13042 0.0093912 0.076555 -0.03445 0.011366 -0.056217 -0.15652 0.044079 -0.069609 -0.0097369 0.069727 -0.068532 0.021501 -0.022374 0.091341 0.0059696 0.12602 0.03738 0.090219 0.00838 -0.06199 0.047598 0.075503 0.13647 0.07174 0.1281 -0.0074939 -0.05751 0.14549 -0.038239 -0.020098 0.10009 -0.022806 0.097571 -0.11753 0.10643 0.062954 0.019139 -0.012375 0.11019 0.1247 0.071789 -0.082506 -0.0056174 -0.0095728 -0.011113 -0.028914 -0.096001 -0.037538 0.09765 0.026706 0.012264 -0.082463 -0.062754 -0.011105 -0.12296 -0.11361 -0.017537 0.073973 -0.038201 0.064223 0.058387 0.081654 0.065791 0.011428 0.054189 0.011328 -0.082659 -0.0014914 -0.060768 0.081676 0.006034 -0.058206 0.077458 0.064191 -0.022882 0.13241 -0.030804 -0.029799 0.014151 0.056916 -0.10074 -0.048794 0.073717 0.055031 -0.14303 0.0006499 -0.11106 0.02295 -0.0158 0.050304 0.052539 0.057372 -0.07772 0.11014 -0.095717 0.054776 -0.13279 -0.023031 -0.013925 0.088908 0.016481 -0.015707 -0.11972 -0.046466 0.017082 -0.025288 -0.020147 -0.083592 0.039556 -0.052854 -0.027329 0.0067057 -0.0069738 -0.042515 0.084112 -0.043342 -0.00075598 0.13841 0.015081 -0.098671 0.027901 -0.0062352 0.034562 -0.12861 -0.057936 0.1504 0.020488 0.065915 0.012718 0.028101 -0.016566 -0.019774 -0.0013882 -0.018545 0.016589 0.052471 -0.045974 -0.14443 0.044206 -0.012651 0.041516 -0.0060179 -0.0098699 0.088007 -0.10373 -0.014737 0.14493 0.015758 -0.060214 -0.096407 0.012624 0.048068 0.070035 -0.022372 -0.16166 0.050037 0.16767 0.046376 -0.047517 0.042119 0.14642 0.1027 -0.061108 0.017267 0.048206 -0.08932 0.059802 0.04275 -0.084939 0.086006 0.0096199 -0.0088786 -0.027613 0.030139 -0.10996 -0.04762 0.0076675 -0.17807 -0.094362 -0.043626 -0.10034 0.028261 -0.090994 0.067864 -0.024546 -0.036321 -0.015803 -0.022198 0.14738 -0.045547 0.18562 -0.0068081 0.016643 0.026467 -0.012833 0.014928 -0.022933 -0.044284 0.084167 -0.14106 0.25399 -0.013667 -0.11139 0.017372 0.0053024 -0.071286 -0.15003 0.10285 -0.037299 0.12324 -0.033017 0.0086635 -0.061356 0.076661 0.025952 0.1676 0.014442 0.07791 0.26475 -0.10115 -0.019088 0.045281 -0.064697 0.044994 -0.041911 -0.19538 0.10303 -0.12061 0.038399 -0.014694 -0.019997 0.08637 -0.073873 0.063857 0.10108 -0.06134 0.030467 -0.1363 0.1893 -0.024934 -0.064143 0.13816 -0.02718 0.026397 0.085354 0.030578 -0.039497 0.054003 0.010071 0.080648 0.10629 0.01512 0.023088 0.10095 -0.049953 0.048925 
garnaal -0.018491 0.0098755 0.014537 0.066099 -0.022576 0.034086 -0.023447 -0.0048877 -0.0010282 -0.01653 -0.023259 0.051836 -0.048967 0.018718 -0.015287 -0.0034936 0.0096756 -0.0048132 -0.064435 0.074346 -0.031334 -0.0047369 0.02161 0.04917 0.085854 0.033986 0.0023881 0.044535 -0.0030396 0.0096773 0.026505 0.0241 -0.022845 0.021888 0.022341 0.026192 -0.11006 0.015734 0.05692 0.024034 -0.0019617 0.026023 -0.017287 0.0034309 -0.050229 0.084322 0.0019026 0.018497 -0.032779 0.075833 0.039266 -0.018594 0.0074076 -0.036086 0.043083 -0.043485 0.00051531 0.044871 -0.079833 -0.082644 0.0022996 0.038623 -0.087396 0.072462 -0.026208 0.000161 -0.025 -0.01079 0.036853 -0.0069668 0.033099 -0.022115 -0.029698 0.0050095 -0.0033289 -0.0089758 0.013069 0.036942 0.038614 0.024987 0.022527 0.016695 0.061746 0.061571 -0.12496 0.030057 -0.04575 -0.13893 0.058368 0.017966 0.023943 -0.0065695 -0.035643 0.06697 0.06145 -0.0082826 0.042877 -0.041625 -0.020997 -0.039105 0.009091 -0.0044918 -0.063254 0.1168 0.0090315 -0.0077322 -0.0033975 0.068249 -0.026149 0.058105 -0.030632 0.091108 0.075717 0.048666 -0.045614 -0.01974 -0.0012016 -0.033469 0.0081277 0.065616 0.0097459 -0.019919 0.014761 0.018563 0.048335 0.023693 0.038601 -0.051841 -0.028978 -0.067861 -0.099938 -0.0075126 -0.041326 -0.0063668 0.081099 -0.015326 0.060683 0.036248 0.090968 0.012953 0.049932 0.017926 0.066904 0.047661 -0.047946 0.034518 -0.055078 0.067464 -0.039397 0.056875 0.052604 -0.018807 -0.045046 0.017376 -0.075061 -0.028014 -0.03135 -0.0749 -0.049015 -0.060646 0.045405 0.032536 -0.053822 0.01117 -0.0095482 0.02267 0.00059219 -0.0084877 0.064161 0.031226 0.060034 0.0067649 0.054633 0.029003 -0.028998 0.0011586 -0.041491 -0.034553 0.084143 -0.014985 -0.030015 0.028071 -0.0001142 -0.10363 0.041301 -0.087423 0.07941 -0.02908 0.0032477 0.0086028 0.065273 -0.065563 -0.048494 0.011256 -0.014257 -0.032716 -0.0092014 -0.062262 0.037362 0.1039 -0.022848 0.037442 -0.026011 0.035408 -0.025435 0.042923 0.089085 -5.838e-05 -0.0061955 -0.017454 -0.072293 -0.068103 0.045863 0.018061 0.0061227 0.030617 0.0013723 0.05419 0.045427 -0.036931 0.020956 0.0023188 0.074159 0.070505 0.031959 0.071696 -0.0014567 -0.0048642 0.007954 0.030757 0.017744 0.017991 0.036033 -0.031343 0.027694 0.07058 -0.033497 -0.0090116 0.05152 0.017646 0.042831 -0.060779 -0.066174 -0.14561 0.0087152 0.048871 -0.031219 0.03939 0.047241 -0.051572 0.035351 -0.057437 -0.0023591 0.021631 -0.03724 0.086837 -0.040899 -0.011716 0.010346 -0.026946 -0.011568 -0.0035127 -0.15738 -0.010402 -0.032052 -0.031601 -0.0094736 -0.071315 0.073321 0.046669 -0.001238 0.029061 -0.096958 0.016962 0.031078 -0.063794 -0.024598 0.027989 -0.01879 0.06858 0.0056992 -0.0067048 -0.06143 0.0056513 -0.08373 -0.075943 0.0023718 -0.075553 -0.042064 0.058647 0.087872 0.013043 -0.081234 -0.035634 0.020643 0.041242 -0.001237 0.052097 0.0072192 0.050093 
caramote 0.0063194 0.020947 -0.055153 0.071665 -0.049621 0.019188 0.0074979 0.028083 0.0027748 0.013495 -0.050386 -0.011689 -0.030415 0.012642 0.011408 0.015185 0.047023 0.015958 0.014024 0.016206 -0.057034 0.0065648 -0.032464 -0.090055 0.055262 0.0087714 -0.033812 0.0096847 -0.0048113 -0.0030244 -0.011272 0.0023754 0.0044079 0.068563 0.037721 0.039998 0.0099504 0.083201 0.022788 0.085477 -0.0073561 -0.011256 0.057566 0.00085049 0.0044934 0.0030096 -0.010119 0.050031 -0.016039 -0.028894 0.033492 -0.010281 0.032746 -0.019316 0.0055618 -0.031721 0.038634 -0.084506 -0.094336 0.015346 -0.0038024 -0.019094 -0.022041 0.017029 0.05605 -0.042548 0.0036274 0.01177 -0.049739 -0.016614 0.033004 -0.020309 -0.030033 0.032818 0.0316 -0.039072 0.0020299 -0.00010033 -0.0017574 0.049236 -0.04193 -0.018069 -0.01833 -0.0048479 0.014351 -0.021587 -0.031203 -0.022068 0.010902 0.0054084 -0.043993 0.024552 -0.079286 -0.0069011 0.084792 0.018825 0.033186 0.011639 0.027406 0.022294 0.00077774 -0.071197 -0.047229 0.052027 -0.019783 -0.0049551 0.0024384 0.015548 -0.057312 0.010383 -0.02237 -0.010196 -0.020403 0.012051 -0.017847 -0.0075246 -0.00077278 0.039858 0.0059163 0.028636 -0.064645 0.077209 -0.027696 0.013034 -0.025095 0.011029 -0.016585 0.025625 0.0079462 0.009792 -0.016027 0.024129 0.0094313 0.022622 0.028444 -0.028226 0.10044 -0.02305 0.0090906 0.013757 0.039372 -0.050833 -0.014134 0.014206 -0.0056337 -0.03646 -0.023202 -0.031157 0.018768 0.071574 0.039425 -0.032657 -0.074938 0.022852 0.028452 0.054826 0.048631 -0.011532 -0.081205 0.025229 -0.060385 -0.0038039 -0.056585 -0.0024237 -0.034094 0.01906 -0.026367 -0.0058083 0.0054573 -0.0027307 0.03063 -0.043848 -0.0025227 0.026971 -0.030293 -0.054449 0.003733 0.02526 0.00029582 -0.062846 0.0037591 -0.0038116 0.016975 -0.079531 0.020364 -0.022335 0.050081 -0.050046 -0.037503 -0.015472 0.032936 -0.013788 -0.011365 0.029388 -0.0097126 0.013667 0.018625 -0.031472 -0.011202 0.084591 -0.070076 0.069812 -0.014795 0.012645 -0.08071 0.036305 0.083996 -0.047127 0.024543 -0.015851 -0.036231 -0.0025992 0.028141 0.0089931 -0.019216 -0.0049554 0.018726 0.026372 0.073505 0.031488 -0.023936 -0.0011003 0.051818 0.058941 -0.072359 0.0036713 -0.016721 0.070515 -0.018215 -0.045892 -0.016248 0.0052222 0.03009 -0.043652 0.033517 0.020291 0.033904 0.0132 0.00067766 -0.038379 0.039748 -0.028368 -0.031882 -0.049547 0.014175 0.042888 -0.0016969 -0.002786 -0.0043215 0.014707 0.061399 -0.089492 -0.023209 0.0052909 0.041058 -0.0059729 -0.028933 0.039681 -0.041688 -0.027782 -0.023565 -0.024122 -0.10837 -0.0081114 -0.067962 0.038654 -0.057937 0.010213 0.010854 0.068308 0.031374 0.046414 -0.038875 -0.0062085 0.00856 -0.0057758 -0.069895 0.042991 -0.030803 0.060673 0.0035821 -0.001084 -0.054992 0.038065 0.01411 -0.0058044 0.0098169 -0.013222 -0.0153 0.053034 0.025478 -0.058266 -0.047337 -0.025476 0.010307 0.049939 0.045095 0.013821 -0.012553 -0.023056 
Garnele -0.0058223 -0.0013325 0.011853 0.076345 0.0012611 -0.068501 0.017068 0.033993 -0.042595 0.00065792 -0.00022039 0.018475 0.021546 0.0049742 -0.05719 -0.1331 -0.0014265 0.0078922 -0.026672 0.013969 0.030242 0.0023797 0.013626 -0.013358 0.054938 0.0075703 -0.014239 0.027936 0.046888 0.011791 0.053006 -0.0012846 0.0049736 0.057754 0.022681 0.03277 -0.031929 0.10637 0.0017466 -0.013245 -0.023956 -0.041021 0.039309 -0.0093249 0.039824 0.016103 0.029159 0.020182 -0.023738 0.016218 0.0080539 -0.062432 0.029936 0.004206 0.06694 -0.0034923 0.03149 0.030464 0.043496 -0.032408 -0.015073 -0.004973 -0.018394 0.015902 0.022235 -0.0027448 0.044705 0.0092957 -0.0085677 0.0096023 0.044042 0.033357 0.016257 0.04298 -0.015714 -0.013906 -0.053167 0.026982 -0.023544 0.015398 -0.0071119 0.063016 -0.017468 0.015547 0.00031331 -0.056022 -0.026694 -0.013733 0.011677 -0.01869 0.011576 0.018545 -0.040751 -0.0059752 0.068892 -0.028458 0.037841 -0.062447 -0.0069093 0.0097749 -0.040995 0.0060845 0.036237 0.090992 -0.011866 -0.00144 -0.014989 0.025563 -0.00055263 0.0049209 0.00060229 -0.014793 0.0057535 -0.050212 -0.037033 -0.015598 0.0065637 0.0097611 0.048853 -0.072211 -0.013118 -0.008269 0.043011 0.0017977 -0.030171 0.043261 -0.017017 -0.020146 0.028802 -0.046939 0.068977 -0.0097405 -0.014007 0.029567 -0.064524 0.015349 -0.004094 0.0049572 0.028767 0.012018 0.0076961 -0.014004 0.0071608 0.0063001 -0.015517 0.054999 -0.03833 0.0024113 0.0059478 0.022689 -0.079636 -0.022414 -0.047968 -0.001584 0.0050345 -0.010744 -0.068695 -0.054605 -0.0099428 -0.0016016 -0.025445 0.021382 -0.028366 -0.034599 -0.025289 0.011697 -0.021639 0.010195 0.031974 -0.042444 0.085854 0.022214 -0.037161 -0.011418 0.0081784 0.040556 0.00094447 -0.038551 0.018421 -0.0049236 0.030302 0.067117 -0.0091 -0.0072043 0.011336 -0.037827 0.019277 -0.035599 0.05003 -0.02833 0.010442 0.029425 -0.008222 0.0089484 0.0064599 -0.00043054 0.00093169 0.014504 0.0050637 0.081386 -0.038008 -0.018186 0.022824 0.043417 -0.037662 -0.010728 0.055197 0.012881 0.0041252 0.070724 0.022845 -0.027294 -0.01268 0.027405 -0.011727 0.012841 -0.015754 0.017897 -0.012056 0.0090847 0.020477 -0.0013424 0.021818 0.0042154 -0.036297 0.023489 -0.015588 0.016496 0.032081 0.027688 -0.021528 0.039566 -0.015702 0.033396 -0.00093841 0.016614 0.01812 -0.0029858 0.018512 0.020039 0.016087 -0.074502 -0.030256 -0.098644 -0.0015407 0.0071432 0.0022932 0.00143 -0.023524 0.09187 0.10414 -0.00071514 0.023876 0.039169 0.001439 0.018981 -0.020419 0.0083124 0.016151 0.019267 -0.010224 -0.042181 -0.10346 0.010931 -0.095191 0.032966 0.021161 -0.032523 0.059423 0.065498 0.0044757 0.022393 -0.056676 -0.030418 0.023866 0.0022147 -0.014275 -0.031352 -0.077458 -0.036631 0.0056124 0.031115 -0.045938 -0.021061 -0.0062354 -0.047103 0.031361 -0.08909 0.004113 -0.026941 0.060954 0.032531 -0.018321 0.016248 0.065101 0.067326 0.014526 0.025518 -0.0033244 -0.02249 
Krabbe 0.17157 -0.060107 -0.020274 -0.014056 0.016428 0.02587 -0.0063583 -0.023875 0.25292 -0.080409 -0.061977 0.0082505 -0.071291 -0.096479 -0.1284 0.046409 0.016389 -0.04043 -0.033926 0.0089613 -0.1146 -0.13179 -0.11135 0.070572 -0.057894 -0.081651 0.070746 0.034424 0.14767 0.19084 0.11649 -0.065499 -0.18862 -0.0058214 -0.15338 0.10283 0.062184 0.054012 -0.13784 0.065713 0.082601 -0.028355 0.062371 0.01231 0.12071 0.091529 0.047971 -0.093811 0.011493 -0.0523 0.0023294 -0.087508 0.015926 0.0043954 0.0048753 0.049194 -0.034498 0.012304 0.069783 -0.14348 -0.0014186 -0.073113 0.025526 0.040689 -0.15553 0.16455 -0.07317 -0.10709 -0.051418 0.11808 0.067331 -0.00059001 -0.13722 0.053121 0.060201 -0.074138 0.0023786 -0.028693 -0.019584 0.058071 0.0072123 0.0061844 0.090292 -0.036057 -0.0091507 0.12391 0.13581 -0.066726 0.06855 0.039345 0.11264 -0.00034711 -0.075128 -0.12632 -0.026341 -0.038918 0.042271 -0.13598 -0.0443 -0.11136 -0.026521 -0.29516 -0.0045852 0.00024575 -0.10748 0.13057 -8.9791e-05 0.11376 -0.03722 -0.0093773 0.052163 0.14366 -0.017612 0.040091 0.047461 0.021578 0.2048 -0.038104 -0.017738 -0.0079237 -0.036997 0.10811 0.088692 0.10106 -0.062213 0.022241 -0.029093 0.040751 -0.077149 -0.14987 0.082437 -0.029351 -0.012955 -0.025117 -0.0070387 -0.14138 -0.091869 0.080375 0.12602 -0.13296 0.096948 0.11307 -0.02708 0.11414 0.041798 0.046792 -0.19939 -0.09359 -0.028605 0.03342 -0.083279 0.021519 -0.1137 -0.11748 -0.13783 -0.10109 -0.10196 0.050739 0.036738 -0.089724 0.02179 0.0084309 -0.013754 0.10158 -0.082342 -0.018804 0.051677 -0.076152 0.058689 0.059374 -0.052916 0.077463 0.12377 -0.041144 -0.09808 0.056347 0.096263 0.10693 0.17988 0.091872 -0.044642 0.044818 0.058819 -0.089548 0.035366 -0.025278 0.088206 0.14857 0.092992 -0.0035561 -0.01445 0.10785 0.042244 -0.074872 -0.01355 0.075973 0.0014662 0.025808 -0.022682 0.0099621 0.020475 0.0181 0.14825 -0.15484 0.017538 0.069972 0.0050494 0.035616 0.049857 -0.0021105 -0.14383 -0.04941 0.053632 -0.080314 -0.10293 -0.11498 0.14435 -0.054187 -0.037524 0.040466 0.13499 -0.085475 0.13485 0.0352 -0.11901 -0.009179 -0.020737 -0.013786 0.058153 -0.11512 0.085715 0.013285 -0.018206 0.081488 0.034974 0.055114 -0.024597 -0.023397 0.0095612 -0.10265 0.028455 -0.041899 -0.11255 0.0061997 0.089376 -0.017916 0.051446 0.12054 -0.017113 0.026698 -0.083039 -0.005835 -0.010406 0.16984 -0.039432 0.035826 0.056337 -0.15721 0.044029 0.039087 0.14584 -0.0393 -0.12426 0.018708 -0.07196 0.020958 -0.04039 -0.033834 0.048239 -0.00074421 -0.13114 0.034358 0.019417 -0.045331 0.010455 0.020793 -0.024406 0.02958 -0.0026723 -0.096078 -0.026467 -0.013198 -0.016547 0.011196 0.011969 0.0039146 -0.029639 0.14828 -0.16668 0.0029836 -0.006827 0.034296 0.097506 -0.04193 -0.048584 0.14761 -0.05865 0.095109 0.0815 0.097756 
garída -0.01412 -0.015866 0.046809 -0.0099999 0.023595 -0.0235 -0.01322 0.020042 0.0062621 -0.019492 0.038221 -0.0097962 0.035071 -0.015614 0.054276 -0.053149 0.054702 -0.05889 0.0241 0.027377 0.0083913 0.024783 -0.013239 -0.0013303 0.022171 0.0015838 0.013578 0.075032 0.0016227 0.050141 -0.042379 0.02737 0.013162 -0.018627 0.055821 -0.012452 -0.019494 0.0041945 -0.017985 0.027783 0.010962 -0.042811 -0.025837 -0.028875 0.011605 0.00060033 -0.0024994 -0.018643 -0.016094 -0.029988 0.028022 -0.067655 0.00074103 -0.0092786 -0.0072267 -0.0088097 -0.004764 -0.007447 -0.047069 0.003627 0.0020941 0.088474 -0.035924 0.034365 -0.055313 0.011095 0.033879 0.039603 -0.016359 0.012572 -0.016949 0.015182 -0.0033129 -0.038962 -0.015027 -0.0035283 0.013992 0.0099295 -0.065544 0.0526 0.032163 -0.015858 0.028562 -0.023202 -0.0094351 0.0011572 -0.0037772 -0.016325 -0.016112 -0.033956 -0.0027527 -0.0042117 -0.0299 -0.018882 0.049416 0.036667 0.035895 -0.0070693 -0.0027234 -0.018331 0.034294 0.022043 -0.041686 -0.024275 -0.0074115 0.015626 -0.0034986 -0.046835 0.015788 -0.0025301 -0.036352 -0.017668 0.015222 0.060872 0.014064 0.035753 0.044139 0.029853 0.041868 0.011135 -0.042571 0.0094282 -0.010967 -0.015942 0.045461 -0.04341 -0.0076382 -0.012984 0.02387 -0.014484 -0.019888 0.014568 0.011466 -0.02998 0.031995 0.013894 -0.026695 -0.010022 0.052579 0.0097094 0.026154 -0.021636 -0.017834 0.052334 -0.051753 -0.0053355 -0.07239 -0.027393 0.0059518 0.014098 -0.032313 -0.0071763 -0.025196 0.0063176 -0.032891 -0.032141 -0.062513 -0.025028 -0.021653 -0.035556 -0.013957 0.030588 0.023087 -0.027188 0.055078 -0.031088 -0.017738 0.033123 0.040959 0.0062701 0.0072817 0.021982 0.014105 0.028441 0.001741 -0.0037961 -0.0038005 0.033589 -0.028872 -0.022765 0.015851 0.025061 -0.019356 -0.011414 -0.035636 -0.04749 0.006152 -0.017124 -0.0033182 -0.015566 0.0028665 -0.0041381 -0.01011 0.0089588 -0.012884 -0.0082598 0.010877 -0.022048 0.014089 0.003609 -0.0034337 0.014086 -0.058681 0.0018747 -0.05875 0.016077 0.03578 0.0062999 0.040788 -0.012367 -0.058311 0.0019527 0.021166 0.022666 -0.02086 -0.014265 0.02475 -0.020373 0.046036 0.013142 0.00088086 0.033271 0.022542 0.022643 -0.035852 -0.021277 0.037797 0.0095236 0.011396 0.00011589 0.051278 0.03075 0.015179 0.0069127 0.026071 -0.0019033 -0.0071137 0.050632 -0.0051548 -0.040803 0.012978 -0.044752 -0.013862 -0.082909 -0.01584 0.022416 -0.015309 -0.015241 -0.02932 0.02376 0.02594 -0.017398 0.013864 0.058932 0.008329 0.011241 0.018264 0.0017246 0.010611 0.0088638 -0.013809 -0.054776 -0.031652 0.0033836 -0.05401 -0.016944 -0.0046934 -0.0028442 0.025486 0.036211 -0.013582 0.029417 -0.030357 -0.021999 -0.026113 0.016588 -0.010572 -0.044777 -0.0060669 -0.012372 0.021272 -0.016746 -0.024206 -0.018898 0.045373 0.0099551 0.018 -0.0095286 -0.054506 0.011909 0.07982 0.04113 0.0078136 0.0047149 -0.011614 0.0096334 -0.00017643 0.0483 0.045568 -0.021009 
mazzancolla -0.015003 0.01747 -0.027848 0.036622 -0.0017149 -0.035398 0.031798 0.0093494 -0.024769 0.038552 0.03795 0.016811 0.0034581 -0.010957 0.014888 0.0022808 0.01434 0.013229 0.026575 -0.0090205 0.029058 0.016566 -0.0157 0.03328 0.069041 0.025783 0.012737 -0.018273 -0.0023988 -0.021898 -0.0023454 -0.0020901 0.03391 0.041563 0.0033605 0.01344 -0.024702 0.063195 -0.022158 0.057863 0.00097889 0.011733 0.037552 -0.0055619 0.029693 0.053473 0.060584 0.0035994 -0.014009 0.010615 0.0037628 -0.042847 0.0033321 -0.040996 0.027788 0.0012925 0.051249 0.018831 -0.0033527 -0.0025671 -0.0090051 -0.037858 -0.0024385 0.09667 -0.0031039 0.0088677 0.018931 0.04632 -0.023896 -0.043205 0.042122 0.022281 0.0028649 -0.0038292 -0.0013488 0.019469 -0.032548 0.059888 -0.016199 0.027886 -0.021876 -0.0050788 -0.011122 0.00039056 -0.016238 0.014314 -0.038593 -0.025185 0.045495 -0.011648 0.0069916 -0.043295 -0.052266 0.0068392 0.048408 0.032359 0.045927 0.028743 -0.0073733 -0.0046755 0.010945 -0.022907 -0.031139 0.012805 -0.0074624 -0.0092352 0.032046 0.040053 -0.034856 -0.014679 -0.018407 -0.00023583 -0.024309 -0.0072802 0.0058968 -0.015814 -0.055123 0.001864 -0.010814 0.019515 -0.01983 0.022696 0.0094775 0.023881 0.0059435 0.00455 -0.020862 0.00012565 0.0066942 -0.039103 -0.00043811 -0.048165 -0.00039586 -0.0053528 -0.0046719 0.021867 -0.018577 -0.026165 -0.03449 -0.0055335 0.029729 0.0014744 -0.017633 -0.0024595 -0.067303 -0.021311 -0.049622 0.00059852 0.026004 0.036918 0.019498 0.047973 0.0062333 -0.0047534 0.0063006 -0.015028 0.066823 -0.025558 -0.01157 -0.029998 -0.024189 -0.0078943 -0.029399 0.017746 0.013034 0.010163 -0.014717 -0.01446 0.028053 0.03432 -0.024452 -0.020128 -0.042991 0.021027 0.0070474 -0.0054133 -0.037733 0.0011457 -0.0036449 -0.056312 0.022994 0.030442 -0.0094571 -0.084236 0.0074135 -0.014019 0.057782 0.021817 0.0030551 0.004417 0.013996 -0.030007 0.021396 0.015392 -0.023562 -0.045061 -0.021774 -9.9582e-05 0.01257 0.053751 -0.046806 -0.014387 0.027952 -0.0061865 -0.023148 -0.023611 0.015668 -0.043459 -0.022546 0.036141 -0.069807 -0.03792 0.033875 0.010364 0.0026325 -0.030088 -0.012507 0.01192 -0.012035 0.0066407 -0.0032529 0.0035582 -0.0037211 0.05761 -0.0075939 -0.0094504 0.010213 0.028643 -0.021803 0.030341 -0.02575 0.01204 0.016069 -0.020781 0.022238 0.029869 -0.025314 -0.017559 0.0039787 -0.01641 -0.014963 -0.096059 -0.0097051 -0.054946 0.0052234 0.014405 -0.012778 0.030859 -0.0057887 -0.079494 -0.0032503 -0.081246 0.026271 0.06217 -0.019883 0.0030856 -0.020327 0.026855 -0.030334 -0.024076 0.011507 -0.022879 -0.090459 -0.028634 -0.038195 -0.0064159 -0.0071449 -0.0067589 -0.017145 0.040382 -0.023097 0.016864 -0.075823 -0.017273 0.012417 0.050545 -0.043679 0.0032333 -0.073536 0.02353 0.016442 0.025498 -0.010225 0.038912 -0.037899 0.018316 -0.016541 -0.026514 -0.0060068 0.0051474 -0.015361 0.022873 -0.072094 -0.016643 0.02488 0.0070857 -0.0096797 0.023167 0.027947 0.0079212 
reke 0.10483 0.0091582 0.0020287 0.13131 -0.10713 0.16683 0.044197 0.018944 -0.021487 0.05979 -0.10608 -0.023107 -0.027184 -0.048518 0.038724 0.080084 0.13157 -0.059115 -0.12776 0.034476 0.048359 0.0090436 0.010155 -0.001406 -0.01725 -0.019009 0.084464 -0.073093 0.020559 0.18185 -0.069902 -0.011118 -0.050492 0.019559 0.045296 0.0056861 -0.046685 0.1153 -0.095081 -0.10238 -0.097216 -0.056902 0.073298 -0.067386 0.0079604 0.0060067 0.031317 0.092786 -0.093558 0.043701 0.071051 0.036168 0.00069367 -0.058059 0.20536 -0.11074 0.038404 0.0065675 -0.05951 -0.021092 0.047803 0.087139 0.063218 -0.018356 -0.017757 -0.094034 0.11386 0.067446 -0.088426 -0.027964 -0.0065227 0.059528 -0.13777 -0.010214 -0.021554 0.10163 0.014455 -0.064015 -0.028207 0.029772 0.065666 0.12592 0.097006 -0.016918 0.058792 0.031047 0.027697 0.044711 0.048486 -0.065421 -0.078616 -0.048803 0.022309 0.07024 0.04583 0.015304 -0.016952 0.046866 -0.2156 -0.10271 0.08219 0.10692 0.094112 0.034929 0.0038997 0.16982 0.031489 0.073616 0.068524 0.04572 -0.055533 -0.0078299 -0.033015 0.15917 -0.10459 -0.10406 0.088422 -0.035326 0.029855 0.082919 0.069062 -0.18661 0.022564 -0.012102 0.059269 -0.094912 -0.052779 -0.047035 -0.11506 0.099331 0.053062 -0.014186 -0.013337 0.03027 -0.027845 -0.10007 0.031542 0.03023 0.079748 0.00115 0.11116 -0.014149 0.096574 0.03465 -0.015697 -0.030027 -0.17601 -0.077498 0.011438 0.085989 0.033045 -0.13308 -0.05274 0.030391 -0.042458 -0.026941 0.022335 0.0033946 0.099644 0.045787 0.085549 -0.026327 0.09463 -0.16241 0.076753 0.070073 -0.003207 0.090843 0.039839 0.073656 0.0031008 0.068063 -0.12977 0.014909 0.061608 -0.0034725 0.025706 0.0098005 0.012018 0.094341 -0.032185 -0.018571 0.082064 -0.075682 -0.046407 -0.058564 0.04169 0.013278 0.046374 0.001 0.022395 -0.18169 0.066815 -0.028827 0.021765 0.082324 0.061478 0.091908 0.17313 0.040338 -0.039814 0.0062903 0.086274 0.16331 0.048696 0.017855 -0.024953 -0.11165 0.10843 -0.027355 -0.034233 -0.038667 -0.025122 0.095507 -0.049117 0.048608 0.024029 0.088419 0.1257 -0.018106 -0.15962 0.0057121 0.030786 0.046812 -0.22448 -0.00058001 0.059165 0.045334 -0.061829 0.033341 -0.073477 -0.005591 -0.1291 0.0037554 0.021357 -0.037176 -0.012528 -0.052791 0.047897 -0.10223 0.066329 0.03417 0.047862 -0.14266 0.23154 -0.097958 0.043937 0.029271 -0.030507 0.076792 -0.083025 -0.0071736 -0.22056 0.09542 -0.081901 -0.046245 -0.031211 0.032669 0.13281 0.08977 0.1113 0.016992 -0.028047 -0.1014 -0.062205 -0.040714 -0.048943 0.027167 -0.066746 -0.0087126 0.11275 0.014913 -0.023817 0.011229 0.012757 0.083933 -0.067801 0.014925 0.070869 -0.066223 0.053032 -0.064909 -0.039913 -0.065455 -0.054604 -0.20177 -0.046876 0.058174 0.19202 -0.04455 -0.011091 -0.014484 -0.028537 0.15303 0.055394 0.049808 0.12328 0.087554 -0.035989 0.029324 
camarão -0.070153 -0.035659 -0.019942 0.010798 -0.0076421 0.045934 -0.028632 -0.013312 0.015849 -0.089799 0.017127 0.026696 0.029744 0.0054329 -0.010018 -0.062045 0.0036549 -0.03549 0.00037889 0.059061 -0.016927 -0.072535 0.0021603 0.014162 0.04091 -0.017148 0.023251 0.068661 -0.013736 -0.003544 -0.038438 0.077083 -0.020219 -0.02016 0.024393 -0.034557 -0.009965 0.1205 -0.022399 0.07571 0.012383 0.016311 -0.049329 -0.024862 0.014222 0.065767 -0.025894 0.041317 -0.045224 0.031836 0.030674 -0.10725 0.034775 -0.084384 0.02142 0.012825 0.038463 -0.0034813 -0.010177 -3.7069e-05 0.032989 0.044727 0.0010819 0.051392 -0.02777 -0.014795 0.008937 -0.018804 -0.028298 -0.014432 0.089076 0.040909 -0.0037699 -0.024509 -0.023467 0.0021056 -0.0065026 0.054666 -0.059899 0.038618 -0.0099109 0.01661 -0.024924 -0.022488 0.02068 -0.026278 -0.02189 0.048752 -0.01624 0.02688 -0.0039777 0.01933 -0.092821 -0.011175 0.060133 0.02992 0.021047 -0.017674 -0.06637 0.069524 -0.032713 -0.0094202 -0.065397 0.042377 -0.046337 0.025548 0.07672 0.022934 -0.084813 -0.041543 -0.030923 0.011829 0.0086393 -0.062016 -0.013091 -0.036444 -0.029902 0.044399 0.06996 0.030944 0.015704 -0.033653 0.040646 -0.038518 0.044712 0.039412 -0.00065582 0.0096797 -0.052708 0.018191 -0.011145 0.029339 -0.049657 0.015649 0.0029844 0.020265 0.0015882 -0.015729 -0.039637 0.010648 0.044981 -0.060544 0.02782 0.039971 -0.080525 -0.022012 -0.073941 0.056721 0.030386 0.0072101 0.021149 0.0024299 -0.0038565 -0.030008 0.012624 -0.012757 0.071631 -0.088144 -0.023832 -0.00054709 0.011999 -0.0011287 -0.082585 -0.094034 0.049303 0.044229 -0.0041534 -0.018597 0.019981 0.029334 -0.0054906 0.073749 -0.019895 0.020567 0.022919 -0.03066 -0.069578 -0.026314 -0.040931 -0.074317 -0.0075209 0.0047647 -0.047363 -0.094081 0.0093713 0.0070112 0.053972 0.056754 0.010002 0.0089656 -0.022861 -0.0014643 0.037291 0.0014852 -0.041637 -0.026092 -0.0059788 0.040329 -0.00063857 0.067409 -0.056627 0.022403 0.078063 -0.016629 -0.043931 -0.032341 0.070507 -0.042602 -0.042082 -0.0059182 -0.027344 -0.032479 -0.019323 0.024312 -0.044827 -0.043878 -0.041794 0.0072221 -0.062916 0.024593 0.10159 0.0010491 0.025612 -0.0072575 -0.020906 -0.047721 -0.037122 0.0054784 -0.002047 0.00093671 0.059687 0.038369 0.045806 0.0082014 0.010419 -0.017212 0.018 0.029692 0.020799 -0.023298 0.080794 -0.040534 -0.010439 -0.086461 -0.0025264 0.025967 -0.0070847 0.017972 -0.049694 0.032777 0.095052 -0.0032689 -0.092123 0.058858 -0.018222 0.046964 -0.0084742 0.056532 0.017039 -0.0003527 0.052545 -0.081308 -0.12829 -0.042498 -0.078269 -0.0056655 -0.0010239 0.048879 0.06273 0.049541 0.010693 0.064747 -0.033114 -0.060398 -0.014962 0.0016272 -0.044101 0.018093 -0.012343 0.0096467 0.035245 -0.033387 -0.063649 -0.020779 -0.023942 0.0021429 -0.0053312 -0.10031 0.043998 -0.015911 0.10855 -0.0062472 -0.051523 0.023958 0.012807 0.016175 0.0081416 0.039739 -0.012801 0.00025942 
langostino 0.013743 -0.031152 -0.046325 0.032782 0.078488 0.022199 -0.020263 -0.015583 0.002314 -0.073189 0.003436 0.017666 0.012872 0.025463 0.049118 0.015627 -0.015071 -0.034244 0.044955 -0.023956 -0.07023 -0.015767 0.023716 0.013021 -0.00342 -0.0085905 0.052718 0.010074 -0.019689 0.14852 -0.035121 0.12519 0.021362 0.024463 -0.061846 -0.038193 0.029791 0.035291 -0.031434 -0.0032752 -0.047653 0.057033 -0.017509 -0.041147 -0.0075967 0.0053672 0.056392 -0.0053293 -0.055925 0.042327 -0.035278 -0.021825 -0.026622 -0.081056 0.011852 -0.016432 -0.0087543 -0.031124 0.004421 -0.046902 0.023275 0.020578 -0.011492 -0.026809 -0.050765 0.018705 -0.016107 0.015041 0.01919 -0.090333 0.018201 0.027271 0.00079601 -0.075072 -0.012055 0.11211 0.026084 0.042187 -0.021481 0.0039293 -0.038163 -0.033129 -0.012573 -0.075903 -0.0082857 -0.12524 -0.0011881 0.025411 0.015778 -0.0011337 0.0070044 -0.0021754 -0.040662 -0.052146 0.084231 0.042133 0.035996 -0.01754 -0.014508 -0.041498 0.014026 -0.070322 0.0046309 0.062205 0.0045884 0.036079 0.018573 0.089457 -0.0054765 -0.01642 -0.018964 -0.016313 0.032318 -0.02069 0.00041212 0.021831 -0.033662 0.062602 -0.0058845 0.023842 0.064601 0.05113 0.042292 0.045386 0.043761 0.012629 -0.015406 0.035164 -0.020017 -0.0049211 0.052925 0.05332 -0.025881 -0.019614 0.013151 0.014783 -0.0094781 0.017436 0.0091581 0.012598 -0.013749 -0.036664 -0.0079846 0.011528 -0.010421 -0.013786 -0.023663 -0.030496 -0.057356 0.018107 -0.034094 0.019448 0.030833 -0.0059177 -0.080809 -0.035407 -0.0018354 0.0072655 -0.015475 -0.004685 -0.11028 -0.027478 -0.0063874 -0.016782 0.076506 0.011848 0.061401 0.0089349 -0.0033629 0.030794 0.005775 0.033961 0.0046021 -0.00084396 0.025346 -0.072863 -0.022111 0.0079462 -0.033978 -0.067503 -0.03568 0.0068649 0.023187 -0.02532 0.0042631 -0.015118 0.058425 -0.00059604 -0.028842 0.014685 -0.0085193 -0.05266 -0.030037 -0.041574 -0.044002 -0.029829 0.026753 -0.0016259 -0.017486 -0.0030155 0.029797 0.033059 0.0091688 -0.021203 -0.0030018 -0.02278 -0.030378 0.009908 0.039999 -0.0086499 -0.031619 -0.014715 0.0096961 0.053143 -0.11107 -0.0099855 -0.041292 -0.029119 -0.0097141 0.029556 0.0095663 -0.0055011 -0.0093599 0.048853 -0.095154 -0.0089382 0.02916 0.024924 -0.053813 -0.024136 0.043163 -0.016818 0.0038354 0.044974 -0.010064 0.038185 0.035589 -0.069948 0.011145 -0.020747 -0.00071588 0.01525 0.0013349 -0.021698 0.086155 -0.033334 -0.055217 -0.0097585 -0.027929 0.01801 -0.011472 0.034421 -0.0016791 0.012225 -0.062341 -0.0078031 -0.010549 -0.025136 0.0082688 -0.06532 0.0086403 -0.010238 0.077399 0.0027151 0.015727 0.017829 -0.01069 -0.042977 -0.001747 0.015312 -0.0096939 0.038102 -0.040775 -0.034842 0.002736 0.087826 0.028971 -0.018335 -0.063281 0.00091289 0.029935 -0.042452 -0.007328 0.012792 -0.0041779 -0.0033872 -0.040902 -0.02279 0.0090528 0.03127 0.048096 -0.030061 0.0061912 -0.009604 0.0020705 0.081828 -0.012713 0.052523 0.0069149 0.068878 
languster -0.053327 0.030169 -0.0047689 0.080853 -0.0077439 -0.038067 0.014048 -0.033603 0.00057133 -0.014775 -0.0025305 0.036387 -0.0068606 -0.0054391 0.011572 0.0057454 0.028801 -0.017376 0.012876 0.15277 -0.023913 -0.022334 0.010095 0.025195 0.08233 -0.0143 -0.027037 -0.001693 -0.0080087 -0.04488 -0.019557 -0.0014091 -0.015204 0.020912 -0.0035014 0.01452 -0.047577 -0.029489 -0.014808 0.013535 -0.011387 -0.047845 0.015367 -0.0017054 0.021327 0.045804 0.020433 0.0076374 -0.0049495 0.0046409 -0.0076974 -0.015646 0.060581 -0.0038719 0.014056 0.017734 0.036587 -0.060058 -0.018571 -0.013615 -1.9054e-06 -0.014757 0.022261 0.074996 -0.0029388 0.010268 0.0043169 -0.0048805 -0.015216 0.0013648 0.035386 -0.005977 -0.022278 0.012536 -0.030819 0.013246 0.022669 0.020969 0.061324 -0.010228 -0.01849 0.01696 0.0084591 0.016828 -0.016112 -0.0072273 -0.021877 -0.092205 0.062777 -0.0001288 0.0098454 0.026721 -0.035262 -0.05335 0.011916 0.12344 0.0067331 0.0082746 0.02475 -0.0007107 0.0049783 -0.0031464 -0.045792 -0.015993 0.0037628 0.0084483 0.019691 0.0088155 -0.020377 -0.013196 -0.010022 0.035446 -0.0091433 0.069922 0.032029 0.029417 -0.043901 0.013599 0.017764 -0.017539 -0.026863 0.033219 0.033721 0.01772 0.011 0.025381 0.010493 0.0086774 -0.020882 -0.084733 0.0019779 -0.0018716 0.0072631 -0.011979 0.023808 -0.037789 -0.039426 -0.0056724 0.0046195 0.013152 0.076382 -0.01459 -0.007048 0.00031691 -0.070105 -0.019022 -0.067413 0.039 0.0053924 0.030155 -0.017774 0.0075197 -0.036606 0.0026917 0.0015954 -0.012448 0.035564 -0.010925 0.0079716 -0.0073193 -0.0056713 -0.0030008 0.03138 0.0053119 -0.029873 -0.0049329 0.034857 -0.016437 0.0081418 0.014653 -0.00074687 0.032752 -0.01835 0.020487 0.011252 0.0022207 -0.045874 -0.0076733 0.01526 -0.017971 0.0053072 0.070169 0.026052 -0.089536 -0.012308 -0.031775 0.085018 0.00059735 0.011989 -0.0015921 0.01055 -0.01237 -0.010113 0.011902 -0.045622 -0.031314 -0.017327 0.0084563 -0.0013132 0.036254 -0.012281 -0.09785 -0.019791 -0.014142 -0.025305 -0.010849 0.056134 0.0017241 0.017384 -0.0091611 0.028889 -0.035545 0.031125 0.0019202 0.0014644 -0.012066 -0.0039227 -0.022485 0.0092984 0.013894 0.014044 0.04943 0.016033 0.12954 0.014684 -0.032055 -0.011955 0.019405 -0.11238 0.018328 -0.010374 -0.04445 -0.028563 0.0082889 0.010335 -0.02709 -0.013161 0.024471 0.0089404 -0.040988 0.0061443 0.047934 -0.030596 -0.080334 0.002123 0.013778 0.017202 0.0086248 -0.039174 -0.035695 -0.0017183 -0.0023556 -0.011544 0.039516 -0.00022567 0.014025 -0.029774 0.012995 -0.0068921 -0.024007 -0.043197 0.0049361 -0.068238 0.0008092 0.062848 -0.016147 -0.043585 -0.00025599 -0.01103 0.053408 -0.047445 0.02705 -0.0011898 0.015008 0.036468 -0.041871 0.013418 0.051877 -0.076958 -0.0088027 -0.010909 0.00057432 -0.055679 0.020991 -0.025833 -0.0057363 0.0093573 -0.029955 -0.015004 0.015019 -0.0021496 0.017586 -0.0016571 0.031775 0.028575 -0.031326 0.021114 -0.0029451 0.0026073 0.018417 
langoesten -0.025646 0.019039 -0.017315 0.02791 -0.023497 0.0074369 -0.0081204 0.0015996 0.015885 -0.0075463 -0.020185 0.010432 0.0032392 -0.048927 -0.041347 -0.082296 0.018149 -0.0045725 0.014296 0.058841 -0.00093781 0.004248 -0.021544 0.0056856 0.069268 -0.017642 -0.033248 0.028078 -0.039676 -0.053041 -0.02796 -0.015235 0.028159 0.032377 -0.020253 -0.0068722 0.014039 0.10973 0.02255 0.012487 -0.030057 -0.038867 0.036642 -0.021483 -0.034991 0.011107 -0.00084877 0.0091247 0.004983 0.021212 0.014233 -0.065419 0.019865 -0.01143 -0.010332 0.010898 0.018196 -0.054713 -0.012405 -0.008976 -0.016835 -0.0096267 -0.0086038 0.073303 -0.0069289 0.010684 0.016628 0.023367 0.033223 -0.027785 0.058122 -0.0054918 -0.006158 -0.00013042 0.019859 -0.01019 -0.00064397 0.031906 -0.0023558 0.045034 -0.064238 -0.018832 0.0058104 -0.016818 -0.03893 -0.02077 -0.027515 -0.059076 0.055665 0.012729 -0.0088819 -0.02848 -0.099313 -0.012297 0.10366 0.033374 0.050687 -0.017188 0.0070999 -0.033672 0.027145 -0.016953 -0.045137 0.022308 0.025999 0.010683 0.047823 0.010884 -0.021721 0.0085394 -0.0028045 0.057925 -0.0045411 0.025049 0.0027574 -0.02245 -0.056303 0.021225 0.014875 0.015342 0.0025986 0.028781 -0.0035889 0.019859 0.051868 0.013533 0.012248 -0.0088885 0.0086459 0.0035828 -0.0016941 0.0013274 0.0040526 0.040617 0.021469 -0.016898 -0.05392 -0.020546 0.011269 0.018058 0.035011 0.0085666 -0.0049558 -0.047023 -0.033501 0.007839 -0.041058 -0.01609 0.031545 0.01028 0.0096057 -0.014 -0.054581 -0.0070648 0.028627 -0.001607 0.087112 0.066086 -0.0046064 -0.045421 -0.049731 -0.045459 -0.021349 0.0044761 0.040746 -0.0020612 0.0096058 -0.038077 0.028354 -0.023127 0.0046207 0.011978 0.0024747 -0.040463 -0.0010308 0.020434 -0.0094773 0.02386 0.024582 -0.026779 0.00093784 0.065969 0.011713 -0.087624 -0.017012 -0.031802 0.021601 -0.011468 0.006455 0.0071162 -0.010766 -0.052078 -0.0083631 -0.0001236 0.026157 0.0079177 0.034063 0.0037326 0.012184 0.006219 -0.051789 -0.062825 0.0067835 0.0020978 -0.017781 0.0073617 0.015951 0.0060048 0.010297 0.013402 -0.077356 -0.039389 0.066507 0.018969 0.0087655 -0.010151 -0.035984 0.014191 0.01423 0.053752 0.0063676 0.026895 -0.027957 0.13778 0.0054254 -0.006634 0.025655 0.014834 -0.025029 -0.00059171 -0.049212 0.019287 -0.02789 0.010882 -0.0032254 -0.0042486 -0.0031116 -0.01183 -0.007834 0.018866 0.028995 -0.060572 -0.027384 -0.062153 -0.017523 0.0091978 0.0038908 0.0081548 0.0037646 0.038781 0.034522 -0.019779 0.024151 -0.021218 0.0098616 0.074416 -0.0065039 0.0044517 -0.031687 -0.0091229 -0.0047034 -0.08035 -0.066217 0.018646 -0.035617 0.031286 -0.026241 -0.032032 0.031393 0.02058 0.0043435 0.032547 -0.0075018 -0.021345 0.035699 0.025034 -0.017883 0.03637 -0.053415 0.03537 -0.012011 -0.018846 -0.036813 0.025354 0.0169 0.0013108 -0.0024407 -0.048927 -0.0084465 0.0027507 -0.013472 0.010691 -0.051619 -0.021843 0.041631 -0.0092709 -0.00083432 0.014793 0.038903 -0.0034789 
langouste -0.013193 -0.022441 -0.02253 0.073437 0.031769 -0.013572 -0.0061268 -0.0025741 0.0031583 -0.012212 0.02585 -0.0052483 0.00050278 0.014451 0.016896 -0.030378 0.056046 -0.015558 0.058962 0.025334 -0.051097 0.012495 0.0039834 0.0041937 0.018645 -0.026025 -0.0068842 0.0084925 0.072941 0.002958 -0.029023 0.01972 0.018275 0.011945 -0.024562 -0.024889 0.040783 -0.043483 -0.011838 -0.0090615 -0.019244 -0.02451 0.01936 0.011024 -0.013029 0.085059 0.002063 0.014877 -0.015103 -0.01389 0.0063177 0.0098519 0.011216 -0.042087 0.034105 -0.019072 0.0071625 0.030051 -0.01815 0.010165 -0.01034 0.018864 -0.0085587 0.034434 -0.037883 -0.025159 0.024724 0.010016 0.021704 -0.022192 0.030826 0.022062 0.0081198 -0.028137 0.011507 0.026852 0.0050256 0.025633 -0.079798 -0.013423 -0.014806 -0.027447 -0.01075 -0.042384 -0.021767 -0.063297 -0.040536 -0.046828 0.015704 -0.00037225 0.035458 0.013162 -0.073932 -0.0027133 0.089774 0.036587 0.1071 -0.043852 -0.016079 -0.0012472 0.013482 -0.01655 0.016901 0.02091 0.063264 0.03105 0.019885 0.0055371 -0.00049337 0.0028576 -0.035335 0.0040106 0.041645 -0.035711 -0.027642 -0.033516 -0.0033196 0.014202 -0.03208 0.019012 -0.0029947 0.012628 0.039517 0.023061 0.020306 0.017888 0.0016232 0.007895 0.025564 -0.014421 -0.022519 -0.0066436 -0.012307 -0.053828 0.024869 -0.017009 0.012724 -0.020446 -0.0029142 0.038539 0.047326 0.0025689 -0.0094563 0.010626 -0.034579 -0.015237 -0.035267 -0.0092306 0.028242 0.0099736 0.046377 -0.028399 -0.044066 0.0054892 -0.010327 0.022641 0.031562 0.064714 -0.046931 0.0026083 -0.018786 -0.024959 -0.063953 0.0033708 0.032386 -0.0080948 -0.0015861 -0.02607 0.0099229 -0.015862 0.032078 0.0087743 0.024343 0.0072181 -0.020534 -0.018931 0.020618 -0.00055892 0.023265 -0.042809 -0.0077273 0.028783 7.9503e-05 -0.10697 -0.022942 -0.026159 0.032822 -0.010199 0.022878 -0.017545 0.0088551 0.0087671 -0.039816 0.031538 -0.0004848 -0.010168 -0.011579 0.0016588 0.0069214 0.01084 -0.032836 0.050611 -0.012537 -0.020309 -0.035606 0.01309 0.034366 0.01219 -0.0080566 0.041954 -0.05151 -0.0046225 0.048306 -0.034632 -0.062006 -0.016454 -0.067779 0.013453 0.020378 0.028699 0.019994 -0.00096532 -0.0098543 0.090768 -0.043193 -0.011297 0.025329 0.030617 -0.017319 -0.031974 0.068275 0.040085 -0.021332 0.035554 -0.0053223 0.06598 0.04535 0.002894 0.0054914 -0.04388 0.0030539 0.00016129 -0.016283 -0.058428 0.0079926 0.00157 0.0035331 -0.020606 -0.0013897 -0.00509 0.033079 0.0054166 0.025852 0.00032427 -0.0082017 0.04116 0.0081022 0.0080998 -0.0074097 0.0079236 0.024171 -0.069855 -0.073015 -0.02414 0.0059396 0.025504 -0.0055795 0.0068678 0.041419 0.062092 -0.0118 0.014382 -0.027209 0.012915 -0.015424 0.01552 -0.02303 -0.019811 -0.071758 -0.015856 0.02745 -0.031746 -0.062908 -0.023991 0.0058904 -0.0074802 -0.024375 -0.042839 -0.035134 0.0038258 -0.015268 0.013175 -0.03625 -0.016461 -0.0076086 0.0053903 0.018684 -0.023273 -0.007156 -0.0028714 
Languste -0.045947 0.039951 -0.039717 0.12886 0.0070581 -0.045125 0.0052007 -0.049708 -0.014806 -0.02582 0.013833 0.03852 0.001716 -0.0040123 0.033291 -0.0020391 0.028837 -0.01088 0.0395 0.21128 -0.03783 -0.034171 0.0015079 0.003206 0.096504 -0.01047 -0.050852 -0.010303 0.013896 -0.054575 0.0041483 0.0030964 -0.042627 0.043522 0.0020821 -0.0028545 -0.10054 -0.039157 -0.016142 0.0017696 -0.012702 -0.041889 0.0014567 -0.003471 0.12923 0.091647 0.0064258 0.021073 0.0065894 -0.0061545 -0.0011073 -0.0069098 0.06678 -0.012702 0.014556 0.020009 0.041695 -0.049467 -0.039607 -0.027053 -0.040392 -0.028407 0.022762 0.10077 -0.025789 0.014003 -0.0075386 -0.011541 0.0055984 0.0080986 0.045457 0.01326 -0.029905 -0.013675 -0.014174 0.031835 0.036979 0.032851 -0.039028 -0.043833 -0.007692 0.019312 0.030889 -0.014497 -0.039582 -0.028023 -0.0043323 -0.080234 0.06218 -0.017236 0.017004 0.045592 -0.052624 -0.047988 0.14161 0.17442 0.033564 -0.0019836 0.026806 -0.0081224 -0.0037057 -0.017994 -0.048581 -0.00095127 -0.0027415 0.0028916 0.028482 -0.005317 -0.030062 -0.015533 -0.066145 0.013531 0.01005 0.098183 0.018694 0.049163 -0.043683 0.013541 0.0093546 -0.032149 -0.034844 0.023405 0.03731 0.024975 0.014503 0.031094 0.014703 -0.012277 -0.011799 -0.07306 -0.006801 0.0069092 0.02427 0.022371 0.070514 -0.036147 0.0063252 0.0075 0.0083056 0.012522 0.1085 -0.017328 -0.00062748 0.00026801 -0.016526 -0.028965 -0.080735 0.048799 0.0045645 -0.0098526 -0.1938 -0.0038485 -0.089155 0.0088553 -0.019978 -0.011378 -0.047087 0.021738 0.002731 -0.011711 -0.0133 -0.018376 0.00070468 0.010408 -0.037613 0.0058391 0.043007 -0.0090756 0.031945 -0.014168 -0.0021955 0.04128 -0.010812 0.0074754 -0.0025234 0.0044594 -0.07016 -0.0099808 0.033932 -0.0082017 -0.00016461 0.15068 0.022801 -0.052878 -0.050652 -0.012444 0.024751 -0.0088039 0.013075 -0.0042505 -0.0020848 -0.025914 -0.015987 0.014631 -0.033203 -0.051872 -0.027732 0.019016 0.011027 0.087925 -0.014585 -0.1346 -0.017246 -0.014492 -0.025687 -0.038503 0.067521 0.016154 0.020024 -0.010602 0.062418 -0.02186 0.037371 0.016016 -0.018904 0.00022241 1.5041e-05 -0.016891 0.0031669 0.03394 0.012455 0.045341 0.0087123 0.18294 0.014622 -0.01581 -0.019701 0.011953 -0.13789 0.036894 0.0054511 -0.03276 0.04195 0.022131 0.022481 0.024949 -0.0058799 0.028481 -0.0014278 -0.052893 -0.0035047 0.034993 -0.0098998 -0.03653 0.016643 0.0073915 -0.0063037 0.030739 -0.040168 0.016703 0.026454 -0.029665 -0.0057094 0.033131 9.7776e-06 0.019725 -0.0069727 0.022503 -0.033181 -0.018009 -0.041432 -0.047922 -0.047265 0.0070318 0.16077 0.0014844 -0.048016 -0.019368 0.021048 0.13769 -0.074135 0.023098 -0.028057 0.034507 0.054287 -0.017628 0.0089667 -0.0096671 -0.10539 -0.032506 -0.016091 0.013018 0.012703 0.0042372 -0.018137 0.0037788 -0.00049406 -0.035164 -0.021159 0.0032742 0.02913 0.062265 0.0049489 0.044953 0.016469 -0.016422 0.027349 -0.027723 0.013188 0.013665 
astakós -0.053674 -0.016703 0.018417 0.084613 -0.046705 -0.012712 0.030824 -0.012816 -0.016109 0.031999 0.011083 -0.0031722 -0.017535 0.01599 -0.0434 -0.087211 -0.023809 0.00064925 -0.024229 0.028672 0.018753 0.054689 0.082419 0.02708 0.039291 -0.026227 -0.012927 -0.0029668 0.022178 -0.041117 -0.051045 -0.030071 -0.027714 -0.035881 0.020797 -0.0017281 -0.01283 0.063987 -0.012519 -0.0022676 -0.049768 -0.039973 0.0081699 0.003556 -0.044426 0.052299 0.008504 0.0083954 0.022555 -0.011088 -0.0067884 -0.030813 -0.050165 -0.0043544 2.7571e-05 0.005926 0.025947 0.012013 -0.0034372 -0.016846 0.016515 0.011691 0.034965 0.044601 0.056274 -0.055586 -0.0026183 0.04601 -0.0064124 0.021409 0.016383 -0.021689 -0.058968 0.022831 -0.01138 0.015328 -0.014185 0.0063649 -0.030213 0.0078523 -0.061856 -0.0053826 -0.052696 0.041848 -0.047619 -0.0077216 -0.04721 -0.037841 0.025347 0.057152 0.011681 -0.037174 -0.047391 0.012745 0.023903 0.0057256 0.054574 -0.032744 -0.0048942 -0.056393 -0.040755 -0.017746 -0.022506 -0.037181 -0.015103 -0.013483 0.039194 -0.0085997 -0.021479 0.040385 -0.014923 0.059503 0.038508 -0.066749 0.031661 -0.037574 0.001396 0.068483 -0.04027 0.038298 -0.034321 -0.012586 0.039161 -0.028714 -0.0054402 0.039818 -0.012829 0.0064227 0.016585 0.011249 -0.011603 -0.033138 0.015329 0.016115 0.010935 -0.021441 0.08272 0.058524 -0.03305 0.031595 0.054317 0.00099783 -0.044198 -0.011219 -0.046637 0.027803 -0.03361 -0.00037488 -0.025997 -0.066491 -0.0057619 0.04136 0.0066943 -0.045238 0.00066314 0.020376 0.023005 -0.024359 -0.014753 0.027122 -0.024151 0.0091818 -0.088289 -0.043569 -0.0026035 -0.023384 0.021715 0.021576 0.0029179 0.019845 -0.039056 0.017357 -0.02838 0.037359 0.024361 -0.013141 -0.017007 -0.0011047 0.045384 -0.024929 -0.013662 0.028915 -0.0087552 0.051405 0.011958 0.00065778 0.0012323 0.021003 0.0063283 -0.020728 0.022075 0.020103 -0.0012744 -0.02891 -0.019046 -0.028593 -0.014223 -0.034157 -0.0083513 0.0056383 -0.01503 0.055823 0.015999 -0.015475 0.00015482 -0.031121 0.064714 -0.019812 0.0040952 -0.018895 -0.015679 -0.024455 0.036229 0.0082427 -0.0015379 -0.026201 0.025699 -0.046111 0.031723 -0.011158 -0.011908 -0.01971 -0.0038129 -0.0036393 0.050869 -0.036767 0.051649 -0.092012 -0.038771 0.01974 0.030942 -0.051087 -0.011033 0.070455 0.067803 0.043077 -0.0050198 -0.015207 0.065496 -0.030442 0.0035836 0.046896 -0.040071 -0.032233 0.026388 -4.0842e-05 -0.0051522 0.068132 -0.014103 -0.010462 0.065112 0.017012 -0.023497 0.029035 -0.022281 -0.00043091 0.036493 0.0057707 -0.03105 -0.014941 0.04504 -0.042945 -0.083899 0.020608 0.03233 0.0032793 0.022264 0.0023082 -0.0029563 -0.0099943 0.0073464 0.035302 0.012622 -0.024755 0.0040458 0.020098 -0.066184 -0.03028 0.0076598 -0.029914 -0.022639 0.013813 0.00075729 -0.014323 -0.008372 -0.020383 -0.0092685 0.027874 0.056077 -0.028032 0.0019134 -0.021375 -0.033063 -0.0095805 -0.0082264 -0.062385 -0.012255 0.025281 -0.032539 -0.040901 
aragosta -0.0012015 0.012725 -0.060526 0.016861 0.025826 0.027021 0.010124 0.0042883 0.0051792 0.0020012 0.032053 0.015491 0.017475 -0.041831 -0.024983 -0.10761 0.011327 0.031123 -0.062998 0.028872 0.017289 -0.0036148 -0.052531 -0.00083925 0.094299 -0.035482 0.014096 -0.0031041 0.045173 -0.013532 -0.05401 0.012168 -0.033474 0.014236 0.0030738 -0.031566 0.024765 0.075814 -0.048676 0.019972 0.017501 0.011334 -0.014996 0.029061 0.06257 0.08996 0.020726 0.00079493 0.0072779 0.030482 -0.0026054 -0.0019912 0.027244 -0.0077208 0.026344 -0.039769 0.041227 -0.0094559 -0.046324 -0.027348 -0.031595 0.04102 0.027146 0.030746 -0.00052132 -0.013637 -0.015471 0.047502 0.0032769 -0.028049 0.026973 0.03574 -0.020689 -0.033167 -0.015429 0.054177 -0.00040123 0.097963 -0.011299 0.028914 -0.03852 0.01615 -0.0045707 0.024542 -0.068948 0.0014734 -0.059949 -0.0079899 0.02363 -0.0060297 -0.02132 0.020069 -0.024212 -0.0090433 0.063751 -0.013353 -0.019764 0.00046763 -0.018967 0.015777 -0.0018895 0.02956 -0.011929 0.092986 0.041191 0.046827 -0.0013224 -0.023107 -0.0093017 0.018406 0.0019639 -0.0012811 0.01316 -0.013381 -0.040466 0.0026344 -0.015139 0.036665 -0.0057607 -0.0057591 0.022255 0.01191 0.037979 -0.028211 0.036556 0.022642 0.036759 -0.05422 -0.043632 0.0057698 0.046988 0.0045069 0.0099173 0.016036 0.023107 0.0076248 0.038479 0.023757 -0.02287 0.0095507 0.041119 0.032693 0.0069159 -0.014935 -0.092948 -0.021883 -0.052325 -0.0065328 0.047322 -0.014577 -0.010999 -0.016529 0.02332 -0.014198 -0.0027508 0.041593 0.032547 0.029875 -0.012239 -0.014779 -0.038132 0.018946 -0.0087655 0.01153 0.039467 0.028584 0.052448 0.018369 -0.045502 -0.0089239 -0.0063924 0.015543 0.012011 -0.012999 0.012155 0.010335 -0.039057 -0.051174 -0.048734 0.022817 0.002356 0.047317 0.0003677 -0.11913 0.025423 0.021657 0.046783 -0.018231 -0.027577 0.010571 -0.004274 0.047815 -0.013945 0.012662 -0.028557 -0.023093 -0.058733 -0.034167 0.026801 0.04164 -0.027601 -0.0020513 0.028851 0.016778 -0.029841 -0.042363 0.038036 0.041722 -0.044852 0.041358 0.028114 0.0064401 0.034292 0.034417 -0.026714 -0.010861 -0.010159 0.036804 -0.036929 0.019107 0.030817 -0.00065576 0.0027515 -0.0071915 -0.010341 0.027011 0.013847 0.0094722 0.061951 -0.039071 0.010818 -0.02965 -0.0088108 0.023977 -0.0034554 0.044444 0.024882 -0.028481 -0.08957 0.023421 0.035216 -0.066364 0.041983 -0.05871 -0.0182 0.061192 -0.063265 -0.013045 -0.058749 0.090113 0.10466 -0.084451 0.040024 -0.016156 -0.035483 0.01652 0.024169 -0.001868 0.040985 -0.076382 -0.018939 -0.083668 -0.073816 -0.038436 -0.053895 -0.04256 -0.013761 0.0050082 0.043565 0.15929 0.0038386 0.0072096 -0.051278 -0.036098 0.067762 0.02094 0.051058 -0.023939 -0.036851 0.044132 -0.0049676 0.026591 -0.1034 -0.017355 0.004817 0.0034452 0.008752 0.017786 0.021429 -0.011639 0.059171 -0.030272 -0.054964 0.043948 -0.018892 0.031497 0.016425 0.049398 -0.01508 0.0062891 
languster -0.053327 0.030169 -0.0047689 0.080853 -0.0077439 -0.038067 0.014048 -0.033603 0.00057133 -0.014775 -0.0025305 0.036387 -0.0068606 -0.0054391 0.011572 0.0057454 0.028801 -0.017376 0.012876 0.15277 -0.023913 -0.022334 0.010095 0.025195 0.08233 -0.0143 -0.027037 -0.001693 -0.0080087 -0.04488 -0.019557 -0.0014091 -0.015204 0.020912 -0.0035014 0.01452 -0.047577 -0.029489 -0.014808 0.013535 -0.011387 -0.047845 0.015367 -0.0017054 0.021327 0.045804 0.020433 0.0076374 -0.0049495 0.0046409 -0.0076974 -0.015646 0.060581 -0.0038719 0.014056 0.017734 0.036587 -0.060058 -0.018571 -0.013615 -1.9054e-06 -0.014757 0.022261 0.074996 -0.0029388 0.010268 0.0043169 -0.0048805 -0.015216 0.0013648 0.035386 -0.005977 -0.022278 0.012536 -0.030819 0.013246 0.022669 0.020969 0.061324 -0.010228 -0.01849 0.01696 0.0084591 0.016828 -0.016112 -0.0072273 -0.021877 -0.092205 0.062777 -0.0001288 0.0098454 0.026721 -0.035262 -0.05335 0.011916 0.12344 0.0067331 0.0082746 0.02475 -0.0007107 0.0049783 -0.0031464 -0.045792 -0.015993 0.0037628 0.0084483 0.019691 0.0088155 -0.020377 -0.013196 -0.010022 0.035446 -0.0091433 0.069922 0.032029 0.029417 -0.043901 0.013599 0.017764 -0.017539 -0.026863 0.033219 0.033721 0.01772 0.011 0.025381 0.010493 0.0086774 -0.020882 -0.084733 0.0019779 -0.0018716 0.0072631 -0.011979 0.023808 -0.037789 -0.039426 -0.0056724 0.0046195 0.013152 0.076382 -0.01459 -0.007048 0.00031691 -0.070105 -0.019022 -0.067413 0.039 0.0053924 0.030155 -0.017774 0.0075197 -0.036606 0.0026917 0.0015954 -0.012448 0.035564 -0.010925 0.0079716 -0.0073193 -0.0056713 -0.0030008 0.03138 0.0053119 -0.029873 -0.0049329 0.034857 -0.016437 0.0081418 0.014653 -0.00074687 0.032752 -0.01835 0.020487 0.011252 0.0022207 -0.045874 -0.0076733 0.01526 -0.017971 0.0053072 0.070169 0.026052 -0.089536 -0.012308 -0.031775 0.085018 0.00059735 0.011989 -0.0015921 0.01055 -0.01237 -0.010113 0.011902 -0.045622 -0.031314 -0.017327 0.0084563 -0.0013132 0.036254 -0.012281 -0.09785 -0.019791 -0.014142 -0.025305 -0.010849 0.056134 0.0017241 0.017384 -0.0091611 0.028889 -0.035545 0.031125 0.0019202 0.0014644 -0.012066 -0.0039227 -0.022485 0.0092984 0.013894 0.014044 0.04943 0.016033 0.12954 0.014684 -0.032055 -0.011955 0.019405 -0.11238 0.018328 -0.010374 -0.04445 -0.028563 0.0082889 0.010335 -0.02709 -0.013161 0.024471 0.0089404 -0.040988 0.0061443 0.047934 -0.030596 -0.080334 0.002123 0.013778 0.017202 0.0086248 -0.039174 -0.035695 -0.0017183 -0.0023556 -0.011544 0.039516 -0.00022567 0.014025 -0.029774 0.012995 -0.0068921 -0.024007 -0.043197 0.0049361 -0.068238 0.0008092 0.062848 -0.016147 -0.043585 -0.00025599 -0.01103 0.053408 -0.047445 0.02705 -0.0011898 0.015008 0.036468 -0.041871 0.013418 0.051877 -0.076958 -0.0088027 -0.010909 0.00057432 -0.055679 0.020991 -0.025833 -0.0057363 0.0093573 -0.029955 -0.015004 0.015019 -0.0021496 0.017586 -0.0016571 0.031775 0.028575 -0.031326 0.021114 -0.0029451 0.0026073 0.018417 
lagosta -0.028226 0.013995 -0.048455 0.0201 0.0086511 0.014842 0.034778 0.032244 0.0054896 -0.019846 -0.011593 0.055374 0.020399 0.0085547 -0.059471 -0.12812 0.037002 0.0017006 -0.040301 -0.054596 0.0086594 -0.021431 -0.047199 -0.024575 0.079463 -0.028379 -0.021898 -0.01142 0.028196 -0.018295 -0.043375 -0.029595 0.011122 -0.062824 0.075117 -0.015448 -0.03654 0.1578 -0.036528 0.043065 -0.012773 -0.0048293 -0.0098569 0.027998 0.041557 0.087165 -0.0033475 0.001212 -0.00435 -0.001916 0.0093622 -0.017239 0.027542 -0.017691 0.029414 -0.033559 0.038398 0.0051167 -0.079063 0.012363 -0.0079985 0.020762 -0.0049407 0.11175 -0.011446 0.00034104 0.015901 -0.0080152 -0.02894 -0.025411 0.010486 0.045196 0.0039409 -0.049535 -0.0016095 0.010118 0.015531 0.089873 0.023337 0.030038 -0.0022125 0.027894 -0.029015 0.03801 -0.064707 0.017405 -0.05975 -0.075842 0.014906 0.012835 -0.0081339 0.0067475 -0.022529 -0.012633 0.025288 -0.011946 -0.04207 -0.024183 -0.037931 0.02429 0.003343 0.020675 -0.042688 0.058108 0.05914 0.014174 0.033017 0.020845 -0.00039896 0.036079 -0.032504 -0.055014 -0.047441 -0.055476 -0.054966 -0.014706 -0.035667 0.0081391 0.0064191 -0.019076 0.001809 0.0026675 0.029856 0.01039 0.065361 0.026197 0.025426 -0.05253 -0.021159 -0.012504 0.047886 0.034539 0.025342 -0.0026933 0.037876 0.0083886 0.018159 0.014867 -0.045652 0.0049141 0.01477 0.044676 0.024929 -0.0038782 -0.06546 0.01262 -0.027993 0.0077413 0.019497 0.0098748 -0.028255 0.013028 0.049819 -0.024526 -0.0384 0.015397 0.066702 -0.013054 -0.026509 -0.021975 -0.061014 0.00071943 -0.013982 -0.0023775 -0.00099523 0.032143 0.10039 -0.014604 -0.034123 0.02213 0.0062634 0.0090295 -0.02501 -0.01742 0.031642 0.029799 -0.044973 -0.057984 -0.042795 0.0094229 0.025907 -0.0089444 -0.059862 -0.2006 0.035111 -0.038549 0.01484 0.016954 0.017374 0.035569 -0.0066154 0.017826 -0.020129 0.022807 -0.016735 -0.025325 -0.045551 -0.016449 0.021827 0.039165 -0.046531 0.0053565 0.029368 -0.026051 -0.079239 -0.071365 0.021679 0.037984 -0.060445 -0.0094212 0.014803 -0.0091719 0.02306 0.032992 -0.001993 0.0010814 -0.0201 0.023364 -0.072282 -0.053833 0.017432 -0.016633 0.00039476 0.046011 -0.006924 0.010154 0.0088024 0.0095465 0.12837 -0.0083812 0.028418 -0.025644 0.0072471 -9.8866e-05 -0.011542 0.030637 0.043839 0.00033738 -0.064746 0.042571 0.046163 -0.062849 0.056122 -0.11719 0.0037706 0.03516 -0.03872 -0.032056 0.015677 0.060934 0.080491 -0.090348 0.02341 -0.013515 -0.040352 0.017277 0.024883 -0.0012507 -0.00144 -0.024799 0.07806 -0.11478 -0.091626 0.0053801 -0.11203 -0.015004 0.012962 0.046678 0.026583 0.11116 -0.020622 0.068632 -0.071618 -0.0076863 0.014627 -0.02654 -0.0070172 0.0061584 -0.014414 0.039861 -0.029871 0.038082 -0.15547 -0.030247 -0.026612 -0.038107 0.025589 -0.033275 0.0149 0.0061792 0.058953 -0.0066804 -0.055441 0.022536 0.0026654 0.026001 0.027225 0.017113 0.00016747 0.015741 
langosta 0.038152 -0.0296 -0.073344 0.057325 0.035237 0.0044024 -0.0050588 -0.038601 -0.015225 -0.052463 -0.093517 -0.031004 0.03159 0.028358 0.050887 -0.04768 -0.010746 -0.039355 0.028256 -0.015901 -0.0034698 0.018481 0.032511 0.0010282 0.027457 -0.060067 0.017004 0.075298 -0.064998 0.14289 -0.032583 0.099083 0.02423 -0.033579 0.016849 -0.043064 -0.017738 0.055486 -0.019839 0.016105 -0.042339 0.10774 -0.014693 -0.0088175 0.051404 0.029455 0.012956 -0.028318 -0.062162 0.056581 -0.063376 -0.035942 0.010833 -0.032284 -0.015938 -0.064391 0.0092645 0.027147 -0.01423 -0.052033 0.025254 0.038294 -0.0224 0.059094 0.0070804 0.033611 -0.0046609 0.019329 0.012646 -0.10504 0.063147 0.03827 -0.032243 -0.041996 0.0067027 0.078036 0.02928 0.041882 -0.01751 -0.0020242 0.015005 -0.0077224 -0.0082085 -0.081706 -0.027134 -0.091467 0.0043581 0.023733 0.058128 -0.040208 -0.029473 0.0019382 -0.026135 -0.087493 0.043647 0.0036852 -0.024077 0.023379 -0.015221 -0.0054553 0.055878 -0.017038 -0.0012068 0.044322 0.0025194 0.094123 0.017465 0.04279 0.0036915 -0.011268 -0.043487 -0.013124 0.032808 -0.0069007 -0.015019 0.014446 -0.024402 0.12276 -0.036371 0.0073035 0.054893 0.055175 0.048624 -0.03654 0.081677 -0.047459 0.0049372 -0.0069987 -0.01477 -0.0079968 0.062964 0.030001 -0.047012 -0.030626 -0.026218 -0.055308 -0.0046603 0.038944 -0.01122 0.00042058 -0.03271 0.0038275 0.016856 0.02143 -0.072328 -0.032974 -0.070224 -0.060442 -0.0058677 0.037535 -0.012723 -0.024468 0.042332 -0.036124 -0.011953 -0.020643 0.0055583 -0.022081 -0.056345 -0.065024 -0.11441 -0.048784 0.026109 -0.080631 -0.0016492 0.0029627 0.081983 -0.017048 0.00044869 -0.022399 0.026112 0.021175 0.0034223 0.0078871 0.06626 -0.044614 0.011058 0.0097776 -0.025853 -0.084871 -0.033086 -0.0030248 0.018083 -0.081148 0.073614 0.0525 0.10449 0.019782 -0.025576 0.029002 -0.010323 0.0032834 -0.0095131 0.0079459 -0.075232 -0.06837 0.01051 0.0011084 0.022259 0.015339 0.057725 -0.0005748 0.024171 -0.012884 0.011346 -0.041685 0.0058116 0.032919 -0.010543 -0.0030006 -0.094161 -0.015524 0.062519 0.074939 -0.122 -0.018508 -0.073429 0.0032621 0.0070931 0.015987 -0.0087002 0.023086 0.0076738 0.050588 -0.081419 -0.033979 -0.0020242 0.031999 -0.018216 -0.023362 0.0018865 -0.012188 0.027951 -0.0078624 -0.014255 0.031424 0.077211 -0.033857 -0.06212 -0.028802 0.055089 0.029144 -0.0057547 -0.041668 0.073699 -0.030614 -0.076935 -0.013797 -0.077389 0.07905 -0.01242 0.031584 -0.013944 -0.0020465 -0.009299 -0.012217 0.031019 -0.017643 0.0076898 -0.087885 0.032012 -0.06302 0.071523 -0.025535 -0.0055297 0.043191 -0.0074426 -0.024756 -0.024293 0.019604 0.048019 0.060303 -0.025722 -0.01727 0.022647 0.06626 0.003614 0.0061199 0.00084859 0.0094387 0.065797 0.018535 -0.025164 0.02797 0.018586 -0.015139 -0.066648 -0.025365 0.0096121 0.030813 0.04785 -0.0076983 -0.012492 0.017149 0.016941 0.043174 -0.046624 0.044218 -0.0046378 -0.003658 
krebs 0.12176 0.062508 -0.17626 0.068364 0.003783 -0.08996 -0.043986 0.15693 0.08303 0.015391 -0.13178 0.012877 0.058687 -0.16829 -0.079013 0.040524 0.034775 -0.050946 -0.010995 -0.03797 -0.023968 0.0028138 0.046895 -0.056027 0.13448 0.047866 -0.10356 -0.032865 0.026414 0.26507 -0.0074739 0.053178 -0.044547 -0.032651 -0.30281 -0.064701 0.045719 0.089325 -0.08509 0.00099216 0.085522 0.039397 -0.14254 -0.028944 0.052635 -0.021484 -0.042128 0.016848 -0.072035 -0.022848 0.031466 -0.034382 0.14658 -0.065671 -0.075358 -0.13038 0.22229 0.043376 0.1014 0.016189 -0.021678 0.069446 0.10444 0.094071 -0.0075506 0.062184 -0.037194 0.075479 -0.088939 -0.045639 0.021514 0.056241 -0.21453 -0.030085 0.024431 0.043678 -0.0050339 -0.0074512 0.0042959 0.065898 -0.15446 -0.14526 -0.0737 -0.089956 -0.03762 0.037979 0.080039 0.0052355 0.051455 -0.024528 -0.006508 0.079228 0.066973 -0.075477 0.020356 -0.04607 -0.0093991 0.040914 -0.0703 -0.068573 -0.17625 -0.22794 0.060496 0.064635 0.21533 0.020732 -0.22215 0.023967 0.026221 -0.24586 0.23839 0.078293 -0.038335 0.05313 -0.047256 -0.028541 0.12249 0.025622 -0.11606 0.15786 0.0027935 -0.092402 0.00758 -0.04651 0.016982 -0.03476 0.010906 0.11218 -0.057651 -0.14559 0.0073039 -0.090024 0.004506 -0.00051895 -0.021545 -0.034188 -0.00058115 0.029851 -0.029999 -0.11494 0.066633 0.10048 -0.1985 0.035322 -0.018909 -0.11352 -0.15848 -0.15969 -0.05663 -0.0081293 -0.0011849 -0.020032 0.013217 -0.14396 -0.040681 0.031975 -0.032799 -0.076482 0.014051 -0.039283 0.014929 0.13125 0.10548 0.010329 0.031482 0.057962 0.11894 -0.098277 -0.14803 0.030639 -0.093053 0.069084 -0.0092756 -0.066706 -0.026919 -0.065864 -0.034522 0.026109 -0.05908 0.092735 -0.039774 -0.01925 0.026655 -0.098155 0.14323 0.035802 0.03471 0.10624 0.050315 -0.17458 0.075848 -0.073144 0.011202 -0.12929 -0.068993 0.098621 -0.0049756 0.063304 -0.0040008 -0.046161 0.019647 0.045059 0.049288 -0.0013482 0.044033 -0.13923 -0.027815 -0.061249 0.07217 0.032408 -0.10203 -0.078607 -0.0088739 0.011889 0.046704 0.10942 -0.018915 -0.010414 0.024195 -0.10704 -0.21893 0.17845 0.0026134 -0.035088 -0.082075 -0.14123 -0.056612 0.01781 0.027905 0.12739 0.067269 0.082305 -0.032979 0.10897 -0.071116 0.095872 -0.13468 0.12736 -0.082271 0.027166 0.078185 -0.063846 -0.044618 -0.021816 0.12825 -0.047899 -0.012967 -0.072414 -0.0646 0.0016361 0.0018351 0.11775 -0.10343 0.032901 0.017464 0.02729 0.011163 0.0096816 0.053499 -0.12278 0.16466 -0.12705 0.13195 0.085712 0.018681 -0.082536 -0.10998 -0.15766 -0.0015975 0.12223 -0.096274 -0.088959 0.022491 0.0035667 -0.098119 0.060728 -0.017956 0.067943 0.066588 -0.054033 0.19039 -0.066511 0.026966 -0.027265 -0.014278 -0.058111 -0.16164 -0.0031837 0.1847 0.032034 -0.10729 -0.0083518 -0.20514 0.11548 0.038505 0.037433 -0.0060826 0.13852 0.0089271 0.065365 
flodkrebs -0.025359 -0.023487 -0.012325 0.10008 -0.048655 0.013525 -0.0079233 -0.00087645 -0.041249 -0.027559 -0.0012029 -0.017456 0.037957 -0.0051669 -0.012177 -0.097992 0.095241 0.046686 -0.029922 0.066235 0.013275 0.020923 -0.018904 -0.031044 0.06322 0.017099 -0.049806 -0.020394 -0.0081113 0.07642 0.042407 0.018693 -0.032986 0.026378 -0.060547 -0.076587 -0.028271 0.094752 0.015958 0.019739 -0.012472 0.0068068 0.0067671 -0.00022129 0.00086933 0.064776 0.016804 0.078281 -0.040991 0.015249 0.029392 -0.077588 0.068353 -0.061965 0.0061732 -0.018829 0.045823 0.073998 -0.048095 -0.011295 -0.06121 0.042101 0.054437 0.059649 0.0065521 -0.02641 0.063203 -0.012016 0.025877 0.026092 0.060309 -0.024738 -0.095821 -0.021097 0.031933 -0.018351 -0.042651 0.034335 -0.056219 0.0071407 -0.058032 0.0072958 -0.004596 -0.0017493 0.012839 -0.0077585 -0.028671 -0.0014328 0.051771 0.074505 0.0084625 0.011299 -0.048912 0.017324 0.081632 0.044154 0.043977 0.016649 -0.031236 -0.030415 -0.020361 -0.00020119 0.058441 0.029139 0.051793 -0.058493 -0.00076279 -0.00045521 0.0065976 -0.035244 0.0095931 -0.013066 0.042505 0.052512 0.0020818 -0.092929 -0.0079766 -0.034931 -0.031194 0.028 -0.055242 0.024519 0.031935 -0.040239 0.016753 0.053875 -0.055627 0.032281 0.030524 -0.050099 -0.020922 0.072224 -0.019716 0.06286 0.048759 -0.01117 0.0135 0.022147 -0.033098 0.0025985 0.085737 0.016442 -0.053992 0.024057 -0.076366 -0.050601 -0.11929 -0.010188 0.07894 -0.051949 -0.0012009 0.014887 -0.076887 -0.021647 -0.0045996 0.032935 0.084645 0.0063587 -0.045161 -0.0007642 0.02361 0.016686 -0.065372 -0.0052301 -0.01544 0.0059586 0.0063415 -0.031585 0.008141 0.056727 -0.10836 0.049852 -0.049296 -4.6963e-05 -0.0025785 -0.043277 -0.048212 0.01999 0.049167 0.011476 0.022103 0.039952 0.013174 -0.1317 -0.022666 -0.043499 0.019977 -0.00028218 0.034703 -0.048558 0.069795 -0.023677 0.041499 -0.010466 0.02149 -0.017227 0.023267 0.023184 -0.0058444 0.088897 -0.060173 0.041568 0.050845 -0.007122 -0.014527 0.0024703 0.05584 0.00027013 -0.01375 0.052879 -0.031468 -0.033424 0.012196 -0.035107 0.060316 -0.014624 -0.042097 0.023906 -0.0096071 -0.019223 -0.0064673 0.024698 0.017695 0.019792 -0.046477 -0.0040545 -0.021936 0.033389 0.058617 0.03732 0.1116 0.059715 -0.028385 0.030142 0.039077 -0.020417 0.0334 -0.022918 -0.026303 0.014797 0.0049621 -0.024776 0.014853 -0.098741 0.024102 -0.0095787 -0.045184 -0.033535 -0.022626 -0.020849 0.035549 -0.016314 -0.012897 0.033379 0.0041785 -0.018682 0.04772 0.0014618 -0.0043326 -0.0089079 0.01827 -0.062058 -0.1684 0.015245 -0.020414 -0.025049 -0.016505 -0.03026 0.012934 0.13473 -0.050604 0.030109 -0.024136 0.0034378 -0.018416 0.0044201 -0.059882 -7.673e-06 -0.037232 -0.011566 0.023324 -0.081842 -0.099931 0.0040478 -0.013737 -0.077703 0.0080805 -0.022696 0.042822 0.022682 0.02694 0.045784 -0.095312 -0.0036198 -0.030878 -0.021959 -0.030723 0.018085 0.0019591 -0.06388 
rivierkreeft 0.023354 -0.00086157 -0.012847 0.06662 -0.0005313 -0.023408 -0.016892 -0.03018 -0.014068 -0.0082034 0.010791 0.017869 0.011664 6.7757e-05 -0.026918 -0.076944 0.047517 0.029673 0.026695 0.044275 -0.024494 0.02653 0.0095938 -0.0024942 0.066463 0.00255 -0.017199 0.011088 -0.031629 -0.021732 0.0071139 0.032985 -0.025359 -0.0088713 0.033446 0.0206 -0.053584 0.0032986 -0.022468 0.006759 -0.0055811 0.0075085 -0.015259 -0.027227 -0.014537 0.021386 0.013891 0.0086039 -0.030174 -0.0042184 -0.0078721 -0.0079812 0.02459 -0.0026031 0.038956 0.017034 0.00016592 -0.038664 -0.010944 0.05878 0.031725 -0.014329 -7.3291e-05 0.054203 -0.013252 -0.019638 0.015706 -0.006105 -0.0011699 0.01216 0.020236 -0.0007408 -0.023959 -0.030926 -0.0070456 -0.0033251 -0.019327 0.053803 -0.032535 0.010892 -0.0055651 -0.023322 -0.0095647 -0.0020062 0.0018789 0.0056243 -0.020636 -0.011212 0.021086 -0.019463 0.018392 0.0025944 0.0039421 -0.011458 0.045602 0.05683 0.036959 -0.030447 -0.0077211 0.023469 0.031022 -0.012115 -0.026605 0.03466 -0.0018612 0.010417 0.0059051 0.018589 -0.022906 -0.026402 0.0079106 -0.012028 -0.030879 -0.020339 -0.063405 -0.025523 -0.0030823 -0.031342 0.015275 -0.0042377 -0.014154 0.026561 0.024666 -0.018697 0.028077 0.018181 0.0049087 0.010006 0.0031646 -0.017764 0.039722 0.02446 -0.01466 -0.013729 -0.036466 0.029868 -0.0074188 -0.0067116 0.0011162 -0.013923 0.032413 -0.0046601 0.055419 -0.0131 0.029196 -0.0062863 0.0029427 0.010716 -0.021217 0.035049 0.01904 0.021251 0.022047 -0.023865 0.00347 0.0042193 0.010873 -0.0178 -0.013433 0.0004575 -0.011646 0.0053859 -0.011907 0.0058142 0.0098852 -0.013853 -0.0078431 -0.018233 0.020327 0.019603 0.014202 0.032414 0.00019301 0.024108 0.019775 0.015959 0.0050572 -0.046952 -0.027487 -0.0011948 0.025742 0.028815 -0.032729 0.00046002 -0.024684 -0.045393 0.01377 0.013283 -0.024872 0.028071 0.0088684 0.038159 0.019187 -0.0011637 -0.0030934 0.0018548 0.0071089 0.0019662 0.029606 -0.031132 -0.00081742 0.04106 -0.00032872 0.00248 -0.033721 -0.0063249 0.01818 -0.02872 0.032245 -0.0068264 -0.0067413 -0.035748 0.036504 0.0089998 0.0051696 -0.004036 -0.0046111 0.0053041 0.0036091 0.011911 0.0017649 -0.01342 0.013318 0.08878 0.018157 0.008943 0.021415 0.033976 0.011046 -0.011055 0.0039011 -0.024945 -0.0061938 0.035543 0.0061438 -0.0011273 -0.0030458 0.014066 -0.044287 0.02106 -0.020261 -0.010569 -0.023824 -0.04863 -0.029345 0.012023 -0.01692 -0.010888 0.0034192 0.017266 0.034722 -0.054628 -0.023325 -0.020763 -0.0060479 -0.0082628 -0.014035 0.0023504 0.034507 -0.013889 0.019627 -0.033353 0.0029682 -0.030835 -0.02206 0.0011889 0.011276 -0.014526 0.03337 -0.010189 0.008727 0.040992 -0.0076729 -0.02336 0.038623 0.001884 -0.0042817 0.00034583 -0.035336 0.024917 -0.0077864 0.0055753 0.0018601 0.041508 0.0022484 -0.047236 -0.020363 -0.02677 -0.0076847 -0.029677 0.010842 -0.0071165 -0.027491 0.004151 -0.058666 0.0029977 -0.014514 0.020201 0.031676 -0.01121 
zoetwaterkreeft 0.0075724 -0.0090379 -0.023742 0.056267 0.0044001 -0.045864 -0.01909 -0.003253 -0.031416 0.0019138 -0.0066386 0.010901 0.038487 0.0096132 -0.038318 -0.063993 0.043498 0.01501 0.009884 0.033352 -0.028006 0.019249 -0.011 -0.035002 0.050059 0.0086423 -0.042838 -0.0043873 -0.003075 -0.008899 0.012639 -0.0043188 0.0053615 -0.011221 0.039821 -0.0099729 0.01962 0.041188 -0.014906 0.0038797 0.00070618 -0.0046032 -0.013562 -0.028436 -0.0020982 0.042188 0.015054 0.0058207 -0.0087246 -0.002782 0.019371 -0.024752 0.014411 0.012656 0.021567 0.022255 0.023168 -0.00051254 -0.021617 0.015978 0.033622 -0.016277 -0.00034177 0.027219 -0.0093039 -0.0050637 -0.00021689 -0.023337 -0.00023532 0.018447 0.009508 0.0027114 -0.014855 -0.006111 -0.010496 -0.005848 -0.019303 0.071867 -0.020317 0.016441 -0.0099194 -0.023729 -0.0025936 0.040865 0.0037145 -0.0069108 -0.018538 0.020735 0.015092 0.013384 0.019224 0.0023006 0.0045793 -0.035483 0.034874 0.049696 0.0067263 -0.018422 -0.03057 -0.0013585 0.031371 -0.014765 -0.0036276 0.033055 -0.016663 0.010491 0.013639 0.040339 -0.047736 -0.034164 0.01512 -0.004156 -0.013799 -0.030167 -0.045778 0.010606 -0.0014208 -0.012261 -0.006949 0.0005682 0.017749 0.020946 0.034406 0.023128 0.01419 0.025893 -0.012795 0.028834 0.0062835 -0.017045 0.013186 0.011727 -0.0084199 -0.011767 -0.0068381 0.046083 -0.025159 -0.012758 -0.0057408 0.0029294 0.027854 -0.0041213 0.00016534 0.012521 0.00031688 -0.00712 -0.025931 0.028824 -0.0031487 0.013843 0.041184 0.021141 0.031173 -0.037243 -0.010496 0.015432 -0.02948 -0.015554 -0.029769 -0.015141 -0.013141 0.018478 -0.0046312 0.019169 0.029655 -0.0085428 -0.013612 -0.012444 0.013203 -0.0048825 0.026357 0.045184 -0.003937 0.022946 0.048361 -0.002771 0.006677 -0.03497 -0.022051 -0.027295 0.04671 0.022984 -0.01874 0.009471 -0.00212 -0.04637 0.037732 0.017911 0.012723 -0.014839 -0.00029697 0.012304 -0.012461 0.0098171 -0.018569 0.0075723 0.0083209 -0.0039105 0.029169 0.0093828 0.0026264 0.014779 -0.0052663 -0.013961 -0.0073223 -0.020756 0.024949 -0.038848 -0.002059 0.003236 0.018431 -0.007947 0.029428 0.016607 -0.0022304 0.02909 -0.01093 0.0056913 0.020013 0.0011118 0.020072 -0.039588 -0.0063231 0.032927 -0.022832 0.0033702 0.024862 0.04049 -0.0072991 0.0089838 0.013321 -0.030475 -0.012788 0.029067 0.0065866 0.027278 0.0031035 0.022708 -0.019313 0.020743 0.0031766 0.0069425 -0.0090689 -0.055492 -0.033409 -0.0020949 0.0079155 -0.015301 -0.0037393 0.017162 0.046489 -0.053357 0.016655 0.0054952 -0.037045 0.044972 -0.0039623 0.035327 0.0012202 -0.02516 0.032247 -0.026234 -0.055626 -0.025679 -0.020369 -0.011097 0.011703 -0.0079148 0.023659 0.011177 -0.0072981 0.020735 -0.052822 -0.039183 0.042003 0.045197 -0.030221 -0.024598 0.011853 -0.00038487 -0.0054315 0.026022 -0.026382 0.044115 -0.029864 -0.022676 0.0021916 -0.049586 0.00010792 -0.014029 0.04685 -0.022197 -0.019907 -0.02716 -0.026625 0.0038924 0.004677 0.022856 0.010228 -0.014585 
écrevisse -0.01989 -0.019519 -0.013999 0.081269 0.0094823 -0.057261 0.020409 -0.0228 -0.056566 -0.090147 -0.0017029 -0.0045941 0.041915 0.0093612 0.043828 -0.1095 0.095904 0.033433 -0.0080163 0.061753 -8.3245e-05 0.03979 0.0075976 -0.015954 0.054549 0.017439 -0.043287 0.034551 0.00074697 0.048037 -0.0077298 -0.052878 -0.025544 0.010249 -0.023829 -0.027731 0.024618 0.10824 -0.043557 0.053303 -0.0083745 -0.038947 -0.0090178 -0.032505 0.0074652 0.073774 -0.030524 0.00092015 -0.020291 0.043623 0.031372 0.0037744 0.017379 -0.014558 0.013536 -0.032747 0.0086645 0.047356 0.01237 0.050651 -0.011423 -0.011745 0.01354 0.026996 -0.041769 0.025921 0.014662 0.006317 -0.04766 0.041727 0.020141 -0.00097544 -0.028967 0.050772 -0.0084916 -0.041382 0.00046178 0.071618 -0.082471 0.051112 0.030279 -0.018791 -0.02573 0.049653 -0.033361 0.086836 -0.087985 -0.044852 0.070384 0.044488 -0.015321 0.020231 -0.02178 -0.0076329 0.057736 0.075635 0.039701 -0.065173 0.022076 0.014345 0.027427 0.022082 -0.032945 0.021718 0.011128 -0.040307 0.060113 0.062607 -0.017398 -0.027738 -0.023369 -0.012692 -0.051835 0.024709 -0.034767 -0.01778 -0.07653 -0.042932 0.037277 0.0071967 -0.040851 -0.031796 -0.02211 0.028647 0.011952 0.08565 -0.016685 -0.0094313 0.033694 -0.034796 0.030677 -0.02594 -0.021956 0.0070042 0.053517 -0.00071202 0.00020115 -0.0056738 -0.0031159 0.0068541 0.075012 -0.014893 0.01186 0.01636 -0.069286 0.0098304 -0.082924 0.017468 0.045728 0.0086707 -0.015244 0.0067448 -0.08158 -0.034739 -0.023704 -0.022874 0.093022 -0.039472 -0.024414 0.018472 0.016162 -0.025106 -0.044544 -0.011965 -0.026788 -0.014318 0.021634 -0.023486 -0.050273 -0.02846 -0.012505 0.011615 -0.054994 -0.0091086 -0.0067868 -0.023273 0.0049715 0.023536 -0.0030274 -0.0066382 0.034891 0.047434 -0.01783 -0.10748 0.035741 -0.036964 -0.0118 0.017445 0.047351 0.0028044 0.013366 0.0020579 -0.029694 0.029463 0.00089227 0.054135 0.018145 0.0024959 0.028857 0.049619 -0.036481 0.0028875 0.0024916 0.030507 -0.070611 -0.063996 0.12098 -0.069285 0.0068451 0.030807 -0.013968 -0.0090141 0.028479 0.052344 -0.0050737 0.014209 -0.016025 0.004456 -0.021137 -0.057253 0.01289 -0.011084 -0.019756 0.11046 -0.029693 -0.057933 0.0051412 0.021695 0.037953 0.060747 0.0032692 0.00077888 -0.029713 -0.007631 0.013844 -0.0066212 0.0056002 -0.037603 -0.031177 -0.008956 0.019073 -0.0042314 -0.0042387 -0.042726 0.034241 0.017232 0.058991 0.002618 0.011711 -0.0042512 0.10606 -0.063626 0.020751 0.053399 0.034969 0.028659 -0.017209 0.014822 -0.043339 0.0032097 0.037742 -0.12033 -0.14243 -0.0041254 -0.0047226 0.01048 0.031145 0.032502 0.023754 0.067732 -0.035288 0.071314 -0.083807 0.0041596 -0.041559 -0.010594 -0.044256 -0.0054333 -0.016917 -0.0018991 0.038208 -0.024363 -0.080273 -0.014037 -0.01314 -0.067897 0.031548 -0.086227 -0.022063 -0.017834 0.041336 -0.021971 -0.079342 -0.0093903 -0.020964 -0.027277 -0.05811 0.054808 0.031906 -0.016816 
Edelkrebs -0.018737 0.0023837 -0.021155 0.083838 0.0021631 0.020796 -0.0023245 0.029979 -0.019253 0.034189 -0.033009 -0.02395 0.0096153 -0.017284 -0.019879 -0.094267 0.037744 0.034386 -0.018139 0.01688 -0.032341 0.027057 0.012122 -0.060983 0.03902 -0.010494 -0.047688 0.011267 -0.0082584 0.022296 -0.0065794 0.017048 -0.0021767 0.030317 -0.040467 0.011957 0.017417 0.055657 0.037584 0.04102 -0.0042164 0.019419 -0.040252 -0.020358 0.0061843 0.070151 0.016074 0.044293 -0.0092601 0.01411 0.027137 -0.021017 0.02521 -0.080933 0.0081633 -0.018046 0.032105 0.0066017 -0.04493 -0.0025489 -0.014245 0.0011781 -0.0011148 0.031856 0.0020747 0.0073732 -0.038369 -0.0022626 -0.0064392 0.0077867 0.036952 0.013964 -0.07261 -0.0013243 0.018693 -0.0022042 0.0048505 0.043307 -0.052232 0.010531 -0.026187 -0.074621 -0.00025173 -0.016449 -0.027408 0.028064 -0.0001593 -0.042564 0.030563 0.016743 0.0075588 -0.040749 -0.039958 0.0028973 0.0077504 -0.017077 0.026301 -0.017816 -0.017514 -0.017454 -0.019281 -0.060003 -0.027373 -0.02615 0.01799 0.0017628 -0.038436 0.018126 0.007744 -0.027036 0.027335 0.032108 0.001409 -0.045106 -0.02893 -0.033572 -0.014651 0.0057897 0.0040009 0.00019351 -0.016645 -0.020611 0.02139 0.012469 0.035351 0.035587 -0.0061899 0.0014048 -0.022324 -0.01977 -0.056774 -0.0034025 -0.015607 0.036696 -0.016926 0.00075407 -0.048777 0.0058829 0.011499 -0.046815 0.044848 0.024711 -0.051089 -0.00035353 -0.089718 -0.02372 -0.025026 0.0070397 -0.0096319 -0.0057083 -0.015146 -0.0040221 -0.042786 -0.0030539 -0.018161 0.0094699 0.055379 0.017182 -0.037668 0.017187 0.031237 0.036865 0.0010326 -0.01916 0.0033936 0.028783 0.036439 -0.018074 0.013747 -0.0025936 -0.057114 -0.0023356 -0.0093953 -0.050088 -0.030224 0.0055412 -0.047821 -0.013872 0.0014855 -0.014907 0.043171 0.043711 -0.022901 -0.027495 -0.020223 -0.028138 -0.033165 0.042967 0.0084749 -0.0064176 0.0361 0.018356 -0.0028896 0.017236 -0.0083208 0.01695 0.013298 0.00019096 0.02577 0.013848 -0.0091809 0.025437 0.025543 0.014757 -0.053283 -0.077 0.034353 -0.034128 0.015867 0.024413 -0.0057398 -0.00017868 0.0088942 0.033143 -0.015431 0.016365 0.01225 -0.010799 -0.0047824 -0.031396 0.038624 -0.0050518 -0.025406 0.028516 -0.034592 -0.011935 -0.0087374 0.014943 0.00080738 -0.016568 0.060998 -0.0080048 -0.035908 0.019494 0.018129 0.031731 0.037272 0.02322 0.016257 0.020261 0.017604 0.009268 -0.048857 -0.053807 0.016641 0.0077175 0.014235 -0.035687 0.016012 -0.023323 0.052289 -0.023813 0.0097144 0.019886 0.0065089 -0.008924 0.0054617 0.030177 -0.0048392 -0.037595 -0.031046 -0.094123 -0.043362 -0.011375 -0.045379 -0.023828 -0.0021114 -0.0081847 0.02872 0.092324 -0.020362 0.03029 -0.054557 -0.019533 0.014501 0.0026395 -0.021845 -0.04768 -0.030297 -0.025914 0.0020123 -0.02964 -0.041476 0.011139 0.012525 0.000155 0.012604 -0.013895 -0.005873 0.025144 0.01772 0.035521 -0.047724 -0.0069611 0.0029011 -0.01184 0.01335 -0.0044304 0.013841 0.012094 
Flusskrebs 0.0042215 -0.034377 0.015707 0.0394 0.00059418 -0.02124 -0.030406 -0.015156 -0.016529 -0.032199 0.0024191 -0.034283 0.021034 -0.039002 -0.030341 -0.11056 0.031504 -0.0002212 0.013822 0.055345 0.017991 0.021019 -0.010072 -0.016142 0.048174 0.016231 -0.048461 0.0021643 -0.027438 -0.017952 -0.028557 -0.010252 0.030142 0.039634 -0.055318 -0.017165 0.020859 0.088414 -0.0094093 0.016603 0.0095734 -0.033891 -0.039562 0.038956 0.012834 0.093759 0.011472 0.029935 -0.059784 0.028633 0.045383 0.00413 0.017206 -0.035067 0.040736 -0.02697 0.02758 0.032817 -0.031851 -0.020158 -0.010606 0.019428 0.012551 0.053162 -0.0023549 -0.0005591 -0.038555 0.0027609 -0.014657 -0.031076 0.045135 0.0045339 -0.047493 -0.026034 -0.043538 0.029292 0.024782 0.050968 -0.067662 0.027557 -0.014861 -0.0077591 0.0047889 0.037426 -0.017589 0.020463 -0.0089963 0.002864 0.017082 0.0089199 -0.014936 0.03455 -0.075926 -0.018133 0.073056 0.038905 0.034104 -0.042561 -0.019673 0.025328 -0.042362 -0.033138 -0.027547 0.014832 0.062167 -0.0044995 -0.0012982 0.01529 4.0105e-05 -0.048182 0.020639 0.028971 -0.0024663 -0.0095756 -0.013431 0.00085944 -0.008308 -0.0018542 -0.029766 -0.026614 -0.052113 -0.0057352 0.020291 -0.0052863 -0.0062424 0.0055792 -0.019771 0.0012775 0.0083597 -0.048956 -0.017863 -0.007394 0.0032776 -0.00060338 0.031978 0.019358 0.0046098 -0.019308 -0.0075861 0.0038218 0.10742 -0.026209 -0.022235 0.028029 -0.048097 -0.043138 -0.064212 0.046577 0.0041674 -0.038797 -0.024673 0.02021 -0.070281 -0.037598 -0.0031647 0.0020858 -0.022986 0.0062337 -0.037764 0.012427 -0.01394 0.03549 -0.042066 -0.012859 0.0017957 0.048177 0.046296 -0.029502 0.022781 0.018455 -0.02099 0.019843 -0.030586 0.026176 0.0057186 -0.017074 -0.035819 -0.024209 0.015905 -0.0080799 0.024546 0.081169 -0.0034584 -0.037849 -0.020642 -0.014019 0.011905 0.06672 0.018557 -0.041165 -0.0026233 0.00017783 0.017391 -0.039601 0.0032933 0.0081808 0.022802 0.035818 0.012868 0.08149 -0.0816 0.033027 -0.0053621 0.0037236 -0.022021 -0.016417 0.092092 0.027748 -0.012527 0.0078469 -0.0074441 -0.024519 -0.0035499 0.02852 -0.0069388 0.01906 -0.024628 -0.016934 0.0316 -0.063091 0.010649 0.04922 -0.0054149 0.05291 -0.033177 -0.022144 -0.013282 0.056511 0.014137 0.00054871 0.029037 0.013189 -0.0054696 0.017502 0.02819 -0.0026795 -0.021451 -8.4816e-05 -0.011043 -0.020144 0.0032698 -0.037371 -0.041198 -0.11467 7.6326e-05 -0.023952 -0.012255 -0.037045 0.036158 0.022397 0.049384 0.010003 -0.051813 0.026721 -0.0017984 0.013627 0.020934 0.044113 0.014174 0.0027524 0.0056883 -0.1322 -0.11868 -0.017431 -0.08671 -0.0049736 -0.034227 0.0072923 0.0066658 0.078922 -0.050673 0.0080949 -0.043004 -0.0069914 0.012075 -0.0087481 -0.06306 -0.066188 -0.056315 0.004922 0.030424 -0.018281 -0.046479 -0.024719 -0.032343 0.0064677 0.0047529 -0.058135 -0.0062633 0.010293 0.0046685 -0.017787 -0.082524 -0.026146 0.0047812 -0.0291 0.0025682 0.018685 -0.0048844 0.020245 
karavída -0.010729 -0.017735 -0.0084058 0.073838 -0.01284 -0.013465 0.020694 -0.024635 0.0087554 -0.0024074 0.0089633 -0.032789 0.014304 -0.019748 -0.0025109 -0.020851 0.03568 -0.012435 0.011393 0.012689 0.0028996 0.005804 -0.01057 0.00079761 0.0075427 0.0085019 -0.01437 -0.029909 -0.0065005 0.022933 -0.027643 -0.020407 0.0057841 -0.013281 0.021103 0.019006 -0.0072905 0.034003 -0.016624 0.028834 0.00087544 -0.022822 -0.00043834 0.027081 -0.043518 0.039508 0.023167 0.011128 0.005113 -0.019944 -0.024573 -0.0043362 0.014968 -0.010718 -0.026118 0.040265 0.0060307 0.014598 -0.0097213 -0.02175 -0.0020262 -0.0077276 0.02472 0.024774 0.030622 0.0017709 -0.02152 -0.019046 0.0019984 -0.014083 0.031185 0.010281 -0.022251 -0.021097 -0.031208 0.015049 -0.019418 0.031696 -0.01725 0.0013527 0.0041997 0.0053754 -0.053735 0.024803 -0.010172 0.03267 -0.033776 0.0021765 -0.019512 0.023171 0.024971 -0.0032913 -0.035417 -0.0028002 0.024694 0.02253 0.028889 0.015676 -0.01077 0.0086454 0.023756 0.020392 0.0022655 0.023671 0.020863 -0.02833 0.015811 -0.020608 -0.025387 -0.0092675 0.024219 -0.038857 0.0095105 -0.0068322 0.017599 0.0024072 -0.033568 0.00073111 -0.0028324 -0.014073 -0.030602 -0.010417 0.019219 -0.0018398 -0.015934 0.034963 0.0044259 0.0075725 -0.022713 -0.020342 -0.0061549 -0.012339 0.0074645 0.024843 0.03983 -0.0135 0.02323 -0.0079701 -0.0011116 0.0041883 0.037637 0.010776 0.027438 -0.026325 -0.021459 -0.0075122 -0.040858 0.0027741 -0.0052364 -0.039961 -0.022365 -0.0055651 -0.034505 -0.022484 0.0024506 0.027113 0.047388 -0.014229 -0.016819 0.0065615 0.0045955 -0.017549 0.0037104 -0.024621 0.024832 -0.0080299 -0.025072 -0.0087712 -0.011835 0.0080763 0.014125 0.018094 -0.01452 -0.0026289 0.021934 0.0081295 0.01327 0.0044899 -0.026614 -0.0034679 -0.001017 -0.0045863 0.0077954 -0.089227 0.013664 -0.01393 0.038184 -0.011509 0.049423 -0.0029172 0.0070107 -0.0044643 -0.010146 -0.024315 -0.00066836 0.0073786 0.0098616 -0.016737 0.012642 0.037707 -0.024329 -0.013401 -0.0042549 -0.017554 -0.011701 -0.02325 0.031311 0.0038993 0.030239 0.0083717 -0.03856 -0.021701 0.035837 -0.0042263 0.030924 -0.036241 0.01176 0.020708 -0.0028395 0.010485 0.023885 0.019135 -0.012836 0.043904 -0.046246 -0.007527 0.0047655 -0.025923 0.001983 0.0048218 -0.0033727 -0.024149 -0.0036816 0.016891 0.0075108 -0.01071 -0.033515 -0.013267 -0.013813 -0.012982 -0.0067249 -0.011413 0.013221 -0.074354 0.066996 0.0024411 0.0083771 0.0043276 0.0077106 -0.016538 0.036958 0.0024735 0.0098948 0.0049429 0.020251 0.013074 0.013485 0.0013154 -0.047065 -0.020602 0.010758 0.007282 -0.02636 0.029955 -0.0228 -0.007523 0.0045721 -0.0019512 -0.00076831 0.029688 -0.014173 0.0014803 -0.050345 -0.010518 -0.012597 -0.0015219 -0.0033469 0.0064816 -0.055885 -0.0083749 -0.0040546 -0.028482 -0.011206 0.012375 0.018702 -0.018292 0.009422 -0.030289 0.0040453 0.0040713 0.010577 -0.0013941 -0.041774 0.015209 0.0012779 -0.01424 0.02323 0.0071648 0.0048805 -0.024739 
gambero -0.033007 -0.018358 0.0073225 0.02864 0.038183 0.024967 -0.013847 0.00046095 -0.01111 -0.037749 0.0076616 0.015065 0.068763 -0.027101 -0.014672 -0.026155 -0.02102 0.0046945 0.040668 0.040762 -0.048839 -0.00619 -0.02432 -0.023584 0.10093 -0.014014 0.017719 -0.026285 0.0079566 0.018195 0.042498 0.011293 0.039367 -0.051671 -0.038191 0.018851 -0.030825 0.02527 -0.051644 0.048518 -0.016387 0.010378 -0.0078885 0.035357 -0.031743 0.040525 -0.032729 0.0094057 -0.031439 0.030698 0.020429 -0.027248 0.024998 -0.062758 -0.024535 -0.011431 0.038997 0.013904 0.0096532 0.0039924 0.012219 -0.024874 -0.015472 0.036821 0.0096778 0.0072888 -0.021185 0.053118 -0.016236 0.0075594 0.0396 0.037136 0.0034996 -0.030635 -0.030097 0.042322 -0.0088836 -0.033558 0.026733 -0.059323 -0.017098 -0.01977 -0.0058134 0.0014989 -0.014727 0.013306 -0.027685 0.033707 0.0075785 -0.018474 -0.0048965 -0.0064135 -0.062751 0.00091417 0.038478 0.025111 0.070851 0.019226 0.0027853 -0.023896 0.041935 0.023985 -0.0035855 0.037607 0.012569 0.019066 0.065018 0.039891 -0.064159 0.018287 -0.041001 0.024446 -0.0016004 -0.010246 -0.0088451 -0.004047 -0.022888 -0.023711 0.046568 0.017154 -0.025235 0.064531 0.0079759 -0.010747 0.0081471 0.0066761 0.02185 -0.00077526 0.0035717 -0.039276 -0.01643 0.011527 0.0015446 -0.045888 -0.031125 -0.0029005 -0.069807 -0.017968 -0.0046455 0.059123 0.042562 0.010446 0.0020222 -0.043836 -0.038909 -0.031001 -0.020315 -0.015096 -0.080142 0.0047901 0.028506 0.0081572 0.050586 -0.059363 -0.026752 0.0095899 0.085424 -0.0012735 0.0041471 0.0016983 -0.012968 -0.063443 0.01254 0.012526 -0.0072227 -0.025195 -0.06404 -0.02895 0.028461 -0.022978 0.017552 0.046231 0.012425 0.003562 0.032905 0.028702 -0.043592 -0.045909 0.029926 -0.013069 0.048333 0.026792 -0.022401 -0.088473 0.028166 0.012262 0.080868 -0.032803 0.041132 0.0077023 0.016872 -0.084276 -0.0043077 -0.034058 -0.0012685 -0.015636 0.019225 0.025021 -0.015422 0.0095279 -0.065385 0.029667 0.024092 0.031513 -0.014712 -0.034534 0.05174 0.025503 0.028836 0.022956 -0.04801 0.0048947 0.08787 0.019313 -0.015336 -0.0031447 0.043549 0.036019 -0.039089 0.015704 -0.002469 0.019575 0.016923 0.02329 -0.082168 0.020088 -0.029683 0.0063431 -0.0073242 0.0087602 -0.02214 0.054017 0.03916 -0.036173 0.017627 -0.0097158 -0.010595 -0.019819 0.010686 -0.030617 -0.042164 -0.014258 -0.009123 -0.06214 0.032898 0.010639 0.011234 -0.018049 -0.0028934 0.026429 0.06826 -0.022004 0.027344 0.033893 0.018141 0.034045 -0.011246 -0.00023013 -0.015756 -0.038944 -0.00069994 -0.038029 -0.10563 0.011356 -0.042867 0.023793 -0.031667 -0.022774 0.005408 -0.037992 0.010118 0.028657 -0.051455 -0.026667 -0.0062062 -0.047293 0.00887 0.03803 -0.043859 0.070913 -0.0011519 0.019656 -0.067289 -0.0070431 0.027278 -0.014812 0.0058555 -0.022013 0.056632 0.038442 0.004687 -0.035352 -0.070958 -0.028203 0.020351 -0.013149 -0.017431 0.0089587 0.038997 -0.036825 
di -0.13657 -0.050957 -0.65689 0.13365 0.30249 0.21757 -0.32797 0.29985 0.32367 0.16956 -0.023396 0.24549 0.43561 -0.21872 -0.10141 -0.0084458 -0.15361 0.40855 -0.22435 0.020222 0.373 0.09805 -0.085379 -0.53329 0.51614 0.2111 0.38993 -0.30308 0.29269 0.54148 0.13627 0.2391 0.29856 0.21173 -0.41126 0.42359 0.058696 0.31473 -0.111 -0.33337 0.25688 -0.28655 -0.22839 -0.21091 0.37226 0.15256 0.083888 0.21087 0.093128 0.18802 0.07703 -0.017618 0.35586 0.27244 -0.13276 -0.25593 0.24152 0.18003 0.50495 -0.011047 0.34414 -0.24671 0.20876 0.71744 -0.45833 0.21603 -0.057816 0.12339 0.022333 -0.031365 1.5121 0.34001 -0.023231 0.12881 -0.23924 0.25758 0.07953 -0.062817 0.18916 -0.33589 -0.13745 0.33089 -0.045807 0.19555 0.42429 0.019913 0.33271 0.14256 -0.1509 -0.7831 -0.77701 -0.047609 -0.00086888 -0.12419 -0.015071 -0.4354 -0.21918 0.1099 0.047082 -0.036704 -0.31116 -0.044634 -0.018335 0.053833 -0.041519 0.4175 0.24726 -0.20753 0.12674 -0.15916 0.31653 0.39173 -0.11564 0.60671 0.28068 0.012827 -0.1821 0.05881 -0.14177 -0.025589 0.19407 0.40932 0.065562 0.12489 -0.11291 -0.045893 -0.20953 -0.58836 0.074848 0.12952 0.13655 0.19648 0.10233 -0.087828 0.058682 -0.13556 -0.41314 0.23503 -0.22358 0.32477 0.19715 0.0059613 -0.16293 -0.1001 0.1242 0.058019 -1.4388 0.12902 -0.46158 0.26796 0.0005546 -0.11148 -0.022744 0.31402 0.060271 0.010031 -0.46317 -0.52819 0.2417 -0.16953 0.16907 0.7496 0.80632 -0.062707 0.30681 0.088982 0.19743 -0.22789 -0.22556 0.032691 0.091656 -0.29616 -0.052027 0.10074 -0.10843 0.073224 0.2519 -0.10069 0.055918 -0.19579 0.027092 0.18436 -0.23976 -0.89126 0.064258 -0.17526 0.72634 -0.28077 -0.036772 0.046885 0.060818 0.057566 -0.37941 0.13197 -0.45486 -0.48865 -0.15008 0.2197 0.47789 0.29185 -0.06764 0.061599 0.15729 0.18303 -0.18878 0.094759 0.12629 0.35261 -0.28016 -0.63184 -0.18294 -0.0080244 0.088039 0.2055 0.01359 -0.28784 0.25445 0.090079 0.28214 0.063864 -0.16451 -0.4273 0.068038 -0.64345 -0.90821 0.2622 0.10639 -0.16427 -0.28185 0.36523 -0.061279 0.10638 0.27448 0.040324 0.37484 0.13018 -0.022432 -0.51185 -0.050329 -0.16812 0.10712 -0.094048 0.43117 -0.12453 1.3737 0.49089 -0.15781 0.27941 0.093846 0.48052 -0.10317 -0.24498 -0.12542 0.36293 0.11814 -0.31223 0.15983 -0.076271 0.19195 0.16255 -0.11547 0.1302 -0.37531 -0.22667 0.13704 -0.28387 -0.070891 0.30844 -0.52309 0.2659 0.061235 -0.051917 0.019889 0.18339 -0.25106 0.15861 0.2282 0.08919 0.38563 0.1375 -0.04774 0.19956 -0.029499 -0.14818 -0.24028 0.19509 0.15765 -0.26935 -0.013527 -0.092483 0.1344 -0.28624 -0.20085 0.59061 0.012803 -0.11027 0.14543 0.86767 0.10686 -0.2681 
fiume -0.027908 -0.088653 -0.039534 -0.014502 0.050734 0.22856 -0.098559 0.13452 -0.090978 0.026659 0.044517 0.025126 0.13999 -0.065141 -0.01321 -0.11113 -0.1123 0.030405 0.06656 0.025049 0.15115 0.092067 0.052144 0.11913 0.076039 0.080626 -0.070925 -0.1127 0.11853 0.44501 -0.016738 0.11364 0.044609 0.095362 -0.12071 -0.037457 -0.092925 0.20709 -0.1194 -0.0056392 0.0014138 -0.09871 0.0023889 0.017873 0.00094234 -0.021419 -0.089963 0.045548 -0.076931 0.23824 -0.0055641 0.094754 0.081463 0.0016284 0.082576 -0.010718 0.13756 0.19668 0.10702 -0.023447 0.17767 -0.10959 0.095793 0.027525 -0.094313 0.14932 -0.054746 -0.024532 -0.17131 -0.014594 -0.025888 -0.038627 -0.15158 -0.079225 -0.065953 0.046882 0.25418 -0.0012859 0.1164 -0.039448 0.064214 0.080081 -0.025054 -0.037635 0.082511 -0.096531 0.003345 -0.11608 -0.24208 -0.046953 -0.23394 -0.14015 -0.0066292 0.05952 0.011814 -0.030363 0.08474 -0.015504 -0.068027 -0.065294 -0.030289 0.10172 0.097491 0.034586 0.034533 0.12263 0.069668 -0.10816 0.09292 -0.099315 0.047766 0.029955 -0.05066 0.11221 0.031277 -0.014469 -0.053153 0.029973 0.019267 0.1488 -0.17668 -0.024833 0.06738 -0.039356 -0.030727 -0.14842 -0.10741 0.025467 -0.037796 0.016815 0.24247 -0.052429 0.1425 -0.046853 -0.1693 0.1528 -0.19438 0.11943 0.0083727 0.0075225 0.20887 0.19712 -0.074389 0.010631 -0.077724 0.10718 -0.22496 -0.050951 -0.12059 0.15449 0.18649 -0.058199 0.069361 -0.072158 -0.017877 -0.11595 -0.078446 0.066509 -0.2086 -0.067675 0.060427 0.053619 0.13716 0.012446 -0.051946 -0.022571 -0.15983 0.11276 0.080575 0.017756 0.18082 0.063784 -0.015483 0.11839 -0.059506 -0.044587 0.10207 -0.039394 -0.05712 0.13651 0.12775 0.033105 -0.1318 -0.19198 0.097831 -0.024344 0.092632 0.017672 -0.052848 0.0076806 0.030706 0.019089 -0.020917 0.12431 -0.22935 -0.14859 -0.074944 0.075814 -0.0030623 0.11423 -0.10379 -0.014414 0.083894 0.12561 0.0052609 -0.047324 0.051174 -0.19574 0.045361 -0.14823 -0.070018 0.10083 0.17148 0.13554 -0.07046 -0.056607 0.067482 0.20609 0.048196 -0.039225 -0.1821 0.055263 -0.00079666 0.13616 -0.20924 0.023463 -0.076238 0.12602 0.061698 0.094717 -0.096583 -0.10032 0.081743 0.07143 0.057933 0.048474 0.03263 -0.038549 -0.18718 -0.019224 0.011672 0.03805 0.1862 -0.027655 0.25054 -0.065641 -0.081065 -0.15394 0.10121 0.082454 -0.11502 0.0076443 -0.043669 0.11443 0.04394 -0.14506 0.025561 -0.06114 0.18163 0.055176 0.19385 -0.066374 -0.091289 -0.093858 0.15157 -0.15973 -0.039106 0.0098291 -0.22822 0.11522 0.055645 -0.0015668 0.074542 -0.048389 0.018036 0.070001 0.032669 -0.02892 0.063044 -0.12776 -0.083623 0.12301 -0.034601 0.14902 -0.010524 0.0039794 -0.12198 0.017928 0.022272 -0.0062374 0.0060306 -0.07791 -0.084724 0.31745 -0.007407 -0.038407 0.034858 0.12081 -0.15534 -0.15116 
ferskvannskreps -0.0079358 0.010718 -0.01262 0.035784 -0.030618 -0.023165 -0.015842 -0.00054603 0.020445 -0.021335 0.011335 -0.013571 0.01657 0.030032 -0.012584 -0.070661 0.025627 -0.013589 -0.0029969 -0.020368 0.011219 -0.0092738 -0.01259 0.0015311 0.058121 0.032144 -0.022227 0.0024272 0.0064879 0.021202 -0.021056 0.0095467 0.019526 0.036482 0.015277 -0.016232 0.029091 0.05762 0.011363 0.021961 0.0066979 0.008633 -0.016134 -0.0013769 0.018219 0.025922 -0.017447 0.016942 0.014766 0.016366 0.01282 0.0060508 -0.015814 -0.044611 0.008859 0.019566 0.00090091 0.017974 -0.026274 -0.011402 -0.0059997 -0.002211 -0.01515 0.038419 0.022152 0.002436 -0.013323 0.010387 -0.013658 0.022179 0.015663 0.032928 0.010948 0.04861 0.0011292 0.0077928 -0.010376 0.0133 0.0099994 -0.0045593 -0.0066261 -0.0046096 0.0028951 0.0049949 -0.0079202 0.011265 -0.015043 -0.019096 -0.0036984 0.038222 0.0012706 -0.0039558 -0.010247 -0.0066282 -0.0074466 -0.027269 0.012581 0.0071811 -0.0089829 -0.010237 0.017609 0.022004 -0.0017413 0.078431 -0.017296 -0.014765 0.023219 0.033147 0.022034 -0.010524 -0.022107 0.016345 0.035611 -0.02776 0.014418 0.011869 -0.0072576 -0.006796 0.066273 0.012689 -0.027945 0.023038 0.020902 0.045291 0.010572 0.0025958 0.00095611 -0.0086654 0.044632 -0.024771 0.00062809 -0.015023 -0.017055 -0.028633 0.068949 0.0289 -0.0050436 -0.051948 -0.022549 0.020318 0.032315 -0.019625 -0.018851 0.0038208 -0.061148 -0.01307 -0.038756 0.0048227 0.04156 0.013645 -0.016396 0.0203 -0.078494 0.013612 -0.021964 0.034073 0.039829 -0.005487 -0.021737 -0.031192 -0.015637 0.0044972 -0.085369 0.055111 -0.033713 0.0332 0.0047573 -0.0013363 0.0093355 0.001735 0.035477 0.00054695 -0.041717 0.0095638 -0.012185 0.015046 -0.0030501 -0.014122 -0.001264 -0.0040742 0.0028501 0.028133 -0.0046099 -0.066826 -0.010509 0.0057605 -0.0059399 0.038637 0.017593 -0.02096 0.0022047 -0.011216 -0.027585 0.0014574 0.0070315 -0.0028257 -0.021841 -0.0018383 0.013856 0.034526 -0.051424 0.024855 -0.0071761 0.032158 -0.048625 -0.0065022 0.052645 0.028167 -0.005814 -0.0059156 0.002812 -0.0077463 0.01608 0.017224 -0.022352 0.015295 -0.029227 0.01522 -0.016202 -0.011698 -0.016732 0.019961 -0.0068157 0.0042602 -0.021032 0.002423 0.012141 0.0088937 -0.029689 -0.015784 0.0070645 0.0016163 -0.007226 -0.0046025 0.02631 0.0082611 0.0056095 -0.029292 -0.01253 0.036883 -0.0055569 -0.038215 0.024035 -0.059165 0.036616 -0.021974 -0.030567 0.029301 0.034422 0.01085 0.068752 -0.0077448 -0.0068802 0.043164 -0.018988 0.0043947 0.012758 -0.012968 -0.033932 -0.014935 0.017495 -0.075062 -0.10944 0.0026868 -0.030445 0.018561 -0.0084318 -0.018594 0.032576 0.076292 -0.0037473 -0.023839 -0.040423 0.012806 0.0033339 -0.017561 0.024408 0.0032937 -0.023483 0.0073292 -0.0038702 -0.025445 -0.051726 -0.00014627 -0.0033644 -0.020665 0.0055158 -0.047818 -0.013136 -0.014842 0.02271 0.034672 -0.051569 -0.012834 0.039136 0.001653 0.027709 0.044595 -0.013809 -0.033461 
lagostim 0.0028469 0.0081472 -0.016881 0.1006 -0.0042494 0.0082896 0.049518 0.049557 0.022457 -0.026395 0.038948 0.04063 0.033419 -0.0067782 -0.060411 -0.045637 0.030642 0.017027 -0.040231 -0.026083 -0.048221 -0.04167 -0.013402 -0.058687 0.072639 -0.0019777 -0.032352 -0.062997 -0.0048179 -0.015769 -0.015499 0.022945 0.021946 0.013932 0.052694 0.024001 0.046275 0.060577 -0.055124 -0.0019385 -0.043024 -0.014498 0.050684 0.022392 0.00099505 0.04177 0.02711 0.017039 -0.0023904 0.034201 0.020505 0.011071 0.011929 -0.066584 0.012553 0.040219 0.021616 -0.09017 -0.065575 0.030938 -0.0083327 0.018328 0.00062339 0.072842 -0.018042 0.0022895 0.0066036 -0.037293 -0.015505 0.0072117 0.015499 0.048869 -0.019035 -0.030584 -0.049041 0.019182 -0.0096549 0.054157 -0.016651 -0.035982 -0.056675 0.017965 -0.019795 0.024642 -0.022407 -0.012734 -0.039236 -0.033253 0.037778 0.0010079 -0.03777 -0.011997 -0.03274 0.0031813 0.055472 0.028947 0.016551 -0.073864 -0.026848 0.0098378 0.015289 -0.06183 -0.019452 0.038274 0.028656 0.044529 0.030894 0.025642 0.012931 0.0088942 0.072557 -0.022678 -0.044175 -0.045425 -0.017673 0.0063499 0.004883 -0.00058161 -0.004101 0.0034846 -0.048927 0.014308 -0.012677 0.020243 0.0051981 0.017965 0.040835 -0.016151 0.018349 0.025211 -0.0083306 0.0043415 0.031745 0.025812 0.027635 0.043845 0.090574 0.001255 -0.046184 0.02441 0.029927 -0.019949 -0.0025169 -0.016232 0.034701 0.0072873 -0.017197 0.015794 -0.002717 0.015033 0.017788 0.04521 0.022065 0.025991 -0.066268 -0.0002409 0.0098499 0.029642 -0.045929 -8.9888e-05 0.025417 -0.022227 -0.019873 0.0090015 0.0097969 0.0079288 0.042085 -0.00073894 -0.0035161 0.018922 -0.013831 -0.0068897 -0.043095 0.0016377 0.0068454 0.033357 -0.045845 -0.031209 -0.069532 -0.046083 0.011859 -0.015257 0.0014192 -0.13709 -0.0077513 -0.04005 0.0067023 0.017776 -0.058825 -0.0042559 -0.010891 -0.027163 -0.037823 -0.039337 -0.0099307 0.021765 -0.012787 -0.038435 0.019711 0.035774 -0.037138 0.086134 -0.013974 0.014555 -0.055074 -0.046136 0.052963 -0.00099881 0.0055089 0.0013031 0.050031 0.030469 -0.0013453 0.045022 0.040426 -0.01273 -0.013035 0.033866 -0.046765 0.016799 5.8431e-05 -0.0069448 -0.025592 0.038259 -0.00056084 0.042727 0.015853 0.027868 0.093598 0.029328 0.035724 0.0063108 0.0060175 0.022044 -0.0098329 -0.067676 0.0022747 -0.0086489 0.023071 0.019728 0.017251 -0.078093 0.02738 -0.10844 -0.024941 0.034237 0.027394 0.0030101 0.032069 0.023253 0.054952 -0.052279 0.012008 0.011372 -0.05028 -0.0025553 0.015422 -0.017957 0.014501 0.01069 0.066531 -0.074322 -0.1338 -0.031882 -0.082684 0.0035099 -0.019254 0.0022183 0.0084564 0.090348 -0.037541 0.016789 -0.042906 0.044423 -0.016837 0.040124 -0.06839 -0.0051913 -0.010336 -0.034564 -0.043385 0.020896 -0.068122 -0.024015 -0.022218 0.027676 0.022217 -0.04963 0.020677 -0.010399 0.021392 0.0066966 -0.049471 0.011928 0.015777 0.048604 -0.011816 -0.0025962 -0.0024522 0.020331 
do -0.034584 -0.14639 0.059775 -0.042675 -0.25858 -0.16177 -0.1377 -0.022167 0.10343 -0.19903 -0.0049232 0.011265 -0.075802 0.043023 0.014436 0.20346 0.11833 -0.044241 -0.055821 0.53235 -0.023649 0.017953 0.13005 -0.11142 -0.20474 -0.14015 -0.1767 0.13479 -0.079017 0.54003 -0.11969 -0.11109 -0.0061931 -0.013134 -0.096012 -0.12806 -0.25303 0.20214 0.11092 -0.19427 0.059332 -0.0013385 -0.16883 0.3137 0.34598 0.22821 0.062256 0.42338 0.10553 -0.060652 -0.22149 -0.13756 0.045328 -0.088547 -0.16177 -0.12101 -0.10703 -0.00027744 -0.28047 -0.055625 0.11022 0.00053083 0.0061869 -0.15883 -0.063652 -0.11234 0.0036114 -0.15974 -0.060924 0.021679 0.22988 0.093293 -0.010315 -0.022738 0.27427 -0.098335 0.14062 0.074729 -0.2029 -0.16156 -0.13846 -0.061816 -0.048259 0.10969 -0.0003568 -0.091415 0.05179 0.032099 -0.10193 -0.11695 0.011799 -0.052422 0.51017 -0.21426 0.27558 -0.33767 -0.44245 0.14254 0.0019625 -0.13688 0.076144 0.24681 0.10539 -0.42 -0.074425 0.15713 0.21198 -0.067939 0.025651 0.15242 0.16397 -0.20446 -0.041525 -0.17041 -0.1073 -0.044904 -0.13537 0.063268 -0.012525 -0.044675 0.1332 -0.11217 0.10043 -0.16802 0.10412 0.13053 0.019724 -0.21828 -0.093046 -0.058318 -0.10153 -0.10311 -0.20198 -0.18093 0.3357 -0.19027 -0.47946 0.041367 -0.25862 0.14231 -0.20225 -0.037565 -0.0058965 0.12064 0.35291 0.26239 -0.87018 0.03963 0.003778 -0.084506 -0.39529 -0.078368 0.067625 0.060767 0.13106 -0.11368 0.1245 0.21876 0.057627 0.21154 0.05038 0.057421 0.057414 -0.10519 0.21057 -0.022589 -0.20656 -0.23678 0.015506 0.087373 0.1409 -0.017048 0.10925 -0.09632 0.1833 -0.20302 0.11868 -0.3305 -0.034654 -0.11091 -0.042173 0.018165 -0.020686 0.19382 0.18616 0.22529 0.075555 0.072232 -0.19401 0.083293 -0.042516 -0.1727 -0.13597 -0.1081 0.019243 0.012823 -0.12741 0.029547 0.16602 0.052337 -0.065401 0.28955 -0.035191 -0.082753 0.068018 -0.12648 -0.20644 -0.044324 -0.17045 0.21742 -0.16628 0.031696 0.076019 0.27391 0.033863 0.062887 0.061104 0.040645 0.14944 0.063974 0.10692 0.067678 0.21836 0.02569 -0.23319 -0.13903 0.18343 -0.13237 -0.1563 -0.19041 0.06087 0.15265 -0.15912 -0.14251 0.018049 -0.28228 -0.11617 0.1584 -0.068505 0.11074 0.0775 0.28399 0.16901 -0.14433 1.0427 0.017562 0.011386 -0.0094151 -0.056867 -0.14867 0.11678 -0.084454 -0.30337 -0.14285 -0.090981 0.020684 -0.040178 0.060544 -0.022666 0.18653 0.24755 0.31348 -0.076019 0.15351 -0.092157 -0.14658 -0.15722 -0.10576 -0.13059 -0.35992 -0.038959 -0.188 -0.075112 0.079811 0.033504 0.3805 0.10467 0.24684 -0.11427 0.17404 -0.074154 -0.058248 -0.43932 -0.035542 0.044759 -0.13209 0.12224 -0.28853 0.074076 0.11571 0.28765 0.008144 -0.27263 -0.09935 -0.044421 0.24303 0.14798 -0.053481 0.046709 0.0071126 
rio -0.21969 -0.42282 -0.33756 0.087655 0.073205 0.3043 -0.065633 -0.024743 0.32443 -0.042114 -0.27107 0.14096 0.22135 0.12255 -0.0020466 -0.055744 -0.095271 -0.24327 0.19207 0.058875 0.20219 -0.019912 0.44371 -0.074407 0.26048 0.047352 -0.077353 0.36124 0.19336 0.46268 -0.091035 0.11406 -0.0051107 0.0053827 0.1509 -0.29253 -0.12449 0.27944 -0.12927 0.21652 -0.076939 0.041817 -0.27355 -0.10866 0.070009 0.022817 0.085072 0.13181 -0.14115 0.41085 -0.14948 0.0032881 0.17059 -0.19587 0.18489 0.25282 0.22317 0.11582 0.29023 -0.079917 0.16641 -0.079362 -0.14142 0.28351 -0.073396 0.09865 0.085295 -0.077595 -0.068389 -0.057936 0.28791 -0.19792 -0.31476 -0.38844 -0.16668 -0.05533 0.19082 -0.23334 0.14338 -0.08792 0.043371 0.13226 0.018702 -0.35583 0.10303 0.082686 0.10494 -0.10738 -0.17928 -0.20848 -0.35697 0.10027 0.069376 0.11894 0.13407 0.038078 0.010877 0.27721 -0.38865 -0.2357 -0.048595 0.040279 0.092604 -0.041501 -0.0378 0.052358 -0.0060404 -0.25132 0.11273 -0.10759 0.24341 -0.14848 0.043485 0.039064 0.19981 0.059984 0.48453 0.245 -0.2092 0.26449 -0.057013 -0.36707 0.15918 -0.095851 -0.14783 0.0090799 -0.18926 0.057163 0.14888 0.13758 -0.019434 0.019171 -0.050424 -0.35423 0.090966 0.087159 -0.092327 0.15234 0.15708 0.080887 0.10437 0.29523 0.07543 0.43188 -0.0019628 -0.039967 -0.29557 -0.23352 -0.015682 -0.063115 0.0026757 -0.28493 0.18352 -0.26606 0.29286 0.036683 -0.0572 -0.20057 -0.040262 -0.11418 -0.47644 -0.11721 0.22577 -0.25582 -0.25153 0.10142 -0.10229 -0.027892 0.0077561 -0.1637 0.090344 0.3152 -0.054514 0.30153 0.058656 0.016993 -0.0039079 0.04309 -0.11136 -0.11426 -0.03929 0.072363 -0.20693 -0.15756 0.12182 0.08173 0.14922 -0.16274 -0.10257 0.16742 0.22579 -0.17755 0.20494 0.11558 -0.26905 -0.25345 -0.12228 0.4029 -0.0064447 0.066788 -0.073533 0.053001 0.19596 0.028866 0.050704 -0.030168 0.046877 -0.2908 0.14976 0.1489 -0.048137 -0.29806 0.00074149 0.4768 -0.035889 -0.12357 -0.0044568 0.018307 -0.064386 -0.094005 -0.067306 0.0011867 -0.34748 -0.052745 -0.36467 0.08228 -0.52409 0.0053156 0.02137 0.18507 -0.20242 0.46583 0.12147 -0.12602 0.18913 0.10639 -0.045925 0.014515 -0.082687 0.16729 0.016674 0.097286 -0.2532 -0.011426 0.41969 -0.041475 -0.1236 -0.20205 -0.026733 0.10909 0.14096 0.055703 -0.052942 0.28435 0.038298 -0.15213 -0.13581 -0.12704 0.1172 -0.010183 0.27094 -0.10988 -0.041263 -0.01184 -0.13439 -0.050671 0.18833 -0.0672 -0.19903 0.16419 0.2792 0.0023184 0.088028 -0.090231 0.096437 0.15145 -0.010015 -0.059635 0.072702 0.034968 -0.014544 -0.16628 -0.13983 -0.19101 0.40515 0.17632 -0.063138 -0.33576 0.27273 -0.15688 0.014042 -0.021019 -0.20673 0.15854 0.187 0.11432 0.16901 0.17033 0.06656 -0.18125 
