ål 0 0 0 0 0 0 0 0 0 0 0 0 0 0 0 0 0 0 0 0 0 0 0 0 0 0 0 0 0 0 0 0 0 0 0 0 0 0 0 0 0 0 0 0 0 0 0 0 0 0 0 0 0 0 0 0 0 0 0 0 0 0 0 0 0 0 0 0 0 0 0 0 0 0 0 0 0 0 0 0 0 0 0 0 0 0 0 0 0 0 0 0 0 0 0 0 0 0 0 0 0 0 0 0 0 0 0 0 0 0 0 0 0 0 0 0 0 0 0 0 0 0 0 0 0 0 0 0 0 0 0 0 0 0 0 0 0 0 0 0 0 0 0 0 0 0 0 0 0 0 0 0 0 0 0 0 0 0 0 0 0 0 0 0 0 0 0 0 0 0 0 0 0 0 0 0 0 0 0 0 0 0 0 0 0 0 0 0 0 0 0 0 0 0 0 0 0 0 0 0 0 0 0 0 0 0 0 0 0 0 0 0 0 0 0 0 0 0 0 0 0 0 0 0 0 0 0 0 0 0 0 0 0 0 0 0 0 0 0 0 0 0 0 0 0 0 0 0 0 0 0 0 0 0 0 0 0 0 0 0 0 0 0 0 0 0 0 0 0 0 0 0 0 0 0 0 0 0 0 0 0 0 0 0 0 0 0 0 0 0 0 0 0 0 0 0 0 0 0 0 
paling -0.050214 -0.097115 -0.060026 0.087101 0.00056091 -0.037467 0.074928 0.13852 -0.034444 0.056247 -0.15513 0.049593 -0.010428 -0.10204 0.030136 -0.020508 -0.042292 -0.015838 -0.15295 -0.048437 -0.053172 -0.0060496 0.036841 0.036119 0.07246 -0.0418 -0.013492 -0.0058743 0.10298 0.097804 -0.022209 0.0334 0.082569 0.03849 0.0033445 -0.078866 0.16023 0.070352 -0.020055 0.053975 0.032878 -0.00059147 -0.00096 0.010554 -0.035112 0.034341 -0.043978 -0.15422 -0.038211 -0.0094196 0.020924 -0.098858 0.080471 0.095349 -0.036423 -0.13407 -0.026851 -0.072223 0.010197 -0.0080102 0.051373 0.15997 0.13469 -0.0096005 -0.027697 0.091705 0.021041 -0.051281 -0.079756 0.00040864 0.096353 0.036823 -0.011397 0.089287 0.078392 -0.052044 0.15226 0.0046927 -0.042801 -0.11591 -0.019361 0.12096 0.042432 -0.10797 -0.011894 -0.052165 0.067192 0.031428 -0.084711 -0.062821 0.02446 0.082833 -0.022697 -0.049844 -0.011486 0.012729 -0.050562 -0.064802 0.029517 0.048442 -0.1742 0.074793 -0.022955 0.015188 0.07583 0.087299 -0.037691 -0.099471 0.084822 0.026548 0.07198 0.042339 0.057043 0.057843 -0.030451 -0.051085 -0.048144 -0.12194 -0.17109 0.056262 0.040809 0.11322 0.0062575 -0.097501 -0.040254 0.088053 -0.032502 -0.099366 0.010024 -0.08323 -0.070957 -0.051005 0.0088401 -0.007309 0.038817 -0.13181 0.054089 -0.047083 -0.013544 -0.045025 -0.079956 -0.041133 -0.017856 0.19573 -0.032488 0.0075516 -0.10007 0.034137 -0.060705 -0.018667 -0.063968 0.0019464 -0.01436 -0.014141 0.0071533 0.094003 0.054182 -0.19516 -0.056568 0.056579 0.052337 -0.01646 -0.013815 -0.066438 0.067223 0.076251 -0.013493 0.0046299 0.027423 0.091416 -0.0106 0.052927 0.012492 0.064677 -0.029336 0.03145 0.08644 0.13802 0.0039625 -0.047241 0.004222 0.0087267 -0.054011 -0.049384 -0.1118 -0.026503 -0.072713 -0.019801 0.011448 0.063067 0.034268 0.027208 0.11541 -0.023774 -0.15217 -0.062042 -0.0075519 0.023563 0.10609 -0.0071806 0.014031 -0.0024339 0.040934 0.010378 -0.21992 -0.034974 0.026434 -0.11698 0.092107 0.02824 -0.031024 -0.10015 0.010771 -0.040663 0.027376 0.095431 -0.10531 -0.01894 0.14562 -0.044391 -0.043315 0.030914 0.043019 0.13898 0.049004 0.03627 0.033074 -0.061562 -0.069176 0.16276 -0.061808 -0.11948 0.097448 -0.070353 0.14729 0.070128 0.0092109 -0.10274 0.062696 0.0345 -0.012601 0.0026214 0.078993 -0.084384 0.19592 -0.055185 0.10373 0.049787 0.055411 0.02496 -0.1348 0.033978 -0.010881 0.079009 0.0308 -0.021794 0.00066061 0.011369 0.043238 -0.015341 -0.037478 -0.014108 0.031443 0.098646 0.10062 -0.033807 0.076375 0.086266 -0.17317 0.030084 0.080631 -0.1236 -0.0015651 -0.015448 0.012975 -0.01657 -0.047992 0.010587 -0.010572 -0.0045986 0.063958 -0.056947 -0.091222 -0.07291 0.075456 -0.023706 -0.030107 0.1029 -0.022687 0.00068292 0.094173 -0.063581 0.014413 -0.0068033 -0.026721 -0.056721 0.018374 0.079878 0.050318 -0.087379 
aal -0.19093 -0.028627 0.11369 0.052946 0.090138 0.00070421 -0.075262 -0.11075 -0.034268 -0.24791 -0.061537 -0.023739 0.062444 0.042767 0.023096 -0.014987 -0.21563 0.10755 0.071788 -0.016748 -0.072591 -0.043556 0.041815 0.10037 -0.1283 -0.045963 0.010426 -0.082104 0.026531 0.21044 0.066569 -0.13157 -0.042749 -0.01147 -0.0007881 0.008014 0.10702 0.032343 -0.13539 0.094259 -0.20786 -0.10675 -0.16608 -0.014879 -0.14757 -0.042618 -0.033416 0.048026 0.12154 -0.072465 0.0061503 -0.061845 -0.13629 -0.033534 0.16385 0.030872 -0.17668 -0.030567 -0.028036 0.018302 0.18238 0.033716 0.031263 0.02362 0.070456 0.15701 -0.19296 0.078547 0.12837 -0.10267 0.016684 -0.090357 0.054599 0.14139 0.049307 0.073238 -0.19847 -0.16789 -0.056778 0.11373 0.013693 0.043191 0.012229 -0.18607 -0.018656 0.0013798 -0.015873 0.0074247 -0.095927 -0.066661 0.021695 -0.03399 0.13798 0.1186 -0.0010735 0.033265 -0.045606 0.05653 -0.14056 -0.13362 0.036904 0.10712 -0.018409 -0.0088328 0.12466 -0.11522 0.039127 0.090714 -0.010655 -0.087954 0.010916 0.17981 0.062422 0.07223 -0.024975 0.17227 -0.089099 -0.13208 -0.18584 -0.12822 0.17964 0.10711 -0.090771 -0.097736 -0.070323 -0.01265 -0.058101 0.036689 -0.2537 0.11113 0.17475 -0.044072 -0.093013 0.019847 0.042321 -0.015601 0.14688 0.14157 -0.020367 0.34296 -0.014413 0.080694 -0.097448 -0.0033484 -0.020547 -0.082296 -0.19549 0.086371 0.072381 -0.026664 -0.039224 -0.38008 0.018757 -0.043504 -0.11133 0.046435 0.040949 0.013372 0.06428 -0.033202 0.1195 -0.12717 -0.00098231 -0.097278 0.30288 -0.035623 -0.13182 0.1275 -0.060338 0.15279 -0.076455 0.17811 -0.26498 -0.053582 -0.16189 -0.084372 0.011716 0.060679 0.1244 -0.0034664 0.059564 -0.028836 0.096199 -0.061874 0.17904 -0.043057 0.036707 0.055145 0.089627 -0.044843 0.2282 -0.026682 0.0045916 0.017961 -0.11234 0.045967 -0.046911 0.030793 0.13171 -0.014442 0.067498 0.058388 -0.14473 0.11204 0.10173 0.017164 -0.1032 0.04135 -0.025904 -0.14531 -0.048197 -0.14932 0.047044 0.038062 0.043819 -0.046531 -0.0021964 0.075312 0.062787 0.041442 -0.11967 0.051892 0.098908 -0.095287 -0.062904 -0.026679 0.0065796 -0.099023 0.026314 0.10368 0.039102 0.034812 0.042982 0.011166 0.41378 0.090567 -0.041729 -0.036862 -0.016078 -0.23614 0.16341 0.14415 0.15123 -0.15476 0.3704 0.16544 0.0052258 0.080806 0.035988 -0.039785 -0.097889 0.026127 -0.067634 0.23233 -0.021361 0.015018 -0.013772 0.27269 0.016148 0.18028 -0.040879 0.039683 0.014525 -0.058318 -0.11158 0.16234 -0.17188 -0.14233 0.0062606 -0.029774 0.19953 -0.15923 0.08556 0.014212 0.09152 0.12192 -0.10372 0.087238 -0.025396 0.035262 0.017433 0.032525 -0.025411 -0.084896 -0.079476 -0.098535 0.16737 -0.25947 0.08019 -0.25331 0.028292 0.090617 0.032933 0.14519 -0.13295 -0.050258 -0.046339 0.1057 0.099495 0.051161 
anguille -0.013062 -0.010689 -0.0034736 0.04434 0.0057417 -0.018771 0.0040384 -0.0009726 -0.011144 -0.011227 -0.012396 -0.0015984 0.0095284 0.0023403 0.0028259 -0.12088 -0.031141 0.0080143 0.00069143 -0.0051293 0.0098349 -0.0088427 0.020839 -0.0015538 -0.01786 0.0054706 -0.0022272 -0.005981 -0.0047791 -0.0032097 -0.0097534 -0.031371 0.0052439 0.018131 0.030359 0.012204 0.021472 0.14432 0.0048497 0.039718 -0.026845 -0.016349 -0.034132 -0.0019876 -0.053357 0.011758 -0.021709 -0.021743 0.0082427 0.0058225 -0.024996 -0.023534 -0.024662 -0.0083236 -0.011109 0.047987 0.024869 0.001089 -0.009891 0.020702 -0.04249 -0.0055853 0.0080564 0.027429 0.0096363 0.0050821 -0.0057856 0.0095341 -0.012444 -0.02981 0.040399 -0.014388 0.010141 0.022571 -0.0048403 -0.016834 -0.0072647 -0.0025881 -0.033611 -0.001535 0.0023123 0.00027171 -0.019899 -0.02341 -0.036472 0.034364 -0.023719 0.042779 0.033069 0.086364 0.0071659 -0.028053 -0.059415 0.012413 -0.011033 -0.032974 0.03579 -0.015355 -0.038366 -0.016477 -0.018752 -0.031543 -0.066198 0.05325 0.026767 -0.027797 0.03909 -0.0014377 -0.047339 0.015247 -0.034901 -0.00235 -0.021881 0.018022 -0.021584 -0.016462 -0.0089267 0.017781 -0.011367 -0.0072296 -0.024164 0.031232 0.027384 0.031683 0.029301 0.051232 -0.015894 -0.0052711 -0.0027248 -0.012645 0.0071188 -0.0050393 -0.0099992 -0.019279 0.044985 0.01706 0.012062 -0.042572 0.0065355 0.0093639 0.011749 0.00092978 0.0086453 0.012504 -0.075091 0.025198 -0.047568 -0.0022872 -0.00010469 0.029135 0.090054 0.043089 -0.0033037 -0.043456 0.0048895 -0.015636 0.0001977 0.0039081 -0.017163 0.0043508 -0.0053877 -0.030183 -0.03457 -0.013406 0.0072696 0.0020011 0.00036721 -0.028238 0.03443 0.032597 0.015096 -0.009352 0.015754 0.030062 0.010321 -0.018701 -0.047332 -0.038783 -0.0049052 -0.02266 0.018957 0.0039453 -0.016241 -0.046142 0.014028 -0.012138 0.015511 -0.0055219 0.03896 0.0020071 -0.00011269 -0.013828 -0.0073108 0.042023 -0.0042701 0.018407 -0.022606 -0.0046113 0.013908 0.091855 -0.02598 0.059127 -8.8737e-05 0.014793 -0.017987 -0.029682 0.048311 0.016062 0.0027133 -0.0095913 -0.01852 -0.012253 0.0025525 0.010185 0.014525 -0.012257 -0.015959 0.0082753 -0.016308 -0.027504 0.057486 0.0021136 0.012198 0.00716 0.0083905 0.016997 -0.011638 0.00046936 0.07871 0.012225 0.014502 0.01622 -0.01135 0.012292 0.048397 -0.053216 -0.011651 0.0049899 -0.026689 0.014563 0.0033053 -0.08332 0.0066619 -0.089598 -0.0024518 0.0052628 -0.026307 -0.051092 0.014782 0.0033826 0.069697 0.045874 -0.0021842 0.016647 -0.01189 0.014657 -0.029812 0.029433 -0.029312 -0.0085251 0.042368 -0.0047543 -0.064899 -0.038684 -0.087761 -0.019192 0.017644 0.0021492 0.027235 0.0084815 0.018641 0.019495 -0.059231 -0.043807 -0.0065413 0.010015 -0.0076015 -0.0042859 -0.05 0.014118 -0.0079055 -0.02203 -0.056894 0.0071844 -0.012816 -0.046488 0.016897 -0.037143 0.034461 -0.024425 0.066779 0.020641 -0.059222 -0.00024373 0.0041112 -0.023846 0.015656 -0.0087231 0.028869 -0.0040147 
Aal -0.37307 -0.25023 -0.27612 0.043358 0.040712 0.042828 -0.049298 0.20423 -0.12701 -0.058691 -0.099001 0.084442 0.046853 -0.12631 0.0087436 -0.092853 -0.094043 -0.047284 0.025455 0.03048 0.10748 0.048619 0.22067 0.31846 -0.12491 -0.1568 -0.13482 -0.011994 0.16926 0.37995 0.025924 0.022856 -0.055391 0.22395 -0.37093 0.087652 0.11288 0.017354 -0.011293 -0.096335 -0.15188 0.11126 0.11089 -0.032508 0.09092 -0.10512 -0.16784 -0.2443 0.17318 -0.00097554 -0.024591 -0.15918 -0.13324 -0.074211 -0.25533 0.05066 -0.17515 -0.082147 0.30661 0.05938 -0.015121 -0.0039782 -0.30132 0.0030012 -0.028925 0.094448 0.072803 0.35257 0.055509 -0.23524 0.35046 0.061267 -0.017426 0.13792 0.13873 0.0133 -0.26234 -0.04297 -0.084534 0.095481 -0.0083374 0.058381 0.19845 0.016392 0.03264 -0.25339 0.073715 -0.1505 0.079539 -0.01409 -0.06581 -0.23695 -0.17247 0.17177 0.072016 0.057682 0.23178 0.068488 0.071592 -0.39748 -0.10638 0.10454 0.095215 0.094624 -0.14626 0.05184 0.13478 0.15538 0.091944 -0.021961 -0.070865 0.3093 0.14442 0.075629 -0.17317 0.29967 0.018261 -0.27385 0.014081 0.21691 0.065041 0.08184 0.12106 0.032331 -0.053967 -0.16122 -0.17755 0.14775 -0.26926 0.028019 -0.0068706 -0.012463 0.077981 -0.2855 -0.034308 -0.040732 -0.1286 -0.034504 -0.19752 0.085095 0.068222 0.22513 -0.15605 0.043202 -0.0029877 -0.16926 -0.31634 0.0033486 0.2841 -0.067259 -0.15713 -0.30904 -0.036793 0.10923 -0.17133 -0.079697 -0.22632 0.11345 0.11336 -0.030851 0.15061 -0.1738 0.19123 -0.11355 0.031269 -0.27812 0.027109 0.29929 0.1086 0.06637 0.047445 0.18602 0.031615 0.11594 -0.29997 0.30521 0.14008 0.10743 0.24046 -0.02345 0.1831 0.078418 0.09311 -0.33623 0.24986 0.16931 0.030202 -0.1185 0.067093 -0.24135 0.11774 -0.18084 -0.31375 0.030818 -0.033784 0.079728 0.076501 -0.086129 0.21404 -0.018 -0.0021095 -0.059193 0.00806 0.2626 -0.1787 0.015856 0.11828 -0.20733 -0.21998 -0.10586 -0.16645 0.029656 -0.076552 -0.019196 0.05738 -0.18514 -0.24946 -0.45234 0.048598 -0.003292 -0.17844 -0.0064284 0.055227 -0.11581 -0.2598 -0.017293 0.29538 0.038203 0.044032 0.013796 0.1057 -0.085276 0.10677 -0.0043951 0.093687 0.16037 0.1347 -0.11701 -0.031925 -0.094463 0.34202 -0.17929 0.49845 0.044038 0.44491 0.054288 0.009022 0.10516 -0.0079245 0.022113 -0.27712 0.030453 -0.060583 0.25586 -0.1146 0.21277 -0.06694 -0.18955 -0.024999 0.12857 0.09904 -0.16922 -0.23751 -0.075355 -0.041806 0.051466 -0.2531 -0.2555 -0.32133 0.1812 -0.099622 -0.12358 0.03755 -0.027809 0.2437 0.13624 0.03792 -0.21526 0.37595 -0.12737 -0.24192 0.14712 -0.01666 -0.263 -0.058964 -0.009955 0.11643 0.19064 -0.00012339 0.089825 -0.039025 -0.027283 -0.032652 -0.12762 -0.26829 0.10923 -0.20177 0.26823 -0.053102 -0.05381 
Flussaal 0.036768 -0.015822 -0.061634 0.059549 -0.047068 -0.016648 -0.064344 -0.029211 0.010167 -0.037529 0.017369 -0.0267 -0.026013 -0.032748 -0.072051 -0.049565 -0.045862 0.031846 0.026527 0.10561 0.064775 -0.0067266 0.017758 -0.024825 0.063891 0.025545 -0.07782 -0.00901 0.011145 0.018447 -0.039575 0.050618 -0.036724 0.055928 -0.023036 0.017012 0.022677 0.079096 -0.01748 -0.023855 -0.060188 -0.033018 -0.04706 -0.049463 -0.024288 0.023517 0.0019432 0.0061748 -0.058183 -0.0007309 0.032048 -0.011398 -0.012839 -0.075084 0.038685 -0.034512 0.0668 0.018548 -0.025392 -0.052031 0.050264 0.0086658 0.039778 0.054179 0.012468 0.047428 0.0080386 -0.022824 -0.0694 0.038121 0.061037 0.0064675 -0.10229 0.038721 0.0070469 -0.0070768 0.042045 0.032879 0.031474 0.023563 -0.011968 -0.033251 0.0077067 -0.036212 -0.041738 -0.025341 -0.026981 0.016763 0.067822 0.052819 -0.06227 0.034294 -0.021742 -0.045559 -0.013752 0.068996 -0.0053788 -0.025972 -0.0071282 -0.049778 -0.021132 -0.018057 -0.027818 -0.015908 0.022416 -0.011992 0.047149 0.080377 -0.0064337 -0.04833 0.004815 0.033497 0.0056442 -0.005354 0.018429 -0.039545 -0.042224 0.0071371 -0.039147 -0.0049554 0.010409 -0.06806 -0.0055902 0.044721 -0.0049062 0.01541 0.031915 -0.020236 -0.020516 -0.068928 0.052724 -0.045597 -0.028923 0.049576 0.047594 -0.01369 0.080912 -0.0011285 0.037784 0.048195 0.015093 -0.0098153 0.075601 0.014233 -0.014023 -0.013829 -0.058439 0.029713 0.00077553 -0.0038819 0.0096848 -0.027132 -0.018755 -0.034104 -0.02408 -0.03466 -0.019542 -0.0078441 -0.03106 -0.031155 -0.0076014 -0.009427 -0.12752 -0.028847 -0.0077881 0.014757 -0.0060559 0.011321 0.0080361 0.060579 0.02665 0.054466 -0.0048975 -0.0065711 -0.058318 -0.043109 -0.075983 -0.054066 -0.074602 -0.040389 -0.010772 -0.030702 0.044766 -0.068198 -0.043343 0.011764 -0.095932 0.075602 0.047976 -0.0090557 0.023529 -0.09495 0.0051963 0.021748 -0.022917 0.034275 -0.0033517 0.074857 0.019977 0.035486 -0.027414 -0.030238 -0.074553 -0.011242 -0.021919 -0.079301 0.087372 -0.0028658 -0.046691 0.0075954 0.07958 -0.057436 -0.015442 0.064997 -0.052626 -0.10485 -0.040565 -0.044177 -0.019106 -0.020497 0.081157 0.021873 0.0011001 0.052666 -0.00043826 -0.048768 -0.026753 0.0060625 -0.022268 -0.0077636 0.042409 0.010769 0.010884 0.03562 0.078159 0.0018677 -0.0010313 0.03555 -0.065452 0.0031721 0.014136 -0.007253 -0.077906 -0.036871 -0.026303 -0.033676 0.010758 0.0093894 0.011827 0.046073 0.054426 -0.026549 -0.02394 0.02258 -0.045539 0.044889 0.027477 0.0061384 0.078759 -0.042652 0.084543 -0.088779 -0.15673 -0.0075008 0.027612 -0.0077119 -0.03758 -0.033237 0.030475 0.017748 0.010121 0.10804 -0.0988 -0.041114 0.023807 -0.017022 -0.05113 0.049625 0.00012376 -0.021698 -0.0072335 0.042664 0.031752 -0.1 -0.014042 -0.02771 0.087581 -0.02789 0.012168 -0.037239 -0.003736 -0.0026738 0.0049236 -0.021171 0.017174 0.0086177 -0.03513 0.0091561 -0.077851 0.040985 
chéli 0.017142 -0.02277 -0.080644 -0.045185 -0.068293 -0.026101 -0.057121 0.022503 -0.03276 0.025688 0.030525 0.068404 -0.071942 -0.10276 -0.0085422 -0.088982 0.17032 0.057604 0.025626 0.042918 0.052108 0.11652 -0.1059 0.038534 -0.013941 0.067056 -0.051115 0.11443 -0.043545 0.17495 -0.05088 0.0055783 0.019082 0.084791 0.13318 0.097975 0.017071 0.035367 -0.085869 0.09625 0.12233 -0.10769 -0.01329 0.031386 0.077259 -0.0004832 -0.02025 0.020284 0.024859 0.0023306 -0.015315 -0.10214 0.063972 0.066867 -0.076308 -0.039322 0.034461 -0.0061216 0.015495 0.00208 0.076148 0.073981 0.073741 0.126 -0.091001 0.042115 0.082208 0.10549 -0.063412 0.04105 0.13164 0.007851 -0.069378 -0.0023627 -0.03873 0.052146 -0.061533 -0.0040642 0.01655 -0.042706 -0.043597 0.10945 0.013731 -0.11503 -0.092796 -0.0092296 -0.076333 -0.036943 0.010297 -0.013319 -0.062271 -0.02961 -0.033641 0.069682 0.061026 0.03798 0.00078341 -0.12116 -0.14194 -0.063248 -0.047138 0.048998 -0.10204 -0.082348 0.0073008 -0.050834 0.032581 -0.091226 0.050096 -0.032405 -0.061108 0.096722 -0.03449 -0.063643 0.086786 0.058139 0.035608 -0.08365 -0.13018 0.033 -0.007725 0.033454 0.045222 0.035555 0.10024 -0.032062 0.094315 0.016373 -0.019823 0.068595 -0.096755 -0.082692 0.11876 0.092176 0.046609 0.073805 0.042229 0.0027513 -0.07352 0.023762 0.11517 -0.049589 0.10426 -0.040783 -0.0052482 -0.12106 -0.048244 0.0060708 -0.11986 -0.028561 -0.028787 0.032436 -0.0056514 -0.055005 -0.053865 -0.048515 0.041419 0.079611 -0.10154 -0.056695 0.056616 -0.029701 -0.12551 -0.069279 -0.061846 0.038263 0.13718 -0.096459 0.026251 0.019689 -0.062823 0.051007 0.020616 0.077668 0.012568 0.010328 0.023386 0.070092 -0.013807 -0.046776 -0.08006 0.06126 0.051278 -0.16201 0.057395 -0.069871 0.037733 0.0151 -0.022137 0.027613 -0.02831 -0.0086296 -0.10827 0.16175 -0.061863 -0.017618 -0.1025 -0.041114 0.07738 0.058718 -0.022498 0.095445 0.019963 -0.0080604 -0.0058093 -0.11521 0.05257 -0.073712 0.012601 -0.0078491 -0.018752 -0.083991 0.0074745 0.076712 -0.10425 -0.045515 0.0073917 0.041664 -0.045366 0.03004 -0.024948 -0.10492 0.033483 0.014088 -0.1124 0.03619 -0.020089 0.035306 -0.035471 -0.017014 0.08024 -0.026363 -0.054167 -0.011589 0.11065 0.028487 -0.10826 -0.073985 0.0030615 0.13649 -0.029205 -0.00045265 0.11079 -0.17106 0.07581 -0.062014 -0.018281 0.067082 -0.037789 -0.077902 0.061353 0.013419 -0.10338 0.11805 -0.099678 -0.015268 0.027235 0.027725 0.021207 -0.057704 0.016593 -0.068187 -0.1761 -0.0067395 -0.070261 -0.028927 -0.057858 -0.061179 0.056569 0.12322 -0.056024 0.051786 -0.175 0.026315 0.069445 -0.052359 -0.052866 -0.10985 0.0078024 0.020592 0.05828 0.029529 -0.040618 0.052528 -0.1089 -0.029107 0.0073577 -0.22116 0.021271 0.081118 0.026023 0.070277 -0.14227 0.0022575 -0.058641 -0.10311 0.024179 0.041538 0.093367 0.038982 
anguilla 0.056197 0.014683 -0.063355 -0.03846 0.070838 0.024655 0.027074 0.0096971 0.0038394 -0.038178 -0.047452 0.0378 0.045804 0.010425 0.088987 -0.0236 -0.11207 -0.03077 0.018291 0.0020529 0.038962 -0.041568 0.09745 -0.019291 -0.045414 -0.055586 0.044213 0.031931 0.0090641 0.17939 -0.074035 0.055272 0.032766 0.071358 0.036739 0.071585 0.021474 0.11287 -0.01675 -0.035773 -0.04334 0.0092414 -0.010964 -0.12528 0.05238 -0.046265 0.014439 -0.040971 -0.0013533 0.039772 -0.073178 -0.011263 -0.033724 -0.050254 0.053098 -0.0077106 0.0085405 -0.081638 0.051431 0.073131 0.030476 0.020688 -0.00033001 0.075634 -0.099023 0.081004 0.048375 -0.046194 -0.056331 -0.12484 0.01794 -0.065207 -0.027757 -0.00014873 -0.034801 0.025697 -0.082155 -0.010985 -0.048643 -0.023154 0.019158 -0.023471 -0.036629 -0.10985 -0.051353 -0.024272 -0.0099387 0.045857 -0.010649 0.019736 -0.057576 -0.028052 -0.037665 -0.0058402 -0.042625 -0.0408 0.021085 -0.055662 0.020135 -0.10034 0.042237 -0.061642 -0.046849 0.0036941 0.11927 0.059105 0.032921 -0.021834 3.6967e-05 -0.01328 0.038815 -0.037514 -0.053374 0.021363 -0.062478 -0.017793 0.090073 0.069381 -0.032856 0.0073119 0.018665 0.11139 0.089021 -0.039608 0.012139 -0.11 0.030616 0.018029 -0.10465 -0.060324 0.021362 -0.083114 -0.019326 -0.0034143 -0.0032336 -0.032188 -0.080365 0.0085039 0.026311 0.038484 0.061885 0.048206 -0.010198 -0.044877 -0.0325 -0.0016001 -0.16922 0.082259 -0.089564 0.12034 -0.028541 0.021644 -0.03102 -0.022127 0.0042724 -0.081308 -0.057509 0.031182 -0.075977 -0.063532 -0.003316 -0.071941 0.073229 -0.12197 0.092264 -0.01004 0.049996 0.026598 -0.065997 0.018838 -0.023188 0.094121 -0.0081281 0.013936 0.027459 0.025417 -0.097149 -0.020718 0.030448 -0.04175 0.064413 -0.0019066 0.054354 -0.12179 0.092145 -0.026261 0.051373 -0.062552 -0.023143 0.066461 -0.029689 0.048387 -0.00089674 -0.01563 -0.10073 -0.032311 0.00075826 0.0013311 -0.03675 0.050593 0.020134 -0.0068181 0.012222 -0.00056209 -0.041197 -0.13318 0.017211 0.10487 0.051032 -0.041441 -0.02251 -0.065965 0.026935 0.079563 -0.075946 -0.043253 -0.049847 -0.020481 0.0077064 -0.0028937 -0.042794 0.044738 0.033266 -0.010296 -0.038499 0.03755 -0.0030419 0.054433 0.096506 -0.062909 0.1042 0.01033 -0.010599 0.067292 0.025829 -0.02526 -0.076834 -0.025932 0.017385 -0.01847 -0.070612 -0.0091245 0.051087 -0.039746 0.028905 0.0096089 -0.11589 -0.097223 0.012391 0.019408 -0.057682 0.040734 -0.063603 0.061828 -0.042219 -0.08431 -0.0105 -0.022131 -0.03309 -0.071266 0.055617 0.021324 -0.0042374 -0.00075007 -0.051054 0.043626 0.041954 -0.016826 -0.024877 0.0021915 0.032742 7.9898e-05 -0.025107 -0.022016 -0.0051569 -0.023887 -0.040348 -0.018701 -0.064606 -0.072004 -0.060363 0.059326 -0.037871 0.051611 0.016638 0.028593 -0.030258 0.033992 0.079595 -0.059392 0.039504 0.051779 -0.0689 0.13524 -0.10717 0.046036 0.0027399 0.037795 -0.088089 -0.062485 
ål 0 0 0 0 0 0 0 0 0 0 0 0 0 0 0 0 0 0 0 0 0 0 0 0 0 0 0 0 0 0 0 0 0 0 0 0 0 0 0 0 0 0 0 0 0 0 0 0 0 0 0 0 0 0 0 0 0 0 0 0 0 0 0 0 0 0 0 0 0 0 0 0 0 0 0 0 0 0 0 0 0 0 0 0 0 0 0 0 0 0 0 0 0 0 0 0 0 0 0 0 0 0 0 0 0 0 0 0 0 0 0 0 0 0 0 0 0 0 0 0 0 0 0 0 0 0 0 0 0 0 0 0 0 0 0 0 0 0 0 0 0 0 0 0 0 0 0 0 0 0 0 0 0 0 0 0 0 0 0 0 0 0 0 0 0 0 0 0 0 0 0 0 0 0 0 0 0 0 0 0 0 0 0 0 0 0 0 0 0 0 0 0 0 0 0 0 0 0 0 0 0 0 0 0 0 0 0 0 0 0 0 0 0 0 0 0 0 0 0 0 0 0 0 0 0 0 0 0 0 0 0 0 0 0 0 0 0 0 0 0 0 0 0 0 0 0 0 0 0 0 0 0 0 0 0 0 0 0 0 0 0 0 0 0 0 0 0 0 0 0 0 0 0 0 0 0 0 0 0 0 0 0 0 0 0 0 0 0 0 0 0 0 0 0 0 0 0 0 0 0 
eirós -0.041795 0.014515 0.0018476 0.02627 0.048001 -0.076444 -0.020471 0.041967 0.0023053 -0.019593 0.021022 -0.010333 0.0036551 -0.038237 -0.080367 -0.15036 0.027952 0.09827 0.011424 0.057785 -0.054034 -0.0055101 -0.021429 -0.056635 0.045391 0.034172 0.0020271 0.083727 -0.023699 -0.018027 -0.019984 -0.027518 -0.062059 -0.030365 0.099349 -0.0064437 -0.039665 0.12333 -0.083709 0.11963 -0.047569 -0.06492 0.015167 -0.028792 0.057246 0.029336 0.0061202 0.017039 -0.029543 -0.023213 0.027599 -0.07544 0.092196 -0.059891 -0.011226 0.037124 0.0071007 -0.0012415 -0.043189 0.043477 -0.0044581 0.05081 0.070601 0.05428 -0.0038403 0.049245 0.0095167 -0.041678 -0.018475 -0.0076588 0.042675 0.016096 -0.023808 -0.055325 0.039891 -0.030356 -0.01133 -0.046964 -0.02752 0.038138 -0.010767 0.097415 -0.023538 0.018673 0.032289 0.0041747 -0.064601 0.032592 0.0065143 0.06849 -0.039361 0.0062531 -0.023043 -0.0069796 0.098184 0.021704 -0.051096 0.0065628 -0.018106 -0.038737 0.0046026 0.018504 -0.11942 0.019906 0.049438 -0.015487 0.099665 0.0081209 0.0017783 0.060131 -0.11299 0.023087 -0.02847 0.026755 -0.05898 -0.010078 -0.023451 0.024783 0.022685 0.0082421 0.031781 -0.067999 -0.025028 0.030228 0.037282 0.042771 0.022888 0.0041231 0.0097646 -0.019766 0.051131 0.0039011 0.0807 -0.023364 -0.046465 0.036982 0.062405 -0.039213 0.017295 -0.0088225 0.046417 -0.007096 -0.068911 -0.036056 -0.05965 -0.016121 -0.030286 0.056296 -0.0041239 -0.044956 -0.057891 0.031326 0.061732 -0.044986 -0.054506 -0.026419 0.077623 -0.083806 -0.078112 -0.0087152 -0.0018333 0.011118 0.036092 0.03971 -0.0037461 0.046351 0.026628 -0.065293 0.030366 0.030185 0.0040902 0.0049387 0.091884 -0.039309 0.015232 -0.00040894 -0.083059 -0.071737 -0.057157 -0.013908 -0.014077 0.10424 -0.027047 -0.1156 -0.0012012 -0.031807 0.013475 0.040042 0.054324 0.00051806 0.010668 0.10054 0.01509 0.12151 -0.00093981 -0.014058 0.0069153 0.010025 0.024085 0.06969 -0.056433 -0.032766 -0.016563 -0.049238 -0.019826 -0.12368 0.081775 -0.028094 -0.061476 -0.015539 0.016462 -0.0061533 0.068396 -0.024641 -0.043441 9.6941e-05 0.020038 0.020792 0.0043249 0.0076548 0.03771 -0.052235 0.0080612 0.063546 -0.025948 0.01868 0.017497 -0.075652 0.12663 0.094818 0.018308 0.0069248 0.020463 0.086685 0.10632 0.10959 -0.01003 0.022671 0.020826 0.059726 0.063446 -0.095435 -0.04361 -0.033231 -0.016632 0.0015059 0.055829 0.015188 0.021822 -0.0075937 0.070115 0.024064 0.031453 0.059575 0.064819 0.049564 0.0046226 -0.036183 0.019433 -0.023773 -0.021202 -0.11898 -0.11772 -0.02796 -0.067382 -0.037826 0.014135 0.058269 0.043082 -0.057034 -0.01183 0.0013516 -0.092876 -0.03213 0.029655 -0.012916 -0.044392 -0.056289 -0.058269 -0.043392 -0.018118 -0.0082343 -0.044707 -0.0079993 0.060984 0.039734 0.051189 -0.16799 0.10562 0.031983 0.02677 0.082028 -0.10285 -0.055233 0.036946 -0.049533 -0.0070099 -0.0032821 0.037591 -0.01259 
anguila 0.005889 0.0020487 -0.0082721 0.019401 0.024903 -0.02157 0.0047601 0.02656 0.024367 -0.044581 -0.023148 0.011985 -0.010102 0.0027934 -0.012043 -0.17734 -0.037262 0.011798 -0.0055455 -0.045802 0.0092007 -0.011103 -0.030055 -0.0082626 -0.0063556 -0.014432 0.043582 0.0016047 0.0089726 -0.020915 0.027114 -0.026243 -0.010547 0.047858 0.036281 0.040601 0.055122 0.13324 0.0085632 0.016626 -0.047562 -0.01271 -0.028453 0.0064762 -0.070272 0.040421 -0.033191 -0.033156 0.01279 0.013812 -0.038336 -0.011358 -0.046549 -0.0028463 -0.035584 0.044104 0.030588 0.019774 -0.053672 0.031214 -0.025438 -0.0042403 0.037329 0.028149 0.019472 0.0029667 -0.00045151 0.012416 -0.011487 -0.010188 0.042291 -0.016409 -0.026984 0.01259 0.0051544 -0.038884 0.0036042 0.002976 -0.073445 0.0023876 -0.01932 0.011622 -0.023781 -0.013855 -0.021701 0.0027111 -0.036392 0.056937 0.031817 0.13195 -0.0090717 0.0045308 -0.090922 0.0040141 0.025809 -0.024699 -0.028824 -0.049437 -0.037356 -0.037785 -0.028841 -0.050423 -0.064167 0.020744 0.052246 -0.071123 0.047565 0.0044352 -0.051124 0.029812 -0.051409 -0.038686 -0.018043 -0.0016583 -0.061394 0.011935 -0.0060337 0.021312 -0.020601 -0.0061115 -0.023017 0.035663 0.085521 -0.0044646 0.042028 0.051684 -0.00091205 -0.0037955 0.010657 -0.029182 0.0054511 0.0062991 -0.024232 0.010821 0.013968 0.030233 0.013788 -0.042811 -0.023558 0.026951 0.042655 0.050161 -0.0016323 0.039085 -0.090759 0.020108 -0.05013 0.0012639 0.017643 0.0062698 0.065007 0.038758 -0.001589 -0.050602 0.00040968 0.0091129 0.030794 -0.026126 -0.03662 -0.0083371 -0.008793 -0.03354 -0.029702 -0.0018097 -0.0088373 0.034557 -0.0083785 -0.022574 0.056802 0.07848 0.014445 -0.01329 0.0077812 0.003575 0.014996 0.008086 -0.05558 -0.028181 0.041838 -0.044143 0.0079223 -0.020816 0.0034646 -0.067555 0.038157 -0.020499 0.007399 -0.0012762 0.064164 0.0071764 0.012567 -0.0057482 -0.017737 0.033432 0.0033946 0.042274 -0.015312 0.0091544 -0.04625 0.15487 -0.08093 0.064765 0.0093244 -0.013351 -0.038887 -0.023178 0.071336 0.00037112 -0.017643 0.030672 -0.053259 -0.0094994 0.0023406 0.046267 0.028453 -0.019592 -0.0047045 0.046613 -0.013918 0.018822 0.088166 -0.014888 -0.0032871 -0.041907 0.0066469 0.0095037 -0.02609 -0.039893 0.1199 0.043715 -0.012586 0.0036545 -0.041234 -0.0057717 0.066217 -0.068236 -0.013786 0.019693 -0.0050722 0.038637 0.01878 -0.10725 -0.00119 -0.11521 -0.019817 -0.017569 -0.07355 -0.034888 0.033804 0.014902 0.074805 -0.00043771 0.0043723 0.055772 0.027564 0.038314 -0.044455 -0.002044 -0.054331 -0.018141 0.015444 -0.074212 -0.057508 -0.063415 -0.13079 -0.0071089 0.038986 -0.0084825 0.021162 0.043026 0.030342 0.081717 -0.08342 -0.062032 -0.01252 -0.020173 -0.064276 -0.016798 -0.049486 0.077427 0.0073076 0.0095022 -0.075803 0.011243 -0.025964 -0.046626 0.0054038 -0.047281 0.071495 -0.032589 0.0909 0.0016218 -0.054512 -0.012372 0.022973 -0.0066791 -0.017349 -0.01323 0.0061506 0.015351 
stør 0.055779 -0.048651 -0.10447 -0.047421 0.0064251 -0.0094612 -0.0074016 0.065618 -0.0091194 -0.081671 0.14626 -0.023391 -0.013089 -0.021777 -0.015215 -0.012898 0.035623 0.10722 -0.022916 0.094926 0.018009 -0.022378 0.035851 0.035629 0.07332 0.021105 0.04459 -0.028202 0.061072 0.031476 0.031934 0.019925 0.0092482 0.032075 -0.022599 0.021646 -0.0077222 0.16517 0.04769 -0.071412 0.040357 -0.020922 -0.0301 0.012167 0.037789 0.089532 0.0025608 0.035491 -0.022858 -0.0069681 0.0070238 0.049268 0.023954 0.023687 0.02743 0.019179 -0.040827 0.076181 -0.031965 -0.0033189 -0.028087 0.030911 -0.054125 0.025081 -0.031309 0.043533 0.020443 0.05515 -0.038608 -0.0294 0.025479 0.050475 -0.045516 0.012584 -0.027424 0.072034 -0.021096 0.057746 0.016565 -0.001118 -0.017821 -0.052986 0.03884 -0.012833 -0.070606 0.045024 -0.040599 -0.12084 0.066129 0.10034 0.0028066 -0.082669 -0.12851 0.038681 0.034523 0.054074 -0.013647 -0.00043245 0.006826 -0.030369 -0.0051798 0.060918 0.019559 0.10962 -0.085467 -0.05988 0.048779 0.047214 -0.003616 0.023477 -0.09701 -0.027504 -0.047849 -0.058768 0.015352 0.04859 0.015939 -0.055716 -0.028365 0.032664 0.030178 -0.044656 0.0066491 -0.02736 0.082545 -0.020278 0.034679 0.00039066 -0.011597 -0.0071842 0.083135 0.0013215 -0.020631 0.00642 -0.0055421 -0.015927 -0.0034904 0.04998 -0.054786 0.032569 -0.0059617 0.037588 0.043038 -0.047076 -0.089673 -0.034525 -0.055109 0.035295 0.040633 -0.027198 -0.09545 0.052164 -0.026251 0.019511 -0.12674 -0.023484 -0.02698 -0.018955 -0.055658 -0.057892 -0.028083 -0.068099 -0.053609 0.013704 0.029273 -0.0045637 0.085876 0.040291 -0.041603 -0.020525 0.009036 0.01529 0.033965 0.012073 -0.01558 -0.011445 -0.049495 -0.021025 0.018769 0.0099957 -0.047395 0.10366 0.0048333 -0.11481 -0.053594 -0.039409 -0.014985 0.031993 -0.034397 0.10329 0.078131 -0.039159 -0.025864 0.014477 0.016959 0.008439 0.018693 -0.0085348 0.0042711 0.055801 -0.013625 -0.12141 0.028995 -0.046828 0.0076293 -0.026566 0.033056 -0.0084008 -0.008091 -2.5446e-05 0.020316 0.014845 -0.096112 -0.00086238 -0.04311 -0.012927 -0.055361 0.023195 -0.026868 0.0064555 0.026306 -0.0028407 -0.01917 -0.020874 0.0047264 -0.045664 -0.054462 -0.030114 0.034564 0.12956 0.075526 -0.025847 -0.051987 0.015658 -0.033587 0.062438 0.014132 -0.033403 0.024765 0.045349 0.024643 -0.0072043 -0.023076 -0.030698 0.04359 -0.025072 -0.019303 -0.047513 0.087362 0.033525 0.071644 0.068055 0.064937 0.0038961 -0.0107 -0.031075 -0.018957 -0.049831 0.028815 0.017892 0.053946 -0.0018086 -0.1154 0.006827 0.028556 -0.0028983 -0.0016242 -0.0082703 0.072308 0.026239 -0.044035 -0.0096886 -0.00079119 -0.035616 0.020957 -0.014177 -0.0021545 -0.037429 0.070541 -0.020095 0.029484 -0.0075119 -0.057109 -0.018802 -0.0011404 -0.096204 -0.0090374 -0.0047973 0.0058622 0.028087 -0.0018672 0.024758 0.025989 -0.032982 0.022513 0.001302 0.042928 0.022675 -0.01411 -0.017743 
sterlet 0.038556 0.020094 -4.5282e-05 0.11222 0.07034 0.0047392 -0.022806 -0.052568 -0.012593 -0.014677 0.0027132 0.010655 0.04496 -0.050796 0.017776 0.00027362 -0.04069 -0.013024 0.033222 -0.11482 0.017355 0.059007 0.02704 0.034387 0.016262 0.011008 0.0011032 -0.0097919 -0.0094681 0.11142 -0.033782 0.065539 0.015703 0.079851 -0.072611 0.035976 -0.00019409 0.11013 0.042253 -0.011426 -0.064994 0.072532 0.036134 -0.10016 0.026148 0.10033 -0.0077019 -0.015773 0.0092347 0.0037872 -0.066701 0.0034187 -0.051666 -0.093034 0.073412 -0.074436 0.066406 0.0048283 -0.026734 0.028606 0.050906 0.028606 0.090064 0.020826 -0.056987 -0.023415 -0.066365 -0.0017669 -0.17001 -0.082778 0.022373 -0.06084 -0.083777 0.063814 -0.029063 0.023699 -0.0074331 -0.050529 -0.02565 0.0077187 -0.030576 0.0097074 0.050927 -0.080658 -0.025658 -0.1445 -0.0215 0.053423 -0.042328 0.019561 -0.061185 -0.032829 0.0295 -0.065074 0.05128 -0.013293 0.0079901 -0.059722 0.013642 -0.040186 -0.0041011 -0.033876 -0.095954 0.075142 0.059797 0.075668 -0.029811 0.051427 -0.02958 -0.070284 -0.011427 0.040654 0.021357 0.019013 0.0021219 -0.048119 -0.017527 -0.039022 0.0081023 0.029508 0.029528 0.007426 0.022973 0.025213 -0.00069412 -0.088643 0.038844 0.065046 -0.06712 -0.0093488 0.086814 -0.036784 0.0073154 -0.047841 -0.035574 -0.037616 0.070793 0.015544 0.0075509 -0.015175 0.015837 0.022445 -0.04188 -0.0020747 -0.061565 -0.013259 -0.10415 0.093201 0.020805 0.023161 0.051037 0.027085 -0.014734 -0.019246 -0.031251 -0.079043 0.056474 -0.01493 0.011608 -0.016186 -0.089256 -0.02263 0.038781 0.00061354 0.0075269 0.014353 -0.017939 -0.047491 0.027184 0.024781 -0.0064212 -0.031103 -0.069331 0.066417 -0.047348 -0.039956 -0.021085 0.029109 0.029815 0.039034 0.06474 0.030096 0.0204 -0.092106 0.097352 -0.056985 0.11121 -0.024603 -0.019466 -0.023445 -0.069234 -0.016412 0.001737 -0.0038134 -0.0903 -0.02278 0.023308 0.015036 -0.044361 -0.0043517 0.0024674 0.067622 0.030994 -0.015008 -0.002926 0.035798 0.047527 0.031357 0.087595 0.038901 0.021744 -0.016862 0.0059711 0.041118 -0.075368 -0.050599 0.012916 -0.049016 0.010386 0.027659 -0.074502 0.099651 0.01384 0.10182 -0.088986 0.011727 0.092358 0.063672 -0.029238 -0.045271 0.029347 0.003776 0.047236 -0.017578 0.078482 0.031384 -0.021773 -0.043978 0.046966 -0.034262 -0.0081615 -0.014662 -0.036529 -0.06286 0.092861 -0.015964 -0.034002 -0.078979 -0.093023 0.036178 -0.024611 0.066334 -0.017933 0.0646 -0.041824 -0.036236 0.059131 -0.020663 0.0022772 -0.026577 -0.019977 -0.018688 0.09821 -0.060389 -0.046103 0.04111 -0.062911 -0.010182 -0.012571 0.02147 -0.18734 0.036438 0.0038339 -0.057754 -0.03299 -0.0012237 -0.081795 -0.010951 -0.071736 0.020186 0.0018008 -0.016354 -0.034367 -0.025069 0.0239 -0.0012348 -0.033981 0.16313 0.047009 -0.040706 -0.0012087 -0.050951 -0.007074 -0.0031947 0.026368 -0.0043373 0.012572 0.034287 -0.0095815 0.0040089 
steur -0.042071 -0.045663 -0.085748 0.05068 0.00051167 0.020837 0.013696 -0.05861 -0.016368 -0.038263 0.055581 0.091712 0.022365 -0.046749 -0.0032571 -0.08822 -0.0035941 0.035042 -0.014638 0.016344 -0.032377 -0.059858 0.0051939 -0.020965 0.024936 -0.030904 -0.079631 -0.010734 -0.0042675 -0.031448 0.003562 0.026746 -0.058152 0.02331 -0.026338 0.025187 -0.040582 0.03569 0.0051553 0.030187 0.0085333 -0.036428 -0.105 0.0026761 -0.0052695 0.026075 -0.054233 0.022923 -0.027802 0.046461 0.082996 -0.014179 0.079691 -0.040751 -0.0040121 0.057086 0.069985 -0.088744 -0.055278 0.034483 -0.0076042 0.029469 0.079663 0.070851 0.015627 0.020032 0.046031 -0.045926 0.040827 0.056722 0.022581 0.039255 -0.014885 -0.067108 0.01906 0.12367 0.0039293 0.085173 -0.12163 0.0096012 -0.01984 0.0047663 -0.026866 -0.028509 0.012542 0.07671 0.015483 -0.0050755 0.073028 0.075151 0.0085494 -0.025152 -0.065144 0.024013 0.05679 0.038803 0.00074613 -0.081197 -0.013411 -0.045192 0.0034093 0.012582 -0.016989 0.013245 0.04127 0.047913 -0.022782 0.044253 -0.020562 -0.11064 -0.02175 -0.011679 0.0079984 0.0017371 -0.014666 0.056659 -0.0097526 -0.037046 -0.071449 0.018893 -0.015061 -0.027213 0.037691 0.0041056 -0.0080132 -0.02301 -0.0087905 0.021995 -0.0088561 -0.056759 -0.057159 -0.0011974 0.050516 -0.049455 -0.056744 -0.027215 0.087385 -0.011885 -0.070685 -0.021343 0.12104 0.0301 -0.030045 -0.020886 -0.063909 0.031544 -0.062415 0.075032 -0.014773 -0.11807 -0.01982 -0.025683 0.11945 -0.0070763 0.030051 -0.0094189 -0.0092365 -0.00025337 0.014852 -0.021195 0.03021 -0.038117 -0.023342 -0.068132 -0.073091 -0.061968 0.043465 -0.035369 0.049357 -0.011609 0.013407 -0.0051697 -0.024146 -0.023925 -0.02813 0.10311 -0.059402 -0.036902 -0.034903 0.046009 0.0045153 0.04375 -0.11732 -0.036867 0.025405 -0.02884 0.011806 0.016986 0.035067 -0.043213 -0.013282 -0.015516 -0.009145 0.013825 0.1072 -0.051489 -0.049441 -0.017606 -0.015544 -0.01457 -0.044399 0.051652 -0.0077402 0.04716 0.043278 -0.063715 0.13794 -0.021074 -0.050402 0.062151 -0.073082 -0.060119 0.046329 0.0043391 0.053248 -0.051761 0.027048 0.011484 -0.10823 -0.013462 -0.029816 -0.049319 0.0046176 0.084342 -0.0061462 -0.028945 -0.083516 0.0024068 0.052143 0.059453 -0.0021214 -0.039057 -0.060451 0.029158 0.023733 0.015844 -0.030657 -0.050692 0.007659 0.052474 -0.0067303 -0.062063 0.026212 -0.11584 0.11654 0.054068 -0.014624 0.046914 -0.033806 0.0038012 0.12318 -0.0096057 -0.016493 -0.019552 -0.034154 0.036578 0.0060561 0.069802 0.0082926 -0.061884 -0.013847 -0.11467 -0.039601 -0.030299 -0.11489 0.0043604 0.022927 0.007273 -0.031574 0.12814 0.0055894 -0.0083756 -0.074686 0.032298 -0.010207 0.072779 0.0087098 -0.00050868 -0.012694 -0.012904 0.021168 -0.086989 -0.1202 -0.026049 0.019126 0.046011 0.050656 -0.079731 0.064766 -0.10671 0.0578 0.049663 -0.10299 -0.014241 -0.0054502 0.0557 0.033539 0.059964 -0.031902 0.034764 
esturgeon -0.018245 0.0064146 0.019374 0.038529 -0.01334 -0.025521 -0.0063606 -0.0070474 -0.019338 -0.013749 -0.00031363 -0.024999 0.0042269 -0.022384 -0.047863 0.00012109 0.02225 -0.014687 0.029398 0.02155 0.013101 -0.02016 -0.028146 0.007843 0.025988 0.065139 -0.04526 -0.01944 0.017211 -0.019704 -0.012093 0.0037513 0.016817 0.047688 0.041461 0.017179 0.005431 0.010366 0.012699 0.056324 -0.036262 -0.038045 0.051635 0.017114 -0.14854 0.0138 0.053469 -0.018578 -0.0068545 0.0010785 -0.0012838 -0.047499 0.031295 -0.037861 0.029873 -0.00047136 0.030032 -0.023987 -0.010381 0.042605 0.0013387 -8.0605e-06 -0.0095918 0.0155 -0.035812 -0.036211 0.021469 -0.015641 -0.066908 -0.011468 0.029931 -0.029944 0.031844 0.014711 -0.022733 -0.037047 0.0018615 0.0090421 -0.020093 0.0014111 -0.0071725 -0.011974 0.015923 -0.0021601 -0.030059 0.0073162 -0.028103 -0.045702 0.00066686 -0.03207 0.0049232 0.0079313 -0.057209 0.0029895 0.022446 0.072316 0.065437 -0.021075 0.062919 0.0019808 0.014004 -0.0036306 0.0070914 0.0073795 -0.018488 0.03868 0.013164 0.0086081 -0.020604 0.0096876 -0.0050398 -0.035998 -0.0045471 0.028806 0.0034594 -0.033951 -0.022269 -0.016219 0.027664 -0.0071823 -0.032326 0.013275 -0.022022 0.018953 -0.013577 0.017539 0.039007 0.021307 0.052867 0.0099033 0.013522 -0.020653 0.025925 0.028214 0.038021 0.0070703 -0.029919 0.0020979 -0.010589 -0.0023176 0.033273 -0.03042 0.031798 -0.016423 -0.023057 -0.00018881 0.0022964 0.0082479 -0.010856 -0.0024664 0.0023492 -0.0099091 0.0064555 -0.022605 0.023876 -0.026729 0.020281 -0.0094523 -0.032022 -0.0028012 -0.040407 -0.01077 -0.024263 0.058951 0.02156 -0.04182 -0.031877 -0.035272 0.026689 -0.0067665 -0.0036049 0.0041016 0.0088418 -0.0024527 -0.012131 -0.016337 -0.020491 0.00021801 0.0058539 -0.019533 0.035079 -0.019858 -0.0091889 -0.017336 -0.052516 -0.035105 0.052301 -0.014177 -0.015541 -0.0047327 -0.018309 -0.0061571 -0.014868 0.043101 -0.0019112 -0.0012965 -0.0025918 -0.010519 0.00065416 0.087875 -0.021785 -0.0049469 -0.029009 0.016469 -0.048808 -0.059053 0.077264 0.01542 -0.0038279 0.0054076 -0.14108 -0.0050209 -0.01264 -0.0013973 -0.0089287 -0.017406 0.0060299 -0.011846 -0.0026366 -0.023558 -0.024988 0.022141 0.0072945 0.10782 0.035913 -0.060676 0.012429 0.053074 -0.013049 -0.012042 0.0023955 -0.026667 0.0030671 0.011808 -0.01707 -0.030287 -0.028584 0.0088657 0.038461 -0.032872 -0.03196 -0.031984 0.0095829 -0.083316 0.023845 0.021949 0.0094542 -0.036097 0.0051438 -0.03264 0.0042267 -0.040699 0.0015111 0.04846 -0.025236 -0.0024849 -0.026014 0.031762 -0.035091 -0.0070833 -0.01518 -0.096618 -0.064974 -0.044513 -0.083998 -0.02855 -0.055449 0.015652 0.013496 0.056259 -0.065287 0.0078521 -0.032764 0.018779 0.0076681 0.035244 -0.022855 0.026391 -0.011237 0.01617 -0.028761 0.0016702 -0.013431 0.028098 0.0019153 0.015347 0.032853 -0.050104 0.017758 0.038027 -0.015891 -0.0058177 -0.044283 0.0012651 0.017092 -0.0023899 0.054109 -0.015029 0.031964 -0.00063216 
Stör -0.024286 0.018336 -0.029077 0.023603 0.02778 -0.024619 0.016389 0.024593 0.0066922 -0.069258 -0.059653 -0.053187 -0.0099176 -0.090305 -0.024885 -0.085731 0.084243 0.066526 -0.014357 0.02286 0.035898 0.005401 0.021973 -0.019061 0.07516 -0.051217 -0.084062 0.0081739 0.06947 0.019508 0.0091006 -0.07024 -0.051577 0.042964 0.023979 0.01973 0.014657 0.092585 -0.0036336 0.094352 0.05095 -0.0035493 -0.066213 -0.068702 0.047803 0.055347 0.073886 0.080513 -0.015447 0.046787 0.045079 -0.050784 0.0058561 -0.1746 -0.021407 -0.024851 -0.013517 -0.055644 -0.017141 0.079611 0.13057 0.019551 -0.04112 0.056192 0.041192 0.026794 -0.00036867 -0.042855 -0.03819 -0.0072405 0.084099 0.011978 -0.046622 0.05273 -0.092403 0.012518 0.048635 -0.054066 -0.063359 0.035031 0.099997 0.065133 0.03709 0.063578 -0.098017 -0.013954 -0.030066 -0.018313 0.013463 -0.035769 -0.060228 -0.016201 -0.094816 -0.010792 0.04523 0.066062 0.032051 -0.03342 -0.040553 -0.085803 0.028762 0.0016744 -0.046351 -0.028927 0.08507 -0.0015135 -0.07483 0.093546 0.048041 -0.059422 0.055755 0.073374 0.047329 0.00095807 0.0081748 -0.07787 -0.0092774 -0.0077919 -0.020109 0.13043 -0.086464 -0.085026 -0.077778 0.066095 0.064604 -0.014693 0.0066594 0.01066 -0.017633 -0.033926 0.048904 0.013422 0.12903 0.010084 0.029111 0.089132 0.051394 0.032041 0.065428 -0.052962 0.13841 -0.012011 -0.0421 0.050053 -0.010081 -0.05283 -0.11949 0.057699 0.049572 0.077338 -0.03528 0.039999 -0.014552 -0.073904 -0.053105 -0.078197 0.03227 -0.09108 -0.0021783 -0.1035 -0.024076 -0.009069 0.018693 0.021858 -0.086201 -0.018752 -0.031625 -0.0021785 0.009803 0.01886 0.077624 0.075218 0.086008 0.093621 -0.043384 -0.01961 0.010344 -0.023353 -0.058143 -0.066621 0.052402 0.092559 -0.025613 -0.12221 -0.048494 -0.065476 -0.064352 0.064104 0.018479 -0.018874 0.06816 -0.01864 -0.054277 0.026728 0.067693 -0.047469 -0.049736 0.052425 -0.036685 0.0085166 -0.11887 -0.043613 -0.076723 -0.056931 -0.028703 -0.067301 0.05078 -0.062808 -0.061743 -0.033597 0.017015 -0.069831 0.065836 0.084719 0.077987 -0.045175 0.0034492 0.11 -0.042143 -0.049749 0.042321 0.05789 0.0023816 0.025019 -0.087227 0.0046911 -0.0088349 0.17369 0.10682 0.070994 0.058493 -0.017303 0.013672 0.067567 0.051772 0.015621 0.018343 0.016584 -0.033556 -0.005471 0.090959 -0.014192 -0.014022 -0.08058 0.068794 -0.064701 -0.050144 0.012498 -0.019081 -0.0056847 0.051513 -0.03775 -0.10457 0.027098 -0.036388 -0.010363 -0.041814 0.037405 -0.017944 0.0030083 0.051984 -0.079473 -0.22064 -0.049224 -0.0025129 0.036808 0.059888 -0.076164 -0.010141 0.14305 -0.12048 0.031646 -0.085582 -0.024101 -0.026014 -0.046151 -0.096095 -0.058075 -0.014781 -0.033418 -0.037522 -0.060804 -0.067055 -0.012946 -0.0058469 -0.073036 -0.025364 -0.049042 -0.046825 0.0582 0.047977 -0.15409 -0.10919 0.0098456 -0.020241 0.05166 0.002213 0.078898 -0.054294 -0.081587 
mouroúna -0.020714 0.033056 -0.0081944 -0.061511 -0.0031766 0.010788 -0.029309 -0.023988 0.052353 -0.066184 -0.0015966 0.022496 0.0017718 -0.014794 0.012221 -0.045609 0.015641 0.028932 0.0051075 0.014489 0.020286 -0.045512 -0.0074723 0.011845 0.0077945 0.033486 -0.00016154 -0.00071548 0.003132 -0.021157 0.001896 -0.0082776 -0.028242 0.029823 0.029208 0.01962 -0.032182 0.10411 0.028448 0.036018 0.020458 -0.0012495 -0.0020979 0.0057197 0.0622 0.034944 -0.0028355 -0.030181 -0.017604 0.01727 -0.014897 -0.0042156 0.0012586 -0.041636 0.010978 0.015516 0.0038858 -0.020951 -0.0058875 -0.015578 0.0052818 -0.009958 0.020493 -0.0096622 0.0027837 0.02537 0.0087131 0.025792 -0.013765 -0.021317 0.031159 0.026861 0.028388 -0.011544 -0.016686 -0.0087888 0.02238 0.044373 0.01619 0.066811 -0.023021 0.021927 -0.0076521 -0.0065752 -0.0051556 -0.027878 -0.06058 0.054506 -0.012305 0.0087808 0.001792 0.024434 -0.072211 -0.0038888 0.023898 0.020901 -0.019038 -0.013911 -0.048449 -0.025992 0.023468 -0.032056 -0.050842 0.014019 -0.026316 0.0093406 -0.0027479 0.030602 0.0063891 0.0040086 -0.063195 -0.0096898 -0.020021 0.0088067 -0.0059234 -0.01119 -0.023932 0.017036 -0.0073485 0.071214 -0.017581 0.027379 0.0015727 -0.0096064 0.0051839 0.016095 -0.027843 -0.045226 -0.0078518 -0.03867 -0.014909 0.015727 -0.014735 0.0082328 -0.021795 0.012853 0.025568 0.0092587 0.0038139 -0.027822 0.047627 -0.011464 0.058746 0.04999 -0.010222 0.057211 -0.078891 -0.0062255 -0.039991 -0.026218 -0.018527 0.0041144 -0.010448 -0.012144 -0.029872 -0.016112 0.087827 -0.0102 -0.0052931 0.017513 -0.0018654 -0.026689 -0.017251 -0.0079172 0.026845 -0.039461 0.0019652 0.0024854 0.0029811 0.046661 -0.020244 0.021316 -0.02359 0.011754 -0.034057 0.026874 -0.038995 -0.013505 -0.011442 -0.044973 0.015675 0.034624 0.0045343 -0.086035 -0.038192 -0.020373 0.016819 0.015445 0.027783 -0.00089751 0.014489 -0.020473 -0.029467 -0.0018517 0.0086213 -0.0071195 -0.0066716 -0.0043434 0.025578 0.012247 -0.045619 0.044734 -0.0075256 -0.012874 -0.0052624 -0.031293 0.1123 -0.037639 -0.0086521 0.029795 -0.0012438 -0.0041193 0.015353 0.018472 0.016618 -0.024724 -0.013688 0.0028833 0.018626 0.003259 0.051061 0.0070864 -0.029354 0.013557 -0.078215 -0.025269 0.045384 0.021809 0.027161 0.034234 0.0002948 0.012644 0.041018 -0.019732 -0.010687 -0.040367 0.046609 -0.014425 -0.012854 0.0026891 -0.0050603 -0.040745 -0.043593 -0.045154 -0.025154 0.00062734 0.0032547 0.023449 -0.0035153 0.040546 0.014339 0.028407 -0.018955 0.040821 -0.015884 -0.015352 -0.04925 0.00066876 0.0022857 -0.032788 0.019904 -0.067649 -0.015568 0.018406 0.012641 -0.023601 0.003487 -0.013713 0.018118 -0.024621 0.0037947 0.02928 0.004848 -0.054708 -0.00080039 0.0054633 -0.072857 0.050933 0.031909 0.020329 -0.0084735 -0.034748 -0.0388 0.025104 -0.02388 -0.011502 -0.033537 -0.019696 -0.0047098 -0.023634 0.022703 -0.0062272 -0.036371 0.024225 0.008854 -0.033871 0.0071481 0.0093552 -0.028707 0.051952 
stourióni -0.027247 -0.0093212 0.011141 0.070541 0.033461 -0.0025575 -0.028533 -0.052555 -0.010971 -0.03329 -0.015336 -0.034789 0.010097 -0.0016652 -0.016938 -0.052951 -0.013746 0.027004 -0.031568 0.034574 -0.013352 -0.00050124 0.0021642 -0.029963 0.042247 -0.020843 -0.011745 0.0036104 0.01454 0.052909 0.0049745 -0.019724 3.3171e-06 0.062125 0.029778 0.036901 -0.018186 -0.012156 -0.012799 0.005259 -0.020073 -0.031017 0.022826 -0.025236 -0.030906 0.028397 -0.032682 0.031861 -0.0014883 -0.00022841 0.028577 -0.036129 0.025706 -0.014764 0.062747 0.014554 0.029458 0.018325 -0.035697 0.013809 -0.003465 0.0086616 0.00014357 0.057027 -0.038919 0.0082261 0.042783 -0.014493 -0.02832 0.015661 0.034507 0.03899 -0.024528 0.039012 0.0029009 0.042341 -0.022498 0.0029244 -0.013125 0.0082626 0.0091534 -0.016781 -0.0029075 -0.0079725 -0.0033815 0.014858 -0.022768 0.038162 0.0083398 0.0035348 -0.042195 -0.02212 -0.0040166 0.0088603 0.022287 -0.007342 0.011652 -0.038061 -0.047171 -0.0040774 -0.0011036 0.018897 -0.018497 0.016629 -0.020988 0.0067752 0.021998 0.014778 -0.0067156 0.0024297 0.01466 0.019486 -0.03659 -0.0275 0.0017078 0.0072605 -0.0049796 0.0041086 0.0016458 -0.023341 -0.036808 0.012782 -0.026971 -0.014834 -0.0011287 0.0014513 0.00996 -0.023847 0.012418 -0.067428 -0.0076794 -0.0046677 0.027859 -0.011131 0.026131 0.015337 -0.013593 0.0045483 -0.040053 0.0087624 0.01912 -0.03894 0.015887 -0.016399 -0.062665 0.01025 -0.059904 0.023998 -0.013275 -0.0072477 0.077111 -0.024865 -0.053332 0.004157 -0.0017202 -0.038581 0.046643 0.018491 0.00023846 -0.043176 -0.035843 -0.021459 0.018008 -0.029577 0.012198 -0.0087584 0.0039943 -0.019538 0.019237 0.0050071 0.014885 0.020222 0.01403 0.00090909 -0.044823 -0.058453 -0.038629 -0.0053678 0.011663 -0.023353 -0.013152 0.015204 -0.0084584 -0.13022 -0.023219 -0.025852 0.023307 0.0094743 0.028556 0.0031688 0.020612 -0.017882 0.024714 0.048484 0.0079626 -0.012536 0.0080885 -0.017759 0.021124 0.0061137 -0.043677 0.02919 0.00076767 0.010105 -0.027775 -0.0082329 0.034487 -0.034438 -0.020631 0.0080192 0.024495 -0.0028534 0.019308 0.020126 -0.0065059 0.027488 -0.023323 -0.01328 0.024866 -0.010321 0.034294 0.0033798 -0.016296 0.017274 0.037116 -0.019606 -0.010852 0.018669 0.048483 -0.011855 0.027803 -0.016473 -0.0052734 -0.0066465 0.039302 0.06465 0.003962 0.017982 0.014797 -0.0061537 0.033191 -0.023061 0.0066789 -0.089647 0.02397 0.010022 0.0056097 0.014038 0.0027721 0.033871 0.014266 -0.0099342 0.00028592 0.046303 0.0035882 0.015657 0.035004 -0.012898 0.024003 -0.010959 0.0002137 0.011599 -0.061647 -0.014348 -0.033564 0.038457 0.0063751 -0.010566 0.010357 0.022949 -0.028138 0.021444 0.014475 -0.001768 0.018348 -0.016651 0.010726 -0.043457 -0.0018877 -0.028664 -0.00033734 -0.034762 -0.063782 0.0042064 0.007519 0.01125 -0.018949 -0.032326 -0.0052507 -0.034921 -0.013818 -0.0080428 -0.053018 0.017476 0.052124 -0.01667 -0.023344 0.031466 0.01939 -0.0018054 
storione -0.022668 0.0076656 0.0011428 0.057847 0.0030329 -0.0041061 -0.017734 -0.013541 -0.0038529 0.004555 -0.0054824 -0.0093198 0.022521 0.005617 -0.01891 0.0048826 0.039022 -0.01241 0.017266 0.0079886 -0.038707 -0.0042906 -0.0081834 0.036428 0.022702 0.022417 -0.029837 -0.017764 -0.007343 -0.05365 -0.010837 0.0060794 0.015634 -0.043419 0.0028873 0.0067964 -0.026932 0.023189 0.029564 0.023742 -0.021011 -0.026695 -0.032031 0.011079 0.0053328 0.050783 0.0042562 -3.454e-05 -0.0020191 0.013654 0.040705 -0.019099 0.0099691 -0.022734 0.016011 -0.0073282 0.029022 -0.042515 -0.046146 -0.03222 -0.028792 -0.014722 0.010786 0.056158 -0.025679 0.049653 0.0036259 0.06741 0.016468 0.014446 0.066456 -0.030351 -0.0077456 0.018445 -0.029459 -0.00088389 -0.0058901 0.018911 0.039823 0.029964 0.011571 -0.0017143 -0.012397 0.04772 -0.01967 -0.006462 -0.044536 -0.039857 0.0027258 -0.058316 -0.0050922 0.015102 -0.067472 -0.014777 0.0049609 0.079416 0.013501 -0.016836 0.059126 -0.015847 0.030311 -0.0047854 -0.042797 0.067105 -0.005454 -0.03725 0.039666 0.024696 -0.01837 -0.016091 -0.026262 0.018329 -0.019261 0.018231 0.019811 -0.0091664 -0.038199 0.019849 -0.0033537 0.0011193 -0.037769 0.020554 -0.0027885 0.01979 -0.014545 0.065395 -0.027119 0.001498 0.009471 -0.024059 0.018101 0.0027371 0.0032829 -0.011478 -0.0022741 0.016045 0.0092816 -0.010368 -0.0045309 -0.0044538 0.018728 -0.029429 0.015886 -0.029138 -0.037598 0.036032 -0.044433 0.016284 0.0071501 0.019493 0.036336 0.023451 0.0043632 0.0061047 0.043624 -0.026715 0.032635 0.029474 -0.02153 0.015834 -0.012455 -0.0061937 -0.026051 0.041016 -0.008054 0.017687 -0.013004 -0.011206 0.037256 0.054267 0.0001845 -0.034079 0.0076772 0.018731 0.0098233 -0.0036859 -0.0070822 -0.0070956 -0.011258 -0.047177 0.021104 0.034356 -0.00074186 -0.10332 -0.019395 -0.054887 0.031237 0.010401 -0.012015 0.021562 0.0048343 0.00043071 -0.02005 0.017203 0.0056028 -0.0087281 0.0056518 -0.02076 0.010902 0.049891 -0.045073 -0.015655 -0.010336 0.019189 -0.021023 -0.00088935 0.10626 0.00061973 -0.0039509 0.033081 -0.016153 0.0013664 0.080852 0.0011935 0.013484 0.0018313 -0.021006 0.045814 -0.014894 -0.009263 0.0059913 0.018958 0.024477 0.088736 -0.043013 0.021254 0.021082 0.017253 0.03735 -0.029632 -0.0011563 -0.0025437 0.01039 -0.015043 -0.0037766 0.015406 0.023927 0.014063 0.0097696 -0.019668 -0.012115 -0.017284 -0.018862 -0.079215 0.0061318 -0.0057614 -0.017609 0.0083064 -0.040254 0.026754 0.031972 0.01139 0.020874 0.019631 0.00078122 0.030846 -0.027991 0.026859 0.0032476 -0.035638 -0.078644 -0.046458 -0.095674 -0.0038902 -0.005067 0.0089176 -0.041939 -0.0087146 0.00040617 0.070647 -0.057023 0.035371 -0.078763 -0.031854 -0.0037647 -0.0091406 -0.027006 -0.0078063 -0.033846 0.091563 0.016761 0.028495 -0.09588 0.0032101 0.016264 -0.0051434 -0.032747 -0.060862 -0.0036374 0.061005 0.021881 0.0012341 -0.052335 -0.018542 0.033888 0.010228 -0.013843 0.014013 0.016566 0.017808 
stør 0.055779 -0.048651 -0.10447 -0.047421 0.0064251 -0.0094612 -0.0074016 0.065618 -0.0091194 -0.081671 0.14626 -0.023391 -0.013089 -0.021777 -0.015215 -0.012898 0.035623 0.10722 -0.022916 0.094926 0.018009 -0.022378 0.035851 0.035629 0.07332 0.021105 0.04459 -0.028202 0.061072 0.031476 0.031934 0.019925 0.0092482 0.032075 -0.022599 0.021646 -0.0077222 0.16517 0.04769 -0.071412 0.040357 -0.020922 -0.0301 0.012167 0.037789 0.089532 0.0025608 0.035491 -0.022858 -0.0069681 0.0070238 0.049268 0.023954 0.023687 0.02743 0.019179 -0.040827 0.076181 -0.031965 -0.0033189 -0.028087 0.030911 -0.054125 0.025081 -0.031309 0.043533 0.020443 0.05515 -0.038608 -0.0294 0.025479 0.050475 -0.045516 0.012584 -0.027424 0.072034 -0.021096 0.057746 0.016565 -0.001118 -0.017821 -0.052986 0.03884 -0.012833 -0.070606 0.045024 -0.040599 -0.12084 0.066129 0.10034 0.0028066 -0.082669 -0.12851 0.038681 0.034523 0.054074 -0.013647 -0.00043245 0.006826 -0.030369 -0.0051798 0.060918 0.019559 0.10962 -0.085467 -0.05988 0.048779 0.047214 -0.003616 0.023477 -0.09701 -0.027504 -0.047849 -0.058768 0.015352 0.04859 0.015939 -0.055716 -0.028365 0.032664 0.030178 -0.044656 0.0066491 -0.02736 0.082545 -0.020278 0.034679 0.00039066 -0.011597 -0.0071842 0.083135 0.0013215 -0.020631 0.00642 -0.0055421 -0.015927 -0.0034904 0.04998 -0.054786 0.032569 -0.0059617 0.037588 0.043038 -0.047076 -0.089673 -0.034525 -0.055109 0.035295 0.040633 -0.027198 -0.09545 0.052164 -0.026251 0.019511 -0.12674 -0.023484 -0.02698 -0.018955 -0.055658 -0.057892 -0.028083 -0.068099 -0.053609 0.013704 0.029273 -0.0045637 0.085876 0.040291 -0.041603 -0.020525 0.009036 0.01529 0.033965 0.012073 -0.01558 -0.011445 -0.049495 -0.021025 0.018769 0.0099957 -0.047395 0.10366 0.0048333 -0.11481 -0.053594 -0.039409 -0.014985 0.031993 -0.034397 0.10329 0.078131 -0.039159 -0.025864 0.014477 0.016959 0.008439 0.018693 -0.0085348 0.0042711 0.055801 -0.013625 -0.12141 0.028995 -0.046828 0.0076293 -0.026566 0.033056 -0.0084008 -0.008091 -2.5446e-05 0.020316 0.014845 -0.096112 -0.00086238 -0.04311 -0.012927 -0.055361 0.023195 -0.026868 0.0064555 0.026306 -0.0028407 -0.01917 -0.020874 0.0047264 -0.045664 -0.054462 -0.030114 0.034564 0.12956 0.075526 -0.025847 -0.051987 0.015658 -0.033587 0.062438 0.014132 -0.033403 0.024765 0.045349 0.024643 -0.0072043 -0.023076 -0.030698 0.04359 -0.025072 -0.019303 -0.047513 0.087362 0.033525 0.071644 0.068055 0.064937 0.0038961 -0.0107 -0.031075 -0.018957 -0.049831 0.028815 0.017892 0.053946 -0.0018086 -0.1154 0.006827 0.028556 -0.0028983 -0.0016242 -0.0082703 0.072308 0.026239 -0.044035 -0.0096886 -0.00079119 -0.035616 0.020957 -0.014177 -0.0021545 -0.037429 0.070541 -0.020095 0.029484 -0.0075119 -0.057109 -0.018802 -0.0011404 -0.096204 -0.0090374 -0.0047973 0.0058622 0.028087 -0.0018672 0.024758 0.025989 -0.032982 0.022513 0.001302 0.042928 0.022675 -0.01411 -0.017743 
esturjão 0.0094355 0.026995 -0.0034838 -0.0011191 -0.013498 -0.00034536 -0.014227 0.009433 -0.012419 -0.016756 -0.037117 -0.019961 -0.019831 -0.026662 -0.047133 -0.0035616 0.037925 -0.001955 0.035252 -0.017545 0.032927 -0.035001 -0.041261 -0.0080681 -0.0042478 0.0055076 -0.010114 -0.0030631 0.016366 -0.030043 -0.018992 0.0027964 0.011677 0.023738 0.050493 0.012342 0.0052953 0.010514 0.025534 0.034701 -0.0084885 -0.014949 0.017448 0.01628 -0.076396 -0.004341 0.02172 0.016016 0.010718 0.0096079 0.031738 -0.0055073 0.012151 -0.013117 -0.0070827 -0.0081997 -0.020029 0.020066 0.0092336 0.040047 0.016663 0.015258 -0.0014544 0.0083617 -0.02846 -0.034033 -0.040213 0.010443 -0.055484 0.010396 0.016901 -0.031656 0.03382 -0.031184 -0.021444 -0.031918 0.015918 -0.0071189 -0.0054508 0.019718 -0.012704 0.010102 -0.00056049 -0.0020572 -0.022709 -0.0034185 -0.019155 0.010751 -0.018734 -0.0039078 -0.022819 0.031974 -0.0301 0.017921 0.021896 0.038996 0.0040228 0.014276 0.075225 0.031825 0.0014343 -0.031239 -0.0084676 0.034547 -0.026615 0.031002 -0.010242 0.041537 -0.00051704 0.039827 0.0060047 -0.034658 0.034764 0.012224 -0.010265 -0.019041 0.025764 -0.038533 0.023951 -0.010941 0.00079361 0.0028867 0.023812 0.0080747 -0.004242 -0.0094404 0.02793 -0.02558 0.041889 -0.037481 -0.0025306 -0.016352 -0.00040975 0.033661 0.0048555 -0.014746 -0.0034816 -0.015403 -0.0031741 0.019751 -0.008914 -0.011888 0.035796 0.015933 0.012397 -0.019596 0.027489 -0.018624 -0.0069973 -0.00061522 0.016083 -0.017124 0.026077 0.0018468 0.016162 -0.0024967 0.016684 -0.04048 0.018533 0.012436 -0.0073152 -0.019333 0.036002 0.0043004 0.032826 -0.027978 -0.0092298 4.7866e-05 0.025399 -0.030228 -0.015805 0.033728 0.0089593 0.012863 -0.015258 -0.027916 0.00561 -0.018696 0.0050045 -0.0065908 0.0072543 -0.0062092 0.019087 0.01509 -0.019035 -0.030931 -0.00069685 -0.0089243 -0.0002307 0.018136 -0.0080096 -0.0081414 0.0064601 0.002825 0.054553 -0.0014192 -0.02911 0.0041971 0.0062172 0.01526 -0.011371 0.032501 -0.0025355 -0.034161 0.0015747 -0.026245 0.022878 0.00014951 0.0040524 0.032928 -0.032739 0.027977 0.011751 0.019592 -0.015209 -0.015522 0.0072164 0.017108 -0.016029 -0.081715 -0.015823 0.00076392 -0.021848 0.031973 0.0045516 -0.027136 -0.022722 0.014152 0.073257 0.0012014 0.036725 0.0049069 0.019471 -0.0015406 -0.027544 -0.065272 -0.025826 -0.0033524 0.03938 -0.009691 -0.035656 0.046976 0.0012281 -0.053648 -0.0099688 0.007786 -0.019702 -0.057602 -0.0058602 0.0086802 -0.011769 -0.026409 0.013862 0.020892 -0.024226 -0.0016568 0.0020739 0.0108 -0.028632 -0.013261 0.023141 -0.0049629 -0.021936 0.00098504 -0.02671 0.040051 -0.0080782 0.013063 0.02176 -0.0021132 -0.066384 -0.039616 0.021214 -0.038793 0.012954 -0.027477 -0.030105 -0.0022322 -0.002334 0.030456 -0.023914 0.021758 0.010162 -0.0059415 -0.022245 0.061846 0.015233 -0.020258 0.037538 0.0083671 0.027392 -0.0058529 -0.013079 0.0055713 -0.0044647 0.05717 0.01648 0.004461 -0.0074211 -0.01914 
solho -0.048684 -0.03246 -0.0068116 0.10666 -0.0062392 -0.027588 0.046393 -0.052463 0.10404 -0.015514 -0.077578 -0.021566 0.017604 -0.025895 0.08585 -0.12183 0.081808 -0.057092 0.059949 -0.0068708 -0.03421 -0.0027512 0.029786 0.040552 -0.001173 -0.0095733 -0.10971 0.0011206 -0.09014 -0.020439 -0.0036351 -0.030178 -0.052959 0.025049 -0.011527 -0.015885 0.048675 -0.059095 -0.045751 0.0454 0.054007 -0.070056 0.018673 0.004495 0.14293 0.15934 0.0099104 -0.050761 0.037121 0.0079541 -0.012052 -0.0043787 0.042793 0.050433 -0.014921 0.01895 -0.017795 -0.0053807 -0.090178 -0.12698 0.083479 -0.026063 0.0015221 -0.003676 -0.0078429 -0.026344 -0.052564 -0.0096429 0.019885 -0.15993 0.098065 -0.060648 -0.10959 -0.039901 -0.075147 0.018831 -0.0037835 0.0099458 0.03316 0.036702 -0.0079121 -0.070433 0.0039389 0.040428 -0.094804 -0.028676 -0.025594 -0.02923 -0.021479 -0.024766 -0.090615 0.026528 -0.020578 0.010468 -0.027223 -0.06197 -0.027025 -0.0025797 -0.061331 0.098856 0.073865 0.10337 0.051631 0.058036 0.051413 0.10956 0.03482 0.0026496 -0.068643 -0.013004 0.029533 -0.044427 0.035857 -0.068323 -0.084788 -0.067665 -0.032698 0.083081 0.041139 -0.054401 -7.8276e-05 -0.0097955 0.044468 -0.087465 -0.10522 0.00033035 -0.061906 0.046888 -0.015975 -0.074198 -0.047667 -0.034708 -0.047158 0.035132 0.016604 0.023769 -0.0066198 0.054102 0.015722 -0.0096982 0.053699 -0.00044757 0.050346 0.035503 0.01807 -0.059298 -0.13471 -0.040934 0.15943 0.037771 0.027839 0.0053515 0.004586 -0.0094511 0.056624 0.020944 0.016921 0.021046 0.055695 -0.003441 0.016963 -0.028577 -0.02096 0.014744 0.024162 0.013989 0.05704 -0.06841 0.070016 0.038109 0.032009 0.033732 0.094097 -0.032394 -0.035265 0.069896 0.025396 -0.026967 -0.015785 -0.051948 0.0065751 0.042602 -0.028617 -0.12102 -0.0044887 -0.027394 0.050405 0.067847 -0.013281 -0.01619 0.032967 0.010889 -0.026414 0.026275 -0.063861 -0.076364 0.0081886 0.052407 0.032223 -0.097252 -0.057621 -0.079495 -0.064673 0.069252 -0.044846 -0.0091258 -0.092374 -0.034126 -0.0060821 -0.09357 -0.025343 -0.11784 0.10382 0.11287 -0.016099 -0.054809 0.049687 0.029453 0.0041137 0.080767 0.013914 0.0202 0.0060614 -0.046779 0.0053363 0.036759 0.012636 -0.030274 -0.014926 -0.0272 0.10039 0.094656 -0.10434 -0.017609 0.039329 0.10529 0.047906 -0.014434 -0.0814 0.00043243 0.028612 -0.10679 0.058866 0.030592 -0.043514 -0.013564 -0.055657 0.014459 0.0059081 0.019664 0.014225 -0.046044 0.032009 -0.046471 0.040491 -0.031981 -0.12214 -0.029401 -0.12234 0.054657 -0.028784 -0.0035122 -0.027677 -0.0072163 0.052428 0.011768 -0.0091671 -0.011322 -0.077608 0.037752 0.007738 0.033662 -0.1387 0.0727 -0.034992 0.06022 -0.077242 0.028251 -0.049617 0.11575 0.0013559 -0.064224 -0.082016 -0.0045357 0.087781 0.05392 -0.042555 0.0090203 -0.032595 -0.051182 0.0072295 0.036249 -0.044426 -0.077298 0.0041943 -0.055373 0.087897 0.085378 -0.081208 -0.039145 
esturión 0.015115 0.012986 -0.01538 0.014536 -0.035064 0.01494 -0.06566 -0.0089556 0.028739 -0.036233 -0.067777 -0.033327 0.008483 -0.035888 -0.056936 -0.012896 0.013836 -0.014817 0.065965 -0.026008 -0.0025455 0.011336 -0.012037 -0.027487 0.025407 0.015126 -0.011696 0.012364 -0.00067125 0.10761 0.0030093 -0.040593 -0.014346 0.050286 0.051919 -0.033632 0.013992 0.061142 0.035529 0.083908 -0.021747 -0.042274 0.014683 0.022422 -0.078409 -0.023723 -0.0015058 0.032401 -0.038638 -0.012957 0.036206 -0.015768 0.076828 -0.0073764 0.0013348 0.0054625 0.016487 0.0058198 0.041817 0.0079998 0.0046601 -0.0067837 -0.002992 0.032411 -0.046621 0.013455 0.018014 0.0031151 -0.026562 0.0063625 0.037597 -0.022609 0.05415 -0.068917 0.029869 0.0023828 -0.027916 0.013082 0.032637 0.017654 -0.0012645 0.0070096 -0.000258 -0.020825 0.00028788 0.02199 -0.053248 -0.010199 -0.019745 0.00061136 -0.015007 0.016177 -0.014294 -0.040628 -0.00020196 0.045303 -0.039168 -0.00055063 -0.018661 -0.022159 -0.013338 -0.036709 -0.0099584 0.046377 -0.0045672 -0.0055968 0.033554 0.075877 -0.024134 0.07089 -0.0084429 -0.016354 -0.048676 0.018008 0.013819 0.031184 -0.00077964 -0.013033 0.047067 0.017688 -0.0066063 -0.0034666 -0.011713 -0.041592 0.013035 0.003201 0.059424 -0.030492 0.049823 -0.059909 0.037782 -0.035699 -0.0010751 -0.014352 -0.032399 -0.039866 -0.052319 -9.8624e-05 -0.032446 0.0373 0.029062 -0.036859 0.042113 0.025089 -0.066663 -0.039794 -0.034886 -0.033337 -0.019509 -0.024553 -0.0034309 -0.039383 -0.038167 -0.0080812 -0.013704 -0.039788 0.0812 -0.098626 -0.055553 -0.012182 -0.027972 -0.04433 0.013094 0.049782 0.061259 -0.0076649 0.007214 -0.0039049 -0.014921 -0.02395 0.012148 0.045507 0.053759 0.011953 -0.027732 -0.010295 -0.050033 -0.031175 0.016181 -0.062763 0.011567 0.027604 -0.015322 -0.11455 -0.04902 -0.037229 0.01484 -0.014849 0.015054 0.013341 -0.034381 -0.010737 -0.007696 0.053487 0.039826 -0.031874 -0.08005 0.0086489 0.0028353 0.036291 -0.01928 -0.033127 -0.0011655 -0.013469 -0.036259 -0.025173 -0.011867 -0.024286 0.021018 0.047186 -0.014207 0.0055885 0.1269 0.00081214 -0.042505 -0.01963 0.0003222 0.02016 -0.057393 -0.06346 0.013844 0.0072437 -0.027102 0.05365 -0.044543 -0.020347 -0.012096 0.011734 0.10293 -0.008391 0.012216 0.013366 0.034858 -0.0097999 0.02108 -0.026419 -0.0014191 0.020791 0.074551 -0.029769 -0.018118 0.02528 -0.004227 -0.045954 0.046462 -0.012908 -0.053438 -0.050467 -0.078919 0.035715 0.01244 -0.024458 -0.0040146 0.054979 0.033925 -0.014524 0.007078 0.04397 -0.029439 0.029001 0.042156 -0.02505 -0.095338 -0.013428 -0.066028 0.053638 0.021877 0.0031469 0.02392 0.012527 -0.038307 -0.0067296 -0.0011471 -0.01519 0.024016 0.039571 -0.006007 0.019935 -0.0073174 0.024927 -0.023816 0.036931 -0.033242 0.029552 -0.014732 0.052537 -0.0072141 -0.056367 -0.0046255 -0.003556 0.02116 0.013995 -0.053919 0.066509 0.0075579 -0.0078465 -0.034237 0.018263 0.055535 -0.070215 
fjaeldørred -0.010976 0.015816 -0.014262 0.04437 -0.01645 -0.010098 -0.029231 -0.015447 -0.012449 0.028764 0.044633 -0.001717 0.020534 -0.037888 -0.016724 0.017513 0.022812 0.0040016 0.023039 0.004124 -0.006553 -0.009803 -0.027723 0.0032388 0.049952 0.04532 -0.017852 -0.013783 0.015371 0.057355 -0.0055792 0.011133 -0.011407 0.03241 -0.022587 -0.0426 -0.019743 -0.044727 0.0054758 -0.0044531 0.0023071 -0.026679 0.011212 0.0030853 0.022795 0.039426 0.0010494 0.030024 0.0029561 0.015005 0.0018949 -0.011065 0.011055 -0.019617 0.015639 0.030094 0.016624 0.013056 -0.059998 0.015002 -0.034065 0.0054589 0.020188 0.015888 -0.0023641 -0.0034853 -0.0047792 0.036045 0.00062027 0.010433 0.042177 0.017579 -0.014809 0.0010279 -0.013779 0.0054043 -0.0076838 0.014047 0.024441 -0.051906 -0.02082 -0.0080872 0.0038972 0.0028273 -0.045813 -0.0096373 -0.063998 -0.011058 0.00061835 0.0041875 0.0034654 0.0014098 -0.012606 -0.032613 0.046843 0.01602 0.011846 -0.014012 0.025214 -0.014266 0.011895 0.012164 -0.029482 0.033928 0.00074405 -0.019653 0.033247 -0.018684 -0.022817 0.018757 -0.016492 0.011904 0.012188 0.027982 -0.038735 0.0036006 0.013532 -0.01246 0.0016571 0.0045798 -0.022333 0.0023826 0.030673 0.022191 0.025549 0.054461 -0.0052991 -0.0096633 0.025291 -0.050639 -0.003936 -0.0015162 -0.00091319 0.023106 -0.011175 0.020076 0.031527 -0.017609 -0.004233 0.0029586 0.013084 0.0077263 0.0046246 0.0090755 -0.045707 -0.00090294 -0.04891 -0.016975 -0.014793 -0.0069914 -0.02166 -0.0031015 -0.0009638 0.023738 -0.033182 -0.018956 0.0018408 -0.024775 -0.034729 -0.016894 -0.015864 -0.013749 -0.030414 0.025866 -0.033794 0.00063486 0.0079155 -0.0066493 0.015673 0.0080014 0.0019069 0.0020622 -0.011463 0.00070693 0.028839 -0.01955 -0.0083321 0.0014798 -0.0046768 -0.018852 -0.02839 0.051102 -0.00062686 -0.087356 0.016802 -0.020202 0.011977 0.0061734 0.0033764 0.012339 -0.00063258 0.0058911 -0.025096 0.033947 -0.012604 -0.039622 -0.023176 0.011998 -0.015669 0.057792 0.0072346 -0.0054298 -0.011575 0.02293 -0.020244 0.017383 0.047683 0.010363 -0.016782 0.027089 0.029288 -0.0043213 0.039543 0.0015796 -0.023714 -0.0038371 -0.027056 0.0070919 -0.0082742 0.010443 -0.0109 -0.0068547 0.026281 0.032611 -0.0067018 -0.0048858 0.020487 0.020641 0.039128 0.018297 0.02496 -0.012197 0.013468 -0.009055 0.017789 0.027037 0.01599 -0.008778 -0.0032627 -7.2876e-05 -0.023443 0.032637 -0.026676 -0.049143 0.041804 0.027761 -0.015644 -0.020006 0.0012161 -0.069497 0.021318 -0.046008 0.026875 0.013443 0.006673 0.012942 -0.014285 -0.0057608 0.024255 -0.00017158 0.0091241 0.0051558 -0.08574 -0.0030663 -0.0025552 0.012795 -0.03425 -0.032372 0.0025482 0.039032 -0.011915 0.027812 -0.036993 -0.019991 0.011463 -0.014558 -0.017295 -0.0035651 0.0051438 0.0035088 -0.0071421 -0.013101 -0.0015725 -0.010533 0.021364 -0.00044962 0.010159 -0.018855 0.0011033 -0.015208 0.036989 0.015663 -0.025517 0.0048068 0.017919 0.0087317 -0.0059158 0.028261 0.018329 6.7328e-05 
kildeørred -0.033262 0.0074056 -0.024256 0.093163 0.020385 0.010201 -0.015871 0.02018 -0.0069409 -0.015227 0.051227 -0.022362 -0.00011549 -0.0066331 -0.033899 0.040609 0.054592 0.021884 0.022181 -0.048157 -0.018077 -0.035871 0.013566 0.045763 0.00076556 -0.033854 -0.0043088 0.0058266 0.036269 0.030328 0.0021064 -0.031069 -0.01715 0.028803 0.032115 -0.016004 -0.045515 0.025644 -0.0018375 0.046166 0.056125 -0.010608 -0.001902 -0.011799 -0.014595 0.049358 -0.022227 0.021288 -0.023313 0.04265 -0.015163 -0.15948 -0.034797 -0.013044 0.01235 0.026278 0.042721 0.017075 -0.017703 0.019823 -0.043151 0.031705 0.038758 0.047249 0.00036849 0.050032 0.053583 -0.011664 -0.010561 -0.0053022 0.014014 0.045029 0.010715 0.016825 0.012915 -0.00083726 0.0145 0.037193 0.051495 -0.073706 -0.0087421 -0.028895 -0.0060272 0.022265 -0.063811 -0.0033132 -0.023512 0.050536 0.038463 0.046576 0.015662 0.015223 -0.041915 0.00285 0.10392 -0.010749 -0.0053994 0.027905 -0.048224 -0.026783 -0.018741 0.0026874 -0.026868 0.057798 0.011222 -0.030157 -0.0027594 0.0081104 -0.021152 -0.034566 -0.020974 -0.024101 0.011665 0.0238 0.026846 0.009768 -0.015146 -0.018455 -0.024331 0.015033 0.012242 0.03791 0.027873 0.013351 0.036108 0.066365 0.029118 -0.0074462 0.029459 -0.053294 -0.013908 -0.0065092 -0.053172 0.05589 0.041853 -0.0018481 0.037068 -0.068352 -0.00051885 0.027286 0.067393 -0.013495 -0.001523 0.03323 0.061004 0.023382 0.007 -0.0091872 -0.026922 0.021664 -0.0059426 0.012312 -0.017838 -0.028189 -0.042807 -0.023781 -0.048708 -0.02195 -0.050787 -0.033993 -0.057761 0.018185 -0.025939 0.022855 -0.016753 0.0063084 0.023495 -0.024238 -0.0064574 0.099556 -0.039439 0.026771 -0.015691 0.032423 0.024505 -0.019649 0.025507 -0.047343 0.043404 -0.028045 -0.037704 0.055568 -0.030971 -0.063322 -0.048389 -0.03223 0.026247 0.036675 -0.046282 0.0086279 -0.017851 -0.025357 0.016796 -0.016281 0.0026858 -0.0093513 0.021733 0.015686 0.0096099 0.12519 -0.0022317 0.020322 -0.016219 -0.017653 -0.037273 -0.038543 0.017321 0.036039 -0.0030287 -0.033116 0.0093463 -0.041752 0.025016 -0.045007 -0.028111 0.025332 -0.056262 0.023298 0.0053405 -0.041474 0.013106 -0.0010786 0.014274 0.034717 -0.010518 -0.0026187 -0.020925 -0.0048084 0.052754 0.027228 0.058876 0.01108 0.055232 -0.033872 0.041687 0.0377 0.014197 -0.01141 -0.0085035 -0.03432 0.022386 0.012961 0.0083372 -0.055232 0.015799 -0.001576 -0.014534 0.0097546 0.0095867 -0.044393 0.016765 -0.014664 0.02009 0.059259 -0.0074256 -0.0062168 -0.017702 -0.0099503 0.033902 -0.010175 -0.0050689 0.078988 -0.094389 -0.030538 -0.015796 0.01588 -0.07808 0.0039076 0.057251 0.053136 -0.0083626 0.073409 -0.089284 0.041232 0.037903 0.0084189 -0.053573 -0.0057169 0.018487 0.032914 -0.029638 -0.033429 -0.0042605 -0.019167 0.019203 -0.042032 0.053106 -0.05749 0.013875 0.011597 -0.064633 0.022447 -0.031599 -0.036267 0.086938 -0.035683 0.0075919 0.030044 0.028323 -0.0021314 
beekridder 0.015449 -0.013248 0.018801 0.040684 -0.038564 -0.077206 -0.018858 -0.041661 0.028125 0.0013212 0.054092 -0.0012705 -0.0068825 0.0071178 -0.057909 -0.099254 0.012852 0.0090883 -0.0068141 0.14694 -0.091803 -0.0084729 0.01102 0.00049325 0.081014 0.053444 -0.028804 0.009893 0.025457 0.1113 0.0041812 0.0029793 0.0043717 -0.057617 0.020896 -0.024392 -0.067054 -0.09077 -0.025698 0.053011 -0.03022 -0.01646 -0.017258 -0.018786 -0.045295 0.086079 0.030044 0.00097503 0.0061555 -0.0033184 0.010366 -0.038306 0.036396 0.0043677 0.019749 0.014486 0.054055 -0.010824 -0.038629 0.015105 -0.0020871 0.040698 -0.0017508 0.086355 0.017133 -0.0065287 0.043306 0.036801 -0.030121 -0.02377 0.037411 -0.022019 -0.0061345 0.083579 0.014584 0.013416 -0.027627 -0.020869 -0.043947 0.039593 0.0050221 -0.010219 -0.00125 0.083549 -0.024177 -0.028785 -0.0049276 -0.09947 0.017586 -0.074672 0.010325 0.06181 -0.0084203 -0.032182 -0.024316 0.063307 0.061955 -0.01901 0.044206 -0.052544 0.030447 0.0090602 -0.011093 -0.0078116 0.037171 -0.0015392 -0.010027 0.062793 -0.0031085 -0.028706 0.0047367 0.013393 0.0015723 0.029225 -0.0067441 0.010179 -0.030021 -0.03696 0.005514 0.032979 -0.03209 -0.0049329 0.027887 -0.0092652 0.027429 0.054558 0.024386 0.012439 0.036609 -0.03863 0.040408 0.0007313 0.022625 -0.012064 0.010278 0.021161 -0.023685 -0.031711 -0.02646 0.026642 0.078847 -0.060224 0.013054 -0.0069509 -0.03773 -0.07694 -0.066957 0.058935 0.024303 0.012681 0.054738 -0.058986 -0.078081 -0.046884 0.022208 0.0068598 0.059978 0.0028308 -0.040338 -0.00015981 -0.020326 -0.0066516 -0.043432 0.022822 0.0023546 0.0078083 -0.018836 0.0048244 0.017048 0.014703 0.016247 0.032697 -0.037282 0.013424 -0.034051 -0.038075 -0.0066141 -0.049507 -0.003388 -0.00841 0.004606 -0.034385 0.0069702 -0.08871 0.053011 0.020599 0.031782 -0.024298 0.046363 -0.021817 -0.0064868 -0.047397 0.023066 0.011818 0.005679 0.028764 0.021914 -0.023336 0.032566 0.033972 -0.033046 0.021566 -0.0051951 0.010275 -0.02895 0.0024819 0.1019 -0.0050879 -0.048111 0.022916 -0.0078975 -0.023897 -0.043471 -0.001032 -0.018571 -0.027195 -0.016326 0.013002 0.0098461 0.054421 0.0013704 -0.0080802 0.041055 0.06578 -0.023409 -0.033388 -0.00019298 -0.024798 0.014426 0.040441 0.020496 -0.023938 -0.011557 -0.024501 0.065994 0.090036 0.029716 0.010867 0.0051264 -0.036823 0.016819 -0.019518 -0.034194 -0.0551 0.063753 0.022002 0.026298 -0.012224 0.026031 -0.031509 0.087073 -0.057756 -0.00062461 0.038049 -0.082527 0.028938 -0.034043 0.0436 0.020871 0.0055567 0.0075223 -0.093423 -0.12244 -0.0059989 -0.070282 -0.028206 -0.010214 -0.040118 0.010134 0.068268 -0.0036756 0.058027 -0.09071 -0.066224 0.00086021 -0.051755 0.083869 0.080919 0.008978 -0.0073558 -0.0030398 -0.017679 -0.065552 0.069034 -0.00031764 -0.032211 0.012057 -0.097067 -0.010954 0.076665 -0.040011 -0.027972 -0.053651 0.049095 0.047403 0.014313 0.0068319 0.048553 0.060761 0.021085 
bronforel -0.027988 0.023342 -0.0089621 0.1098 -0.012825 -0.043122 0.039993 -0.0029682 0.0067027 -0.032997 -0.0022844 -0.00047052 0.010523 -0.00302 -0.023082 -0.084716 0.020283 0.024197 0.019183 -0.0070085 0.0039019 0.01617 -0.016908 0.029492 0.093304 0.0062047 -0.025065 0.014511 -0.0062848 -0.071252 0.026383 -0.047618 -0.016091 0.021769 0.028253 0.0089152 -0.0024239 0.05458 -0.036158 0.045025 -0.033765 -0.034005 0.025377 0.025024 -0.045451 0.027972 -0.0021003 -0.00037627 -0.037177 -0.012589 0.025439 -0.026496 -0.0068578 0.0070993 0.00082982 0.012874 0.023241 -0.035131 0.016845 -0.087622 0.0048098 -0.00084992 -0.016665 0.022581 -0.010458 -0.0077854 0.025492 -0.010067 -0.044321 0.024221 -0.0004899 -0.0041172 -0.090079 0.033039 -0.064191 0.045093 -0.03051 0.051145 -0.066394 0.04477 -0.032282 -0.0022754 0.0025186 -0.0024481 -0.032773 -0.00054602 0.041663 -0.017268 -0.0037963 0.069023 0.040936 0.012184 -0.064166 0.023582 0.00050263 0.011483 0.061333 -0.010519 0.017348 -0.0026762 0.0059804 0.034286 -0.0021216 -0.054774 0.0013586 0.045205 0.021203 -0.039568 -0.028459 -0.059052 -0.024268 0.026227 0.070198 -0.016705 0.033278 0.018447 -0.021792 -0.0059526 0.01681 0.012009 -0.039395 0.055578 -0.041521 0.013432 -0.0051844 -0.0082746 0.031112 0.029547 0.07034 -0.028118 -0.005914 -0.02428 0.0079232 -0.034232 0.066018 0.012088 -0.0049715 0.035786 -0.018655 -0.0043614 0.098161 0.016377 -0.0030168 0.0035031 -0.048838 -0.036493 -0.05904 0.031184 0.015066 0.0076789 0.09548 0.035928 -0.001982 -0.034261 -0.0041743 -0.039335 0.022931 -0.005128 0.041156 0.013447 0.0057254 0.02054 -0.036035 0.0088223 -0.015955 -0.032691 -0.066158 -0.03655 0.014004 0.038487 0.0067754 0.017615 -0.064339 0.0083248 0.0040973 -0.0022244 -0.0095245 -0.0038859 0.012348 0.011753 0.011916 0.05038 -0.037768 -0.06733 0.01641 -0.013678 0.094713 -0.039355 -0.013958 0.0040316 0.0219 -0.026712 -0.00089742 0.013072 -0.0021357 -0.034274 0.0052905 -0.027934 -0.0020965 0.019715 -0.067447 0.082581 0.026436 0.0075283 -0.022468 -0.010575 0.03502 0.021098 -0.00047527 -4.8093e-05 0.0038968 -0.032769 0.046733 0.027095 -0.0060841 -0.0063657 -0.054026 -0.02048 0.071774 0.014325 -0.021114 -0.01337 0.025501 0.06219 0.033049 -0.009416 0.011352 0.022054 -0.0014745 -0.021968 0.010518 -0.03574 0.047651 -0.058088 0.01356 0.0050244 0.0077434 0.053776 0.017828 0.034962 0.030756 -0.039818 -0.01028 -0.053354 -0.020416 0.060655 0.027959 -0.046342 -0.023883 0.0089039 0.06684 -0.038552 0.028848 0.02511 -0.0077112 0.022692 0.018498 0.055702 -0.0051526 -0.048161 0.036622 -0.07732 -0.10675 -0.00078053 -0.024426 -0.019093 -0.074198 -0.016452 0.011726 0.11508 -0.0079698 0.014452 -0.04389 0.060991 0.0081375 0.07141 -0.031563 -0.049479 -0.10906 0.10666 0.03407 -0.028901 -0.060973 0.0066092 -0.0011064 0.0025401 0.0096647 -0.016853 -0.030022 -0.0045052 0.019198 -0.010242 -0.074002 0.035354 0.015363 0.002283 0.074001 0.018169 0.00076278 0.057601 
omble -0.010852 -0.014245 0.01111 0.051095 -0.00022737 -0.030391 0.011032 0.018042 -0.036917 -0.0052329 0.012956 -0.015863 -0.0070971 0.041445 0.021605 -0.042926 0.033432 0.032058 0.017887 0.073125 -0.0060703 0.039688 0.0056688 -0.00027818 0.014875 -0.037656 0.0051191 -0.010541 0.011813 -0.053374 -0.0066952 -0.0062318 -0.01917 -0.03868 0.011824 0.039351 -0.0077196 0.069101 -0.022298 0.0010578 0.016318 0.0022834 -0.0039637 -0.02668 0.007169 0.0047012 -0.031148 0.021831 -0.011395 0.01673 -0.030503 -0.031046 0.013298 -0.027469 0.0030336 0.0066977 -0.019631 -0.0014671 -0.00083493 -0.035812 0.015619 -0.0031499 0.00016862 0.055892 0.033945 -0.021144 -0.00088967 0.0069196 -0.015825 0.015451 -0.00043696 -0.007571 0.02916 0.021925 0.0075058 -0.0018804 0.0023406 -0.0037046 -0.069827 0.041124 -0.027454 -0.0066357 -0.030442 -0.0018887 0.036799 0.0099419 -0.017701 -0.0043934 0.020968 0.048404 0.039245 -0.0090616 -0.022758 0.018365 0.026733 0.068186 0.032058 -0.02653 -0.0044447 0.017434 0.0036649 0.0096506 0.0040966 0.061526 0.00095631 0.031207 0.00099853 -0.012036 -0.034241 0.0007322 -0.035106 0.012536 -0.05429 0.042025 -0.035267 -0.01435 -0.049387 -0.022658 0.016657 -0.0085552 -0.010752 -0.00094188 -0.021485 0.0078799 -0.022218 0.021868 0.020586 0.0031999 -0.013619 -0.0061035 -0.024355 0.0094553 -0.025233 -0.059702 0.015508 0.021718 0.03703 -0.030747 0.021645 -0.012333 0.032163 -0.024983 -0.01589 -0.021992 -0.080958 0.020253 -0.02888 0.024159 0.044001 -0.027442 -0.025529 -0.00047765 -0.050147 -0.0044773 0.02442 0.018773 0.061633 -0.016212 -0.012605 -0.041417 0.035297 0.0059611 -0.029089 -0.017804 0.0083304 0.020498 -0.019802 -6.0435e-05 0.035045 -0.0084059 0.0038412 -0.0026079 -0.019877 0.018168 -0.034523 -0.0027236 -0.034032 -0.028021 0.04216 -0.0067863 -0.02513 0.012739 0.029666 -0.08734 0.017113 -0.035905 0.040123 0.030016 -0.0088547 0.0028841 0.024987 0.0065037 -0.049852 0.019771 -0.019487 0.025063 -0.029169 0.027107 0.019897 0.055976 -0.036684 -0.015466 0.0086044 0.01106 -0.014088 -0.05001 0.058791 -0.0055701 0.0094292 0.025012 -0.043324 -0.045629 -0.023187 -0.01954 -0.021624 0.001746 -0.0019947 -0.025849 0.049421 -0.0037671 0.030666 0.0074073 -0.01455 0.12229 -0.022654 0.020951 -0.001622 -0.013189 0.035452 0.060368 0.015977 -0.0288 -0.016208 0.050777 0.039783 0.0082275 -0.058734 -0.0032867 -0.039252 0.031416 0.012392 -0.046399 0.0048361 -0.052096 -0.019303 0.02309 -0.022399 -0.0072898 -0.0060338 0.030339 0.090761 -0.0040376 0.025224 0.0057985 0.022518 0.035113 0.0088392 -0.002303 -0.014096 0.01214 0.0030862 -0.12342 -0.06983 0.025393 -0.0092731 -0.026034 0.0082858 -0.02501 0.04733 0.042776 -0.0069291 0.032306 -0.13811 -0.035303 0.024638 -0.020287 -0.00069865 0.064978 -0.033304 -0.02494 -0.014251 -0.026568 -0.076502 0.038646 -0.012114 0.066911 0.040953 -0.03597 -0.0058902 -0.015145 0.069659 0.019851 -0.025402 0.048097 0.011167 -0.00057383 0.033352 0.013124 0.032566 -0.015482 
Saiblinge 0.005225 -6.1418e-05 -0.021994 0.069557 0.026703 -0.030981 -0.01845 0.023061 0.02366 -0.044821 0.0011629 -0.024511 -0.0090498 0.0049282 -0.046041 -0.024887 0.024493 -0.0093033 0.030245 0.040621 0.035696 0.026019 0.040372 -0.017738 0.025887 0.028287 -0.0052431 -0.005954 0.044246 0.03439 0.0027666 -5.0769e-05 -0.019029 -0.025008 0.014336 0.043574 0.020665 0.033437 0.0023051 -0.00090609 0.016196 -0.03073 0.0055678 0.011533 -0.0043842 0.052514 -0.021691 0.011065 0.032819 -0.0019481 0.014938 -0.0054973 -0.0069181 -0.015487 0.026582 0.021105 -0.0021752 -0.0099727 0.0029894 0.015969 0.030122 0.034754 0.036832 0.073253 0.029623 0.022371 0.0091537 0.020339 -0.035348 -0.026861 0.012859 0.014421 0.00061472 -0.0089319 0.013996 0.030435 -0.015722 -0.0067015 -0.0040873 0.026116 0.0044719 0.0021772 -0.029555 -0.016135 -0.0072768 0.037703 -0.045681 -0.0016107 0.0040069 0.017929 0.00469 -0.006987 -0.054985 0.00069488 0.040125 0.064893 0.034173 -0.011933 -0.051965 0.0045639 -0.016086 -0.0011347 -0.029517 0.021339 -0.014768 -0.0098312 0.0045176 -0.011784 -0.023121 0.0054638 -0.017603 -0.011198 -0.035103 0.023229 -0.05026 -0.015531 -0.020222 -0.009107 -0.00040896 0.020728 -0.019958 0.015056 -0.0057981 0.0039773 0.046915 0.017223 0.0078857 -0.0083399 -0.010376 -0.0074636 0.016943 0.0091967 0.0034751 -0.0054358 0.040669 0.034486 0.0262 0.0057267 -0.037428 0.0048758 0.021166 0.015448 0.0014984 0.017738 -0.022604 -0.022985 -0.024567 0.013005 -0.015166 -0.0078318 -0.035128 0.0024722 -0.036775 0.0013219 -0.015576 0.0072606 0.009601 -0.031883 -0.028284 0.0038342 -0.0066349 -0.025107 -0.049206 0.0050853 0.0097946 0.016721 0.00068447 0.0024846 0.050021 0.01275 -0.0073513 0.003751 -0.0045211 0.0079926 0.00040253 0.050595 0.00098981 -0.03225 0.015829 -0.0036415 -0.0053933 0.038238 -0.025613 -0.12441 -0.012627 -0.018817 -0.043192 0.018204 0.0030988 -0.010678 0.029768 -0.0090991 0.013362 0.036325 -0.028589 0.010864 0.012094 0.038553 0.013133 0.082799 -0.038258 -0.0087673 -0.0038512 0.01486 -0.011575 -0.02545 0.032057 -0.01902 -0.019278 -0.0096159 0.0077417 -0.02486 0.032258 0.013793 -0.018536 0.0060266 -0.016318 0.0069051 -0.023544 -0.021958 0.043001 -0.017025 0.010289 0.049611 -0.026025 -0.027964 0.030121 0.018863 0.0034366 0.068868 0.0097062 -0.0048817 -0.0034727 0.0032668 0.012252 0.033099 0.009153 0.0026785 0.01675 0.015269 0.0104 -0.054651 0.0010625 -0.067885 0.0012074 0.016467 -0.0035549 0.0059539 -0.00014687 -0.012932 0.032924 -0.012141 0.0087641 0.02088 -0.017725 -0.020889 -0.012983 0.013185 -0.0016173 0.010333 0.025822 -0.053972 -0.058156 0.0089876 0.0087607 0.0098227 0.0063977 -0.0025168 0.024205 0.094524 -0.02253 0.026708 -0.082194 0.011447 0.0414 -0.0067601 -0.0070615 -0.0024425 -0.071632 -0.036844 -0.0044064 0.00090633 -0.057333 -0.029224 -0.0020117 0.0009894 0.031206 -0.01912 -0.00017143 -0.029271 0.055915 0.020995 -0.03829 -0.0064612 0.0096301 0.0072329 0.0076322 0.021693 0.034568 -0.020228 
salmerino -0.026622 0.015943 0.0046728 0.088158 -0.016537 0.020872 0.015413 -0.0057684 -0.017552 -0.067546 0.012508 0.014456 0.017014 0.0013674 -0.037454 -0.070109 0.038296 0.03756 0.027492 0.023355 -0.023823 0.0015439 0.019648 -0.0047482 0.076687 0.026672 0.0047586 0.023814 0.031509 -0.05087 0.022877 -0.0036837 -0.00582 -0.00096557 0.05223 0.018901 -0.016387 0.083868 -0.012237 0.022038 -0.025953 -0.020667 0.036544 0.039313 0.010172 0.010258 0.0076427 0.012217 0.016806 0.00016254 0.024662 -0.0077543 0.0099717 -0.041119 0.019238 0.044042 0.05234 -0.022245 -0.017756 0.043373 0.037351 -0.0046531 -0.022083 0.0036454 -0.015796 0.019758 0.013253 0.020757 -0.008716 -0.044842 0.044643 0.080934 -0.028936 0.0034382 -0.0051821 -0.015024 -0.0060841 0.04355 0.0020341 0.016758 0.0090359 0.0045966 0.023927 0.029255 -0.0079593 -0.0091522 -0.057354 0.026782 0.034127 -0.0012332 0.0073978 -0.023619 -0.050149 0.010029 0.088042 -0.022408 -0.023817 -0.0068514 -0.033024 -0.0067149 0.047335 -0.056555 -0.0184 0.023636 -0.024136 0.043662 0.03661 0.023896 0.0069343 -0.021679 0.0042236 0.035569 -0.063335 0.02516 -0.0022873 -0.0079291 -0.026925 0.002528 0.01704 -0.012389 -0.027129 -0.02315 -0.0066863 0.018136 0.0072925 0.058147 0.060841 -0.023625 0.0023473 0.00046986 0.029277 -0.022709 -0.010525 0.025752 -0.004799 0.017005 0.011827 -0.012434 -0.022337 0.0060963 0.034129 -0.014295 0.05469 -0.0034255 -0.095796 0.00036866 -0.029679 -0.0083392 0.039258 0.024737 0.0021617 0.028889 -0.014715 0.015102 0.0095471 0.0016931 0.067101 -0.044239 -0.02497 9.7052e-05 -0.019042 -0.001758 -0.023333 0.024357 0.052241 -0.012222 -0.025444 -0.047506 0.057436 -0.0075637 0.04135 0.039146 0.011201 0.029086 -0.025058 -0.001208 -0.011519 0.0096648 -0.046163 -0.066637 0.0055736 0.02143 0.0063367 -0.094458 -0.014563 -0.056538 0.050797 0.0011067 0.028455 -0.033197 0.0015007 -0.0039007 -0.027103 0.036276 0.023146 0.021471 -0.0014437 0.032117 0.011157 0.084141 -0.027751 0.03662 -0.011066 -0.002259 -0.04801 -0.050123 0.11027 -0.010282 -0.010743 -0.0013878 -0.0029562 0.010197 0.053162 -0.0099386 0.0056227 -0.027146 -0.040678 -0.032397 0.00829 0.079566 0.041149 -0.043511 -0.039612 0.068715 -0.041185 0.026447 0.0093435 -0.02084 -0.0038599 0.021101 0.033984 -0.013181 0.022198 0.016315 0.0098599 0.036474 0.016169 -0.0076916 0.023957 -0.048195 -0.004442 0.0013844 -0.018359 -0.067805 -0.007411 0.046026 0.069541 0.015725 0.012814 0.0046955 0.016348 0.0012194 0.016061 0.082841 -0.0070378 0.013545 -0.01059 -0.015564 -0.029531 0.014747 0.028623 -0.021876 -0.11656 0.015965 -0.042119 0.036749 0.0087488 0.014992 0.0088482 0.022251 0.015477 0.033147 -0.031532 0.0041554 0.020311 0.030352 -0.06352 0.00054349 -0.016447 -0.051215 0.012967 0.037657 -0.047888 0.021691 0.022925 0.0086874 0.033952 -0.086713 -0.00081497 -0.0011353 -0.030601 0.0191 -0.078156 0.0078473 0.0016591 -0.056486 0.0011392 0.0083889 0.0076548 0.032521 
røye 0.017685 0.045013 -0.032453 0.027615 0.018331 -0.063163 -0.026698 -0.013843 -0.022718 0.006294 0.015773 -0.0067573 -0.044481 -0.0072831 -0.043126 -0.070203 -0.081838 -0.044075 -0.046015 0.03014 -0.032893 0.024212 -0.0070698 0.031984 0.048535 -0.0081867 0.026922 0.0046728 -0.065506 0.02403 -0.051577 0.033708 -0.023829 0.0058824 -3.9205e-05 -0.053929 0.0046739 0.029396 -0.017814 0.033687 0.027949 0.001799 0.0010122 0.0090772 0.0044074 0.061375 -0.017931 0.028705 0.025945 -0.0020922 -0.018597 -0.024561 -0.049065 -0.042572 -0.056032 -0.083619 -0.036509 0.011428 0.032144 -0.057348 -0.03093 -0.060681 -0.0066479 0.052223 0.040187 0.055438 0.005868 -0.0016458 0.027262 -0.00060244 -0.014087 -0.02272 -0.054384 0.029954 0.0033635 0.04743 0.0038143 0.0074581 0.032287 0.010497 -0.011514 -0.0031722 -0.037098 -0.047362 -0.0033405 0.018808 -0.021498 0.037836 -0.047569 0.0096369 0.07584 -0.021175 0.039197 0.05316 0.014936 -0.00056884 0.010956 0.040413 0.075459 0.0042385 -0.01757 0.024622 0.0055348 0.072798 0.016691 0.0057221 0.061695 -0.047621 -0.071479 -0.030944 0.023862 -0.014604 0.0093783 0.043373 -0.0085959 -0.024374 0.0041438 -0.044067 -0.0087194 -0.021687 0.0069845 -0.008287 -0.0006725 0.013088 -0.025186 0.053162 0.056157 -0.011069 0.017104 -0.024534 -0.038248 -0.034463 0.02389 -0.021374 0.020991 2.6929e-05 -0.036262 0.028823 -0.020054 0.042055 0.031396 -0.060555 -0.010904 0.0046873 0.03042 -0.00073529 -0.028158 0.035663 0.042351 0.017442 0.031362 0.039111 -0.015324 -0.023123 0.051748 -0.06087 -0.046431 0.033196 -0.043403 0.0088178 -0.03811 -0.0015848 0.042184 0.019998 -0.029551 0.0020513 0.038835 -0.00014454 -0.020264 -0.0083045 0.022875 0.022523 -0.0018888 -0.010317 -0.030462 0.033161 0.0381 -0.012894 -0.10228 -0.022227 -0.029497 0.028874 -0.029592 0.040603 0.039808 -0.076307 0.0021164 -0.030797 0.016444 -0.028598 0.03324 0.048813 0.014801 -0.028204 0.041838 -0.0087088 -0.009802 0.0060948 0.028523 -0.036092 -0.027233 0.032401 -0.0054219 -0.025733 -0.015244 -0.061666 -0.062609 0.039058 -0.041385 0.0029898 -0.058206 -0.017819 -0.0062448 0.0023557 0.0095432 0.068325 -0.016467 0.0088193 -0.030257 -0.0030346 0.017952 -0.037622 0.033609 0.013917 0.015892 -0.012476 0.021776 -0.045553 0.0098084 -0.016906 0.0028966 0.019773 -0.01296 -0.021138 -0.050575 0.015731 -0.029686 0.056233 -0.01656 0.011937 0.015616 -0.061842 -0.017192 -0.024691 0.058536 -0.062607 -0.050749 -0.016269 -0.035168 -0.04888 0.040017 -0.053594 -0.012264 -0.0094008 -0.016632 0.0045965 -0.04886 -0.053726 -0.055673 0.013002 -0.029957 -0.018343 -0.071937 -0.041933 -0.0099653 -0.018353 0.019005 -0.036298 -0.0013526 0.024668 -0.022353 -0.010224 0.014201 0.013167 -0.042973 -0.0081265 0.056577 0.0087559 0.057286 -0.00053667 -0.015926 0.052807 0.01189 -0.0067469 0.011024 -0.02766 -0.029696 0.013097 -0.00095882 -0.056447 0.012642 0.031688 -0.069248 -0.013616 0.025967 0.030163 -0.044303 -0.0065877 0.013809 -0.011992 
røyr 0.055408 -0.045984 -0.056158 0.0097093 -0.041522 -0.13967 -0.025891 -0.049811 -0.054121 -0.041022 -0.01614 -0.1092 0.022794 -0.052015 -0.091326 -0.10352 -0.0070086 -0.01914 -0.039682 0.025005 -0.051758 -0.032878 0.00042736 -0.036811 0.015923 -0.033012 -0.027857 0.056714 -0.0053531 -0.041989 0.029316 0.010798 0.042412 0.018975 0.10503 0.0093362 0.045575 0.11395 -0.068586 0.039061 -0.063854 -0.10372 0.0071148 0.0054294 0.035768 0.07027 -0.049473 0.048794 -0.05945 0.022255 0.09372 -0.088985 0.019639 -0.04922 0.081527 0.049757 0.040782 -0.0059382 -0.08361 0.079735 0.010369 0.078229 -0.054068 0.067398 0.022081 0.045077 -0.014719 0.022777 -0.032475 0.00014201 0.052806 0.016431 0.079005 -0.093972 -0.0053692 -0.023811 -0.036709 0.048228 -0.057335 0.07051 0.070848 -0.040895 0.025762 -0.0026574 0.015261 0.037106 -0.11822 -0.058882 0.025637 -0.0016559 0.0070208 -0.040453 -0.076281 -0.029421 0.041609 0.044524 0.043513 -0.00093614 -0.023739 -0.038989 0.020636 -0.059359 -0.04873 0.096988 -0.025399 -0.057934 0.072635 0.062192 -0.076983 -0.0045708 0.0070078 0.09604 -0.026396 -0.026824 0.024164 0.01549 -0.084175 -0.027098 0.058306 0.02266 -0.022495 -0.028021 -0.026742 -0.0067519 0.091947 0.15357 0.08282 -0.038575 -0.0051372 -0.046693 0.13443 0.022287 0.0048073 0.023652 0.00019515 -0.003128 0.0041106 -0.072028 -0.099667 -0.024944 -0.048276 -0.063786 -0.055974 0.026797 -0.018297 0.017652 -0.088154 -0.02617 0.067668 0.024581 0.057382 -0.03361 0.010071 -0.015605 -0.020538 0.010679 0.014186 0.0031917 -0.022227 -0.064453 0.012553 -0.09395 -0.065786 0.018714 0.056315 -0.026304 -0.091406 -0.036549 0.0010306 0.077638 0.031716 0.05416 -0.092169 -0.0046334 0.015616 -0.035084 -0.0028412 -0.057612 -0.055314 -0.052733 0.09994 0.095756 0.017009 -0.024965 -0.060776 -0.029545 0.025612 -0.046262 0.019948 -0.04942 0.054511 -0.090855 0.026679 -0.011055 -0.00084863 0.10735 0.037989 0.0047032 0.11321 0.07485 -0.023934 0.051612 0.038033 0.027463 -0.081848 -0.08615 0.10043 -0.073349 -0.091106 -0.072667 0.021409 -0.054419 -0.067424 0.0020927 0.025952 -0.011298 -0.031954 -0.021584 -0.091016 0.017182 0.096374 -0.091604 -0.020564 0.10193 -0.034872 -0.026834 0.092578 0.020159 0.11269 -0.0021059 -0.0060209 -0.093091 -0.062399 -0.017056 0.14442 0.10477 -0.018472 0.0011789 -0.033578 0.028439 0.11417 -0.024101 0.050577 -0.083062 0.017197 0.0082838 0.13768 0.019935 0.051051 0.0037653 0.078278 -0.031626 0.026058 0.089332 -0.064924 0.021693 0.012158 0.032804 0.040774 0.028067 -0.0067837 -0.17427 -0.2068 -0.017652 -0.060691 -0.085558 -0.019935 -0.052418 0.063619 0.1078 0.035701 0.031509 -0.14808 -0.14103 0.01965 0.037057 -0.045 0.015691 -0.019601 0.024371 -0.041904 -0.037227 -0.0072532 0.014184 0.0051703 -0.02388 0.054617 -0.078129 0.011327 -0.012164 0.00050266 0.00053217 -0.076286 -0.052514 0.081496 -0.034949 0.084692 0.045307 0.00095302 0.042013 
salvelino 0.03742 0.006927 -0.020859 -0.01078 -0.010702 -0.024261 -0.051776 -0.083146 -0.019083 -0.016549 -0.011914 0.027482 -0.0028295 0.024812 -0.018358 -0.0033343 -0.023845 0.0010672 -0.0030609 0.07197 0.05399 -0.021795 0.010635 0.0050084 0.045942 -0.0087707 0.034441 -0.0047812 -0.013789 -0.0062821 -0.0030153 0.0026435 -0.01909 0.032348 -0.033244 -0.042951 -0.0077605 0.03243 -0.019103 -0.028321 -0.044614 -0.016258 0.022996 0.0203 -0.052995 0.012356 0.0067325 0.014026 0.0083295 0.034336 0.02128 0.010384 -0.037926 0.0055163 -0.02656 0.027904 -0.017446 -0.048112 0.0064578 0.038398 -0.049182 -0.02717 -0.0086817 0.045486 0.019692 0.010347 -0.010716 1.0906e-05 -0.022946 -0.0054364 0.046023 0.031057 -0.023672 0.008522 0.016153 -0.016415 -0.035447 -0.0023524 0.022792 0.028877 -0.017004 0.02649 0.040075 -0.026202 -0.059068 -0.037012 -0.011356 0.034816 0.03877 0.01629 -0.016642 -0.028315 -0.025583 -0.016891 0.062167 0.0099678 -0.048099 -0.02341 -0.029991 0.0098218 -0.015841 0.011334 -0.0076676 0.043658 0.059228 -0.075603 -0.002355 0.013137 0.017944 0.013225 -0.05834 0.053757 0.002214 0.10001 -0.026818 -0.018386 0.029366 -0.0081283 0.0063492 0.0070483 -0.012129 0.037447 0.016968 0.028885 0.034873 0.012241 0.004184 0.019298 -0.0090412 -0.06518 -0.0087116 0.0085478 -0.038659 0.045903 0.039695 -0.011435 -0.02234 -0.036752 -0.0057448 0.011894 0.0062722 0.009523 -0.045804 0.038387 -0.11675 -0.0059065 -0.071399 -0.0099873 0.010491 0.017704 0.0079154 0.017216 0.00024129 0.00083328 -0.037981 -0.015576 0.012596 -0.03981 -0.022281 -0.005399 0.0092487 0.014419 -0.044145 -0.0096695 -0.01587 0.0005313 0.0096342 -0.022029 -0.016182 -0.021821 0.023113 0.022436 0.0048583 -0.0003349 0.027785 0.020331 -0.053305 0.0083592 -0.0221 -0.017484 0.06517 0.027191 0.0074747 -0.068607 0.040815 -0.024019 0.026056 -0.0293 0.04323 0.049208 -0.0029721 0.0049594 0.013037 0.050962 0.0096226 0.00096025 0.016839 0.0046493 -0.016552 0.032692 0.0093371 0.01874 0.0015833 0.01385 0.0051575 0.0045616 0.070956 0.025568 -0.0056651 0.017011 0.022757 0.02997 0.077514 0.053879 -0.014068 -0.043197 -0.037742 0.016855 0.014434 0.07233 0.020239 -0.022646 0.0037064 0.021736 -0.040672 0.027539 -0.0020887 0.0129 -0.05719 0.060762 0.00022131 0.0020043 -0.030093 0.014523 -0.0037951 -0.024868 -0.025104 -0.060255 0.025904 0.01645 -0.010684 -0.035014 -0.057766 -0.061057 0.0027867 0.031611 -0.036074 -0.048895 0.0022754 0.035235 0.047733 0.03886 0.015216 0.013032 -0.0030274 0.043549 -0.02004 0.010736 -0.019716 -0.061103 0.035122 0.042381 -0.095835 0.012112 0.032099 0.031127 -0.022124 -0.028213 0.028732 0.059266 -0.059118 0.010722 -0.05933 8.2232e-05 -0.031712 0.018889 0.0027339 0.057977 -0.051385 -0.0017647 -0.022012 -0.058842 -0.044066 0.0084128 -0.015391 0.0040608 -0.016384 -0.028541 -0.028991 0.014945 0.059533 0.033362 -0.059258 -0.0047964 0.016877 -0.01661 0.054978 0.039207 0.03039 -0.010077 
regnbueørred 0.064487 -0.012787 -0.0011703 0.040121 0.01917 -0.022491 -0.012985 -0.018205 -0.037305 0.025701 0.081686 -0.012843 -0.018797 0.016465 -0.046048 0.051018 0.065836 -0.0015012 -0.0027287 -0.009509 -0.038156 -0.0022098 -0.0099855 0.039121 0.020567 -0.021229 0.0066095 0.0038934 0.026277 0.040005 -0.029821 0.021073 0.018841 -0.018355 0.0036942 -0.052502 -0.032951 -0.013068 -0.014309 0.054853 0.037326 -0.056508 0.0013591 0.014712 0.0030539 0.020344 0.0019466 0.042207 0.00036929 0.0049778 0.0063796 -0.014462 0.024043 -0.046332 0.028179 0.035466 0.030112 0.056506 -0.07237 -0.0112 -0.01078 0.023387 0.0057018 0.052981 -0.0011338 0.043207 -0.043735 0.033805 -0.0075176 0.020345 0.066624 0.0041511 0.032822 0.010839 -0.036145 0.033853 -0.049111 0.01503 0.042887 -0.036865 -0.022356 0.025704 -0.0069244 0.036188 -0.037122 0.02446 -0.073099 -0.039482 -0.0087582 -0.02109 0.020085 -0.0024417 -0.014316 0.031225 0.019665 -0.017209 0.026672 -0.024445 0.055251 -0.024573 -0.02154 0.026513 -0.016877 0.080028 -0.0041654 -0.020828 -0.0054535 0.00097705 -0.038125 -0.040868 0.02612 0.021605 0.083858 0.0039136 -0.020382 0.023798 -0.004171 -0.0033298 -0.0067618 -0.015061 -0.014683 0.0024304 0.068634 0.036512 0.020277 0.055157 -0.02935 -0.032667 0.017019 -0.059762 -0.026656 0.00049394 0.0020226 -0.015969 0.0639 0.027279 0.005267 0.0094447 -0.022281 0.0136 0.046916 -0.0081969 -0.015711 0.027914 -0.019183 -0.048794 -0.087718 0.0053359 0.0076372 0.018408 -0.015308 0.0048397 -0.022881 0.032044 -0.032913 0.030131 0.052079 -0.0013181 0.021026 -0.060579 -0.023184 -0.036979 -0.036151 -0.021112 -0.029084 0.044631 0.044173 -0.037147 0.00024189 0.01738 -0.03884 0.048965 -0.035238 -0.00062389 0.005933 -0.014596 0.019577 -0.015856 -0.0011512 -0.016889 -0.021336 0.043057 -0.0077038 -0.12296 -0.03973 -0.01878 -0.0096543 0.014217 -0.0067705 -0.01107 -0.010405 -0.046732 -0.0093747 0.046021 -0.0075333 -0.009712 0.023574 -0.011553 -0.025699 0.085197 -0.028881 -0.061869 -0.030479 -0.013876 -0.037357 -0.0032401 -0.014952 0.034361 0.049178 -0.014602 0.013122 -0.043968 0.054022 0.00042558 0.0095243 0.022309 0.0027408 0.033252 0.0058306 0.0048195 0.0038004 0.026868 0.022072 0.014855 0.025063 0.0046835 -0.014203 0.025547 -0.0053347 -0.029986 0.060586 0.0046087 0.020238 -0.011339 0.026577 0.023563 0.005004 -0.0015917 -0.0072139 -0.04332 0.0063583 -0.019863 -0.0079084 -0.090937 0.034865 0.013647 -0.029021 -0.00056067 0.0023321 -0.036407 0.10116 -0.050412 0.028738 -0.005085 -0.027974 0.011613 -0.015525 0.035768 0.037664 -0.019371 -0.011547 0.075024 -0.097376 -0.0048941 0.004939 -0.0061732 -0.064069 0.022845 -0.0011466 0.12149 -0.073033 0.056973 -0.021868 0.032862 0.036752 -0.015172 0.046832 -0.023663 -0.046171 0.020785 0.006776 0.0036049 -0.01066 0.021738 0.015611 -0.046977 0.031517 -0.071347 -0.017616 -0.0018379 0.06215 0.039249 -0.064794 -0.024818 0.0024608 0.044441 -0.02104 0.042948 0.026333 -0.024828 
regenboogforel -0.0020645 -0.0075762 -0.011741 0.087349 -0.010319 -0.022568 0.011059 0.0031422 -0.0073948 -0.036867 0.059531 0.049141 -0.035122 0.012791 -0.027186 -0.0085256 0.02399 -0.031109 0.0057926 0.021064 -0.027434 0.010471 -0.047956 -0.039197 -0.0011989 0.041683 0.00048852 -0.014769 0.02982 0.02394 0.017803 -0.020563 -0.020709 0.0073546 0.021117 0.036407 -0.0057541 -0.035604 -0.02206 -0.00062305 0.0052726 -0.026435 -0.003725 -0.015625 -0.031167 0.030811 0.026413 0.0038093 0.019182 -0.02905 0.037029 -0.029961 0.005576 -0.026963 0.0069795 -0.022317 -0.015432 -0.0053722 0.0025214 -0.0068214 0.0026293 -0.023394 -0.03048 0.049422 -0.036923 0.039955 0.042404 -0.037191 -0.0084926 -0.0018581 0.033242 0.039271 -0.02488 0.03678 -0.042267 0.017027 0.0028138 -0.027537 -0.018068 -0.014624 -0.040771 -0.016418 0.013371 0.022653 0.0029264 -0.0090605 -0.0085658 -0.0031182 0.0057737 -0.002294 0.037039 -0.0022193 -0.063874 -0.019158 0.014059 -0.01371 0.063351 0.013434 0.052431 -0.0042641 0.0096772 -0.0093559 -0.019192 -0.0024715 -0.01636 0.032147 -0.01248 0.024857 -0.044766 -0.033589 0.021442 0.034183 0.053982 0.015708 -0.018268 0.015441 -0.020569 -0.024804 0.039246 -0.016397 -0.011173 0.065772 -0.0056713 0.01293 -0.065489 0.022671 -0.03089 0.00703 0.073497 0.01225 0.052963 -0.029722 0.01112 0.019512 -0.0077371 0.010766 0.030365 -0.00029399 0.034332 -0.00121 0.067619 0.0093533 -0.043862 0.0055894 -0.0041122 -0.009053 -0.028916 0.038555 0.042762 0.02114 0.018913 0.0325 0.038685 -0.016129 -0.029574 -0.0054836 0.040274 -0.013072 -0.02434 -0.0021094 -0.024838 0.0087324 -0.04634 0.039393 -0.018552 -0.040604 -0.035899 -0.021478 0.020268 0.016379 0.021668 0.0020861 -0.0165 -0.016264 -0.015021 -0.024797 0.034205 -0.042264 0.017198 0.0025713 0.021596 -0.010478 0.016519 -0.030975 0.035327 -0.0057406 0.011167 0.0011189 -0.046871 0.0077619 0.04167 -0.033719 -0.0083214 0.036084 -0.032265 -0.015635 0.031933 -0.049651 -0.00045241 -0.0030117 -0.032691 0.041959 -0.0041534 0.033585 0.018576 0.060318 0.031936 0.016101 0.027293 0.030628 -0.026054 0.015379 0.023119 0.016026 -0.0031906 -0.012495 0.0017013 0.03288 0.042298 0.0089889 -0.015895 0.0091473 -0.01597 0.012402 0.02798 -0.012413 -0.019907 0.033685 0.018146 0.0056747 0.060836 0.0041875 -0.0277 -0.022431 0.031175 -0.023904 0.030432 0.043606 -0.021976 0.014085 -0.0062213 -0.068643 -0.023688 -0.063364 0.022142 0.048836 0.05414 0.013613 -0.052779 -0.0074351 0.018787 -0.00056178 0.017495 0.044452 -0.017694 -0.014483 0.010537 0.027127 0.01521 0.00051672 -0.019807 -0.045824 -0.046467 -0.0012099 -0.0037458 -0.039346 -0.018308 0.016388 0.0036903 0.058597 -0.073764 0.054754 0.0048772 0.035594 0.013972 0.014564 -0.0621 0.036949 -0.0080551 0.0051439 0.023369 -0.051228 -0.01319 0.046307 0.012951 -0.019566 -0.0039761 -0.024495 -0.0064149 0.033703 0.00086437 -0.017327 -0.037846 0.0059201 -0.015074 -0.021955 0.042879 0.011545 0.015907 -0.025086 
Regenbogenforelle -0.030402 -0.018693 -0.0012441 0.03454 -0.0020503 -0.01892 0.012658 0.012077 0.010334 -0.017459 0.018412 -0.0032944 -0.025169 -0.0016602 -0.026931 -0.039695 0.012821 0.0025645 -0.019575 0.022694 0.011654 0.0081203 -0.016873 -0.025658 0.029242 0.013452 -0.010412 -0.0077331 0.011018 -0.0025212 0.0067113 -0.01871 -0.010381 0.011645 0.02597 0.0018538 -0.0030698 0.013271 0.008368 -0.0037122 -0.0074091 -0.025445 -0.0083848 0.017869 0.032715 -0.0063379 0.0074862 0.0091031 0.016501 0.0057222 0.0045138 -0.0089171 -0.028949 -0.019045 0.040084 -0.00056031 -0.012073 -0.011134 0.016617 -0.02675 0.0003595 0.035678 -0.0010292 0.029786 -0.013401 0.02845 0.029551 -0.040389 -0.032363 0.00055739 0.045803 0.031768 -0.043667 0.018765 -0.021818 0.011363 0.037061 -0.003259 -0.034863 0.023652 -0.0087452 -0.0022755 -0.01119 0.0062886 -0.0028714 0.0056497 -0.0013137 -0.032151 -0.015479 0.03111 0.024097 -0.011116 -0.051756 0.012187 0.023179 -0.0078975 0.022879 0.0069254 0.018177 0.014307 -0.012127 -0.015053 -0.0077215 0.0075169 0.016115 0.01883 0.02475 0.0054922 -0.021152 -0.018229 -0.013298 0.014797 0.039315 -0.011571 -0.042594 -0.0023497 -0.028715 0.004707 0.022527 0.017076 0.013599 0.057195 -0.0032877 0.026956 -0.0063502 -0.0068521 -0.011759 0.0031168 0.038287 -0.013844 0.021116 -0.034793 0.011958 0.014373 0.032042 0.0010639 0.031772 0.022307 -0.022779 0.035377 0.044217 0.020339 -0.021239 -0.012429 -0.060514 -0.0038294 -0.02633 0.011503 0.013118 -0.018332 -0.0072592 -0.002623 -0.022785 0.020233 -0.0066421 -0.022974 0.050495 -0.039081 0.0017487 -0.0072664 -0.024358 0.0047333 -0.032678 0.0033491 -0.014658 -0.0076382 -0.037636 -0.013591 0.021623 0.030113 0.025254 0.027503 0.0017125 0.0025935 0.0094494 0.00034587 0.017084 -0.019439 0.02868 -0.043449 0.020418 0.034151 -0.0062825 -0.048608 0.019559 -0.0038129 0.0053675 -0.0040034 0.012525 -0.01007 -0.0008559 -0.0091816 -0.014082 0.033951 -0.009485 -0.044835 0.00061384 0.026017 -0.01277 0.023515 -0.035422 0.0064757 -0.01425 -0.006891 0.0099176 -0.001721 0.03129 0.004165 0.017164 0.017517 -0.010841 0.0067802 0.014205 0.010114 -0.0048169 -0.011516 -0.021942 -0.0058441 -0.018584 -0.02013 0.013023 -0.0088495 -0.0091009 0.0156 0.011439 0.0029343 0.0024753 0.037121 0.021407 0.021635 0.015382 0.0075442 -0.013708 -0.011048 0.0029255 0.0038205 0.012929 0.012323 0.0055816 -0.0053639 0.01179 0.0012643 -0.044714 -0.025232 -0.0051453 0.01198 0.030658 0.0041304 -0.026976 0.037778 0.028465 -0.013268 -0.0051885 0.017602 -0.016153 0.024359 -0.0016036 0.022719 0.032585 0.0026504 -0.02619 -0.063864 -0.039162 0.023088 -0.053637 0.023882 0.0047971 -0.010836 -0.034122 0.06218 -0.049249 -0.011238 -0.019828 -0.0031705 0.042769 0.027948 -0.0041005 -0.051286 -0.029414 0.031104 0.0060984 -0.022822 -0.012063 0.029376 0.013389 0.012876 2.4618e-05 -0.028156 0.016674 -0.03303 0.02521 0.0068573 -0.041192 -0.00061751 -0.020292 -0.018586 0.019398 0.017099 -0.0056855 0.0072411 
