brasen 0.0056519 -0.1384 -0.041434 0.097003 0.013966 0.035881 -0.059472 0.12168 -0.070591 0.047274 0.013578 0.00069402 0.11855 -0.15616 -0.099153 0.023891 -0.067566 0.15187 -0.082145 -0.054878 0.010255 0.052714 0.053797 0.020325 -0.0062931 0.010632 -0.0072896 0.21987 -0.019816 0.29979 0.0035987 -0.0078038 -0.07391 0.046713 -0.027918 -0.23279 -0.067669 0.030305 -0.11701 -0.051848 0.18842 0.030025 -0.099761 -0.053031 -0.10512 0.093335 -0.14569 -0.049571 -0.073776 -0.038644 0.11302 -0.068368 0.025003 -0.097495 0.048426 0.012355 -0.079877 -0.066519 0.076387 -0.15816 -0.070206 0.15123 0.048205 -0.069555 -0.018153 -0.031545 0.0435 -0.029636 0.081403 0.1356 0.0084745 -0.016324 0.048203 -0.018229 0.033739 -0.087659 0.02904 -0.08602 0.083173 -0.136 0.045813 0.050907 0.011846 0.0056805 0.023417 -0.25022 -0.12785 -0.023746 -0.045388 -0.091767 0.034461 0.10341 0.0291 0.086854 0.037845 -0.01801 0.02751 -0.047645 0.058803 -0.076207 -0.049685 -0.018102 0.078871 -0.0026964 0.077189 0.049905 0.018742 0.13618 0.12911 -0.083548 -0.043724 -0.079148 0.031468 -0.057221 -0.068098 -0.04403 0.043657 0.079285 0.04656 -0.061553 0.082682 -0.14471 -0.086349 0.020566 -0.030152 -0.032184 0.03393 0.031894 -0.059748 0.022724 0.16583 -0.041927 -0.13254 0.048765 -0.0024855 -0.011967 0.09898 -0.010694 -0.075698 0.18738 -0.084943 -0.044644 0.010789 -0.071607 -0.013153 -0.1548 -0.070375 0.0063746 -0.0064701 -0.026368 0.037484 0.062808 -0.023049 -0.063299 0.0074005 -0.058572 -0.0085806 -0.1189 -0.066095 -0.16666 -0.15696 -0.080936 0.073535 -0.1507 0.061779 -0.013075 -0.019975 -0.090849 0.14579 0.023693 0.075644 -0.0013742 0.06151 0.024111 -0.0076501 -0.13559 0.053328 0.041481 0.012543 -0.025014 -0.0055814 0.033965 -0.0065351 -0.025421 -0.068993 0.033837 0.049143 0.022651 -0.025221 -0.054564 0.069731 0.076816 0.11251 0.023113 0.042078 -0.014528 0.23593 -0.13101 0.13198 0.047452 0.012314 0.13977 -0.027159 -0.19749 0.0087852 -0.010946 0.0421 0.11359 0.12514 0.063041 -0.015854 0.20953 -0.044742 -0.050685 -0.003334 0.053442 0.019719 -0.058896 -0.013816 -0.033868 -0.056758 0.02866 0.086151 0.10721 0.0064734 0.02411 0.17141 0.063304 -0.054218 0.045589 0.057621 -0.0099377 0.032535 0.026202 0.13333 0.027377 0.047293 -0.023935 -0.037147 -0.045128 0.089168 -0.0076023 -0.10986 -0.089583 0.2583 -0.017906 -0.013179 0.064886 0.041595 0.054707 -0.18172 0.022603 -0.099052 0.11124 -0.017877 -0.034005 0.092716 0.025112 0.077752 -0.10425 0.00876 -0.14861 0.11399 0.023866 0.099646 0.16042 -0.07166 -0.079038 -0.022274 0.033169 0.11742 -0.030491 -0.04228 -0.093809 0.071995 -0.047747 0.0040149 0.048167 0.028368 -0.11327 0.10562 -0.17893 -0.027966 0.095068 0.23239 -0.036432 -0.05908 0.0049848 0.13439 -0.034037 -0.00043241 -0.070761 -0.11388 -0.087037 0.072984 0.031962 -0.1195 0.054074 0.065503 -0.07593 
brasem -0.020601 -0.062111 -0.046536 0.14928 0.0061183 -0.060583 0.012158 -0.08651 -0.058919 -0.015077 0.031581 -0.0067505 0.11896 -0.079803 -0.0069271 -0.16042 -0.012588 0.075586 -0.022707 0.040498 -0.041858 0.020232 0.040999 -0.0091321 0.045422 0.028475 -0.05847 0.082635 0.0019504 -0.051215 0.024523 -0.038384 0.0061393 0.002038 0.06942 -0.10129 0.0081059 0.086377 -0.10619 -0.00039027 0.010042 0.028749 0.0074144 -0.0040962 -0.086722 0.082397 0.042018 -0.01645 0.0094064 -0.034659 0.033343 -0.0071371 0.0052091 -0.13986 -0.015821 0.028738 0.030059 -0.042872 0.047504 -0.057226 0.0091638 -0.021323 0.019578 0.010506 0.0034688 -0.018534 -0.014074 0.099417 -0.0080071 0.053618 0.035205 -0.026274 0.0084133 -0.0013558 0.031519 -0.052022 0.0050342 0.031517 -0.020216 -0.046611 0.013026 0.023893 -0.073408 0.055037 -0.055656 -0.048128 -0.054318 -0.08797 0.048273 0.065274 -0.028332 0.015264 -0.048731 0.0016065 0.082852 0.017517 0.073356 -0.0023966 0.037343 0.019499 0.057789 -0.010495 -0.017383 0.015349 0.012941 -0.050383 0.031361 0.098573 0.0027064 -0.015856 0.016672 -0.00081023 0.038133 -0.0051298 -0.024276 0.072493 -0.0050954 0.043737 0.023874 0.016305 0.00036605 -0.019523 -0.09171 0.024531 -0.013488 0.032189 -0.0074253 -0.045197 -0.051072 -0.039259 0.0073564 0.014028 0.050268 -0.0032967 0.054748 0.0089155 0.016341 -0.018937 -0.014088 0.02004 0.018045 -0.040167 -0.009318 -0.022053 -0.033496 -0.092969 -0.091091 0.021642 -0.0054909 -0.020407 0.0079101 0.031399 -0.069131 -0.066389 0.017044 -0.017695 0.0076278 -0.089434 -0.087417 -0.053902 -0.082814 -0.098373 -0.051037 -0.051636 0.041219 0.005173 0.012365 -0.042198 -0.051714 0.03828 0.046691 -0.0044936 0.054098 -0.025599 0.054783 -0.04405 -0.0035711 0.051006 -0.010068 -0.082006 0.0015335 0.10233 -0.020536 -0.11519 -0.0072511 -0.0047722 -0.012722 0.032404 0.0076148 -0.023318 0.069532 0.0069602 -0.049267 0.030407 0.055093 0.0047296 0.079067 0.0042773 -0.0025434 0.088722 -0.054057 0.065335 -0.049404 -0.036784 -0.056889 0.013244 0.087906 0.03031 -0.0086584 0.033705 -0.053877 -0.033633 0.013592 -0.051318 0.032636 0.013315 -0.014611 -0.048585 -0.050675 0.014827 -0.012547 0.0056354 0.075111 0.017195 0.036745 -0.015416 0.025198 0.0013795 -0.038533 0.030605 0.048151 0.033266 0.01426 0.014 0.11434 -0.0082116 0.0019893 -0.030768 0.032656 -0.0226 0.040189 -0.056229 -0.081949 -0.15613 0.0022149 0.0071983 -0.0032115 0.025278 -0.044581 0.014255 0.0055453 0.015508 -0.0011316 0.047249 -0.070898 0.0202 0.060723 0.015245 0.017023 -0.051332 -0.047398 -0.085491 -0.11015 0.017274 0.048198 -0.0043579 -0.092906 0.030235 0.062514 0.070164 0.02556 0.016158 -0.073038 -0.0056819 0.03587 -0.014403 -0.041325 0.038227 -0.029005 -0.04081 -0.00083794 -0.074776 -0.14507 0.04645 0.08383 -0.00062067 0.012725 -0.15423 0.065891 0.01147 0.022484 -0.024052 -0.13185 -0.019544 0.04756 0.0027201 -0.029504 0.015662 0.05921 0.068815 
brème -0.002987 0.024894 0.0074711 0.19593 0.0088563 -0.06099 -0.052776 0.045327 -0.049371 0.026052 0.052664 -0.01431 0.026528 -0.00022937 -0.025511 0.061185 0.046215 0.051304 -0.032563 0.070183 -0.013111 -0.0021367 0.01403 -0.049668 -0.021469 0.073006 0.030845 0.085823 -0.0066266 -0.061515 0.0030111 0.018304 0.096789 0.068379 -0.033754 -0.052747 -0.080128 0.051129 -0.024746 0.073204 -0.038042 -0.017913 0.089182 -0.013497 0.0068254 -0.0096028 4.046e-05 0.0078776 -0.0302 -0.024958 0.03356 -0.056232 -0.010247 0.041273 0.089435 -0.028937 0.036568 -0.00071723 -0.1026 0.037142 0.0064447 -0.021962 -0.02516 0.075323 -0.029544 0.02974 0.0092684 0.05669 -0.10075 0.053078 0.056579 -0.075992 0.018125 0.097994 -0.035373 0.032578 -0.06226 -0.0258 -0.072132 0.0031981 -0.023565 -0.0088357 0.042524 0.016524 -0.020638 0.039728 -0.048374 -0.063844 -0.024283 0.071654 -0.029333 0.045801 0.0015418 0.0072729 0.038685 0.02892 -0.0024696 -0.00074747 0.10981 0.051061 -0.011601 -0.091829 0.028898 -0.014889 -0.028398 0.048117 0.03346 0.061243 -0.014061 -0.0073293 -0.017589 0.02111 0.027236 0.054879 0.015119 0.043001 -0.0031129 -0.0079896 0.050946 -0.013022 0.013624 -0.023261 0.0066443 -0.081925 0.03715 0.03063 0.01263 -0.0084218 0.087742 -0.0077875 0.11046 0.040314 -0.036865 0.077928 0.081989 0.024777 0.063226 -0.063183 -0.057304 -0.063732 0.10512 0.0034866 0.0018382 -0.088619 -0.060753 0.014857 -0.010364 -0.003668 0.037822 0.13147 -0.10746 0.02647 -0.072425 0.083584 0.082734 -0.031551 -0.0087581 -0.032193 -0.11519 -0.0098899 -0.016659 -0.00010321 -0.059191 0.028607 -0.0075952 0.00705 -0.080743 -0.043185 -0.1574 -0.069916 -0.027661 -0.013169 0.037769 -0.020334 -0.041973 0.041961 0.023863 -0.016488 -0.016353 -0.020321 0.03228 -0.056689 0.031944 -0.0049681 -0.10271 -0.061163 -0.064002 -0.035368 -0.05085 -0.0015901 0.033645 -0.029305 -0.11192 0.021838 -0.0095775 0.010002 0.038192 0.03496 0.012983 -0.012772 -0.020028 0.026299 -0.016804 -0.034911 -0.0012808 0.025952 0.17886 -0.009186 -0.044005 -0.0054095 -0.017592 -0.065509 -0.0026405 0.028771 -0.038042 -0.027458 0.0029006 0.032948 -0.032326 -0.033846 -0.06428 0.030407 -0.020001 0.054237 0.034784 0.031064 0.028759 0.0013279 -0.0090541 -0.031074 -0.041999 -0.034647 0.049408 -0.10695 -0.0016638 -0.038253 -0.041315 0.044962 0.0098146 0.040333 -0.063712 0.040956 0.0038002 0.00083295 0.0021745 0.00044388 -0.064832 0.03947 0.034096 0.048256 0.028687 -0.18139 -0.040649 0.0051768 -0.030446 -0.038926 0.071275 0.0086696 -0.022193 -0.0091038 -2.644e-05 -0.10259 -0.11002 -0.024551 0.01523 -0.10236 -0.10833 0.0026306 0.06746 0.10006 -0.036632 0.049709 -0.0089296 -0.012673 0.027242 -0.038139 0.012537 -0.021187 -0.083021 0.10514 0.020386 -0.094981 0.028321 0.0021648 -0.066556 0.0076783 -0.05255 0.076382 0.046979 0.10989 -0.013688 0.078647 -0.099211 -0.0066257 0.0043581 -0.0018913 0.011697 -0.0088488 0.026546 -0.038375 
Brachse -0.013128 0.007317 -0.064651 0.079291 0.0018243 -0.061558 -0.040175 -0.02084 -0.0062519 -0.021445 -0.013084 -0.028369 -0.035959 -0.030117 -0.00040953 -0.06444 0.03703 -0.0087815 -0.0071995 -0.020637 0.0179 -0.026642 -0.023868 0.01908 0.048951 -0.0098773 -0.0091877 -0.023687 0.019202 -0.08599 -0.018879 0.053644 -0.0181 -0.1194 -0.019348 0.017144 0.02923 0.1347 0.066278 0.018437 -0.0017901 -0.031275 -0.015609 0.023709 0.092301 0.074408 -0.025415 -0.00031445 0.014087 0.047891 -0.00056966 -0.033502 0.013997 -4.1471e-05 0.047712 0.023504 -0.019173 -0.020116 -0.0029268 -0.01341 -0.0070038 0.0055602 0.04591 0.079108 -0.064031 0.023437 0.01003 -0.042247 0.0073125 -0.0025316 0.054139 0.040322 0.040113 0.0020376 0.013999 -0.011803 -0.0091981 0.060933 -0.050448 0.10419 -0.018503 0.0030728 0.030302 0.031875 0.022517 0.024719 -0.011383 -0.077504 0.021791 0.037777 0.016981 -0.010273 -0.073259 0.035125 0.055979 0.014122 -0.037292 0.0268 -0.022662 0.0063144 -0.0041978 -0.016368 -0.014037 0.09222 0.00891 -0.0223 0.0069373 -0.0019558 -0.016304 -0.027093 -0.013342 0.043616 0.0081028 -0.063321 -0.016604 0.034294 -0.018107 0.020687 0.0085283 0.051499 0.018211 0.001736 0.011325 0.024648 0.063708 0.051352 0.071321 0.040782 0.040146 -0.019699 0.050768 0.011988 -0.0055017 0.0067438 0.0076093 0.0097785 0.029502 -0.054557 -0.0089985 0.041992 -0.0089531 0.041383 0.023021 0.041161 -0.028188 -0.0048519 -0.061197 0.010022 -0.018343 0.034759 -0.10676 0.033531 0.051278 -0.040686 0.011384 -0.051259 0.049617 0.0025151 -0.02572 0.010792 0.0099354 -0.036854 -0.068436 -0.0078852 -0.011591 0.029468 -0.016234 0.0075062 0.013175 0.035626 -0.037223 -0.019962 0.043631 -0.019473 0.025744 0.02151 -0.015996 -0.01216 -0.019528 -0.018771 -0.029575 0.02379 -0.069329 0.019908 0.014625 -0.047437 0.089855 0.064439 0.026935 0.019827 0.056424 -0.0093847 -0.0089808 0.02259 -0.039115 0.012823 -0.010403 0.032335 0.020741 0.0078556 -0.053481 0.0034163 0.0047658 -0.030134 -0.010167 -0.075389 0.041084 -0.002702 0.0034388 0.06085 0.044986 -0.017801 0.01714 0.03661 0.034195 0.0085967 -0.027665 -0.040668 -0.03763 -0.026281 0.0088193 -0.026353 -0.014391 -0.060373 -0.014568 -0.0048989 0.012599 -0.036145 0.00026042 0.030188 -0.0022028 -0.0079268 -0.013934 0.0045165 0.014998 0.0045147 -0.035192 -0.0024754 0.011881 -0.0042509 0.061525 -0.068811 -0.028483 -0.027796 0.0036579 -0.0021504 -0.017204 0.024149 -0.01951 0.049675 0.071357 -0.03241 -0.037789 0.00066284 -0.017186 0.041249 0.013986 -0.013217 0.010295 -0.042328 0.022633 -0.14812 -0.10908 -0.054773 -0.080306 0.0072976 -0.057524 -0.033313 0.048978 0.057471 -0.037132 -0.0039997 -0.092298 -0.074506 0.064556 -0.049079 -0.048242 -0.034177 -0.037714 -0.0060597 -0.032537 -0.0083973 -0.04294 0.021253 -0.040673 -0.031192 0.022923 -0.032444 -0.022827 -0.016817 0.036347 0.017899 -0.023557 -0.038591 -0.00047889 -0.014707 0.018453 0.033352 0.033805 0.023996 
Brasse 0.082058 0.016139 -0.11462 -0.016068 -0.011975 0.1623 -0.070628 0.011261 0.013036 -0.099347 -0.068718 -0.012202 0.010655 -0.051641 0.044087 -0.01277 0.086159 -0.025196 -0.004531 0.010002 0.047071 -0.00054941 0.1247 0.023935 0.027296 -0.10381 -0.037994 -0.052652 -0.027711 0.12428 -0.10385 0.048322 0.021423 0.054822 0.071091 -0.031924 0.17621 0.0097179 -0.17093 0.043771 0.052199 -0.007146 -0.17246 0.0046178 0.058507 0.067992 0.041333 0.014977 0.032642 0.027099 -0.088045 -0.020053 0.011244 -0.00037515 0.13924 -0.021446 -0.012318 -0.084735 0.087657 0.072432 0.025721 0.1413 -0.037554 0.12921 -0.015578 -0.026488 0.033467 0.016296 -0.022792 0.02544 -0.023718 0.15285 -0.084884 -0.049432 0.066287 -0.096747 0.041655 0.063916 -0.057718 0.012035 -0.13019 -0.060894 0.096822 -0.074475 -0.028806 -0.0098471 0.067729 0.030917 0.11679 0.067522 0.12352 0.15028 0.01171 0.020626 -0.065996 0.020203 0.032867 0.0666 0.022849 0.030004 0.0035377 -0.13445 0.17707 0.089498 -0.041168 0.074091 -0.1172 0.14596 -0.056264 -0.04177 -0.095122 -0.017159 0.036553 0.11195 0.030284 -0.08773 -0.045775 -0.10147 0.023997 -0.17251 0.10614 -0.18173 0.010489 0.024028 0.075352 -0.091966 0.015351 0.092684 -0.059719 -0.015373 -0.044555 0.050215 -0.032131 -0.047855 -0.012158 0.1126 -0.035722 -0.060599 -0.14734 -0.036892 0.1282 0.044464 -0.13181 0.017121 0.0041988 -0.049353 -0.15733 0.057992 -0.17559 0.15942 -0.1613 -0.10933 -0.065837 0.01056 -0.07308 -0.14297 -0.084618 0.042417 0.060126 -0.080154 0.045034 -0.044945 0.031541 -0.077327 0.0145 -0.031873 -0.16855 -0.046846 0.19402 0.055541 0.01932 -0.11772 0.1292 -0.031095 0.012028 -0.065913 -0.0025027 0.0009488 0.075912 -0.018629 0.024712 0.097693 -0.069782 -0.031195 0.08306 -0.048137 0.00018359 -0.097715 0.032353 -0.0078611 0.13248 0.098016 0.03556 -0.055162 0.078243 -0.047796 -0.017671 -0.014906 -0.0023575 0.070893 -0.063898 0.033347 0.12325 0.049927 -0.01283 0.12762 0.062994 -0.033837 0.014842 0.055799 -0.070085 -0.048603 -0.0043831 0.01913 -0.066746 0.029619 0.014281 -0.046395 0.032658 0.0024843 -0.079169 0.047724 0.050572 -0.015559 0.079605 -0.076606 -0.002662 0.057188 0.089473 0.016363 -0.061358 -0.1028 0.022045 0.10671 -0.029049 -0.0058363 -0.06683 0.10244 0.067805 -0.02404 0.14487 0.0042118 -0.037663 8.494e-05 0.11784 0.056151 -0.020772 0.061297 -0.1056 0.057754 -0.081846 -0.032953 -0.020261 0.13766 0.032223 0.10422 0.075978 -0.13414 0.0063165 0.12253 0.1262 -0.075285 -0.04582 0.036132 -0.005058 -0.030682 0.071633 -0.011092 -0.0047566 -0.043864 -0.021246 0.11098 0.023873 0.006671 -0.090201 0.031252 0.043142 -0.035726 0.014682 -0.0042446 0.046935 0.034545 -0.062698 -0.046942 0.063494 0.045361 0.04664 0.14646 0.12516 0.075692 0.092796 -0.10522 0.11798 -0.00075657 -0.020186 0.095866 -0.0028028 0.087992 -0.10589 0.099075 
lestia -0.022576 -0.030645 -0.029624 0.12451 -0.054794 -0.076538 0.019038 0.00033325 -0.042421 -0.047663 0.044175 -0.021243 -0.0029001 -0.032314 -0.050265 -0.20164 0.033934 0.00023889 -0.016038 -0.097813 0.022369 0.025109 0.027947 -0.035752 0.11945 0.024654 -0.00028089 0.064841 -0.033442 -0.050816 -0.030628 0.02489 -0.035911 -0.065009 0.071579 0.021251 0.074768 0.10826 -0.021303 0.060753 0.017649 0.0011111 -0.058153 0.0035657 0.024314 0.12935 -0.035771 -0.047344 -0.0046638 0.058376 -0.017228 -0.004488 -0.012696 -0.015444 -0.028489 0.049833 0.060926 -0.10077 -0.0025164 0.0414 0.0050836 0.018461 0.013004 0.028418 -0.014393 0.048769 0.036285 -0.058174 -0.029612 -0.017099 0.048416 0.064078 0.04213 -0.02179 0.010094 0.024984 0.067053 -0.032286 0.011779 0.040164 0.051355 0.040954 -0.0087685 -0.0051121 -0.0019418 0.011783 -0.08074 -0.026146 0.037007 -0.041407 0.0087884 -0.046884 -0.036936 0.034701 0.052752 -0.085216 -0.078192 -0.050605 -0.05575 0.029303 -0.0045788 -0.07244 -0.02546 -0.079552 0.025014 -0.049198 0.0087314 0.040444 -0.021802 -0.0086885 -0.052918 0.005225 -0.026828 -0.008125 -0.034908 -0.0084971 -0.063938 0.026112 -0.038796 -0.0019826 -0.025817 0.0051072 0.05985 0.030046 0.032206 0.052781 0.0085068 0.061516 0.015954 0.045801 0.03247 -0.019953 -0.01951 0.048991 0.051548 0.039789 -0.0024686 -0.016688 -0.028739 0.020661 -0.03945 -0.070382 0.012133 0.021311 -0.042876 0.0026262 -0.064599 -0.01384 -0.00011857 0.02954 -0.047363 0.016465 -0.020213 -0.055499 -0.019307 -0.013132 0.016163 -0.035487 -0.050899 0.0116 -0.0045732 0.015116 0.034648 0.0049899 0.0052227 -0.018659 0.015074 -0.022216 0.063241 0.01206 0.044257 7.9343e-05 0.014804 -0.0017356 -0.010039 -0.032739 -0.065801 0.0040207 -0.0013663 -0.062386 0.0099482 -0.045816 -0.038698 -0.049396 -0.054404 -0.040495 0.042707 0.051252 0.042448 -0.039976 0.02949 -0.028011 -0.0094474 0.017569 0.030735 0.040564 0.062585 0.012849 0.066911 0.12732 0.016622 -0.062111 0.036026 -0.019709 -0.058141 -0.11683 0.082007 -0.033167 -0.0069045 0.010173 -0.068583 -0.035469 0.10912 0.032512 0.040118 0.0049387 0.0060373 -0.0068735 -0.037509 0.078368 0.096181 -0.012163 -0.011362 0.043417 -0.025536 -0.083137 0.0687 -0.0041313 0.017398 0.090323 -0.037231 -0.0092961 -0.061355 -0.017007 0.019589 -0.065406 0.016031 0.042339 0.0030627 0.023906 0.045168 -0.11447 0.061865 -0.093172 0.020887 0.042 0.027654 0.0030278 0.025144 -3.9469e-06 0.018855 0.080782 -0.049704 -0.0057758 0.016641 0.053743 0.022722 0.0012032 -0.074687 -0.023186 0.036329 -0.056308 -0.12396 0.013938 -0.057924 -0.030299 -0.036552 0.092133 0.0052231 -0.0046407 -0.0068813 -0.0083876 -0.17987 -0.05915 -0.052012 0.041133 -0.22771 -0.095809 -0.032125 0.095667 0.033971 -0.047931 -0.043254 0.022581 -0.025856 0.029818 0.086212 -0.091859 0.037553 -0.055321 -0.011668 0.00020601 -0.069319 -0.01007 0.018745 -0.011173 0.0036881 -0.030272 0.074216 -0.0059972 
brama -0.037762 -0.16115 0.048223 -0.061293 0.020396 -0.047977 -0.093937 -0.067169 0.021218 0.014362 -0.081431 -0.0034714 0.098255 -0.12448 0.032136 -0.058477 -0.018738 -0.086273 -0.091202 0.074419 -0.011258 -0.040567 0.10691 0.061301 0.039254 0.034373 -0.076275 -0.018215 0.025878 0.31266 -0.18165 0.035368 -0.054417 0.053325 -0.15459 0.074731 0.059067 0.15754 -0.061799 -0.063062 0.075929 0.14498 -0.097124 -0.054795 -0.026936 -0.024805 -0.013872 -0.043484 -0.021657 -0.009265 -0.17407 -0.13083 -0.023054 0.0085764 0.053868 -0.096132 0.11835 -0.018636 0.10059 0.000924 0.030137 0.066738 0.20662 0.054985 -0.21465 0.040539 0.033848 -0.11041 -0.13492 -0.17154 0.17003 0.082189 -0.12055 0.069917 -0.079238 -0.0050346 -0.091455 0.056515 -0.072164 -0.0056927 0.018667 -0.057152 -0.0080768 -0.03859 0.0025104 -0.29976 -0.12841 0.039625 0.058351 0.037668 0.0088233 -0.033149 -0.10591 -0.036121 0.022778 -0.014056 0.04754 -0.070169 0.027637 -0.10496 -0.024868 -0.019011 -0.14343 0.063772 0.143 0.19772 -0.21465 0.0027107 0.022254 -0.027725 0.044215 -0.015734 0.051505 6.6084e-05 0.072732 -0.052181 0.032094 0.1737 -0.12068 -0.0001324 0.025383 0.041462 0.0099102 -0.079402 -0.054162 -0.071894 0.078493 -0.049114 -0.21862 -0.011277 0.07067 -0.043311 -0.010708 -0.040421 -0.077374 -0.082836 -0.096294 0.12868 0.049728 -0.00054734 0.20976 -0.027572 0.010365 0.066738 -0.082888 -0.087823 -0.25201 0.1466 0.076699 -0.014912 -0.056697 -0.02083 -0.0517 -0.04228 -0.067818 -0.049662 -0.031717 0.03807 0.061152 -0.088521 0.028183 0.084171 0.10496 -0.067056 -0.11987 0.049298 0.028946 0.04414 -0.056911 0.035693 -0.051811 0.055306 -0.087614 0.070576 -0.061865 -0.099658 0.028073 0.0089146 0.029319 -0.03219 -0.058361 0.007177 0.033077 -0.14691 -0.049029 0.07872 0.088871 -0.025528 -0.096045 0.032112 0.019752 0.080975 0.058072 0.046196 -0.15562 -0.12304 -0.063003 -0.014597 0.13829 0.023565 -0.065976 -0.051271 0.013308 -0.020079 -0.059512 -0.044754 0.032379 -0.043384 0.026654 -0.11412 -0.16506 0.017662 0.03091 0.099871 -0.08052 -0.10592 -0.082481 -0.0086752 0.11689 0.069676 -0.014714 -0.028996 0.046685 0.12588 -0.16392 -0.10751 -0.028809 0.023571 0.081778 0.12931 -0.018135 0.018633 -0.0016727 0.080348 0.035972 0.028321 -0.052555 -0.0094213 -0.046678 -0.11099 0.13779 -0.042511 -0.0093102 -0.075864 0.18557 -0.056547 -0.041994 0.037366 -0.11992 0.071789 -0.1616 0.043031 -0.0956 0.058659 -0.013477 -0.097869 0.13897 0.069618 -0.052263 -0.096091 0.022746 -0.03085 -0.088258 -0.010331 -0.073612 -0.11753 -0.071512 -0.046672 -0.041058 0.14503 0.10888 0.022175 0.035241 -0.034107 -0.11699 0.12539 -0.15966 0.051985 0.057174 -0.029257 0.028757 -0.045802 0.036607 0.11469 0.022745 0.04519 -0.083466 0.026829 0.15796 -0.05241 0.015952 -0.2133 -0.026167 0.091409 0.027046 -0.038332 -0.011966 0.13081 -0.081486 -0.032511 
abramide -0.026883 0.015677 0.00399 0.076759 0.016799 -0.031122 0.014226 -0.024899 -0.021222 -0.018834 -0.040446 0.011539 0.013255 -0.035542 0.021556 -0.05087 0.048817 0.0012793 0.0074432 0.028105 -0.0058385 -0.076183 0.044047 -0.013713 0.021718 -0.0027655 -0.040398 -0.0064577 -0.04045 -0.023402 -0.012065 0.013946 0.044034 0.041831 0.033977 0.026254 0.055205 0.008276 -0.017543 0.057603 -0.0092428 -0.0096237 -0.041351 0.014202 0.043939 0.019925 -0.040632 -0.026969 -0.0072126 -0.010455 0.013698 -0.050116 0.01641 -0.025377 -0.016473 -0.024189 0.036399 0.0061565 -0.004169 0.010531 -0.034299 -0.01639 -0.0046865 0.052834 0.02274 -0.0030306 -0.01287 -0.035745 -0.0039497 -0.034424 0.024473 0.035751 0.0075074 0.045321 -0.081746 0.019254 0.040422 0.0064239 -0.045685 -0.015882 -0.040823 0.024893 -0.037581 0.00071227 -0.025711 -0.0094487 -0.023344 0.0036133 0.062298 -0.024718 0.045341 -0.013308 -0.017396 -0.071424 0.13326 -0.032084 0.11133 0.01426 -0.016414 -0.01259 0.0073161 -0.042853 -0.096426 0.010369 0.0093421 0.00055223 0.039622 -0.026866 -0.056702 -0.069756 -0.0038867 0.05593 -0.0054493 0.079576 0.031831 -0.016082 0.0041026 0.034599 -0.02433 -0.034621 0.028986 0.032814 -0.0023626 -0.035902 0.026559 0.015191 0.05494 0.030251 0.01972 -0.028644 -0.0067506 0.020411 0.006905 -0.027271 0.087259 -0.015994 0.014986 0.044558 0.0060102 -0.056394 0.17257 0.012056 0.041587 0.0048345 -0.066981 -0.021367 -0.060267 -0.019752 -0.013905 0.049614 0.017764 0.02168 -3.0508e-05 -0.060782 0.014622 0.037657 0.023614 -0.025227 0.025713 -0.040926 -0.061399 0.016036 0.00020551 0.021305 0.0066844 0.0073809 0.021362 -0.018214 -0.038408 0.014401 0.0093562 0.01908 0.0036078 -0.021363 -0.0039849 0.015756 0.012363 0.048081 -0.007209 -0.020972 0.00057635 -0.01352 0.029243 -0.08118 0.018699 -0.0222 0.0093366 -0.0048493 -0.03389 -0.01768 -0.011859 3.9206e-05 0.002242 -0.014585 -0.021427 -0.0004601 0.022787 -0.0045687 0.021134 0.045957 -0.063454 0.047635 0.016001 -0.052539 0.0073291 -0.052149 0.087921 0.012937 -0.0022144 -0.0031877 -0.042598 0.010759 0.030461 0.047677 -0.010916 -0.034485 -0.0053489 0.0058272 0.091772 -0.017301 -0.011494 -0.025943 0.010686 0.021577 -0.03746 0.011471 0.039628 0.015265 0.0011333 0.05378 0.0060038 -0.019798 0.013234 -0.050504 0.020879 -0.014383 -0.011581 -0.0060947 -0.03419 0.057884 0.013829 -0.052726 -0.0019657 -0.080897 0.011215 0.055207 -0.010559 -0.024788 -0.0054365 0.012864 0.024224 -0.023186 -0.027779 0.011356 -0.022045 0.0056325 0.06028 0.081761 0.020593 -0.028978 0.016876 -0.029644 -0.077753 -0.027043 -0.051026 -0.016829 0.051745 -0.02965 0.078726 0.10158 -0.010417 0.044467 -0.053568 0.048789 0.042343 0.0519 -0.11224 -0.018953 -0.0004788 -0.044832 -0.023506 -0.055103 -0.04013 0.0057152 -0.031416 0.030727 -0.03604 0.013514 -0.0045135 -0.017418 0.054024 0.068036 -0.04784 0.026321 0.028791 -0.032409 0.013158 0.029024 0.014727 0.0050292 
brasme -0.0239 0.0083934 -0.012589 0.036271 -0.022199 -0.036609 0.05021 -0.044095 -0.026289 0.037302 -0.07545 -0.026229 0.056898 -0.069502 0.0045882 -0.072625 0.068049 0.014751 -0.03497 0.021209 -0.055421 -0.0035966 0.023196 0.027285 0.11331 -0.009519 0.0040744 -0.0094639 -0.0060357 0.0015144 0.033097 -0.031824 0.036306 -0.0028967 0.0263 0.006398 -0.048871 0.12784 -0.0042988 0.0082978 0.050167 0.03941 0.028883 -0.036647 -0.10069 0.056068 0.014903 0.021715 -0.033562 0.069914 0.0043682 0.0036614 0.0099909 -0.032809 0.086972 0.0047985 0.034368 -0.089292 -0.038327 0.020174 -0.024728 -0.058729 0.011456 0.056118 -0.035515 -0.039942 0.013224 0.025284 -0.063019 -0.041803 0.028559 0.035736 0.030899 -0.0067966 0.027039 -0.026814 -0.019685 -0.0040875 0.013641 0.0028906 0.017736 -0.062296 -0.04693 0.047553 -0.026308 -0.0053533 -0.058252 -0.03971 0.037295 0.010185 -0.032096 0.023242 -0.070531 -0.0076362 0.13633 -0.042915 0.072945 0.0059645 0.018641 0.010673 0.0093496 -0.059408 0.011673 -0.0022724 0.050969 -0.041761 0.022304 0.030173 -0.039856 -0.0065713 0.04716 0.014793 -0.034659 -0.0065945 -0.042962 0.022427 -0.053378 0.015866 0.032347 0.040663 -0.0030077 0.098327 -0.047546 0.024214 0.012357 0.04518 0.0067273 0.04373 0.032337 -0.028309 -0.011076 0.032539 -0.013373 0.0063634 0.11303 0.0020407 0.01264 0.018915 -0.048982 0.032066 0.077479 0.046033 0.013578 0.0056998 -0.056097 -0.025178 -0.073075 -0.053822 0.051218 0.10829 0.046439 0.014901 -0.081475 0.030903 0.040456 0.027333 0.043199 -0.037088 -0.02052 -0.044722 -0.043016 -0.040182 -0.087415 0.037889 -0.027941 -0.036664 0.0063399 -0.06211 0.087498 0.0733 -0.028716 0.014161 0.0096836 0.039898 0.023619 -0.048655 0.0073579 -0.05531 0.043476 -0.039298 0.010278 0.043763 -0.041583 -0.12192 0.040296 -0.11601 -0.018942 -0.039086 0.043027 -0.010517 0.063422 -0.016092 -0.040789 -0.045861 0.007064 0.013943 0.06879 -0.049026 -0.0091306 0.068888 -0.066255 0.035196 -0.079037 -0.035203 -0.033093 -0.027605 0.10255 0.00040258 0.034215 -0.058815 -0.054969 -0.0263 0.0086977 -0.047629 -0.01213 -0.013958 -0.077449 -0.00052442 0.023651 0.036792 -0.029892 -0.032782 -0.009498 -0.0070873 -0.042698 0.0087673 0.0087917 0.06615 -0.062908 -0.003906 0.053275 0.06731 0.021934 -0.0083048 0.0087383 0.051281 -0.005221 0.0059996 0.046044 -0.057817 -0.015919 -0.064871 -0.049588 -0.11964 0.024139 0.019034 -0.012021 -0.050016 0.035379 0.054296 0.063785 -0.030278 -0.049869 0.0301 -0.044292 -0.0061521 0.02307 0.030237 -0.0021074 0.0010766 -0.00081107 -0.012541 -0.19763 -0.040471 -0.028132 0.0162 -0.022431 0.026679 -0.0050413 0.079466 0.03384 0.022757 -0.050544 0.010512 0.0063134 0.044752 -0.074468 -0.03113 0.071413 -0.0364 -0.005342 -0.046531 -0.02289 0.032292 -0.0045371 -0.053076 0.02573 -0.088224 0.0020251 5.1569e-05 0.048459 -0.057348 -0.097525 -0.0077463 0.039351 -0.011665 0.037626 0.075061 0.011637 -0.017299 
sargo -0.020747 -0.021838 -0.055904 0.028327 0.024208 0.0059551 0.029757 -0.014576 0.0066554 -0.060419 -0.088857 0.08053 0.056387 -0.0045058 0.14452 0.018601 -0.070593 -0.015892 0.096433 0.079361 0.032064 0.03723 0.11979 0.1015 0.036837 0.060625 -0.058127 0.083644 0.0034208 0.17288 -0.035043 0.010978 -0.092785 0.034351 0.053046 0.11919 -0.0044844 0.060119 -0.024352 0.11319 -0.041761 0.082232 -0.021995 -0.096585 -0.0025251 -0.013126 -0.01507 0.033154 -0.10216 0.032281 -0.11277 -0.033118 0.010371 -0.0382 0.026644 -0.045773 0.063916 0.079169 0.099913 0.11333 0.026717 0.047269 0.12104 -0.010101 -0.11144 0.0076802 0.0059164 0.03881 -0.020097 -0.19983 0.048007 0.078467 -0.0092314 -0.060976 -0.14177 0.11692 0.038668 -0.024969 -0.020339 -0.037463 -0.015968 0.0025351 0.01141 -0.12996 0.013165 -0.16898 -0.010619 -0.0014094 0.040102 0.019664 -0.058264 0.1111 -0.044938 -0.013307 0.016534 -0.0092815 -0.060648 0.10324 -0.05963 -0.065826 0.086172 0.062789 -0.027613 0.058362 -0.032514 0.19218 -0.044158 0.044173 0.072181 0.027926 -0.052422 0.031196 -0.0043883 0.05013 0.026841 0.10283 0.0071783 0.10731 -0.024117 0.06283 0.045567 0.026046 0.05749 -0.081323 -0.02696 -0.10502 0.00018493 0.0067741 -0.066473 -0.06454 0.15523 -0.0097245 -0.066743 -0.086238 0.014425 -0.081427 -0.023031 -0.032051 -0.062588 -0.069407 0.019637 0.014456 0.049617 0.0016267 0.0030048 -0.088875 -0.13693 0.067641 0.041673 0.0884 -0.015918 0.01241 0.0098013 -0.12546 -0.080976 -0.056778 -0.043115 -0.077478 0.046916 -0.14435 -0.073759 -0.010757 0.071077 -0.11501 0.027351 -0.0037145 0.017282 -0.043073 0.071144 -0.048833 0.019746 0.10761 -0.17488 -0.0001328 0.011527 -0.15428 3.3633e-05 0.077913 0.042009 -0.0571 -0.031376 0.068804 0.12415 0.02073 -0.001033 -0.043753 0.0635 0.019861 0.020485 0.037991 -0.10697 -0.082167 0.060608 0.10368 -0.16972 -0.07643 -0.034466 -0.027362 -0.0092341 0.067192 0.022607 0.018796 0.026843 0.063452 0.020266 -0.071431 0.056006 0.016563 -0.0051477 -0.030694 -0.099081 0.02592 0.054621 0.048792 -0.023616 0.026322 -0.04334 0.019476 -0.025669 0.026705 -0.0073207 0.063182 0.059582 0.023874 -0.15161 0.024736 -0.084255 0.12072 -0.0078075 0.13739 -0.012388 -0.005681 -9.4773e-05 -0.014018 0.053433 0.012316 -0.017162 -0.075634 -0.096144 -0.038392 0.061545 0.01131 0.073423 -0.070652 0.20607 -0.047533 0.010854 0.0017849 -0.029105 0.071148 0.010236 0.04218 -0.046669 0.13989 -0.073686 0.0361 0.040894 0.067117 -0.030378 0.002534 0.065684 -0.084987 0.12714 0.0059451 -0.017951 0.0055322 -0.080812 -0.052828 0.046427 0.16844 -0.070657 -0.039092 0.013913 0.033043 -0.021746 0.092442 -0.099221 0.032307 -0.054393 -0.031402 0.11253 -0.034431 0.0021667 0.14415 -0.05345 0.083108 -0.052149 0.093294 0.076068 -0.0093647 0.049806 0.0054561 -0.15806 -0.018734 0.033307 0.025835 -0.086788 0.058256 0.047077 -0.020299 
brema -0.081628 0.020883 -0.034831 -0.0051595 -0.00084234 0.018938 -0.032243 -0.0056805 -0.01121 -0.047242 -0.023464 0.0057939 -0.050561 -0.00062169 0.016518 -0.099533 0.011949 0.031409 0.013603 -0.029296 -0.021663 -0.052523 -0.055432 -0.010356 0.031414 0.010373 -0.08182 -0.026183 0.017307 -0.017232 -0.084439 -0.048516 0.011709 0.06702 0.0025972 0.015408 0.043778 0.07245 -0.064179 0.054225 0.016882 -0.029957 -0.060167 0.0065396 -0.061932 0.090356 -0.010756 -0.031643 -0.039258 -0.033143 -0.069547 0.0043493 0.044563 -0.00042835 -0.031242 0.0046504 0.043509 -0.0070322 -0.10721 -0.0052361 0.054968 0.089998 0.049904 0.086895 -0.024398 0.030773 -0.062108 -0.032373 -0.076344 0.010797 0.089344 0.056356 -0.066537 -0.025085 -0.062262 0.014473 0.0018637 0.046187 -0.047982 0.040919 -0.010959 0.10456 -0.005457 0.058199 -0.060679 -0.021264 -0.13353 -0.014685 0.067123 0.017468 -0.010936 -0.0082623 -0.062775 -0.015975 0.11047 0.037796 0.032793 -0.014378 -0.030689 0.067166 -0.012516 -0.032407 -0.044689 0.017618 0.050295 -0.037368 0.01873 0.02448 -0.024934 -0.0011113 -0.039015 0.020931 -0.00026887 0.043562 0.013928 -0.070642 -0.036728 0.022564 -0.010123 -0.0077971 0.011803 -0.080975 0.0066969 -0.016028 0.11546 0.0061638 -0.016185 0.0037022 0.020754 -0.034568 0.0035788 0.020611 -0.011902 -0.010059 0.046347 0.04324 -0.017422 -0.054784 -0.018032 -0.017841 0.042988 0.020558 0.020543 0.035386 -0.02164 0.0068461 -0.069639 0.088525 0.02271 0.064548 0.00061344 0.014947 0.064931 -0.037207 -0.018254 -0.037374 0.0047477 -0.090257 -0.00046305 -0.028501 -0.0085765 0.019163 0.048619 0.010117 -0.016286 -0.028955 0.03892 -0.011672 0.047538 0.00021992 -0.038496 0.05741 -0.0055654 0.06001 -0.016778 -0.0066922 0.015812 0.025779 0.022802 -0.019321 0.0026761 0.065448 -0.054975 -0.11881 0.0028548 -0.01149 -0.0018911 -0.013946 0.071579 0.075028 0.0035622 -0.010771 -0.024023 0.067734 -0.0019991 -0.019331 0.010473 0.022541 0.032799 0.0648 -0.028384 0.031185 0.043498 -0.068171 0.032312 -0.029849 0.032647 -0.046957 0.017852 -0.034772 0.011397 -0.058715 -0.0096136 0.02579 -0.043496 -0.015242 -0.04827 0.028941 0.006755 0.0776 0.07216 -0.048783 -0.016409 0.048132 -0.013344 -0.05392 0.019774 -0.0092516 0.0013703 0.0033326 0.03069 -0.061449 -0.014653 0.038356 0.05785 0.023908 -0.086354 0.025396 -0.057132 -0.052291 0.024404 -0.00099684 -0.045199 -0.12526 0.035129 0.028487 0.0088444 0.03214 -0.027849 0.028507 0.15102 -0.022371 0.027842 0.053195 -0.0063182 0.014366 -0.11056 -0.033075 0.010632 -0.062461 0.1134 -0.16631 -0.20618 -0.0052467 -0.10293 -0.014504 0.025746 -0.035381 0.029118 0.11423 -0.019125 0.021079 -0.10206 -0.062164 0.086974 0.074529 -0.088808 -0.048605 -0.029196 -0.011117 -0.017697 -0.052021 -0.12124 0.061186 0.011515 -0.00022631 0.052433 -0.16319 -0.11366 -0.055696 0.16369 -0.010078 -0.11306 0.042421 0.040787 -0.018713 -0.036425 0.022291 0.032233 -0.031945 
común -0.058245 -0.2298 -0.13877 -0.084251 0.09718 0.15416 -0.20937 -0.089558 -0.031212 0.10605 -0.083152 -0.016586 0.043361 0.066336 -0.0053317 -0.064613 -0.018478 -0.10125 0.10579 0.034384 0.0068837 0.10136 0.15523 0.034037 0.05887 -0.092651 -0.13167 0.093084 -0.030501 0.45161 -0.14248 0.051701 0.039052 0.0083089 0.13793 -0.016871 -0.023701 0.054294 0.053318 0.088559 0.16667 0.0066882 -0.011087 -0.048788 -0.063443 -0.020815 0.022938 -0.096126 0.10294 -0.17941 -0.058046 -0.10946 0.044624 -0.042709 -0.074308 -0.075013 0.07078 0.097067 -0.03743 0.016604 0.13478 0.029254 0.074831 0.13639 -0.07685 0.14069 -0.030977 0.034413 -0.069569 -0.040289 0.089231 -0.056796 -0.17674 0.0042146 -0.09106 0.19169 0.048708 -0.019715 -0.018057 0.098603 -0.031554 -0.18438 0.020476 -0.059914 -0.0055493 -0.11394 0.11721 0.041591 0.0030767 -0.10279 -0.003135 -0.0050272 -0.15085 -0.0099879 0.015289 -0.086695 -0.061827 -0.037019 -0.016395 -0.085516 0.1033 0.0050631 0.012514 0.14963 0.093374 0.20713 -0.11715 0.078763 0.16673 -0.0075503 0.12618 0.013717 0.020421 -0.017128 -0.069849 0.071846 -0.04758 0.18265 -0.10285 0.058046 -0.017395 0.034355 0.067415 -0.065136 -0.0066007 -0.1016 0.083246 -0.15149 -0.082092 0.045007 0.0070946 -0.045851 -0.19874 0.041157 -0.056443 -0.017365 -0.011432 0.14402 0.050042 -0.036952 0.12776 -0.069614 0.15143 0.25533 0.0031769 -0.17687 -0.19121 -0.091767 -0.022808 -0.0098195 -0.011199 0.04128 -0.011642 -0.011081 -0.029021 0.0065714 0.086337 -0.11675 -0.097762 -0.063167 -0.033544 -0.2092 0.035324 0.019267 -0.0040332 -0.04377 -0.029022 -0.12622 0.064856 -0.011903 0.043517 0.043731 0.20586 0.10387 0.18957 -0.023406 -0.11585 0.12462 -0.035364 -0.1051 -0.063459 0.012862 0.0065462 -0.084419 0.07749 0.20941 0.166 0.10609 -0.12175 0.032351 -0.0064276 -0.075898 0.10059 -0.033922 -0.10173 -0.065372 0.048416 -0.031641 0.12026 -0.097401 -0.013345 -0.027949 -0.033117 -0.05769 -0.0055088 -0.051447 -0.010862 -0.017416 -0.10568 -0.11942 -0.11019 0.035029 0.027342 0.12569 -0.11012 -0.12551 0.025109 0.11908 -0.0076719 0.071273 -0.032843 -0.018308 0.18797 0.022369 -0.24458 -0.065516 -0.11069 0.018468 0.0038004 -0.039332 -0.038177 -0.0058449 0.11053 -0.033244 0.011142 0.012859 0.097895 0.030401 0.10017 0.044928 -0.04306 0.00037733 0.048017 -0.016537 0.2617 -0.045067 -0.17445 0.067882 0.011885 0.17927 -0.063179 0.078328 -0.093781 -0.074858 0.13083 -0.05983 0.040668 -0.054989 0.020298 -0.032756 0.03555 0.081338 -0.073345 0.025124 -0.00078915 0.030485 -0.030555 -0.05797 -0.021279 0.071765 0.1241 0.036734 0.095219 -0.037337 0.041372 0.084696 -0.024097 -0.052096 0.079156 -0.071056 0.010169 0.064158 0.051338 0.043101 0.046707 0.075725 -0.22077 0.053598 0.061863 -0.02194 0.026588 0.0094651 0.13341 0.12391 0.11381 -0.12549 -0.084073 0.1325 0.07348 0.075208 
karpe 0.049074 -0.03141 -0.031953 0.093373 -0.019243 0.022792 -0.035355 0.026492 -0.015193 0.042295 -0.0099868 0.024598 0.10848 -0.066875 -0.027122 -0.071628 0.0093909 0.014786 0.018696 0.0032787 -0.012913 -0.022788 0.035714 0.052459 0.1045 -0.018148 -0.098883 0.052528 0.0078024 -0.080276 0.1086 -0.01749 0.00047075 0.024947 0.0046504 0.056621 0.0042438 0.058522 -8.6653e-05 0.0086922 0.013579 0.027746 0.010581 0.0099175 0.048859 0.052272 -0.089921 0.057808 0.0031937 0.0074504 -0.025943 -0.042641 -0.05384 -0.0015277 0.030596 -0.034049 0.047549 0.1063 -0.027135 0.049932 0.0303 0.034235 0.023702 0.097693 0.01119 0.0035779 0.039445 0.047363 -0.014601 -0.082414 0.085211 -0.033002 -0.011525 -0.031161 -0.063542 0.019682 -0.05896 0.029813 -0.036837 0.061866 0.051347 0.023144 -0.0027969 -0.026802 -0.017091 0.0079904 -0.11221 -0.058231 0.020995 -0.041224 0.014935 0.071788 -0.01063 0.062256 -0.02695 0.016403 0.057486 -0.027309 -0.051518 -0.020594 0.0053266 -0.019374 -0.045732 0.085546 0.06418 -0.034956 0.0010056 0.00010202 -0.0039937 0.0056192 -0.069563 -0.052412 -0.010119 -0.12795 0.02118 0.041392 -0.017042 0.067402 -0.095531 0.087691 0.0065378 -0.013177 0.0026614 0.017981 0.015624 0.01383 -0.085388 -0.012243 -0.012006 0.035267 0.064009 -0.03523 -0.024987 -0.054464 0.01503 -0.027474 0.023475 -0.051889 -0.04836 0.060318 0.044364 -0.016921 -0.040218 0.009898 -0.10306 -0.04601 -0.098525 0.031573 0.014904 -0.0089004 -0.055657 0.022498 -0.12088 -0.021136 -0.0014248 0.016924 0.058834 0.0057367 -0.058958 -0.035784 -0.029619 -0.047521 -0.082365 -0.048919 0.060403 0.026235 0.04017 0.034807 -0.046877 0.0087084 -0.076937 0.074085 -0.031315 0.036242 0.014569 0.022258 0.024593 0.051542 -0.045204 0.0080479 -0.0029584 0.076865 0.0089833 -0.19697 -0.021325 -0.063275 0.037693 -0.004297 0.11816 -0.039662 -0.0058583 -0.022891 -0.014818 0.00448 -0.065994 0.02019 -0.059929 0.054937 -0.0088223 0.060678 -0.044405 0.035793 -0.0094099 -0.018952 -0.041911 -0.0097012 0.093917 0.0015076 0.045208 0.067821 -0.0019803 -0.096852 0.10991 0.025817 -0.018034 0.0036757 -0.034996 -0.00012754 -0.023884 0.013389 -0.006655 -0.027767 -0.059944 0.12071 -0.051236 0.064703 0.023813 0.0048484 -0.0058131 0.065761 0.052692 -0.019039 -0.028966 0.0034539 0.042182 0.057714 -0.0025287 -0.022236 -0.037689 -0.022419 0.05652 -0.05996 -0.0084699 -0.057152 0.10944 -0.027191 -0.056173 0.012188 -0.045199 -0.0062497 0.029008 0.0095689 -0.097649 0.045975 -0.011017 -0.020197 0.019129 -0.057763 0.053257 -0.058915 -0.014758 -0.22525 -0.12388 -4.7822e-05 -0.037082 0.0057284 -0.0039892 -0.023215 0.074323 0.10655 0.026886 -0.016044 0.0078612 0.030009 0.006789 0.11129 -0.03753 0.033461 -0.096876 0.027541 0.068166 -0.076148 -0.068194 -0.07642 0.0070013 -0.014978 0.029136 -0.075054 0.050347 -0.098566 0.043826 0.023602 -0.078389 0.030036 0.015298 0.0099416 -0.052044 0.00085272 0.070087 0.0084975 
karper 0.017267 0.0043284 -0.020231 0.055897 -0.017004 0.012109 -0.0040754 -0.0048281 -0.021339 0.030289 -0.021578 0.01832 0.070048 -0.07086 -0.0039971 -0.052639 0.018157 0.017223 0.012167 0.028783 -0.013059 -0.023298 0.020127 0.01347 0.010713 0.0072078 -0.049619 0.048057 -0.0020122 -0.056162 0.065445 -0.012181 -0.02191 0.045972 0.018218 0.03589 -0.0698 0.035358 -0.0046603 -0.013062 0.016347 -0.0047719 0.0039121 0.030738 0.049815 0.04259 -0.027978 0.014797 0.0036576 0.020798 0.010133 -0.022628 0.0072785 0.0023714 0.008055 0.0057673 0.024217 0.01036 -0.01377 0.045751 0.012021 0.042754 0.04243 0.054011 0.0078947 0.028415 -0.0088133 0.038232 -0.037585 -0.045636 0.050839 -0.014839 0.023472 -0.0068285 -0.076683 0.026395 -0.027793 0.0017486 -0.051618 0.04198 0.047607 0.040242 0.0049659 -0.021004 -0.0029368 0.0052945 -0.13005 -0.037732 0.030161 0.039221 0.0047996 0.071232 -0.0098585 0.012514 -0.089917 0.0021942 0.039949 -0.015458 -0.031907 -0.0074292 0.0037014 -0.0022751 -0.027903 0.04487 0.015271 -0.031606 0.021931 -0.018787 0.026308 -0.009728 -0.028487 -0.031056 -0.024091 -0.063462 0.028922 0.044759 -0.020559 0.016006 -0.088786 0.067205 0.0088114 0.0063851 0.0015954 0.0068837 0.017294 0.013041 -0.038229 0.022533 -0.022712 0.030771 0.050306 0.0010102 -0.041575 -0.040791 0.0022053 0.013771 0.015768 -0.039684 -0.022241 0.036928 0.066096 -0.0054368 -0.031839 -0.010357 -0.18502 -0.033653 -0.087542 0.010915 0.026007 0.00076449 -0.046018 0.0061592 -0.088001 -0.039885 0.011198 -0.006196 0.027737 -0.026474 -0.04166 -0.025893 -0.041934 -0.037122 -0.022736 -0.054989 0.029512 0.028272 0.022174 0.016236 -0.041522 0.0057799 -0.05259 0.03524 -0.014517 0.017042 -0.0054194 0.033417 -0.0021376 -0.012273 -0.037682 -0.0068002 -0.0023927 0.043344 0.010733 -0.1348 -0.0027215 -0.033238 0.01679 0.010517 0.064654 -0.030121 0.033518 -0.030528 0.019637 -0.0022865 -0.057776 0.033246 -0.018004 0.052531 -0.036033 0.12798 -0.027955 0.003075 0.0075453 -0.012858 -0.02894 -0.026725 0.078428 0.029764 -0.0022286 0.028131 -0.057339 -0.088938 0.041379 0.022178 -0.0088494 -0.0031312 -0.044554 -0.026528 0.0049576 0.025963 0.010885 -0.016188 -0.062509 0.065217 -0.044994 0.032855 0.0042715 0.032613 0.053355 0.08042 0.071831 -0.013859 0.0099313 0.017938 0.01655 0.039088 0.014982 -0.043379 0.0039737 -0.0042035 0.031421 -0.0669 0.01595 -0.049934 0.052072 -0.0079168 -0.056289 -0.0056319 -0.044783 0.0084536 0.011107 -0.076609 -0.063433 0.031605 -0.015755 -0.016598 0.0092022 -0.03068 0.040186 -0.050579 -0.03322 -0.13114 -0.12359 -0.0033499 0.0096172 0.013077 -0.034563 -0.035223 0.042226 0.069125 0.0014018 0.020334 0.0079959 -0.032526 0.034158 0.040694 0.054408 -0.010808 -0.055401 0.008873 0.053017 -0.054303 -0.062409 -0.077035 -0.0043995 -0.033669 0.025583 -0.06042 0.018048 -0.056757 0.05604 0.036263 -0.064948 0.0018711 0.0026999 -0.031163 -0.051364 -0.013361 0.046219 -0.0039181 
carpe -0.11711 -0.037102 -0.058188 0.19987 0.044213 -0.012077 -0.13364 0.13349 0.0055113 0.043971 -0.19433 -0.099513 -0.036097 -0.17384 0.31386 0.042025 -0.1024 -0.072747 -0.061646 0.094167 -0.14006 0.121 0.075833 0.0092553 0.053692 0.01582 -0.20931 -0.08839 -0.10151 0.15765 -0.1385 0.017681 0.052076 0.0059284 0.091165 -0.27451 0.10009 0.00061013 -0.066579 -0.15418 0.16734 -0.12615 -0.0028384 0.15337 0.045607 0.14685 -0.024312 0.054145 -0.085991 -0.011033 0.088789 0.056248 -0.14787 0.017081 0.023257 -0.10918 0.01124 0.021511 0.041511 0.13707 -0.06191 -0.0080957 -0.0076648 0.0047646 -0.0077703 0.15013 -0.10303 -0.051979 0.010379 -0.12645 0.25169 -0.0065713 -0.13867 -0.075194 -0.078327 0.0041 -0.14406 -0.038183 0.23217 0.014461 0.12396 0.029779 0.095341 -0.031588 -0.0002184 -0.041396 -0.09395 -0.044857 0.10552 -0.13769 0.13931 -0.099584 0.065331 0.016188 0.11237 -0.080365 -0.04509 -0.027054 0.029613 -0.053531 0.020442 0.094173 0.097227 0.12701 -0.147 0.082946 -0.075673 -0.036003 0.16019 -0.11705 0.041203 0.14957 -0.059797 -0.019859 0.076905 -0.020343 -0.097016 0.17866 -0.088659 0.080827 -0.03381 -0.017446 0.099174 0.027969 -0.31771 0.096142 -0.12352 0.065906 -0.21145 -0.034991 0.10087 -0.13084 0.05005 -0.019474 0.095986 -0.093955 0.039689 0.023832 0.015063 0.072407 -0.0084361 -0.030716 0.027612 -0.016518 -0.015643 -0.27299 -0.076406 -0.024125 0.11354 0.1788 0.017947 0.033284 -0.0017796 0.081706 0.0028182 0.0096666 -0.1493 -0.043692 0.10791 0.012424 0.15394 0.056551 0.088536 -0.079399 -0.031093 -0.015997 0.14169 -0.22951 0.045053 -0.092221 -0.22582 -0.020799 -0.081301 0.0094583 0.074468 0.025169 -0.050653 0.057293 -0.21692 -0.0068475 -0.076399 0.040126 0.01188 0.0048531 -0.038639 -0.039141 0.19148 -0.049014 0.20386 -0.096483 0.13194 0.0099774 -0.016555 0.12578 -0.070842 -0.066879 -0.012552 0.11334 0.17145 0.042751 -0.027922 0.17376 -0.19452 -0.11234 -0.01786 -0.085488 -0.025294 0.10145 0.15395 -0.051588 -0.051575 -0.1483 -0.072863 0.14788 -0.10545 -0.095723 0.069472 -0.12269 0.055704 0.095261 -0.064833 -0.064789 -0.066282 -0.016885 -0.14091 0.079719 -0.056909 -0.16949 -0.043011 -0.094153 -0.090236 -0.011671 0.022182 0.056821 -0.13662 0.16569 -0.030522 -0.066139 -0.30441 -0.12404 -0.0045828 -0.12966 -0.091033 -0.080012 0.34823 0.10592 -0.15185 -0.14774 -0.014135 -5.2361e-05 -0.17998 0.061842 -0.068576 -0.047276 -0.055396 -0.0065246 -0.080239 -0.18971 0.17764 -0.11127 0.10302 -0.067451 0.047599 -0.010252 0.021542 -0.12189 0.043847 -0.051102 0.12989 0.10977 -0.13385 -0.047109 -0.038972 0.050321 0.1254 0.22077 -0.073463 0.082811 0.061764 0.0066366 0.13559 0.054057 -0.059218 -0.043199 0.15345 -0.093717 -0.11385 0.046096 0.11043 0.10534 0.099661 0.025533 -0.15294 -0.063654 0.033717 0.052304 0.050032 0.257 -0.056598 0.1067 
Karpfen -0.017827 0.014476 0.0081255 0.049618 0.0073492 0.03052 0.025488 0.013731 0.0075569 -0.01661 0.030634 -0.0059563 0.029472 -0.022203 -0.029516 -0.075857 0.031764 0.0036923 -0.0044592 0.030808 0.010025 -0.010119 0.013994 -0.012948 0.05288 -0.01482 -0.01048 -0.056907 0.050415 -0.045497 -0.034411 0.031434 -0.0053076 0.0075344 -0.03616 0.010114 -0.01024 0.086591 -0.025184 -0.021654 0.0028159 0.025549 -0.018869 0.001764 0.024038 0.070018 -0.0060443 0.021202 0.032222 0.055106 0.0045964 0.030572 -0.010781 -0.019534 -0.0046976 0.003948 -0.0044496 -0.034028 -0.020761 -0.033105 0.016564 0.027059 0.030716 0.021508 0.011203 0.043013 -0.022634 -0.009465 -0.033725 -0.033467 0.050342 0.049441 -0.015581 -0.0075576 -0.035152 -0.036142 0.012208 0.043527 -0.064198 0.030466 0.014879 0.011221 0.010759 0.025076 -0.031091 0.046753 -0.056646 -0.029198 0.01487 -0.0067276 0.024517 -0.021564 -0.051878 -0.013946 0.027885 0.050545 -0.010565 0.040604 -0.024132 0.027489 0.0086105 -0.053134 -0.025963 0.047842 0.034453 0.010144 -0.010379 0.041289 -0.035384 0.0051454 0.0056126 0.016227 -0.032121 -0.0085366 -0.019646 -0.019595 -0.013224 0.041396 -0.0057278 0.022084 -0.017716 -0.019178 -0.013622 -0.0011245 0.03781 0.011006 -0.0045777 0.030703 0.017392 -0.013283 -0.0063129 0.0049517 0.015186 0.021237 0.019437 -0.013779 -0.0016106 -0.012447 -0.0020234 0.0092673 0.050049 0.039108 -0.05574 0.050767 -0.058711 -0.037016 -0.057347 0.01079 0.015243 -0.0031594 -0.07826 0.038174 -0.076385 -0.0062989 -0.022426 0.01043 0.043599 -0.012577 -0.026671 0.07807 0.030656 0.012416 -0.025409 -0.0048554 -0.015963 0.03741 0.030289 -0.018963 0.01438 0.0029242 0.0031503 -0.036636 0.0011378 -0.00039923 -0.00078738 0.007191 -0.035137 -0.063644 0.027937 -0.025088 0.0022291 0.053718 -0.011555 -0.1221 0.001772 -0.040091 0.029875 -0.0038271 0.074589 -0.038635 0.036598 -0.034765 -0.031892 0.015376 -0.02595 0.0057173 -0.03346 0.0046671 0.020939 0.063132 -0.045598 -0.030672 0.0097602 -0.016512 -0.051444 -0.047217 0.070177 -0.049918 -0.0012639 0.046192 0.02404 -0.032645 0.026765 0.042167 0.021802 -0.018587 -0.014204 0.040205 -0.031029 -0.020456 0.020095 0.041667 -0.014152 0.064726 -0.036282 -0.028773 0.022104 0.019234 0.030827 0.052603 0.04623 0.042193 0.00051607 0.026858 0.0096466 0.083078 -0.021316 -0.031145 0.0053057 -0.036689 0.054876 -0.055573 0.011081 -0.07755 -0.0065144 0.02927 0.029083 -0.013089 0.0043295 0.022159 0.027896 0.023703 -0.011234 0.030038 0.012705 0.029863 0.0090766 -0.052938 -0.0012354 -0.010186 0.04281 -0.16651 -0.11533 -0.039269 -0.04952 0.024838 -0.034653 -0.022146 -0.0050754 0.038508 -0.027619 0.06081 -0.071146 -0.038356 0.028358 0.02414 -0.023038 -0.042178 -0.052329 0.026502 -0.011944 -0.027641 -0.015759 -0.023388 -0.01611 0.019613 0.024123 -0.088226 0.023431 -0.037891 0.02556 -0.014974 -0.045336 -0.056396 0.040851 -0.0094956 0.011953 0.03723 0.012409 0.0076517 
kyprínos -0.026155 -0.046594 -0.026097 0.053819 0.0085688 -0.023781 -0.0060154 -0.043503 -0.042581 0.003493 0.014348 -0.011829 0.019038 -0.0025619 0.011204 -0.060583 -0.0094544 0.00029833 0.043788 -0.01798 0.042546 -0.0094519 0.006639 -0.024006 0.071166 -0.017946 -0.0094104 0.018812 -0.023141 0.070935 -0.028323 0.0059051 0.0099736 -0.0094762 0.031107 -0.018244 -0.041234 0.015681 -0.021303 0.029104 -0.018541 -0.0032361 0.018077 -0.0072124 -0.07015 0.097118 0.0080721 0.010438 0.005273 -0.019685 0.0487 -0.0086991 0.0061857 -0.0070208 -0.0030806 -0.0079517 0.00073307 0.004756 0.0083655 0.01859 0.035483 0.027451 -0.0083086 -0.019522 0.017816 0.0095315 0.028522 -0.02756 0.0039629 -0.005978 0.032809 0.010322 0.025067 0.0068366 0.0063705 -0.0079721 -0.03731 0.0175 -0.017832 -0.012228 0.0011579 -0.022589 -0.028642 0.036533 -0.024148 -0.007143 -0.069034 0.00038148 0.044197 0.023942 -0.002322 0.03491 0.045073 -0.030576 0.0016947 0.00020318 0.00030621 -0.014879 0.0076497 -0.010236 -0.011859 0.021487 0.0023463 0.010118 -0.017404 -0.016132 0.039964 0.0071707 -0.033514 -0.01252 -0.018619 -0.012035 0.010669 0.0048634 -0.00069112 0.00023064 -0.026646 0.025051 0.050302 0.016026 -0.017436 -0.014753 0.057896 0.0060159 0.004484 0.035098 -0.049322 -0.0058833 -0.005954 -0.0059776 0.012266 -0.011648 -0.016323 -0.011505 0.018546 0.060737 -0.040976 -0.012837 -0.016314 -0.020138 0.008756 0.0060171 -0.047838 0.0076007 -0.0087551 -0.024664 -0.025331 0.0044163 -0.009697 -0.045361 0.0038282 0.019224 -0.0071231 -0.017031 -0.0080622 0.0091994 0.0090189 -0.017927 -0.017298 -0.039871 -0.015262 -0.013311 -0.013677 0.039433 0.009848 -0.044464 -0.006231 -0.018707 -0.026842 0.0499 0.02551 -0.0066826 0.013262 -0.0048946 0.034954 0.014794 -0.00037 -0.0047051 -0.030012 -0.014384 0.028564 -0.03401 0.0030696 -0.013187 0.031309 0.027642 -0.0010703 0.0068145 0.005915 -0.0083031 0.031246 0.025771 0.011023 -0.0096104 -0.014922 0.023288 0.0034861 0.013208 0.029443 -0.014029 0.053511 0.032154 0.0067945 -0.00093248 0.0029403 -0.05395 -0.010338 -0.015164 0.0060849 0.006731 -0.022243 0.016654 -0.035608 -0.00092591 -0.0032326 -0.038877 -0.021704 0.04132 0.012703 0.0050485 0.011155 -0.036136 -0.0012643 -0.0014722 -0.024261 -0.031369 0.035158 -0.019054 0.009806 0.049632 0.038158 -0.0092675 -0.030174 -0.0066899 0.017402 -0.0014918 0.0096026 -0.0027149 0.022615 0.013045 -0.0096799 -0.034692 0.014096 -0.056871 0.042789 0.0098505 0.044774 0.026569 0.0063771 0.0025426 0.078352 -0.010589 0.0089967 0.014502 0.036336 0.00896 -0.0021543 0.030744 0.018386 0.022111 0.030579 0.011702 -0.086417 0.028209 -0.016342 -0.026963 0.060299 -0.0085875 -0.0073777 -0.0083739 0.0026824 0.031719 -0.021369 -0.018284 0.00066526 0.027397 -0.027226 -0.064533 0.0033868 0.012511 0.0082063 -0.028297 0.014083 -0.04265 -0.052922 -0.0033499 0.02866 -0.043038 -0.0092103 -0.0077156 0.016366 0.015538 -0.022941 -0.010246 0.0079924 -0.0084997 -0.011675 0.041167 -0.030673 0.0070855 
carpa -0.04272 -0.086958 -0.10636 0.013944 0.058267 0.080048 0.003443 -0.073042 -0.0080049 0.16876 -0.14596 -0.16439 0.085442 -0.058822 0.11129 0.033481 -0.088211 -0.071753 0.041731 -0.017313 -0.016118 -0.0093506 0.12926 -0.042709 0.061318 -0.050966 -0.011302 -0.029521 -0.15405 0.19908 -0.023338 0.049855 -0.057132 0.034382 -0.12143 0.0084551 0.018496 0.022831 0.041452 0.0035796 0.07127 -0.031592 -0.063583 -0.077447 -0.065557 0.052926 -0.041346 -0.034051 -0.067732 0.080182 -0.081957 -0.0084456 -0.0062802 0.0080299 -0.15732 -0.0026422 0.018884 -0.033683 -0.0026131 -0.13433 0.040991 -0.12005 0.019431 0.048027 -0.10235 0.16936 -0.019751 -0.021743 -0.04587 -0.05637 0.10108 -0.0029109 -0.15213 0.00038286 -0.12622 0.038748 -0.016918 0.0030802 -0.051871 0.0020147 -0.033581 0.090401 0.13343 -0.074828 0.022484 -0.12085 -0.085128 -0.060226 0.016328 -0.018547 0.0016366 -0.039676 -0.17194 -0.16339 0.07517 -0.002953 -0.0056831 -0.0074673 -0.21879 -0.016508 -0.020065 -0.070838 4.8931e-05 0.03203 0.010006 0.094062 0.028473 -0.013538 -0.0062142 -0.027778 0.0097622 0.10981 -0.031048 -0.0067949 0.10955 -0.12507 -0.016435 0.11403 -0.16167 0.059574 -0.025034 0.11996 0.089685 -0.0003555 -0.016934 -0.13025 0.027924 -0.045218 -0.068707 0.065668 -0.031558 -0.03912 -0.11889 0.016313 -0.058322 0.024721 0.082064 0.079801 0.070025 0.049918 0.11894 -0.12386 0.08177 0.077423 -0.012796 -0.029006 -0.11042 -0.09368 0.055145 0.090011 0.012128 -0.091045 0.015943 -0.17402 0.0049502 -0.14269 -0.01206 -0.047712 0.027154 -0.13785 -0.051316 -0.0032604 0.14405 0.014149 -0.082594 -0.05193 0.012655 -0.019691 -0.023615 -0.06032 0.16645 -0.053028 -0.013808 -0.051212 -0.043432 0.0044767 -0.078174 -0.020128 -0.021992 -0.011877 -0.068024 -0.018876 0.054873 -0.15115 0.068829 -0.0019024 0.14626 0.013311 -0.1038 -0.0049134 -0.021377 0.015833 0.13162 0.048458 -0.17407 -0.046958 -0.016492 -0.028975 0.040352 -0.031474 0.0041267 0.051912 -0.070041 0.13548 0.052093 0.090697 0.029903 0.01568 0.030583 -0.047338 -0.089729 -0.024237 -0.010871 0.11777 -0.083418 -0.0095165 -0.093149 -0.030311 0.03183 0.09861 0.047562 0.07764 0.078127 0.07775 -0.17383 -0.037792 -0.08591 0.033306 -0.082512 -0.019881 -0.021451 -0.0091696 0.041789 -0.051695 0.089169 0.058877 0.01773 0.052215 0.027024 0.046108 0.1831 -0.0064368 -0.086505 -0.10683 0.11568 0.06168 -0.019608 -0.019515 -0.02107 0.032877 -0.057948 0.093668 -0.03431 0.06849 0.096436 0.0058975 -0.030219 0.0057614 0.027942 -0.072028 -0.0158 -0.084522 0.13068 -0.098103 0.0028324 0.067154 -0.077396 0.016833 -0.10314 0.044313 -0.091683 -0.034111 -0.046364 -0.025214 -0.0060742 0.12171 -0.03392 0.097871 0.023562 -0.09371 0.027326 0.076173 -0.033356 0.09267 0.098572 0.070898 -0.073987 0.047051 0.077484 0.031005 -0.031968 -0.090689 -0.074931 0.12578 0.010163 -0.055536 -0.091441 0.062915 0.022839 -0.039858 
karpe 0.049074 -0.03141 -0.031953 0.093373 -0.019243 0.022792 -0.035355 0.026492 -0.015193 0.042295 -0.0099868 0.024598 0.10848 -0.066875 -0.027122 -0.071628 0.0093909 0.014786 0.018696 0.0032787 -0.012913 -0.022788 0.035714 0.052459 0.1045 -0.018148 -0.098883 0.052528 0.0078024 -0.080276 0.1086 -0.01749 0.00047075 0.024947 0.0046504 0.056621 0.0042438 0.058522 -8.6653e-05 0.0086922 0.013579 0.027746 0.010581 0.0099175 0.048859 0.052272 -0.089921 0.057808 0.0031937 0.0074504 -0.025943 -0.042641 -0.05384 -0.0015277 0.030596 -0.034049 0.047549 0.1063 -0.027135 0.049932 0.0303 0.034235 0.023702 0.097693 0.01119 0.0035779 0.039445 0.047363 -0.014601 -0.082414 0.085211 -0.033002 -0.011525 -0.031161 -0.063542 0.019682 -0.05896 0.029813 -0.036837 0.061866 0.051347 0.023144 -0.0027969 -0.026802 -0.017091 0.0079904 -0.11221 -0.058231 0.020995 -0.041224 0.014935 0.071788 -0.01063 0.062256 -0.02695 0.016403 0.057486 -0.027309 -0.051518 -0.020594 0.0053266 -0.019374 -0.045732 0.085546 0.06418 -0.034956 0.0010056 0.00010202 -0.0039937 0.0056192 -0.069563 -0.052412 -0.010119 -0.12795 0.02118 0.041392 -0.017042 0.067402 -0.095531 0.087691 0.0065378 -0.013177 0.0026614 0.017981 0.015624 0.01383 -0.085388 -0.012243 -0.012006 0.035267 0.064009 -0.03523 -0.024987 -0.054464 0.01503 -0.027474 0.023475 -0.051889 -0.04836 0.060318 0.044364 -0.016921 -0.040218 0.009898 -0.10306 -0.04601 -0.098525 0.031573 0.014904 -0.0089004 -0.055657 0.022498 -0.12088 -0.021136 -0.0014248 0.016924 0.058834 0.0057367 -0.058958 -0.035784 -0.029619 -0.047521 -0.082365 -0.048919 0.060403 0.026235 0.04017 0.034807 -0.046877 0.0087084 -0.076937 0.074085 -0.031315 0.036242 0.014569 0.022258 0.024593 0.051542 -0.045204 0.0080479 -0.0029584 0.076865 0.0089833 -0.19697 -0.021325 -0.063275 0.037693 -0.004297 0.11816 -0.039662 -0.0058583 -0.022891 -0.014818 0.00448 -0.065994 0.02019 -0.059929 0.054937 -0.0088223 0.060678 -0.044405 0.035793 -0.0094099 -0.018952 -0.041911 -0.0097012 0.093917 0.0015076 0.045208 0.067821 -0.0019803 -0.096852 0.10991 0.025817 -0.018034 0.0036757 -0.034996 -0.00012754 -0.023884 0.013389 -0.006655 -0.027767 -0.059944 0.12071 -0.051236 0.064703 0.023813 0.0048484 -0.0058131 0.065761 0.052692 -0.019039 -0.028966 0.0034539 0.042182 0.057714 -0.0025287 -0.022236 -0.037689 -0.022419 0.05652 -0.05996 -0.0084699 -0.057152 0.10944 -0.027191 -0.056173 0.012188 -0.045199 -0.0062497 0.029008 0.0095689 -0.097649 0.045975 -0.011017 -0.020197 0.019129 -0.057763 0.053257 -0.058915 -0.014758 -0.22525 -0.12388 -4.7822e-05 -0.037082 0.0057284 -0.0039892 -0.023215 0.074323 0.10655 0.026886 -0.016044 0.0078612 0.030009 0.006789 0.11129 -0.03753 0.033461 -0.096876 0.027541 0.068166 -0.076148 -0.068194 -0.07642 0.0070013 -0.014978 0.029136 -0.075054 0.050347 -0.098566 0.043826 0.023602 -0.078389 0.030036 0.015298 0.0099416 -0.052044 0.00085272 0.070087 0.0084975 
carpa -0.04272 -0.086958 -0.10636 0.013944 0.058267 0.080048 0.003443 -0.073042 -0.0080049 0.16876 -0.14596 -0.16439 0.085442 -0.058822 0.11129 0.033481 -0.088211 -0.071753 0.041731 -0.017313 -0.016118 -0.0093506 0.12926 -0.042709 0.061318 -0.050966 -0.011302 -0.029521 -0.15405 0.19908 -0.023338 0.049855 -0.057132 0.034382 -0.12143 0.0084551 0.018496 0.022831 0.041452 0.0035796 0.07127 -0.031592 -0.063583 -0.077447 -0.065557 0.052926 -0.041346 -0.034051 -0.067732 0.080182 -0.081957 -0.0084456 -0.0062802 0.0080299 -0.15732 -0.0026422 0.018884 -0.033683 -0.0026131 -0.13433 0.040991 -0.12005 0.019431 0.048027 -0.10235 0.16936 -0.019751 -0.021743 -0.04587 -0.05637 0.10108 -0.0029109 -0.15213 0.00038286 -0.12622 0.038748 -0.016918 0.0030802 -0.051871 0.0020147 -0.033581 0.090401 0.13343 -0.074828 0.022484 -0.12085 -0.085128 -0.060226 0.016328 -0.018547 0.0016366 -0.039676 -0.17194 -0.16339 0.07517 -0.002953 -0.0056831 -0.0074673 -0.21879 -0.016508 -0.020065 -0.070838 4.8931e-05 0.03203 0.010006 0.094062 0.028473 -0.013538 -0.0062142 -0.027778 0.0097622 0.10981 -0.031048 -0.0067949 0.10955 -0.12507 -0.016435 0.11403 -0.16167 0.059574 -0.025034 0.11996 0.089685 -0.0003555 -0.016934 -0.13025 0.027924 -0.045218 -0.068707 0.065668 -0.031558 -0.03912 -0.11889 0.016313 -0.058322 0.024721 0.082064 0.079801 0.070025 0.049918 0.11894 -0.12386 0.08177 0.077423 -0.012796 -0.029006 -0.11042 -0.09368 0.055145 0.090011 0.012128 -0.091045 0.015943 -0.17402 0.0049502 -0.14269 -0.01206 -0.047712 0.027154 -0.13785 -0.051316 -0.0032604 0.14405 0.014149 -0.082594 -0.05193 0.012655 -0.019691 -0.023615 -0.06032 0.16645 -0.053028 -0.013808 -0.051212 -0.043432 0.0044767 -0.078174 -0.020128 -0.021992 -0.011877 -0.068024 -0.018876 0.054873 -0.15115 0.068829 -0.0019024 0.14626 0.013311 -0.1038 -0.0049134 -0.021377 0.015833 0.13162 0.048458 -0.17407 -0.046958 -0.016492 -0.028975 0.040352 -0.031474 0.0041267 0.051912 -0.070041 0.13548 0.052093 0.090697 0.029903 0.01568 0.030583 -0.047338 -0.089729 -0.024237 -0.010871 0.11777 -0.083418 -0.0095165 -0.093149 -0.030311 0.03183 0.09861 0.047562 0.07764 0.078127 0.07775 -0.17383 -0.037792 -0.08591 0.033306 -0.082512 -0.019881 -0.021451 -0.0091696 0.041789 -0.051695 0.089169 0.058877 0.01773 0.052215 0.027024 0.046108 0.1831 -0.0064368 -0.086505 -0.10683 0.11568 0.06168 -0.019608 -0.019515 -0.02107 0.032877 -0.057948 0.093668 -0.03431 0.06849 0.096436 0.0058975 -0.030219 0.0057614 0.027942 -0.072028 -0.0158 -0.084522 0.13068 -0.098103 0.0028324 0.067154 -0.077396 0.016833 -0.10314 0.044313 -0.091683 -0.034111 -0.046364 -0.025214 -0.0060742 0.12171 -0.03392 0.097871 0.023562 -0.09371 0.027326 0.076173 -0.033356 0.09267 0.098572 0.070898 -0.073987 0.047051 0.077484 0.031005 -0.031968 -0.090689 -0.074931 0.12578 0.010163 -0.055536 -0.091441 0.062915 0.022839 -0.039858 
carpa -0.04272 -0.086958 -0.10636 0.013944 0.058267 0.080048 0.003443 -0.073042 -0.0080049 0.16876 -0.14596 -0.16439 0.085442 -0.058822 0.11129 0.033481 -0.088211 -0.071753 0.041731 -0.017313 -0.016118 -0.0093506 0.12926 -0.042709 0.061318 -0.050966 -0.011302 -0.029521 -0.15405 0.19908 -0.023338 0.049855 -0.057132 0.034382 -0.12143 0.0084551 0.018496 0.022831 0.041452 0.0035796 0.07127 -0.031592 -0.063583 -0.077447 -0.065557 0.052926 -0.041346 -0.034051 -0.067732 0.080182 -0.081957 -0.0084456 -0.0062802 0.0080299 -0.15732 -0.0026422 0.018884 -0.033683 -0.0026131 -0.13433 0.040991 -0.12005 0.019431 0.048027 -0.10235 0.16936 -0.019751 -0.021743 -0.04587 -0.05637 0.10108 -0.0029109 -0.15213 0.00038286 -0.12622 0.038748 -0.016918 0.0030802 -0.051871 0.0020147 -0.033581 0.090401 0.13343 -0.074828 0.022484 -0.12085 -0.085128 -0.060226 0.016328 -0.018547 0.0016366 -0.039676 -0.17194 -0.16339 0.07517 -0.002953 -0.0056831 -0.0074673 -0.21879 -0.016508 -0.020065 -0.070838 4.8931e-05 0.03203 0.010006 0.094062 0.028473 -0.013538 -0.0062142 -0.027778 0.0097622 0.10981 -0.031048 -0.0067949 0.10955 -0.12507 -0.016435 0.11403 -0.16167 0.059574 -0.025034 0.11996 0.089685 -0.0003555 -0.016934 -0.13025 0.027924 -0.045218 -0.068707 0.065668 -0.031558 -0.03912 -0.11889 0.016313 -0.058322 0.024721 0.082064 0.079801 0.070025 0.049918 0.11894 -0.12386 0.08177 0.077423 -0.012796 -0.029006 -0.11042 -0.09368 0.055145 0.090011 0.012128 -0.091045 0.015943 -0.17402 0.0049502 -0.14269 -0.01206 -0.047712 0.027154 -0.13785 -0.051316 -0.0032604 0.14405 0.014149 -0.082594 -0.05193 0.012655 -0.019691 -0.023615 -0.06032 0.16645 -0.053028 -0.013808 -0.051212 -0.043432 0.0044767 -0.078174 -0.020128 -0.021992 -0.011877 -0.068024 -0.018876 0.054873 -0.15115 0.068829 -0.0019024 0.14626 0.013311 -0.1038 -0.0049134 -0.021377 0.015833 0.13162 0.048458 -0.17407 -0.046958 -0.016492 -0.028975 0.040352 -0.031474 0.0041267 0.051912 -0.070041 0.13548 0.052093 0.090697 0.029903 0.01568 0.030583 -0.047338 -0.089729 -0.024237 -0.010871 0.11777 -0.083418 -0.0095165 -0.093149 -0.030311 0.03183 0.09861 0.047562 0.07764 0.078127 0.07775 -0.17383 -0.037792 -0.08591 0.033306 -0.082512 -0.019881 -0.021451 -0.0091696 0.041789 -0.051695 0.089169 0.058877 0.01773 0.052215 0.027024 0.046108 0.1831 -0.0064368 -0.086505 -0.10683 0.11568 0.06168 -0.019608 -0.019515 -0.02107 0.032877 -0.057948 0.093668 -0.03431 0.06849 0.096436 0.0058975 -0.030219 0.0057614 0.027942 -0.072028 -0.0158 -0.084522 0.13068 -0.098103 0.0028324 0.067154 -0.077396 0.016833 -0.10314 0.044313 -0.091683 -0.034111 -0.046364 -0.025214 -0.0060742 0.12171 -0.03392 0.097871 0.023562 -0.09371 0.027326 0.076173 -0.033356 0.09267 0.098572 0.070898 -0.073987 0.047051 0.077484 0.031005 -0.031968 -0.090689 -0.074931 0.12578 0.010163 -0.055536 -0.091441 0.062915 0.022839 -0.039858 
stalling -0.08091 0.013565 0.026535 0.041888 -0.044842 0.018271 -0.029451 -0.023225 0.012222 0.0049175 0.0079307 0.097398 0.010929 -0.0096501 0.032657 -0.011857 0.070004 0.023776 -0.014029 0.016534 0.056856 -0.012304 -0.0087826 -0.068725 0.018565 -0.033094 -0.051822 0.059054 0.00024681 0.044883 -0.024208 0.038066 -0.025397 -0.087435 0.025293 0.029426 0.094484 0.02149 0.01603 0.014084 -0.010891 -0.058662 -0.0057015 0.040175 -0.024615 -0.022089 -0.0015153 -0.018168 -0.0080214 -0.070658 0.018121 0.047927 0.0061514 0.016732 -0.067435 -0.040386 0.047787 -0.060455 -0.060512 -0.010666 -0.0071816 0.0069332 -0.0023449 0.0062894 0.080412 0.069956 -0.075647 -0.044093 0.0019399 -0.025725 -0.0087492 0.039402 0.074769 0.0023635 0.016167 0.074967 -0.077925 0.025865 -0.03384 -0.034749 -0.036792 -0.040268 -0.034237 0.0035968 -0.01283 0.015232 0.049767 -0.038509 0.012666 0.037914 0.043859 -0.083908 0.020439 -0.027472 -0.016817 0.022098 -0.0073998 0.011408 -0.055707 -0.020207 -0.020777 0.012778 0.0079939 -0.012556 -0.023467 -0.032982 0.047287 0.045835 0.0054098 -0.032681 0.021685 0.040525 -0.0081924 0.028253 0.034009 0.042469 -0.0090745 0.065572 0.017459 0.0020617 -0.042091 -0.036437 0.044458 0.045316 -0.083032 -0.032145 0.038707 -0.00015562 0.042735 0.028138 0.0071611 -0.021636 -0.006778 -0.0077728 -0.022845 -0.020318 0.010746 0.046144 0.010921 -0.013928 0.015629 -0.025271 -0.02667 0.01421 0.039912 0.02123 -0.073536 0.075201 -0.024317 0.0038994 -0.05015 -0.030065 -0.028027 -0.0043471 -0.041215 -0.0020164 0.032844 -0.053675 0.021436 -0.052132 0.057998 -0.028116 -0.013672 0.0036357 0.028771 0.067974 0.0058483 0.005499 -0.030191 0.036132 0.07461 -0.028024 -0.072366 0.047899 0.021134 -0.056595 -0.036026 -0.0096707 0.013377 0.014244 -0.0054062 -0.0018403 -0.04631 -0.042547 -0.0073944 0.034033 -0.068926 0.013802 -0.010473 -0.0086874 -0.044719 0.028019 0.021208 -0.041991 0.011185 -0.017929 0.030227 -0.023134 -0.046084 0.029619 -0.00032509 0.022672 0.0033602 0.014457 -0.022072 0.028731 -0.020414 0.010279 0.056483 0.092932 -0.011682 0.028012 0.0074759 -0.025264 -0.0046773 -0.025075 -0.020555 -0.021193 -0.030189 -0.059733 -0.036877 0.014727 -0.0099522 0.022134 0.019938 0.016302 -0.014266 0.00050246 0.020466 -0.021365 0.0043071 -0.022851 0.074161 -0.0012027 -0.0057326 0.021427 -0.009821 -0.041399 -0.030341 -0.027879 -0.068329 -0.005207 -0.011383 -0.069981 0.081865 0.0068929 0.043584 -0.0061498 -0.021299 -0.030353 -0.0072475 0.032524 0.047514 -0.0091464 0.021793 -0.0032747 -0.061229 0.002921 0.0014432 -0.011977 0.011593 0.030129 0.00086035 -0.017716 0.0043738 -0.061474 -0.082488 0.032202 0.0055913 -0.029452 -0.061241 -0.08269 0.016592 -0.045167 0.018659 -0.0020926 0.0162 -0.0074269 -0.068877 0.027333 0.0008548 0.075107 -0.011473 -0.0098799 -0.0205 0.00083941 -0.035017 -0.026828 -0.12006 0.039168 0.011562 0.00052908 -0.022699 0.020787 0.027539 0.0079634 -0.05556 0.012912 0.052944 0.0083851 
vlagzalm 0.019602 -0.014931 -0.0078971 0.035338 0.010104 -0.043798 -0.0067633 -0.013188 -0.001685 -0.025731 0.0083858 -0.040074 -6.6347e-06 0.0069087 -0.022324 0.0028434 0.0057558 0.029527 0.032097 0.011159 -4.7522e-06 -0.0047175 0.017332 -0.0055692 -0.00044092 -0.012702 0.00094947 -0.015561 0.0078072 0.039465 -0.0041035 0.0037452 -0.018947 0.002379 0.0010349 0.0067707 -0.015512 -0.0053749 -0.00098561 0.00044571 0.019757 0.014966 -0.040704 -0.025787 0.0026281 -0.014786 -0.0091189 0.0032333 -0.019494 0.03031 -0.013897 -0.011229 0.0073277 -0.044359 0.0029352 0.0054719 -0.019953 0.0014019 0.012655 0.00079405 0.0021776 0.022159 0.0089062 -0.024779 -0.015109 0.0096484 -0.0074838 -0.0070439 8.5964e-05 0.0027766 -0.0037509 -0.012158 -0.038325 0.0071602 -0.020539 0.018357 0.010595 0.033301 0.0033159 0.02296 -0.014233 0.0020421 0.0054624 0.041238 -0.0053598 0.02922 0.0070213 0.023248 -0.0033642 -0.0076407 0.016796 0.010272 -0.0019188 -0.0013852 0.00018854 0.01514 -0.0052632 -0.028333 -0.024123 -0.0033254 0.013893 -0.0084201 -0.030433 0.02346 0.0046598 -0.02119 -0.0010043 0.022877 0.021931 0.010001 0.0048851 0.0031762 0.010461 -0.0046125 -0.016564 0.018304 -0.011121 0.016956 -0.016422 0.024993 -0.01081 -0.0055593 0.019606 0.0063981 0.0014742 0.036993 0.01457 -0.0054373 0.0035416 0.028361 0.032686 0.011581 -0.018957 -0.021309 0.0010947 0.017424 0.021404 0.0061433 -0.019657 -0.0022706 0.040775 -0.021911 -0.032492 0.0031126 -0.029089 -0.01824 0.015547 0.032463 0.015373 -3.7291e-05 0.0068532 0.00063386 0.051495 0.020237 0.00078132 -0.023465 0.054592 -0.034174 -0.00073007 0.011616 0.040558 -0.0078008 -0.011082 -0.012194 -0.025215 0.013099 -0.010066 0.0093888 0.0066518 0.0017706 0.014142 0.027215 -0.024737 -0.016826 -0.0098288 -0.0080652 -0.021315 -0.016158 -0.0024737 0.0038847 -0.02308 -0.0032967 0.01319 0.014153 -0.0060718 -0.027413 0.0594 -0.0074908 -0.017163 0.00062671 -0.013276 -0.00029089 0.024872 0.020657 -0.013521 -0.032331 0.033206 0.026419 0.044029 -0.044459 0.0042799 0.0047247 0.0010762 0.019569 0.0068709 -0.028612 0.02215 -0.0082812 4.135e-05 -0.011912 -0.034485 -0.021627 0.016468 0.015082 -0.021463 -0.0015314 -0.019313 0.013685 0.032285 0.0069916 0.0070807 -0.047707 -0.0019757 -0.0093526 0.005238 0.034427 -0.0037914 0.0036131 -0.027091 0.040754 0.0021871 -0.04091 0.032424 0.0087825 0.026744 -0.0088822 0.0073613 -0.0036034 -0.025541 -0.026625 0.0094013 -0.015754 0.056692 -0.062753 -0.002659 -0.014313 0.028781 0.013885 -0.021161 -0.0086318 0.0081913 0.030676 -0.02098 -0.0053909 -0.024861 0.012831 0.0041771 0.0010203 0.008517 -0.019753 0.020364 0.014897 0.002279 -0.036267 -0.0053455 -0.0065531 -0.017773 0.0029061 -0.016104 0.047443 0.0017187 0.0049782 0.010086 -0.0004735 0.03329 -0.004132 0.00041262 -0.0095116 0.038039 0.03002 0.0084865 0.0030706 -0.010469 -0.017699 -0.018837 0.0044197 -0.027432 -0.0067411 0.022705 0.031964 0.0099565 0.00023468 -0.0091601 0.0021445 0.014797 -0.024679 0.012729 0.015611 -0.018037 0.0038924 
ombre -0.0048272 -0.071508 -0.092843 0.16832 0.14326 0.0097528 -0.0040109 0.061667 0.050468 0.023672 -0.063685 -0.09413 0.069863 -0.070468 0.16622 0.10729 -0.062955 -0.05868 0.16511 -0.029972 0.31474 0.14926 0.064171 -0.051984 0.023077 0.040038 0.0023655 0.086133 -0.065387 0.32117 0.020908 0.21865 -0.10387 0.056425 0.05696 -0.14444 0.02973 0.019138 0.092582 0.015889 0.075393 -0.053972 -0.0060481 -0.048055 -0.14154 0.14901 0.027067 0.083737 -0.087044 -0.051267 0.044216 0.053436 0.22785 -0.018684 0.0020371 -0.0068181 -0.028238 -0.057203 -0.064764 -0.13116 0.054309 -0.12226 -0.047437 -0.0084116 0.1221 0.044486 -0.048577 -0.020696 -0.035677 -0.13796 -0.011281 0.065468 0.092438 -0.012229 -0.049968 0.056214 -0.0053391 -0.11242 -0.039892 -0.0098099 0.029531 0.034795 0.057243 -0.083965 -0.090208 0.029154 0.068034 -0.028272 -0.12911 0.059934 -0.00025348 0.025375 -0.11264 0.0092283 0.12195 -0.0033094 0.030061 0.066743 -0.033109 -0.074586 -0.037652 -0.050271 0.047432 0.07911 0.054595 0.063545 -0.021116 0.056001 -0.11947 0.040448 0.039167 -0.012852 -0.083598 0.014335 -0.099138 -0.13908 0.061527 0.047169 -0.14214 0.021874 -0.036971 -0.15226 -0.0081534 0.013373 -0.045992 0.27359 -0.21485 0.078928 -0.0018178 -0.037643 -0.045965 -0.19457 -0.0044796 -0.0054921 0.0064158 -0.061175 0.16037 0.020806 0.15509 -0.11823 0.027351 0.096942 -0.071626 0.083707 -0.075909 0.004411 -0.12731 0.17916 0.062958 0.11313 -0.040632 0.087703 0.08287 0.11645 0.039409 -0.03853 0.0055016 -0.091025 0.069576 0.063262 -0.010903 0.01692 0.05517 0.027598 0.0083481 0.00062065 -0.12397 0.0071507 -0.019337 -0.0354 -0.0041572 -0.11089 -0.044429 -0.034789 0.038047 -0.15643 0.10122 -0.057891 0.13137 -0.033851 0.11474 -0.041648 -0.094262 -0.081028 0.04462 -0.25288 0.1133 -0.034144 0.025027 -0.024755 0.0051074 -0.023267 0.038584 -0.078175 -0.0063166 0.013798 -0.34392 -0.083927 0.12476 0.016056 0.091474 0.037707 -0.18818 0.18379 -0.18503 -0.0037852 -0.024499 0.015806 0.15121 -0.011829 -0.15259 0.053857 0.10876 0.0656 0.011844 0.097528 -0.06565 -0.11464 -0.076091 -0.025303 -0.11705 -0.068753 -0.095792 0.075586 -0.078407 0.060059 -0.0060102 -0.049072 0.011519 -0.080179 -0.025266 0.02245 0.08723 -0.042113 -0.042537 -0.085689 0.18623 -0.19812 -0.064274 -0.052027 0.076181 0.037331 -0.0089619 -0.084672 0.11119 0.14309 -0.053683 0.092788 0.043137 0.14807 -0.037878 0.02834 -0.075 -0.14051 -0.14819 -0.11246 0.014592 -0.04579 -0.074553 -0.069558 -0.012988 0.0018916 -0.024646 0.05104 0.033441 0.0076303 0.046986 0.22124 -0.078061 0.015639 0.032933 -0.065586 -0.026767 -0.054776 0.133 0.18349 -0.049511 0.040256 0.014358 -0.10173 0.059999 -0.048365 -0.041478 -0.02719 0.080982 0.038329 -0.039938 -0.17573 -0.045484 -0.00061169 0.055754 0.094803 -0.044065 0.023651 -0.050216 0.020628 0.072572 0.086663 -0.081634 0.075401 
Äsche -0.0067899 -0.0027238 0.0037262 0.059329 -0.029923 -0.048831 -0.069932 0.012536 -0.018199 -0.033885 0.038181 0.012709 0.044533 -0.0050238 -0.010689 0.071578 0.034307 0.025384 -0.012913 0.099693 -0.0089892 -0.017704 0.029689 0.0063696 0.090104 -0.029939 -0.05981 0.037198 0.02877 -0.010249 -0.0057203 -0.0090171 -0.0076244 0.031022 0.030029 -0.010712 0.09479 0.08153 -0.015063 0.063011 0.014616 -0.079783 -0.027988 -0.038052 0.016932 0.13566 0.0011785 0.040996 -0.053086 -0.028763 0.061009 -0.041187 -0.010762 -0.078395 0.08898 0.058619 0.047462 0.010918 -0.10189 -0.024162 -0.037438 0.0088903 0.025347 0.067974 -0.003673 -0.014099 0.03599 0.03718 0.023222 0.011591 0.093739 0.015063 0.020238 0.035875 -0.048301 0.051066 0.030017 0.024789 0.03394 -0.10085 -0.054326 -0.01394 0.0050235 0.046413 -0.056815 0.029266 -0.018778 -0.072364 0.025672 -0.037605 -0.010789 -0.033514 -0.05825 0.052506 0.057449 0.18218 0.067981 0.046541 0.043884 -0.026761 0.066201 -0.024626 -0.013053 0.058538 0.012593 0.010557 -0.024114 0.06388 -0.061333 -0.0034815 0.026441 0.0095476 0.036171 -0.17791 0.051527 -0.026157 -0.094342 -0.034564 -0.0042225 -0.042204 -0.065691 0.050679 0.063649 0.035736 -0.010785 0.080916 -0.017989 0.020699 0.032904 -0.03168 0.048827 0.089854 0.032531 -0.017268 -0.03249 0.046266 0.080347 -0.066847 -0.035119 0.071896 0.015326 0.03465 0.022778 0.050072 0.03972 0.010097 -0.070494 0.03101 0.0072418 -0.0088621 -0.00017798 0.019645 0.12612 -0.022731 0.012852 0.02208 -0.18143 0.019977 -0.009639 0.073316 -0.02456 -0.051683 -0.28372 0.027978 0.051822 0.020131 -0.011401 -0.083398 0.062682 0.062779 0.017886 0.0065068 -0.015899 0.035604 0.011413 0.017622 -0.012331 0.0060495 -0.023903 -0.070833 -0.017436 0.080688 -0.020207 -0.025653 0.0094813 -0.031025 -0.014174 0.06669 -0.054398 -0.027247 0.02032 -0.029596 -0.004554 0.0011345 0.085669 0.056345 -0.012682 0.019367 -0.011829 0.1298 -0.054622 0.022772 -0.00075483 0.058946 -0.053675 -0.023104 0.15778 -0.023092 -0.1139 0.0040393 -0.024651 -0.056466 0.019759 0.11581 0.036158 0.069948 -0.019206 0.038519 -0.027313 0.14137 0.057536 0.01885 0.0070509 -0.017803 -0.039278 -0.0038482 0.044986 0.052053 -0.085962 0.023482 0.0073323 -0.045965 0.024345 -0.011989 0.071322 0.078033 -0.059545 0.064887 0.03541 -0.016284 0.013981 -0.030668 -0.057742 -0.085447 0.038465 0.0037199 -0.037768 -0.032212 0.015224 0.033551 0.034595 -0.057964 -0.078158 -0.0015491 0.029116 0.00067948 9.6907e-05 0.039427 0.032069 -0.031104 0.011408 -0.022873 -0.14827 -0.039689 0.00070687 -0.048731 -0.029543 0.0064315 -0.016874 0.10274 -0.045676 0.019434 -0.10625 0.016759 0.029249 0.0053144 0.054386 0.059385 -0.0098573 0.026563 0.040205 0.02478 -0.037095 0.015821 -0.097233 -0.040057 0.017283 -0.16243 -0.039354 -0.021627 -0.0025852 -0.041906 -0.072379 -0.013677 0.066125 0.047872 -0.0080576 0.02353 0.065242 0.029964 
temolo 0.033885 -0.04389 0.018346 0.11743 -0.065592 -0.014511 -0.015062 0.0084593 -0.043307 0.02968 0.014246 0.0070592 -0.015124 -0.046606 0.0080131 -0.10958 0.037863 0.044925 0.02383 0.12284 -0.060318 0.010801 0.038631 -0.035363 0.042007 0.018039 0.042225 0.022744 -0.024919 0.0095921 -0.043198 0.051343 -0.046479 0.13766 0.025143 -0.08551 -0.0055379 0.061464 -0.030608 0.026712 -0.026527 -0.028758 0.014785 0.027672 -0.048388 0.05915 0.015078 0.063366 0.01524 0.022235 0.060858 -0.054788 0.010006 -0.011112 0.03572 0.047903 0.1016 0.029387 -0.0064424 -0.0091587 0.017072 0.042427 0.077085 0.04893 0.030014 -0.01077 -0.025311 -0.015002 -0.096193 -0.034396 0.032172 -0.0052667 0.030343 0.035443 -0.032876 -0.025111 -0.0002891 -0.0028829 -0.070714 -0.012971 0.011577 0.042149 -0.046598 0.068749 -0.036208 -0.023221 -0.029506 0.034304 0.037718 0.051403 0.019145 0.014399 -0.031728 0.030057 0.016883 0.10733 0.055867 0.018907 0.028138 -0.077061 -0.02444 -0.018272 -0.051054 0.010039 0.070611 0.026714 0.011972 -0.0013294 0.01674 -0.0070591 0.05339 -0.000776 -0.0048374 0.076022 0.017454 -0.032746 -0.040031 0.070172 0.0015203 0.061783 0.037467 0.024666 0.033776 -0.015148 -0.03573 -0.00084167 0.00013253 -0.009223 0.067314 -0.031052 0.0027836 0.025429 -0.035867 -0.029688 -0.0080632 0.045029 0.019095 -0.019749 0.011157 0.11851 0.063716 -0.036119 0.0047154 -0.016405 0.034808 0.031011 -0.087708 0.0016572 0.037112 0.02124 -0.024053 0.042001 -0.070723 0.016827 0.020146 0.023433 0.032642 -0.012574 -0.048949 0.0088206 -0.0077974 -0.024524 -0.038082 0.052417 0.042016 -0.0062972 -0.038154 0.032058 0.0033505 0.0070035 0.039429 0.030012 0.0087535 0.039764 0.03548 -0.057218 0.03157 -0.018218 0.0035796 -0.040321 0.006886 0.042915 -0.027937 -0.049077 0.056327 -0.065072 0.028811 0.05745 0.035135 -0.081349 -0.038137 -0.040197 -0.039078 0.043837 -0.0063445 0.010981 -0.013503 -0.014873 0.053494 0.025124 -0.064299 0.090113 0.0010786 0.049282 -0.025154 0.029974 0.067927 0.0093619 -0.013863 -0.0051545 0.032426 -0.072633 0.050118 0.062006 0.094928 -0.013539 -0.061442 0.035364 -0.029332 0.11346 -0.049768 0.067244 -0.007254 0.046919 -0.0044076 0.0076608 0.01095 0.028328 0.037979 -0.024735 -0.0018727 0.025235 -0.0061602 0.049885 -0.0022926 -0.047528 0.033191 -0.032603 -0.0064347 0.019552 -0.001563 -0.070518 -0.033662 -0.064089 0.025391 0.064131 0.043865 0.044151 -0.055123 -0.0074243 0.052208 0.028772 0.013481 0.02338 -0.0019694 -0.027541 -0.020691 0.070533 0.014984 -0.041668 -0.0084009 -0.093491 -0.1431 0.043442 0.022621 -0.0026247 -0.055364 -0.03953 0.0060149 0.11526 -0.04628 0.086558 0.0072823 -0.016686 0.0093991 0.062582 -0.077172 -0.0039515 -0.059016 -0.016591 -0.027043 -0.062036 -0.0258 0.0080752 0.024692 -0.063573 0.0030104 -0.081109 -0.060536 0.070936 0.047805 0.019694 -0.052067 0.0061278 0.016559 0.066894 -0.020608 0.017066 0.0257 -0.075629 
harr 0.0013211 0.010114 -0.11571 -0.00012202 -0.091339 0.088062 -0.16032 0.12454 0.021282 0.0060749 -0.02305 -0.076363 0.020863 -0.021737 0.10457 0.033407 -0.0051916 0.073504 0.11709 -0.11669 -0.03614 -0.059624 0.15326 0.077212 0.02741 0.059079 -0.23042 -0.038814 -0.12799 0.26591 0.037138 0.059846 0.023898 0.088559 -0.030715 0.061793 0.0016569 0.07605 0.013842 -0.039286 -0.073432 -0.0096922 0.17826 -0.033473 0.050211 0.024193 -0.055723 0.15706 0.021031 -0.054705 -0.074573 -0.07013 -0.010787 0.0026218 -0.011753 0.025666 0.03823 0.15052 0.07282 0.14223 0.12551 0.14993 0.12158 -0.038662 0.12173 -0.0096651 -0.091859 0.076313 0.0042843 -0.093956 0.24283 0.057448 0.041079 0.041089 0.045989 0.11104 0.091003 -0.20307 -0.057627 0.14966 -0.063162 0.13583 -0.035181 0.060107 -0.050846 -0.089059 0.13426 0.050098 0.012956 0.14465 -0.068515 -0.013185 0.05407 0.11701 -0.069328 -0.071952 -0.13974 0.057411 0.063351 -0.1322 -0.027471 0.06724 0.052481 0.026763 -0.047381 0.0063551 0.007569 0.12701 -0.0016483 -0.17952 0.0047771 0.14096 -0.0065761 -0.1071 0.043921 0.021854 -0.059427 -0.016243 -0.065475 0.14061 -0.038669 0.053633 0.01706 0.091671 0.048523 0.0076253 0.096527 0.08267 -0.13293 -0.1561 0.075552 -0.19189 -0.099099 -0.10136 0.0032292 0.034552 0.011894 0.01926 -0.13752 0.011969 0.026258 0.049436 0.01318 0.032695 -0.0078065 0.018745 -0.18804 0.030212 0.11167 0.054419 -0.065709 -0.16497 -0.058419 -0.040538 -0.15907 -0.088437 0.045164 -0.035997 0.16427 -0.042286 -0.026918 -0.089717 -0.066037 -0.18079 -0.008423 0.04057 0.001901 -0.027809 0.038723 0.18751 0.024362 0.11547 -0.006147 0.16596 -0.076611 0.010831 0.01094 0.168 -0.050359 0.098731 -0.053689 0.028469 0.033994 -0.16471 0.02895 0.0133 0.22224 0.18912 0.023529 -0.059087 0.033213 0.041777 -0.047592 -0.05216 0.094568 0.042438 0.058107 -0.046194 -0.027187 0.080629 -0.054142 0.10237 0.034705 0.079812 0.082312 0.048534 -0.03216 -0.075863 0.087789 0.032989 -0.031586 0.0039656 0.086823 -0.040938 0.034395 -0.081811 0.015386 -0.074844 0.073255 -0.10326 -0.092685 -0.01261 -0.045075 0.080631 -0.097638 -0.16156 -0.20453 -0.047887 0.01058 0.11978 0.0084196 -0.13306 0.12377 0.1555 0.21431 0.017577 0.010047 0.047563 0.10533 -0.16036 0.13139 -0.044072 0.042221 -0.055012 0.21899 0.013491 -0.16023 0.14982 -0.011119 0.15211 -0.073394 0.045554 -0.16807 0.17224 -0.090683 -0.059608 0.01279 -0.1185 0.042051 0.04488 0.097798 -0.0030252 0.099949 0.07825 -0.097004 -0.21612 0.028355 -0.00057753 -0.17703 0.093686 0.043661 0.082643 -0.050134 -0.055019 -0.0048411 0.14676 0.013806 0.016224 -0.057341 -0.083837 -0.0031763 0.017303 -0.019686 -0.16405 0.072164 -0.071284 -0.014996 0.041617 0.089679 0.02376 -0.023845 0.13808 -0.29229 0.13067 0.023189 0.040691 -0.098892 0.19324 -0.079249 -0.042743 
aborre -0.025748 -0.012285 -0.024631 0.08134 -0.038937 -0.062147 -0.0099081 -0.086821 -0.049328 -0.013308 -0.038472 -0.035427 0.03017 -0.021951 -0.063815 -0.083175 0.054296 -0.025317 0.0094243 -0.0066334 0.031104 -0.083856 0.027894 -0.079841 0.098405 -0.035137 0.025338 -0.03037 -0.031326 -0.043963 -0.037992 -0.0094903 0.082465 0.055245 0.045441 -0.059464 0.029813 0.12384 0.021891 0.078947 0.019975 -0.072848 0.05578 0.001414 -0.13814 0.041687 0.098887 0.044143 -0.00085036 0.024529 0.0029208 0.021937 -0.02765 -0.011175 0.064904 -0.010978 0.063194 0.0091859 -0.043568 0.050317 -0.064809 0.0089129 -0.090663 0.028517 -0.10254 0.020803 -0.015469 -0.0017189 -0.033255 -0.023787 0.031015 -0.0027721 0.045084 0.048424 -0.07202 -0.083425 -0.0412 0.047662 -0.023637 0.0074849 -0.035169 0.022319 -0.012094 0.055236 0.05524 0.045278 -0.028264 -0.060935 0.032293 0.012783 0.004605 0.01837 -0.030682 -0.028674 0.07591 0.011084 0.075425 -0.10932 0.028752 -0.0097657 0.017294 -0.062212 -0.0062399 -0.0027148 -0.012936 0.085707 0.027697 0.078372 -0.051355 -0.0060792 0.050071 -0.012084 0.0031701 -0.015916 0.04525 0.02114 -0.035109 -0.0043416 0.090012 -0.053434 -0.047004 -0.003768 0.031715 0.014946 -0.02115 -0.0013675 -0.024689 -0.0045557 -0.010274 -0.029508 -0.026887 -0.031351 0.008546 -0.016427 -0.020322 0.0040781 -0.062664 0.0020144 0.036936 0.01012 0.040993 -0.066736 -0.0059466 0.052367 -0.080522 0.010376 -0.066633 -0.035436 0.033135 0.057396 0.070097 0.026718 0.083298 -0.016835 0.079431 -0.012839 0.039254 0.020054 -0.012901 0.048495 0.023783 0.0016626 -0.0098126 -0.017087 0.058462 0.012907 -0.053296 -0.058078 0.060607 0.087234 0.007766 0.023599 0.0078079 0.0089841 -0.027778 -0.079755 0.0038716 -0.030279 0.022706 -0.028247 -0.020387 -0.046035 -0.07569 -0.044028 0.02372 -0.039262 0.040297 -0.034398 -0.039241 -0.037242 0.051059 -0.0038045 -0.053046 0.0085769 0.0058863 0.049234 0.0063731 -0.012552 0.056737 0.10517 -0.028738 0.091903 0.074005 0.00044264 -0.027364 -0.048764 0.10704 -0.027513 0.036969 -0.02744 -0.076342 -0.088009 0.075497 0.03881 0.023311 -0.016162 -0.00063839 0.016708 0.0024233 0.050128 -0.040538 0.085942 -0.0057421 0.049597 -0.038278 0.010473 0.0327 0.020807 0.044301 -0.10407 0.055032 -0.03001 0.0077949 0.057971 0.043152 -0.047981 0.0052343 0.051277 0.041602 -0.006149 0.0091619 -0.17685 -0.099332 -0.13679 -0.028806 0.053081 0.017318 -0.017782 0.013791 0.022781 0.047494 -0.091188 -0.030551 0.06245 -0.061603 0.070973 0.039358 0.042658 -0.008035 -0.02652 -0.030549 -0.19205 -0.12471 0.00080411 -0.076438 -0.010077 -0.024696 -0.07002 -0.025778 0.080585 -0.021921 0.059594 -0.05962 -0.011968 0.044023 0.065074 -0.090854 0.021407 -0.11261 0.050577 0.060763 -0.021429 -0.18985 0.027252 0.081121 -0.0019517 -0.020356 -0.11889 -0.012618 0.062542 0.016557 -0.0318 -0.14042 0.0061434 0.00056749 -0.07736 0.0091469 0.044975 0.014546 -0.0075187 
baars -0.010319 -0.019496 -0.033755 0.028066 -0.044864 -0.056868 0.0096095 0.068766 -0.074049 -0.067948 -0.036081 0.019491 -0.023634 -0.03003 -0.03184 -0.1706 0.013039 0.014933 -0.04634 0.0090452 -0.020404 -0.040581 -0.030543 -0.024486 0.027713 0.010757 -0.0086837 -0.026729 -0.01008 0.035747 0.070931 -0.030771 -0.052528 -0.0080528 0.080534 0.054823 -0.038226 0.057659 0.007966 -0.019279 -0.049919 -0.0083414 0.047463 0.022338 -0.034642 0.032733 -0.023184 -0.073217 0.031225 0.0049356 0.016996 0.0085634 0.0024648 -0.027921 -0.00021658 -0.059649 -0.021505 -0.02908 -0.063597 0.00065494 -0.065156 -0.0096354 0.044509 0.046562 -0.013089 -0.013042 -0.0099688 0.015466 0.014112 0.043352 0.050831 0.0037919 0.010957 0.01207 0.041044 -0.052069 -0.077288 0.051319 -0.050428 -0.05252 -0.022889 0.00026975 -0.094819 0.054366 -0.049932 0.017767 -0.063308 -0.076991 0.030562 0.063968 0.036149 0.0096877 -0.075616 0.065006 0.057066 0.016823 0.019793 -0.062793 0.052813 -0.052796 0.055042 -0.059761 -0.063434 0.027993 0.041183 0.032581 0.028105 -0.051045 -0.029539 -0.02558 0.038972 0.01013 0.00052831 0.046387 -0.066077 -0.052039 -0.078542 -0.055853 -0.05989 0.0047224 -0.008857 -0.017435 -0.03282 0.039661 0.058598 0.089284 0.020354 0.085117 0.011042 -0.023583 0.017905 -0.017515 0.038426 0.090798 0.077637 -0.024248 0.026734 -0.053287 0.036876 0.056655 0.0095217 -0.02261 0.018156 0.007861 -0.054396 0.043107 -0.046261 0.021092 0.015456 -0.0097224 -0.032978 -0.067293 -0.11679 0.0054571 0.034933 0.019618 0.045273 -0.048538 -0.019641 0.045349 -0.076888 -0.14081 -0.056055 -0.0056418 0.032999 -0.047044 -0.043393 -0.071607 0.045027 -0.017682 0.0022506 0.022595 0.0013176 -0.047864 -0.059703 0.017074 0.0021181 -0.025827 0.04622 -0.018686 0.011762 0.00024283 -0.047517 -0.066304 -0.0013817 -0.01482 -0.006165 -0.005261 -0.055531 0.064436 0.042635 -0.043402 0.00015431 0.032303 0.0070323 -0.020233 -0.032772 0.070434 -0.0016531 0.026948 -0.046999 0.014404 -0.06057 0.010852 -0.034124 -0.010016 0.095534 -0.032108 0.06105 -0.030533 -0.016252 -0.01532 0.021425 -0.0056215 -0.036418 -0.017059 -0.0045561 0.052574 -0.013064 -0.054648 0.13181 0.0086182 -0.017777 -0.024245 0.051889 0.017241 -0.0093863 -0.029409 0.009478 0.15807 -0.001632 -0.010182 -0.086599 0.034061 0.0045763 -0.011491 -0.033994 0.080122 -0.0019446 0.010102 -0.026355 -0.024111 -0.028385 -0.11883 0.018132 0.001363 -0.024641 0.0097249 0.00036093 -0.0066436 0.047428 -0.022361 -0.0052189 -0.032727 -0.079054 0.057426 -0.041797 0.034602 -0.06147 0.046431 -0.003558 -0.080972 -0.16515 -0.00082275 -0.078972 -0.011652 -0.031598 -0.029551 0.070049 0.057589 -0.11531 0.018799 -0.18896 -0.078808 0.089504 -0.019761 -0.040203 0.11218 -0.069988 0.086525 -0.030048 -0.029157 -0.025233 0.023867 -0.068223 0.068623 0.027463 -0.05863 -0.035577 0.047823 -0.06243 -0.023276 -0.013412 0.02887 0.010844 -0.049448 0.01915 -0.0039943 -0.0028043 -0.0031728 
perche 0.011571 -0.023884 -0.12089 0.086207 0.031816 0.025897 -0.10289 -0.036755 -0.048035 -0.0048829 -0.059019 0.060449 0.093705 -0.0071453 0.067942 0.0058214 -0.061704 0.042932 0.0016835 0.0063876 0.064796 0.072714 0.083781 -0.075057 0.015678 -0.044522 0.062414 -0.077472 0.029419 0.1694 -0.13148 0.059022 0.1043 0.032245 -0.08603 0.0155 0.02135 0.016378 0.016012 -0.013694 0.06161 -0.053941 0.00755 -0.022535 -0.035844 0.0024183 -0.093112 -0.072924 0.036057 0.1013 0.037593 -0.094964 -0.02861 -0.049614 0.074444 -0.018455 -0.015583 -0.038795 0.027874 0.081116 0.10569 0.012761 0.12158 0.0073586 -0.020458 0.0642 -0.10371 -0.030848 -0.05899 -0.040374 0.088699 -0.023905 -0.054549 -0.056522 -0.055327 -0.0050682 0.0084962 0.030548 -0.038233 0.024605 -0.016619 0.077399 0.020561 -0.031936 -0.040578 -0.17255 -0.041447 0.066974 -0.015364 -0.087042 0.01309 -0.055287 -0.0023494 -0.0053381 -0.027186 0.01901 -0.032658 -0.03871 0.042234 -0.034383 -0.017636 0.065436 0.0079747 0.014473 0.049632 0.18021 -0.047412 0.068036 0.017278 -0.0085224 -0.03828 0.036871 -0.16004 0.0078485 -0.011138 -0.042373 -0.0091686 0.067129 -0.059702 -0.036706 0.002358 0.14062 0.025276 0.0086556 -0.077151 -0.064854 0.0017243 0.0042963 -0.073899 -0.08694 0.021625 -0.039476 -0.031413 0.026944 -0.011548 -0.029792 -0.048929 0.018154 0.039227 0.094097 0.042299 -0.049743 0.018224 0.038373 -0.08974 0.072368 -0.12456 -0.023459 0.021685 0.073798 -0.0033343 -0.013766 0.053227 -0.046658 0.0066857 -0.057684 0.014702 -0.073381 -0.062415 -0.00063 -0.022065 0.050958 -0.020799 -0.031402 -0.08062 -0.032076 -0.014203 0.016508 -0.097589 -0.02555 0.049904 -0.013403 -0.038021 0.033348 0.078245 -0.051497 -0.050406 -0.0069497 0.062294 0.030106 0.027268 -0.068896 -0.086908 -0.087886 0.057554 0.0044816 0.06443 -0.012346 0.007526 -0.052162 0.077508 -0.093399 0.033834 0.0018777 -0.12429 -0.030203 -0.0014397 -0.00044541 0.068245 -0.015394 -0.025786 -0.015002 0.066986 0.0441 0.025242 -0.10928 0.051435 0.0088531 0.10655 0.016254 0.0041236 0.073563 0.038722 0.1037 -0.077699 -0.050722 0.0090411 0.019472 -0.028714 0.00056894 -0.02449 -0.044654 0.010686 -0.017082 -0.16768 0.019274 0.06316 -0.031839 0.026191 0.028398 -0.035179 0.0504 0.080326 0.086615 0.024352 0.055638 0.083087 -0.013659 -0.10967 -0.031162 -0.0068029 0.069178 0.031821 -0.10073 0.1089 0.11372 0.014946 0.062921 -0.10721 0.057977 -0.071383 0.0093308 0.01084 0.059667 0.07945 0.033115 -0.062011 -0.055305 0.0089464 -0.028208 0.019694 -0.03474 -0.0030384 -0.047504 0.13161 0.046992 0.050224 -0.04372 -0.03045 0.088665 -0.015049 -0.051988 -0.063637 -0.075289 -0.048052 0.074348 0.0021694 0.090714 0.041401 -0.086604 0.016061 0.031407 -0.038646 0.047643 -0.0045387 0.071053 -0.04641 -0.036717 0.058787 -0.0061417 0.076111 -0.035399 -0.016407 0.020545 0.00091211 -0.102 0.072423 0.041165 -0.030226 -0.046437 
Barsch 0.017686 0.12405 0.00083831 -0.008351 0.0067673 0.065782 0.043258 0.015677 -0.035045 -0.0826 -0.05151 -0.026177 0.028721 -0.036547 0.039595 0.012023 -0.031048 0.076178 -0.025119 0.014963 0.046701 -0.20564 0.043735 0.039861 0.078233 -0.0026458 -0.0053642 -0.13202 0.03823 0.095482 -0.012752 0.069412 -0.035655 -0.012344 -0.1469 -0.0093354 0.010389 0.059897 -0.05052 0.012727 -0.11204 -0.016261 -0.10328 0.084056 0.10342 0.01031 -0.0039439 -0.011356 -0.024087 0.01087 -0.032226 0.087838 -0.0025928 -0.079149 0.083286 -0.020507 -0.08576 -0.061581 0.17566 -0.056202 0.036904 -0.03338 0.044201 0.027483 -0.0058197 0.030156 -0.035186 -0.07112 -0.0014504 0.10283 0.04565 0.10735 -0.0012976 0.018189 -0.013611 0.083371 0.15297 -0.064793 -0.1073 0.030695 0.0028937 -0.0033126 0.089577 -0.011261 -0.086406 0.083622 0.084999 0.034701 -0.010289 -0.024242 -0.023558 -0.03896 -0.062162 -0.027354 0.029433 -0.010554 -0.020923 0.082633 0.024191 -0.02029 0.012374 -0.081937 0.069582 0.10173 -0.066256 0.023315 0.00074104 0.14865 0.013609 -0.010346 0.0017376 -0.009158 -0.0011346 0.011368 -0.044341 0.02681 0.012084 -0.024114 -0.034601 0.056326 -0.0070302 0.0093323 -0.014248 0.069726 0.067184 -0.099133 0.010428 0.031077 -0.018875 -0.095239 0.027738 -0.081832 -0.048544 -0.015656 -0.040978 0.062123 -0.087949 -0.036564 -0.017216 0.036866 0.040779 0.066491 0.028596 0.011234 -0.0020692 -0.087566 -0.16522 0.086475 0.085509 -0.010623 -0.097587 -0.018433 -0.094398 0.0079458 -0.0022663 -0.032014 -0.10714 0.025169 0.0062461 0.023092 -0.061755 -0.0039975 0.026294 -0.020103 0.0086385 0.023162 0.033157 -0.070627 0.02423 -0.051223 -0.080821 -0.1657 0.036017 0.025298 0.018674 -0.016071 -0.038477 0.036587 0.04853 0.014999 0.050224 0.12006 0.031835 -0.10665 -0.10822 0.012193 -0.027758 0.13601 0.080848 -0.019957 -0.024563 0.092388 -0.053492 0.099894 -0.02476 0.033179 -0.043037 0.093719 0.090565 -0.029442 0.017247 -0.051928 0.089483 0.0083415 0.0067006 -0.00029764 0.1315 -0.030864 -0.0092973 0.039092 -0.0088825 -0.1001 0.027234 0.074398 -0.049285 0.04206 -0.014103 -0.080175 -0.065144 -0.041827 0.0027362 -0.044706 -0.046078 0.0041717 -0.096458 -0.021741 0.037746 0.034259 -0.039711 0.036856 0.035865 -0.032357 -0.03091 0.033587 -0.023049 0.085127 -0.093533 -0.020624 -0.022911 0.057295 0.044055 -0.035432 -0.062275 -0.00069683 0.13647 -0.023583 -0.017897 0.01152 -0.012111 0.033262 -0.051824 -0.015942 -0.062244 -0.0028469 0.032829 0.036392 -0.017098 -0.07326 -0.0060366 0.0023378 0.10299 -0.066759 -0.022454 -0.057485 -0.0025902 -0.0014237 -0.062643 0.061123 -0.016864 0.0031343 -0.043548 0.063282 -0.0027239 -0.041561 0.0475 -0.0077026 0.03242 -0.025746 0.02635 -0.066344 -0.066956 0.069399 -0.054053 0.076308 0.078461 0.0068768 -0.09436 0.17188 0.10219 -0.011409 0.021283 -0.037238 0.02488 -0.050245 0.066779 -0.047054 -0.054455 0.076772 0.054746 0.096269 
Flussbarsch 0.002325 -0.0067239 0.021274 0.055522 -0.037912 0.0071048 -0.022701 -0.023027 0.0016482 -0.064866 0.045627 0.0039203 0.034345 -0.014926 0.0057726 -0.11815 0.053055 0.034535 0.025833 0.04933 -0.04403 0.0179 0.0031377 -0.0083634 0.077673 0.02468 -0.023859 -0.02666 0.019586 -0.033971 -0.00055753 0.04956 -0.042642 -0.00010126 -0.020768 -0.025284 0.036082 0.060557 -0.045954 0.0097482 -0.040303 -0.0087313 -0.052532 0.0032668 0.016651 0.029178 0.036649 0.065328 -0.0049195 -0.0052869 0.021769 -0.038098 -0.0040407 -0.040971 0.044649 0.019172 0.01859 0.035309 -0.011602 0.01542 0.024509 0.031848 -0.020292 0.052588 0.023996 0.011237 -0.020923 0.023464 -0.028157 0.051086 0.070235 -0.058759 -0.0070338 0.0069491 -0.073071 0.019239 0.030731 -0.013762 -0.081834 0.026969 0.017719 0.027996 -0.0010801 0.015404 -0.0079957 0.0056163 0.018792 -0.041118 0.018155 -0.05613 -0.019539 0.0036643 -0.04105 0.03344 0.050199 0.10949 0.039684 -0.064017 0.011626 -0.0055834 -0.0082479 0.027914 -0.0093551 0.012169 0.0021022 0.02072 0.020519 -0.025766 -0.013152 0.011454 -0.013496 -0.016221 0.00044691 -0.061675 0.01598 0.0063826 -0.061823 -0.02616 -0.026306 0.015312 -0.023235 -0.00045557 0.0080302 -0.025893 -0.011543 0.013453 -0.03261 0.027467 0.014683 0.0037584 -8.9058e-05 0.0057436 0.014831 0.026947 -0.012375 0.015857 0.032129 -0.033763 0.032397 0.015178 0.070932 -0.024027 -0.01123 -0.040219 0.05475 -0.011369 -0.062735 -0.018161 0.017876 0.014575 -0.054662 -0.0077161 0.010435 -0.028707 0.0058516 -0.048009 0.073591 0.02676 -0.052166 0.006097 -0.037592 0.019391 -0.046149 0.0063595 -0.0085373 -0.011524 -0.0044204 -0.010969 0.03062 -0.030485 -0.034922 0.015127 -0.043624 -0.0099586 0.01108 -0.008663 -0.023042 -0.0059481 -0.015577 0.018212 0.014594 0.074425 -0.014589 -0.055342 -0.0017093 -0.012009 -0.019294 0.015525 0.0073729 -0.047006 -0.036919 -0.032455 -0.040692 0.021352 0.0016902 0.010077 -0.018651 0.05607 0.037289 0.032041 -0.039319 -0.026226 0.016038 -0.019496 -0.065128 -0.026961 0.10823 0.0024782 -0.03228 0.034232 0.027935 -0.052558 0.07185 -0.0078785 -0.0027577 -0.020888 -0.031832 -0.01031 -0.026945 -0.020611 -0.00052562 0.026247 0.030605 0.10371 0.05202 -0.014736 -0.013355 0.025329 0.00098552 -0.021768 -0.0026111 -0.0086721 -0.042212 0.013484 0.048364 -0.02338 0.022161 -0.0068091 -0.039885 0.013575 0.01091 -0.10114 -0.015917 -0.068396 0.0076791 -0.009899 0.0017477 -0.021092 0.032276 0.00044678 0.063327 -0.055179 -0.013504 0.04767 0.043584 -0.02965 0.027679 0.043179 0.023291 0.020678 0.054622 -0.12687 -0.095977 -0.051556 -0.068202 -0.032748 -0.0072563 -0.020006 -0.0052225 0.022277 -0.0068336 0.029829 -0.067009 0.025344 0.021207 0.0022606 -0.072097 -0.047569 -0.056776 0.068495 -0.015733 0.0018409 0.0084105 0.023704 0.010697 -0.010228 0.025326 -0.074855 0.019892 0.050521 0.0032727 -0.036763 -0.043708 0.025048 0.052741 0.00092432 0.011413 -0.00094571 0.0043046 0.019648 
pérca 0.014171 -0.03204 -0.064894 0.063298 -0.0038603 0.02448 0.0079169 0.0069214 -0.023351 0.0018375 0.040578 -0.025147 -0.0021801 0.0199 0.0043765 -0.099892 -0.069667 -0.042915 -0.11633 0.048682 -0.038442 -0.03887 -0.011354 0.0016023 -0.052556 -0.030235 0.019422 0.014628 0.01572 0.060897 -0.019031 -0.040934 0.03984 -0.0011752 -0.00083173 0.043078 0.01578 -0.0019025 -0.040582 0.018676 0.011362 -0.048674 -0.0085525 -0.012021 -0.036951 -0.038666 -0.0069842 -0.011952 -0.016007 -0.0096463 0.015887 0.0077973 0.025526 0.021316 -0.046921 -0.026947 0.0022215 0.005964 -0.029467 0.020447 0.049399 0.010028 -0.069836 0.013482 0.042974 -0.0017329 0.012463 0.021057 -0.020258 0.0037606 0.03701 0.028518 0.039333 0.0061419 -0.0096429 -0.043471 -0.019853 0.0086637 -0.032482 0.037894 -0.02981 0.046613 -0.033497 -0.012414 0.038503 -0.074273 -0.023619 -0.0065581 0.01432 0.002778 0.0094983 0.029831 -0.012288 0.046782 0.058131 -0.023487 -0.028215 -0.012593 0.024378 -0.035698 -0.043283 0.062244 0.012729 0.0074203 0.032416 0.018293 -0.0015453 0.079537 -0.021833 0.020708 -0.033929 0.036865 -0.0043837 0.013498 -0.010284 0.021564 0.046919 0.021074 0.057264 0.046118 -0.020022 -0.068574 -0.013006 -0.013564 0.0011364 0.016232 0.061092 -0.0075757 -0.025528 0.040773 0.061446 0.0069638 0.015672 -0.046684 0.060217 -0.01526 0.0086187 0.036036 0.0011658 0.032227 0.0024904 0.0083582 -0.037784 0.027636 -0.054014 -0.016878 -0.02827 -0.002319 0.0010702 0.0024193 0.010365 0.040594 0.0039813 -0.035002 -0.032294 0.026928 -0.095656 -0.040045 -0.0017302 0.042541 0.001264 0.036068 0.011801 -0.029305 -0.010977 -0.021043 -0.011586 -0.029673 0.033342 0.054123 0.043002 0.016852 -0.0059308 0.0521 0.01352 -0.001068 0.028737 -0.00052002 0.012258 0.023853 -0.073444 0.024656 0.032732 -0.0012318 0.055774 0.0029125 -0.040144 -0.035516 0.00035292 -0.0017563 -0.0064 -0.04457 -0.029484 -0.018173 -0.017362 -0.035013 -0.013297 0.047662 0.019478 0.02109 0.017465 0.025435 -0.028325 -0.039465 -0.011166 0.024139 -0.051834 0.034874 0.033206 -0.027875 -0.043666 0.026003 -0.033549 0.041095 -0.023734 0.0069018 -0.059701 0.041528 0.0061036 -0.024027 -0.012865 0.0030173 0.053775 0.0099581 0.0040424 -0.025614 -0.045833 -0.00018611 0.012483 -0.016074 0.0098822 -0.00039723 0.00068107 -0.013279 0.035273 0.073384 0.013754 -0.0077876 -0.03668 0.031323 0.048641 0.010286 0.0026752 0.0038029 0.046532 -0.044696 0.04771 -0.018313 0.020772 0.04347 -0.003606 -0.017316 0.02209 0.046472 0.0043759 0.0096234 -0.014542 0.019738 0.013335 -0.020646 0.10713 -0.018827 -0.046279 0.017445 0.003536 0.018251 0.018843 0.039174 0.011822 0.0028962 -0.047316 -0.035571 -0.032748 -0.024407 -0.032769 0.012593 -0.0032755 -0.0098156 0.028403 -0.12894 -0.032871 -0.047864 0.0055139 -0.062433 -0.008917 0.035407 -0.037712 -0.01175 0.016899 0.0566 -0.015271 0.020365 -0.013506 -0.047706 -0.040554 0.041581 -0.035366 0.070539 0.031174 -0.010016 
chaní -0.057769 0.054221 -0.078344 0.016614 -0.012583 -0.064586 -0.07344 0.047055 -0.043461 -0.050407 0.10373 -0.0062768 0.014462 -0.039058 0.032609 0.086984 -0.005721 -0.025414 0.041091 -0.0033158 -0.051918 -0.00089624 0.031636 0.0065761 0.090194 0.012184 -0.037528 -0.069032 0.0025215 -0.044301 -0.14152 -0.038475 -0.0039099 -0.11383 0.10136 -0.005239 -0.12996 0.15439 0.0089503 0.0032441 0.037392 -0.0031407 -0.044772 0.097949 -0.057776 0.032029 0.035824 -0.030078 -0.030882 0.004556 -0.0084888 0.029689 0.090777 0.025496 0.072543 0.025138 0.02305 0.00036504 -0.19726 -0.046731 0.064734 0.053044 -0.026428 -0.068202 -0.066858 -0.0091858 -0.046434 0.018792 -0.034674 -0.00064435 -0.095397 -0.027795 0.093222 0.0073317 0.034929 -0.0090014 -0.012487 0.12966 0.1646 -0.10828 -0.033292 0.029787 0.016241 0.11675 -0.017262 0.17267 -0.023107 0.0013199 0.054217 0.01554 -0.053722 -0.01899 -0.13529 -0.018194 0.064749 -0.1546 0.16307 0.0067143 0.028135 -0.021187 -0.0038221 0.011043 -0.022986 -0.013965 -0.008731 0.077824 0.090261 -0.045513 -1.8856e-05 -0.059213 -0.024449 0.021888 0.033051 0.10924 0.081867 -0.074847 0.0018721 -0.070568 -0.019905 -0.095663 0.055842 -0.020508 0.069051 -0.077832 0.048492 0.088753 -0.032753 -0.083283 0.058377 -0.10207 0.018894 0.036384 0.021882 -0.12493 0.10433 -0.010308 0.063866 -0.050842 0.014929 -0.025094 0.091424 0.027976 0.062095 -0.021846 -0.12741 0.023411 0.013816 0.047382 -0.04351 -0.065549 0.12152 0.0034807 0.035359 0.012979 0.048838 -0.068903 -0.084279 -0.07294 -0.0096943 0.0059252 -0.06205 0.022166 -0.013611 -0.079476 0.052565 0.12015 0.034013 0.026395 -0.028304 0.093975 0.058343 0.061641 -0.053251 -0.023723 -0.036796 0.11091 -0.0094462 -0.013332 -0.0070147 -0.022232 0.059599 0.054479 0.0087936 -0.10008 -0.0021922 -0.062878 0.025482 -0.044258 0.022014 0.054055 0.13486 -0.036735 -0.029416 0.11494 -0.029332 -0.009416 0.042598 -0.0015864 0.056572 0.013924 -0.12217 0.077523 0.041431 -0.0043859 -0.057933 0.05342 -0.014473 -0.0701 -0.015849 -0.022182 -0.058806 -0.013748 0.16994 -0.010448 -0.10825 -0.029078 -0.024517 -0.032093 0.022527 -0.092455 -0.013083 0.028666 0.0040455 0.20537 0.049208 -0.030081 -0.038084 -0.034176 0.11392 -0.018523 -0.026511 -0.04382 0.0083738 0.046679 0.096763 0.049219 0.040255 0.035911 0.1059 0.12627 -0.015664 0.01344 0.0076712 -0.093907 0.03778 0.026531 -0.053872 0.046235 -0.050237 -0.060879 0.095574 -0.075205 0.049623 -0.0038647 -0.11725 0.014016 0.037486 0.041424 0.026123 0.053241 -0.045884 0.011638 -0.085201 -0.07871 0.035385 0.023397 0.025575 -0.0049641 -0.065016 -0.0062699 0.054033 0.01507 0.083314 -0.0082689 -0.042282 0.043459 -0.071995 0.11549 -0.025934 -0.049166 0.050684 0.00045302 -0.10031 0.022504 -0.0096294 -0.030528 0.069701 3.5559e-05 -0.062257 0.052777 0.15207 0.093335 -0.12082 -0.051119 0.094999 -0.06276 0.0086228 -0.016867 -0.050556 -0.011494 
pesce -0.086183 -0.16928 -0.10557 0.029803 0.12756 0.10844 -0.014276 0.033331 -0.062743 0.033537 -0.054804 0.023153 0.23965 -0.025154 0.2084 -0.043695 -0.070146 0.07771 0.039569 0.091877 0.11948 0.11816 0.11783 0.052832 0.10631 -0.0097855 -0.033035 -0.12786 0.019456 0.44201 -0.056161 0.20272 -0.044014 0.057777 -0.17021 0.05144 0.037849 0.11109 0.038318 -0.15595 0.026963 0.012716 0.019821 0.027765 -0.03247 0.00015862 0.018206 0.02789 0.039506 0.15109 -0.025987 0.0092485 0.019549 -0.008129 0.08883 -0.054284 0.08504 0.049182 0.017061 0.04857 0.16557 -0.0018553 -0.0016023 0.02461 -0.30131 0.07071 -0.03385 0.009627 -0.080139 -0.18679 0.10015 0.066909 -0.027198 -0.055952 -0.20659 0.08586 -0.035522 -0.021194 -0.0057432 -0.014207 -0.011362 -0.0061988 0.12349 -0.033478 0.083469 -0.16622 0.14776 0.030289 -0.11636 -0.1177 -0.090473 0.011108 0.015679 -0.10765 0.014915 -0.05797 0.027768 -0.0095134 -0.020269 -0.04157 0.031263 -0.059013 0.14051 0.20295 0.073809 0.19545 0.026827 0.11968 0.082276 -0.12995 -0.010813 0.117 -0.091922 0.050122 0.014399 -0.045579 -0.14515 0.10938 -0.087353 0.11919 -0.0023565 0.14276 -0.0089869 0.11494 -0.037796 -0.12744 -0.089257 -0.04178 -0.0039243 -0.0077794 0.14223 -0.10731 -0.10469 -0.061103 0.024211 -0.011946 0.015688 0.035669 0.041283 0.075766 0.10613 0.00094523 -0.076332 0.063357 0.010641 -0.022198 -0.17453 0.0054844 -0.063758 0.20903 -0.035528 0.11455 0.056595 -0.1149 -0.1065 -0.066768 -0.023677 -0.098502 -0.11978 0.039138 -0.096228 -0.0035042 0.106 -0.14611 -0.021248 -0.001182 0.026181 -0.030539 -0.013362 0.056233 0.15225 -0.015612 0.018781 -0.029862 0.08239 -0.025421 0.069735 -0.11975 0.030532 -0.12948 0.021739 -0.032712 -0.051786 -0.16913 0.10647 0.0054999 0.093609 0.050044 -0.0034295 -0.036148 -0.12199 -0.11544 0.0025964 0.07491 -0.22209 -0.081203 -0.02465 0.073698 0.12431 -0.0029771 -0.00383 -0.034641 0.17075 0.11807 0.036343 -0.14279 0.068826 0.0014741 0.018986 -0.14592 -0.1334 0.084775 0.10247 -0.013243 -0.097935 -0.043603 0.051059 0.06443 0.018652 -0.011277 -0.094184 -0.098682 0.0043043 0.044181 -0.24464 0.041367 0.032389 0.074828 0.02484 0.044155 0.044352 0.11422 0.093512 0.15155 0.10882 0.020956 -0.019147 -0.10517 -0.063777 -0.096866 0.062661 0.028975 0.098847 -0.055776 0.19512 -0.054713 -0.13174 0.076075 -0.14565 0.10911 0.081619 0.11465 -0.091177 -0.017314 -0.03021 -0.046589 -0.019977 -0.078094 0.0075274 -0.04802 -0.071425 -0.071754 0.055407 -0.14528 0.056252 0.073815 -0.036064 -0.055708 -0.1046 0.048927 -0.019157 -0.038914 0.028011 0.0082448 0.040033 0.053574 0.01091 0.14818 0.026085 -0.05417 -0.01687 0.0025479 -0.00010483 0.13865 0.065892 0.027344 -0.10934 0.040959 -0.0085569 0.068813 -0.10954 -0.088909 -0.20131 0.073686 -0.06036 -0.020709 0.0083017 0.12251 -0.15408 -0.10475 
